2142 128
324 1.0619661 -1.18201 -1.145762 -0.6699358 1.3687843 0.20673257 -2.527194 -0.8316805 1.6648107 -1.5826839 -0.10602726 2.2770777 -0.727716 0.6208653 3.2174392 0.20052733 1.262496 0.80998665 0.2312681 1.2963797 -0.15337287 2.922409 0.9774553 0.019815514 0.64189035 1.8852338 1.0909239 1.5303582 1.612903 0.75775176 -0.7875007 -1.0668857 -1.7208099 0.9361751 0.6647723 0.8429999 -0.15605815 -0.48202053 -0.4903755 -1.3660176 -0.42118588 0.7699581 -1.8622993 -0.7372919 -1.3808448 1.203743 1.3288703 -0.8370987 0.1141412 1.417569 0.6224644 0.19682613 -3.2864606 -0.28130475 0.10651712 0.72197205 -0.58987254 0.43505245 -0.31705564 0.11399007 2.3609245 -1.803799 2.0304058 2.6553087 0.2487757 2.4699907 -1.3629521 0.5902 1.097858 0.09724883 2.0359151 -0.5943083 1.2647443 0.525784 -0.10819605 -0.57464844 -2.2808464 0.50623494 0.846909 -1.5031782 0.3658792 1.7953354 -0.5423938 -1.5962037 -2.275633 1.4384452 1.4257736 -0.6306694 -0.51456577 1.9164779 0.60993487 1.214261 -1.6556557 -1.2635901 0.45905495 -1.4941074 -1.0557897 0.6129341 0.8706956 -1.4224249 -1.4921224 -0.92036456 -0.080308124 -1.6545975 -1.0726126 -0.094118915 -0.21583992 1.7335098 -1.3411616 0.31523666 0.06578354 2.2387714 0.263647 0.50352657 -0.2956708 -2.14217 0.3106981 2.1520994 0.3732213 0.9251362 0.37362957 -0.16785486 0.29545075 -0.34448585 -2.6045809 1.2973214 0.49699214 -0.98106545
325 1.0171932 -1.1983894 -1.1267743 -0.6646935 1.2940253 0.21886559 -2.4422858 -0.8172423 1.6237123 -1.5530872 -0.06697312 2.1965504 -0.74375844 0.57410526 3.1612346 0.18897778 1.2390819 0.78194183 0.20902638 1.2736356 -0.12073469 2.808298 0.9393951 0.015327016 0.610184 1.8684024 1.0531478 1.4712445 1.5986211 0.7410204 -0.7301433 -1.0610862 -1.7135986 0.92002183 0.6308203 0.80479527 -0.13620247 -0.4657758 -0.45928666 -1.3513553 -0.39023766 0.7405855 -1.7977073 -0.7068884 -1.3281786 1.1811742 1.2940544 -0.8555442 0.110302866 1.4007834 0.59560996 0.19508637 -3.1885707 -0.2597987 0.101601325 0.6877477 -0.57607186 0.38320002 -0.3491772 0.14183505 2.3167505 -1.7486455 1.986587 2.5975847 0.2870663 2.4118712 -1.281785 0.53237206 1.08908 0.11929349 2.0019493 -0.55274665 1.2284942 0.5153798 -0.093430154 -0.5627665 -2.2174063 0.48631763 0.8010722 -1.4572936 0.3528685 1.6991243 -0.5109216 -1.576885 -2.2009063 1.4175099 1.4141968 -0.6138416 -0.4994939 1.8574764 0.63281 1.1892877 -1.5929667 -1.236779 0.41141206 -1.4768531 -1.0142953 0.63910043 0.8513944 -1.4035132 -1.4616375 -0.9103897 -0.10461128 -1.6391274 -1.024858 -0.06532853 -0.20075703 1.7105936 -1.3167298 0.30684003 0.080933824 2.2194953 0.2691161 0.4789004 -0.30784392 -2.0830584 0.32908794 2.0926337 0.3739137 0.9068259 0.39271352 -0.15255503 0.28885403 -0.35118663 -2.5374458 1.2701594 0.45989212 -0.9736586
1013 -0.09557382 -0.78353786 -0.56104475 -1.2928146 1.2520689 -0.6357553 -1.690721 -2.9185152 1.4404134 0.40232438 -0.60179365 1.55044 -0.46105096 1.549207 1.0497164 0.66733706 2.6960144 -1.7051506 -0.72198576 1.3668056 -0.82749474 1.0281727 -0.7835146 0.6156047 -0.59010226 0.8786352 0.4340765 -0.32280576 0.49336275 1.0816699 0.54811597 0.33858708 1.8016615 1.0378646 1.0079807 -1.0102133 0.55002934 0.03652032 -0.37359363 0.92938346 -1.5882486 -0.9953479 -1.3915756 0.35366344 -1.9170021 -0.32095274 0.08812569 -1.5453792 -0.63674843 -0.078780964 0.8590231 1.5005648 -0.4739803 -2.6249855 0.7245324 0.32988796 1.4793276 -0.76847625 0.38074863 -0.21791859 1.3356454 -0.17874868 0.37645954 -0.38225526 0.030305134 0.4597241 -1.2141273 -0.7739723 0.12220968 -0.64551115 0.8604504 0.4639833 1.2738993 -1.0388771 0.86499 -1.3723509 -0.50928426 0.1824352 0.83189654 0.2808499 -1.2031702 0.4545939 -1.1363684 -0.19755782 -0.5737015 -0.60488826 0.39446202 -0.40728033 -1.0826457 -0.624666 -0.1500249 2.0753593 -1.3015187 -1.6088377 1.923018 0.2454068 -0.95486766 -0.13230956 2.2005312 -1.2368516 0.77510846 1.1898718 1.1731185 -1.1674644 -0.033859428 0.572554 -2.1677723 -0.51877964 0.064954035 -0.46881524 -0.11424045 -1.1133056 1.0210233 0.7680769 0.67198294 -0.22769935 -1.9251134 0.3626198 -0.24079348 -1.3474351 2.402328 -0.04586761 -1.4580163 1.4781084 0.025467219 -1.8321705 -1.8565139 -0.06336384
4 -0.037001885 -0.7486743 -0.5352386 -1.2672514 1.2290932 -0.633979 -1.6717354 -2.8344688 1.4293103 0.3824025 -0.6028693 1.5508903 -0.4325998 1.537252 1.0383258 0.64728856 2.6386123 -1.6361035 -0.6722309 1.3498088 -0.8114739 1.069192 -0.77041745 0.5903774 -0.56902903 0.88466734 0.47013372 -0.2677593 0.47832534 1.0609 0.4887496 0.29730797 1.7327644 1.0277798 0.9901457 -0.93961364 0.52293897 0.044047013 -0.37849575 0.89857936 -1.5667131 -0.9619043 -1.3832182 0.33079135 -1.8782829 -0.27101377 0.102296084 -1.4917172 -0.63182116 -0.06604932 0.836344 1.4516317 -0.5316072 -2.573211 0.7183413 0.3476634 1.4573067 -0.726095 0.3986084 -0.21858487 1.3436528 -0.19802523 0.38195333 -0.35747847 0.021314297 0.48332983 -1.2477434 -0.7125186 0.1431643 -0.63500553 0.88438153 0.42652512 1.2613425 -0.99325776 0.81146413 -1.3493707 -0.5367511 0.1898394 0.80670464 0.26801607 -1.2024059 0.49186373 -1.1165746 -0.20584658 -0.59433 -0.5985443 0.38930818 -0.38336492 -1.0742896 -0.5831282 -0.14285313 2.0377789 -1.3114038 -1.5947355 1.9065094 0.22861223 -0.92215234 -0.12366254 2.1678874 -1.226121 0.72969854 1.1258649 1.1596404 -1.1486632 -0.028829407 0.51957023 -2.119976 -0.4868943 0.033306144 -0.4597105 -0.08393471 -1.0723614 0.9779597 0.74037796 0.64402574 -0.2280293 -1.8842745 0.38800654 -0.20569749 -1.3094641 2.3223164 -0.07723746 -1.4344392 1.4630808 -0.011287932 -1.7515258 -1.8092237 -0.069464944
1257 0.007828821 -2.1809962 -0.8482704 -1.0843184 0.06136263 0.3473293 -0.63386655 -1.9621266 1.6586396 -0.41532886 0.036514793 1.0133653 -1.0887314 0.40105066 2.1202946 0.4301913 2.1556506 -0.64064604 0.15481165 1.5773153 0.29059744 0.68074757 -0.71864563 0.8276722 -0.6677674 2.4423153 0.45996213 0.7535689 1.2176319 1.742655 0.37192297 -1.2790748 -0.8309287 1.4848447 0.12771027 -0.48114356 -0.09048176 0.106050715 0.11955716 -0.71822095 -0.15845342 -0.57796246 -0.87241495 0.35542235 -0.50092465 1.0057167 1.1617262 -2.1119068 -0.17969957 1.575171 -0.2479241 1.1134427 -1.2796454 -0.8406408 0.6581664 0.42283875 1.005382 -1.1060108 -0.826862 0.82673115 2.4640129 -0.4369481 1.1354632 0.8640077 1.0504254 1.0976238 -0.94875 -0.48450744 1.1023095 0.1877109 2.1906874 0.89948064 0.670419 -0.585773 -0.10577507 -0.8250502 -1.163625 -0.17110363 -0.3459909 0.27167246 -0.83146966 -0.8961477 -0.3680041 -1.1775479 -0.3651126 0.8200873 1.2580829 0.11181385 -0.5827556 0.18365543 1.1324207 1.7701454 -0.47339427 -1.246864 -0.70238996 -1.326877 -0.3852329 2.0177402 1.9907047 -1.4117881 -0.33907083 -0.7239676 0.33741108 -2.1581695 0.9263411 0.74095 -0.5384076 0.6426767 -1.3183758 -0.3606104 0.16083187 1.3361031 0.6150011 0.6974267 0.054086033 -0.8148749 -0.37001073 1.2993834 0.5348491 0.1262721 2.281971 -0.0115716215 -0.9721826 0.60739344 -1.3280128 -0.08622983 -1.4301423 -0.6197528
1258 0.033127494 -2.2723002 -0.88548946 -1.1215231 0.028876407 0.39188164 -0.61563474 -1.9374319 1.7079779 -0.4446002 0.057646073 1.0864731 -1.1129142 0.3707437 2.2103333 0.42264694 2.176872 -0.5846251 0.19525224 1.6325881 0.313492 0.70379287 -0.7081172 0.8316179 -0.67146194 2.5376282 0.48693708 0.80111146 1.2653877 1.765014 0.3555421 -1.3966624 -0.9245402 1.5218898 0.12285354 -0.4432986 -0.10273959 0.13328514 0.13035107 -0.79449487 -0.11029497 -0.55952144 -0.8935095 0.37092024 -0.49399662 1.0587091 1.2136314 -2.1446438 -0.15190558 1.6418716 -0.30338815 1.0945926 -1.3814726 -0.8158076 0.6582846 0.4267841 1.0033588 -1.118 -0.8903076 0.83892 2.5271707 -0.46281037 1.1855302 0.93172854 1.1387216 1.1689638 -0.960633 -0.48358843 1.1479679 0.21879824 2.2874825 0.931562 0.6721289 -0.574673 -0.14379272 -0.83045137 -1.2594045 -0.16418955 -0.3757146 0.26589593 -0.82360816 -0.9118538 -0.35417455 -1.2222537 -0.4082586 0.8930909 1.3260336 0.12214881 -0.59210575 0.23267545 1.1965948 1.7996519 -0.48890883 -1.2634009 -0.77883923 -1.3974648 -0.35685533 2.0979595 2.0169182 -1.4819092 -0.40920746 -0.79205173 0.31109643 -2.2173824 0.95644045 0.7352454 -0.4918551 0.7428649 -1.4021493 -0.37109897 0.1812107 1.4534833 0.62091863 0.6867873 0.028220404 -0.8600178 -0.31562948 1.3345118 0.5873575 0.18920231 2.307873 -0.011639704 -0.95155144 0.6064785 -1.4261209 -0.014000673 -1.432406 -0.6738861
1250 1.0049288 -0.778293 -0.26288557 -1.4117805 0.3168042 0.40355992 -0.20392485 -0.20085385 1.6015537 0.6010249 -1.1560937 2.929591 0.8824391 1.5597597 0.8268359 0.19092147 1.7017503 0.7848433 1.6648542 1.7943208 -0.89718276 1.7687795 -0.06307081 0.5531154 -0.06561134 1.4356542 1.2242372 1.2626424 -0.19695438 0.5317728 -1.6089985 -2.446359 0.5248227 0.84525555 0.66879845 1.1479763 -0.51813847 0.9315685 -0.7129682 -0.3947518 -0.18551378 0.3308765 -1.7929692 0.48742014 -1.1495316 1.0526531 0.765447 0.5279456 0.49558744 0.2215503 -0.75663835 0.09491362 -2.8698475 -1.9061426 0.39367527 0.7390495 1.3698099 0.6028753 0.056096192 -1.2243453 1.2083056 -0.8065546 0.20965207 -0.030601848 1.2500259 1.139745 -2.8816378 0.91596156 0.11446766 -0.58178395 2.0274389 0.6345946 0.45487782 -0.7612437 -1.3572023 -0.8934351 -2.4879568 0.73455393 0.011066364 0.7582208 -1.2082473 1.5144714 -0.72547084 -0.04089517 -1.4858987 0.12469283 0.5062056 0.28524595 -1.5734767 0.77953655 0.11335876 1.3988802 -1.9824191 -0.7657851 0.9330809 -0.29742622 0.6104201 0.34881186 1.7359895 -1.9372486 -0.683908 -0.6572482 0.96211046 -0.8358278 0.6782013 -1.144166 -0.6537341 1.4681422 -1.5795797 -0.6140236 0.5473362 0.089338675 0.25706467 0.20249206 0.4017962 -0.4863482 -1.0073622 0.31703842 1.1977192 -0.12048634 0.9527257 -0.77180904 -0.5940665 2.5928395 -1.8902948 0.24522234 -0.8035149 -0.251436
1251 0.9609244 -0.6993424 -0.23839957 -1.3035171 0.33068004 0.34443998 -0.23830172 -0.22004855 1.4880434 0.5274102 -1.0493958 2.7126718 0.80407274 1.4686209 0.7894773 0.17429502 1.5943913 0.6987844 1.5091655 1.6618931 -0.83268183 1.6866342 -0.08320856 0.4861485 -0.057316773 1.3453137 1.1607225 1.184759 -0.16512103 0.48742342 -1.4793019 -2.231492 0.47569615 0.7906197 0.6436272 1.0634645 -0.4646945 0.8393704 -0.67114025 -0.34614575 -0.21506971 0.2861851 -1.6733307 0.43335485 -1.085367 0.9771492 0.70827377 0.47035104 0.42394668 0.20997588 -0.6688348 0.08748479 -2.6755488 -1.7821738 0.37081787 0.6935367 1.2683629 0.5627761 0.08915512 -1.122383 1.1472925 -0.7621377 0.2131373 -0.01435788 1.130478 1.0806209 -2.6884847 0.84573096 0.13416976 -0.54445636 1.8947518 0.5454313 0.4659265 -0.6785863 -1.2418447 -0.85844004 -2.29915 0.694511 0.029126098 0.6844877 -1.1368327 1.432192 -0.6879438 -0.05313673 -1.4048352 0.096895315 0.46798453 0.26190665 -1.4658477 0.72420603 0.11683562 1.3034106 -1.8572499 -0.7437637 0.9185667 -0.27924374 0.5361091 0.3068182 1.6376104 -1.8020017 -0.63710296 -0.60526484 0.8968208 -0.76746255 0.6033286 -1.0549884 -0.63355595 1.3414838 -1.4483948 -0.55671805 0.5224136 0.07045021 0.24144785 0.18969887 0.3559499 -0.45820653 -0.94444966 0.3280912 1.1037481 -0.122804 0.8808569 -0.73123693 -0.5755821 2.3791196 -1.7423457 0.2225919 -0.75346386 -0.24573198
842 1.6169283 0.5589667 0.46224475 0.23805305 1.2461735 -1.2597214 -2.046781 -1.7519782 0.8023767 -0.9397803 -0.44131663 0.04998838 -0.28037545 1.3760493 1.177109 0.2996458 1.3989111 -0.83338463 0.26916522 0.4113289 -0.18274547 2.7614248 -1.3561306 -0.06915131 -0.013175566 1.5137098 1.5066125 2.2856727 0.39046678 1.3620068 -0.86222076 0.4666029 -0.9544264 0.82404244 0.57135147 0.6147438 -0.35167804 -0.99916583 -0.69898903 0.16812819 -1.9930667 -0.5073308 -1.1589012 -0.72985464 -0.49544647 1.5928887 1.0566336 -0.5265596 -1.3351074 1.1173015 1.0682708 0.66599596 -1.9843235 -0.5565523 1.063256 1.4949908 0.8656896 0.33817464 1.790664 0.64559 2.8078067 -1.0925378 1.1137121 1.0760658 -1.6258857 1.1318793 -2.9513283 1.4447441 1.5355259 -0.76759094 1.9543359 -1.4313452 1.8109292 0.5796646 -0.84652585 -0.8444533 -0.33986694 0.23153482 0.40222958 -0.3478587 -1.4220095 0.9707821 -1.0095023 -1.1905686 -0.95445603 -0.52973694 -0.23316942 0.17069516 -0.62430954 0.81225216 0.26518437 0.9994691 -1.1495701 -1.5360326 1.1826113 -0.7904139 -1.283237 0.7145244 1.911734 -0.3741518 -0.13794725 -1.0482972 1.4592505 -0.89962566 -0.2524038 0.09917647 -1.0793726 -1.0795896 -0.50815606 0.15315495 0.55071 0.22526787 -0.63462186 0.92159426 -0.41450262 -0.6537421 -0.7443569 2.4817164 0.38610345 -0.12584998 0.06271456 -1.1061573 -1.5560908 -0.08035759 -0.4351957 0.5575309 -0.32739785 -0.10374197
843 1.4680657 0.48146904 0.38817558 0.16522744 1.163846 -1.144486 -1.8901248 -1.6478333 0.77746934 -0.8329048 -0.42754352 0.12916175 -0.24742253 1.303859 1.1002048 0.29224575 1.3544946 -0.78374743 0.24388577 0.4306672 -0.20116326 2.5481424 -1.2334908 -0.03603888 -0.01637331 1.4013994 1.3887494 2.0739188 0.35183135 1.2595124 -0.79576474 0.39514703 -0.8070513 0.7712483 0.5507439 0.5460552 -0.31822532 -0.89184123 -0.6529315 0.16174394 -1.8358235 -0.46869388 -1.11652 -0.6505769 -0.5179905 1.4382112 0.9680527 -0.49401024 -1.2060758 1.0011504 0.9763188 0.6300704 -1.8453856 -0.59149987 0.98074156 1.363573 0.8335324 0.30201337 1.6229734 0.5488552 2.5733185 -1.0091046 1.0194609 0.9659241 -1.4489034 1.0538703 -2.734483 1.2949164 1.387441 -0.7245177 1.8043102 -1.2741694 1.6732851 0.48147205 -0.76935315 -0.8123892 -0.36035722 0.22366552 0.39058167 -0.29592732 -1.3245758 0.9215899 -0.9445437 -1.0659367 -0.9001344 -0.49172115 -0.18875983 0.14349067 -0.6129857 0.739733 0.22779275 0.9665411 -1.0985665 -1.4274435 1.1304877 -0.7129086 -1.166739 0.63045424 1.7990915 -0.39114803 -0.108202614 -0.9174669 1.3531181 -0.8395158 -0.22966105 0.0934617 -1.0410312 -0.9567697 -0.47660807 0.11425386 0.4984443 0.17109588 -0.5369027 0.854882 -0.35175708 -0.60528237 -0.7313418 2.2508934 0.35755423 -0.1355952 0.1254406 -1.0024983 -1.4360284 0.0031794596 -0.41794285 0.46587333 -0.33841383 -0.09888472
24 0.14222111 -0.4976475 -0.0023610499 -0.51068735 0.58778685 -0.28746724 -1.3664873 -1.7370625 1.4552028 0.36183873 -1.2973317 1.0783131 -0.2156797 0.8710067 0.64528865 0.73336166 1.624292 -0.6918015 0.7475941 0.76891106 -0.2655321 1.1978511 -0.29639417 0.87313324 -0.37720028 1.2156469 0.16530162 1.0015817 0.20793529 1.609893 -0.7196304 -0.07618524 0.78456354 0.89476144 0.053116634 -0.307052 -0.27436417 -0.2429173 -0.26983312 0.37191832 -0.8692901 -0.0015814045 -1.3003696 0.24913761 -0.7796652 0.7536832 0.76620185 -0.8166377 -0.24285941 0.46149573 0.5471313 1.5095854 -1.191505 -0.9612412 0.7660875 0.8189933 0.8133332 0.0046655317 0.7483779 0.21602331 1.902748 -0.5443626 0.5837616 0.4195047 -0.5757445 0.4458029 -1.687911 0.6497022 0.045802042 -0.50284714 0.99988943 0.15317707 0.31790057 -0.52586204 -0.25089467 -0.1012521 -0.7481602 -0.2992943 0.38508412 -0.123312324 -0.7095837 0.35176772 -0.94217306 -0.78024524 -0.46085662 0.30358312 -0.023408255 -0.2793492 -0.54196984 0.13035512 -0.12894785 1.293469 -0.7707841 -0.90478176 0.48131233 -0.2718307 -0.8917524 0.6142955 1.2467468 -0.57452595 0.2706102 -0.12396848 1.439957 -1.6663373 0.16943559 0.16015765 -1.1801919 -0.7158309 -0.536935 -0.24039091 -0.11310407 0.045938425 0.012049337 0.9985562 0.390075 -0.6558206 -1.30627 1.2666879 0.018614803 -0.58708656 1.2176038 -0.26350817 -0.8809035 1.0824598 -0.9559505 -0.5382612 -0.9985613 0.4343885
323 0.11824433 -0.260835 -0.11766812 -0.29444385 0.40067944 -0.090131715 -0.58186793 -0.69485605 0.615937 0.017784536 -0.44658446 0.5469948 -0.025887625 0.5188391 0.49104166 0.24692835 0.7357508 -0.16918157 0.2556131 0.44570324 -0.2373723 0.67171746 -0.07943653 0.33310708 -0.06713956 0.4958144 0.20034978 0.434033 0.10152606 0.59250516 -0.269592 -0.14040627 0.19003104 0.40290537 0.19279687 -0.032841466 -0.1618489 -0.06556372 -0.16735965 0.0072099436 -0.32328227 -0.02066673 -0.60174835 -0.0011129505 -0.43364373 0.28088406 0.35311705 -0.28721383 -0.045033522 0.2656267 0.1602476 0.41517103 -0.62664455 -0.5201865 0.26183414 0.3299009 0.3654242 0.03844994 0.182616 -0.07437234 0.7482251 -0.2971789 0.2650923 0.18973179 -0.13519804 0.3071901 -0.8328741 0.24670602 0.12829542 -0.22880772 0.48139563 0.063663475 0.28208095 -0.25788984 -0.148391 -0.23627713 -0.44320044 0.00041413718 0.20929666 0.012579775 -0.31631985 0.2811658 -0.39111206 -0.2182849 -0.35108876 0.11824497 0.13323148 -0.12534966 -0.30219603 0.2001181 -0.0687302 0.56930196 -0.45828527 -0.38369486 0.31231683 -0.16111308 -0.3067545 0.22576186 0.6241687 -0.3016247 -0.016633108 -0.0695531 0.42580697 -0.55148923 0.0562596 0.054048806 -0.501721 -0.058442682 -0.3318443 -0.09635743 -0.097926 0.023927832 0.11031672 0.37367532 0.20761052 -0.3399722 -0.45957258 0.49480382 0.06918415 -0.14286223 0.5254604 -0.12644039 -0.33768883 0.45960945 -0.47082546 -0.13966557 -0.31470895 0.061393112
25 0.17001833 -0.46652073 0.022437444 -0.4889069 0.5933162 -0.3008249 -1.3615218 -1.7162465 1.4316642 0.3540909 -1.2945342 1.051558 -0.19504313 0.8821214 0.62697756 0.72206634 1.6054883 -0.6805794 0.7580102 0.75109965 -0.26274553 1.2190797 -0.31772473 0.8616594 -0.36542234 1.2077467 0.19047147 1.0293696 0.18868528 1.6017929 -0.74161756 -0.068891965 0.770582 0.88213855 0.059432376 -0.27802286 -0.27987093 -0.25545004 -0.2780311 0.37450254 -0.8879743 0.0005974511 -1.2943896 0.23152378 -0.76204854 0.7700134 0.76022094 -0.7884884 -0.25570682 0.45954835 0.55003685 1.4823155 -1.2055495 -0.94891816 0.76600426 0.8338878 0.81707036 0.025659846 0.7735315 0.2093894 1.9010409 -0.5567606 0.5802391 0.4116339 -0.59274876 0.4446045 -1.7265235 0.6865907 0.064756334 -0.5148341 1.0101584 0.12872833 0.32823285 -0.51470834 -0.28436267 -0.11038164 -0.7412397 -0.28573352 0.37810954 -0.121367246 -0.72561747 0.37247455 -0.9383875 -0.7721286 -0.46608728 0.27487278 -0.036273148 -0.27217996 -0.54465723 0.14643748 -0.13554823 1.2732085 -0.7749902 -0.9006902 0.4978911 -0.2757914 -0.8782626 0.61047786 1.2456467 -0.55894744 0.26436806 -0.14964537 1.4430381 -1.6423782 0.17200658 0.14799574 -1.1732203 -0.7280482 -0.5346056 -0.24353728 -0.10296127 0.037081808 -0.00990294 0.99215716 0.37660152 -0.6445923 -1.2955081 1.2811073 0.026881505 -0.5801704 1.1771048 -0.28479263 -0.8926456 1.0734764 -0.9385995 -0.514783 -0.97754776 0.4290741
1127 0.12069733 -0.28893414 -0.113768496 -0.2890394 0.28512445 -0.06474772 -0.47177696 -0.61414546 0.55800223 -0.0020676681 -0.34002808 0.5226344 -0.05842349 0.41714627 0.4490476 0.20970948 0.66005176 -0.1896478 0.2336976 0.4101738 -0.14146295 0.54309404 -0.13310337 0.2896451 -0.09742353 0.52028656 0.20404606 0.40535986 0.13193895 0.5566252 -0.23796706 -0.20605665 0.11006186 0.37041482 0.14608489 -0.010610318 -0.13155863 -0.052295662 -0.1511018 -0.03203199 -0.2794143 -0.0362576 -0.530574 0.034011845 -0.34722495 0.295381 0.3418437 -0.29251653 -0.060034912 0.27621365 0.11392007 0.37339506 -0.6071977 -0.43300515 0.2518297 0.29792994 0.3360139 -0.016213251 0.128393 -0.016962303 0.71010625 -0.2752779 0.25256982 0.2040295 -0.026044263 0.28942093 -0.711877 0.20340441 0.14693308 -0.18811317 0.5197353 0.086298645 0.2403615 -0.2093463 -0.15067646 -0.20705488 -0.4348362 -0.004492104 0.13347529 0.017099952 -0.31150147 0.1800026 -0.32572973 -0.2375584 -0.2703153 0.11534521 0.14181444 -0.063065305 -0.2826475 0.1771088 0.023227796 0.5410613 -0.39071515 -0.36560273 0.19976509 -0.20635805 -0.25612268 0.26616126 0.6112792 -0.3391829 -0.017659253 -0.1020555 0.38550636 -0.525279 0.083890244 0.049610194 -0.39174324 -0.032860134 -0.3159689 -0.13463458 -0.025949026 0.085858494 0.07826412 0.33502865 0.1369075 -0.30165884 -0.37856776 0.45706388 0.10035384 -0.10210776 0.5079992 -0.11649052 -0.30276635 0.4041844 -0.43209967 -0.12212545 -0.30041283 0.006863679
845 -0.036994565 -0.37893787 -0.23678283 -0.47173956 0.39515582 -0.003575017 -0.6430658 -0.8793093 0.8656654 0.07272389 -0.5854547 0.9226001 0.05205165 0.5489694 0.5517485 0.37380803 0.9103808 -0.30795667 0.41592553 0.5474369 -0.14863296 0.7027505 -0.10880066 0.6004256 -0.23071024 0.7570995 0.09416872 0.7413346 0.1195245 0.97174317 -0.5076455 -0.34890455 0.2748996 0.5097416 0.06968352 -0.06381042 -0.33512455 -0.16949022 -0.22480592 -0.13644816 -0.3435704 0.03511505 -0.8895699 0.12219671 -0.44303814 0.4244061 0.648206 -0.31298664 0.031940542 0.39847234 0.15601392 0.59298646 -0.95902514 -0.4762709 0.40525225 0.4958896 0.45268247 0.03266271 0.12982036 -0.10227646 0.95468336 -0.4918337 0.36525047 0.394152 -0.00784803 0.33344215 -1.00734 0.39389363 0.04989696 -0.37271404 0.74508125 0.17398334 0.15410303 -0.40257502 -0.3031441 -0.082795784 -0.72550696 -0.08505906 0.23627314 -0.023247197 -0.2932234 0.1710574 -0.52731615 -0.36725888 -0.19638889 0.32917023 0.09120212 -0.1061804 -0.36658838 0.31887275 -0.031758565 0.75208294 -0.4340228 -0.42227727 0.0103155505 -0.35862038 -0.43383905 0.4191484 0.83585835 -0.40255857 0.10213724 -0.1740298 0.6513511 -0.8772841 0.13766411 0.16748907 -0.45078874 -0.12727307 -0.49023718 -0.36391547 -0.123979464 0.15179554 0.032315794 0.64836 0.23257188 -0.57440513 -0.57107306 0.7078724 0.03973107 -0.06330588 0.7771519 -0.09643593 -0.2724781 0.59904724 -0.65645885 -0.2612379 -0.31776953 -0.0150424
332 -0.067815445 -0.46136433 -0.17080104 -0.5110226 1.129571 -0.092205316 -1.223682 -1.5908757 1.4399815 0.34438905 -1.7806838 0.89046067 0.2556947 1.5994818 0.8451808 0.70907193 1.6234798 -0.115203105 1.0248746 0.9945841 -1.0013962 1.5315552 0.26580283 1.192851 0.054323345 0.63569015 0.13153404 0.8296433 -0.32698366 1.5816652 -0.87548137 -0.06571017 0.94973695 0.9593028 0.6061537 -0.23245479 -0.82102793 0.0018770796 -0.36254224 0.08929881 -0.41421747 0.12208819 -1.3379458 -0.06562754 -1.0793365 0.43845904 0.72612613 -0.26978308 0.206146 0.43914858 0.26670468 1.0193553 -1.0431216 -1.3639232 0.45082992 0.68080264 0.8517573 0.37203643 0.45796913 -0.6351378 1.5255767 -0.52344775 0.23836888 0.016160894 -0.8913353 0.31655818 -2.2318358 0.90809494 -0.071301594 -0.69765013 0.45952958 0.4072528 0.33142292 -1.0808973 -0.46672252 -0.4254589 -0.76745284 -0.10115396 0.73162854 0.27241057 -0.573279 0.7801439 -1.0049317 0.119900696 -0.77646756 0.28665793 0.23225008 -0.5218327 -0.5823578 0.5368832 -0.8543178 1.169969 -1.099536 -0.33946854 0.91058475 0.0175136 -0.6494874 0.37261263 1.2318239 -0.13900681 -0.042907834 0.093373634 0.9369248 -1.0183784 0.19682404 0.08292992 -1.5057733 -0.3560719 -0.8640523 -0.0981998 -0.85104334 -0.43379244 0.4430885 0.946337 1.0672724 -0.7926303 -1.3029956 0.93247044 0.0208721 -0.4811872 1.2395297 -0.23846184 -0.69086295 1.3646513 -1.1553108 -0.511166 -0.52219945 0.8210763
1222 0.073261514 -0.42699403 -0.03578733 -0.41516894 0.43295643 -0.19681892 -1.0281844 -1.3181056 1.1066673 0.26854876 -0.9588886 0.8323173 -0.19576906 0.62566626 0.5173297 0.5585614 1.2320158 -0.51883924 0.5474711 0.5972782 -0.17952493 0.8719385 -0.19986045 0.6746735 -0.2896444 0.934751 0.118029006 0.7200559 0.19154565 1.2059264 -0.5123277 -0.079920545 0.5898076 0.68203396 0.035401337 -0.25964335 -0.18097505 -0.16956694 -0.19323486 0.25478145 -0.6347455 0.0008533469 -0.97025675 0.18824768 -0.5919132 0.5645958 0.5765987 -0.64768934 -0.16106915 0.35391253 0.38706458 1.1349196 -0.89529586 -0.71879286 0.5671783 0.5902366 0.5962157 -0.025180807 0.5199713 0.17643496 1.4366318 -0.40788096 0.46450293 0.33540696 -0.38728374 0.33969837 -1.220408 0.4476211 0.03060715 -0.3627913 0.7710159 0.14945291 0.2346608 -0.39552587 -0.167032 -0.08400666 -0.5736456 -0.2251934 0.2727503 -0.110252246 -0.5025813 0.24629878 -0.701009 -0.59901863 -0.35731927 0.26144522 0.024977677 -0.23022284 -0.39991716 0.095271304 -0.086814135 0.98726094 -0.5717917 -0.6713875 0.3363248 -0.22071333 -0.6601123 0.4778091 0.93417156 -0.4608406 0.18244083 -0.083500855 1.044549 -1.28093 0.12321878 0.13517746 -0.8747432 -0.503194 -0.40408286 -0.18430617 -0.10438323 0.06504839 0.04187044 0.7479871 0.3015663 -0.5078339 -0.95131314 0.935338 0.0014376385 -0.4331499 0.9349558 -0.18200228 -0.6397512 0.80333334 -0.7372668 -0.41922736 -0.74232554 0.30046728
366 0.14969648 -0.28380582 -0.07373489 -0.3578705 0.3323733 -0.093775816 -0.5117182 -0.6947821 0.60886365 0.045105465 -0.43863174 0.57428724 -0.025185863 0.5103217 0.45425585 0.2411687 0.75817984 -0.21837822 0.2923473 0.46432593 -0.20259765 0.6358345 -0.1926326 0.31451035 -0.1457297 0.5819462 0.28161013 0.48837677 0.08857971 0.61836827 -0.28817388 -0.23819841 0.1612128 0.41775325 0.13808881 -0.0207921 -0.14046131 -0.055605087 -0.18106966 0.03656239 -0.31572863 -0.056931257 -0.6256289 0.0439345 -0.38137314 0.34408754 0.3529145 -0.29300427 -0.09293349 0.29574782 0.14093162 0.4556791 -0.68572205 -0.5583295 0.30970854 0.34272376 0.45668256 -0.0014397551 0.18344815 -0.04614869 0.7865984 -0.27757385 0.24704924 0.16766602 -0.07597769 0.3292045 -0.886024 0.25462118 0.14484192 -0.22472619 0.58356154 0.09059271 0.2703168 -0.2738747 -0.21010771 -0.24741842 -0.48466784 -0.014680017 0.14342938 0.08068738 -0.3797351 0.20999949 -0.41668937 -0.2267726 -0.30979356 0.079049826 0.10587329 -0.04884696 -0.32132486 0.14213875 -0.0042703785 0.59229463 -0.44254065 -0.42886624 0.26881176 -0.18959412 -0.29605496 0.29255286 0.68475604 -0.38899702 0.03853691 -0.11260467 0.4431072 -0.54772216 0.14559987 0.060178217 -0.4581703 -0.082002856 -0.34535345 -0.15231396 -0.018527627 0.04421042 0.067972235 0.37269932 0.1396209 -0.27887437 -0.49826124 0.5126673 0.100635394 -0.13270065 0.57754517 -0.13645254 -0.3830983 0.50542045 -0.46442124 -0.1518989 -0.38326225 0.01463701
151 -0.0601994 -0.45802978 -0.19689292 -0.48231894 0.9715462 -0.060013797 -1.1079187 -1.3936559 1.2916193 0.2713979 -1.4966382 0.8533474 0.18459633 1.3381245 0.80650014 0.6256077 1.4367139 -0.111879215 0.8516418 0.889628 -0.82935196 1.3310689 0.24143936 1.0248315 0.033632528 0.61746985 0.109477006 0.7146926 -0.2008313 1.3740808 -0.7361109 -0.102019146 0.7940186 0.8454995 0.5100662 -0.19987018 -0.6716676 -0.0031163022 -0.30565482 0.046743073 -0.3685702 0.10537637 -1.1917644 -0.039173517 -0.95660794 0.39425862 0.65277493 -0.29629657 0.18130378 0.4070668 0.24811208 0.9072799 -0.97402847 -1.1638674 0.4021693 0.5946494 0.71190923 0.28976226 0.3522037 -0.5060091 1.3655235 -0.47681502 0.27419582 0.084600754 -0.6950497 0.34410626 -1.8880451 0.7417588 -0.03892873 -0.58121693 0.4542899 0.36406508 0.30334705 -0.9104121 -0.3748645 -0.36502784 -0.7255333 -0.08674701 0.62970626 0.18951002 -0.4709694 0.6707148 -0.8761134 0.034623 -0.69520897 0.292524 0.24258372 -0.45896628 -0.51716334 0.4776509 -0.6795102 1.0515456 -0.96095383 -0.34397605 0.74959314 -0.035350807 -0.57872266 0.33701286 1.079468 -0.19581302 -0.05503379 0.070066236 0.8031938 -0.94263965 0.15114947 0.08692621 -1.278247 -0.25743476 -0.7574108 -0.10031034 -0.7115459 -0.29569185 0.38765147 0.8252662 0.8938741 -0.73590076 -1.10836 0.84030473 0.02172043 -0.40254998 1.102371 -0.17697288 -0.5846297 1.1743814 -1.0452536 -0.42396164 -0.4728732 0.64396995
152 -0.1262929 -0.4923711 -0.20327526 -0.54762864 1.0691683 -0.047790367 -1.1724693 -1.5484946 1.4181036 0.38259596 -1.7474712 0.9297987 0.26159906 1.5406927 0.80235875 0.7064575 1.5887126 -0.109998025 0.9772694 0.9945564 -0.9753813 1.4271498 0.2928016 1.1835377 0.03858338 0.6022904 0.077545755 0.73691547 -0.30630466 1.5214981 -0.81681186 -0.09354442 1.0034033 0.92289984 0.5876808 -0.26180673 -0.7620288 0.033954043 -0.3377857 0.08975531 -0.3675038 0.118635505 -1.3104967 -0.02486921 -1.0811961 0.38620347 0.6806915 -0.27219078 0.23973137 0.3846628 0.23977935 1.014024 -0.9894622 -1.3595132 0.4280325 0.6272479 0.8213982 0.33924204 0.3938884 -0.6366067 1.4316777 -0.48492897 0.22073911 -0.020217685 -0.7977779 0.2923057 -2.1091087 0.82562006 -0.11724644 -0.6787252 0.4034024 0.46376032 0.28921902 -1.0927764 -0.41737494 -0.40339413 -0.7689184 -0.10890947 0.7119878 0.28112155 -0.5321576 0.7424282 -0.9831478 0.13811061 -0.74248934 0.29052094 0.24481279 -0.52107394 -0.57979727 0.48569822 -0.8421484 1.1599634 -1.0630639 -0.31231883 0.8732278 0.0432215 -0.61188906 0.33647206 1.1913614 -0.17494433 -0.02075047 0.14669745 0.8991889 -0.98762846 0.1962338 0.089476585 -1.47125 -0.30788037 -0.8309684 -0.11724188 -0.84467393 -0.44557753 0.46917984 0.9103535 1.0702163 -0.77275616 -1.2861468 0.8479793 0.0025141945 -0.4887654 1.2447016 -0.1958556 -0.65629107 1.3872036 -1.1183639 -0.5390339 -0.5283568 0.78934735
153 -0.06875497 -0.46062008 -0.19812775 -0.4952532 0.98792857 -0.06258694 -1.1116716 -1.4136827 1.3133776 0.28914225 -1.5375638 0.8707424 0.20708258 1.3790612 0.8044012 0.6300438 1.4569303 -0.10279568 0.87602305 0.906535 -0.8566596 1.347645 0.24802694 1.0472138 0.037681196 0.60615677 0.10967711 0.72303146 -0.22001196 1.3950493 -0.75163543 -0.108752094 0.8220052 0.855556 0.5247156 -0.20148359 -0.6905155 0.008282727 -0.3117802 0.044792708 -0.36852556 0.11048054 -1.2174584 -0.036437295 -0.97716445 0.3932371 0.6568843 -0.2824623 0.19344665 0.4069163 0.23873301 0.9115367 -0.9811328 -1.2012106 0.41236413 0.602609 0.7384146 0.30148083 0.358351 -0.52949655 1.3669726 -0.48614565 0.2557967 0.06308978 -0.7060856 0.34006968 -1.9291356 0.75969505 -0.053570136 -0.59952575 0.45220563 0.37881395 0.3047058 -0.93781257 -0.3805324 -0.37278244 -0.7416351 -0.09026716 0.64084613 0.21187328 -0.4860145 0.68421507 -0.89893633 0.05858053 -0.7000867 0.28980795 0.2353442 -0.4673618 -0.53001916 0.48089963 -0.70640403 1.072107 -0.97931707 -0.3448561 0.77361953 -0.021512378 -0.5800192 0.3311308 1.1011071 -0.19815142 -0.04857684 0.083066106 0.81857705 -0.9425517 0.16047172 0.083946116 -1.3088654 -0.2563812 -0.7758432 -0.11489767 -0.72881186 -0.32500952 0.39830533 0.8357926 0.921841 -0.7362468 -1.1384447 0.837278 0.021989807 -0.40892553 1.1286694 -0.18045154 -0.5942205 1.2084769 -1.0580186 -0.44139954 -0.4808189 0.66440064
916 -0.014615223 -0.36050466 -0.23653798 -0.5183455 0.47692984 -0.058581658 -0.75935435 -1.0369674 0.9483838 0.0980072 -0.6824139 1.0027189 0.06141827 0.6552499 0.5791403 0.42221382 1.0233129 -0.3892957 0.46424887 0.6177688 -0.22235022 0.8199093 -0.14430743 0.66374224 -0.2353157 0.788802 0.1104216 0.82840425 0.093195036 1.0878826 -0.557713 -0.31102484 0.39029774 0.55587304 0.11311968 -0.09187594 -0.3760211 -0.19022456 -0.2739577 -0.107231475 -0.424031 0.026708448 -1.0097784 0.10752001 -0.5275016 0.4569453 0.68166286 -0.34843525 0.008475453 0.40038505 0.2035874 0.67390966 -1.0458452 -0.5922637 0.47355953 0.5683355 0.5386029 0.039481707 0.2193051 -0.12585296 1.0425907 -0.53272283 0.3815319 0.3985492 -0.08554742 0.352806 -1.18448 0.45907286 0.04393242 -0.45081872 0.7999355 0.15158673 0.20213649 -0.4574735 -0.32138616 -0.11056178 -0.76100487 -0.10065071 0.297521 -0.0079981815 -0.37450373 0.22022974 -0.6291376 -0.37914136 -0.21778186 0.30026507 0.05827683 -0.13131239 -0.4305075 0.33440566 -0.0856838 0.85523677 -0.5158324 -0.48742896 0.115465194 -0.3726453 -0.50138146 0.40598673 0.9430874 -0.42360863 0.14183332 -0.13805908 0.7791306 -0.9429365 0.13972892 0.17681636 -0.5702713 -0.19136593 -0.5257634 -0.38901982 -0.15717699 0.075488865 0.026804585 0.72023 0.27141452 -0.6098075 -0.70043504 0.785277 0.039755512 -0.1447721 0.8588666 -0.12652874 -0.35741135 0.7028666 -0.69062436 -0.33305556 -0.37033918 0.033942886
22 0.18168345 -0.29382524 -0.048360124 -0.31784216 0.34653708 -0.081354715 -0.531466 -0.6664868 0.60457855 0.005717547 -0.3753331 0.55697465 -0.026319819 0.48776236 0.48714226 0.21355015 0.7208889 -0.17785832 0.26504222 0.4483478 -0.17469643 0.6397257 -0.15604286 0.29044166 -0.12916955 0.59477675 0.28037244 0.5257997 0.14350387 0.60010046 -0.31539172 -0.25599375 0.085345365 0.414519 0.11542153 0.003823111 -0.15585499 -0.047204178 -0.16998576 0.017756201 -0.30375066 -0.01706101 -0.58902526 0.042589035 -0.3886619 0.39535648 0.3810199 -0.29549682 -0.07088234 0.3503115 0.10181835 0.39317325 -0.68604034 -0.5166878 0.30945924 0.37679926 0.3867333 -0.012151856 0.17679596 -0.016233115 0.8183152 -0.34079733 0.26599345 0.2184638 -0.069760166 0.36016762 -0.840673 0.26646194 0.20644973 -0.22225106 0.63169634 0.04449064 0.27824265 -0.21557526 -0.25342837 -0.22406498 -0.48220357 -0.0472194 0.12751622 0.017890373 -0.36723897 0.2413131 -0.37970132 -0.28241694 -0.32075045 0.10729022 0.1199491 -0.049804933 -0.29038754 0.19975153 0.021870643 0.5367869 -0.43399027 -0.4030689 0.23813216 -0.22413592 -0.28237635 0.32387948 0.65620166 -0.35954714 0.002789374 -0.18333532 0.4274639 -0.54442054 0.12879904 0.032967556 -0.3859028 -0.06005789 -0.34924358 -0.16027308 0.0056230556 0.098489456 0.037072476 0.35519853 0.109667 -0.32216233 -0.4270678 0.5382423 0.12653248 -0.057613097 0.54310787 -0.17086075 -0.38892502 0.44234726 -0.50425965 -0.10357098 -0.33352688 -0.0065322714
917 -0.045272596 -0.54809016 -0.33538288 -0.7142157 0.58901554 -0.031415712 -0.9246828 -1.3463206 1.2772449 0.12878817 -0.8812232 1.360047 0.081421115 0.84411806 0.7841701 0.56750077 1.382269 -0.52611566 0.64431524 0.85528445 -0.25551492 1.0433354 -0.22843386 0.90126765 -0.34515062 1.1150945 0.16254212 1.1164703 0.1281304 1.4719156 -0.7509532 -0.5158052 0.48254594 0.76643425 0.12626114 -0.11183021 -0.5223799 -0.2449209 -0.37584063 -0.17845932 -0.5304701 0.023310853 -1.3496199 0.17259933 -0.67442507 0.63333875 0.9488686 -0.47533643 0.03222066 0.57777995 0.20438029 0.89881665 -1.4130552 -0.77317363 0.64792836 0.7663604 0.74165136 0.025005473 0.23972175 -0.16360217 1.4071385 -0.70623314 0.5025444 0.53436255 -0.037607655 0.47631136 -1.5767276 0.61582637 0.08079251 -0.5915676 1.1312289 0.24991295 0.23288257 -0.623054 -0.4600098 -0.1574335 -1.0457244 -0.14181347 0.33988917 0.037904654 -0.5217895 0.22630693 -0.81552076 -0.5330172 -0.26478365 0.42118552 0.10156645 -0.15255009 -0.5690158 0.45151058 -0.06586657 1.1554154 -0.6496565 -0.65152687 0.058807116 -0.5316911 -0.6247322 0.61528 1.2931337 -0.6046317 0.17861101 -0.23434567 1.0301872 -1.2779658 0.26031542 0.23407216 -0.7093086 -0.22423905 -0.73099965 -0.5639948 -0.18332204 0.15120381 0.026303785 0.97428864 0.36020014 -0.8017381 -0.90297616 1.0432309 0.08734271 -0.15442647 1.1829145 -0.1621582 -0.46544605 0.9665011 -0.93918276 -0.4278308 -0.5161049 0.012038967
365 0.13822937 -0.23807237 -0.04833922 -0.31939372 0.30611548 -0.10315776 -0.48190325 -0.65148216 0.5673072 0.055299632 -0.4323403 0.5159225 -0.0133913895 0.4820067 0.3958148 0.22861445 0.70787346 -0.21111551 0.28540215 0.4228905 -0.18878108 0.5958792 -0.19253555 0.30152547 -0.1337786 0.5256518 0.25590494 0.465074 0.061665196 0.58656657 -0.2828904 -0.2051866 0.16878457 0.38502678 0.12461529 -0.021736253 -0.13942435 -0.059024483 -0.17648865 0.04961595 -0.31058344 -0.05458207 -0.5819107 0.0391197 -0.34933504 0.3212661 0.33312672 -0.26469234 -0.09295721 0.26981592 0.13826619 0.43699563 -0.6321369 -0.5156539 0.29435816 0.33309996 0.43406975 0.010200167 0.1980398 -0.043613367 0.73556 -0.25845733 0.21935798 0.14702873 -0.105361395 0.2873295 -0.8441525 0.25885898 0.13186951 -0.22793503 0.53116703 0.0752928 0.25116926 -0.2580854 -0.20863332 -0.21414268 -0.4350963 -0.018891715 0.13769835 0.07546407 -0.3661611 0.19652607 -0.39571398 -0.21046649 -0.27940443 0.061242435 0.076243274 -0.038943302 -0.3031181 0.12739204 -0.020789018 0.5499725 -0.40606585 -0.391553 0.25735238 -0.16510299 -0.28367418 0.26706922 0.63542753 -0.34191424 0.046165433 -0.10360484 0.43985367 -0.50799793 0.1384903 0.052133642 -0.44109708 -0.11190909 -0.3166486 -0.13978387 -0.0152003905 0.020468779 0.047128193 0.3555957 0.13975893 -0.25355664 -0.47692987 0.48828173 0.08937882 -0.13982645 0.52888584 -0.13760702 -0.3675818 0.47773662 -0.41535568 -0.14971057 -0.36132967 0.03383336
914 -0.024004817 -0.39794052 -0.2428137 -0.52122116 0.4375332 -0.031941842 -0.70548314 -1.0030069 0.92804605 0.10619603 -0.637392 0.9759494 0.038712982 0.6129986 0.5748211 0.40946394 1.0057383 -0.3739268 0.43086123 0.62137127 -0.20691653 0.75210124 -0.14308956 0.6411581 -0.24454595 0.7796617 0.10436643 0.7573807 0.11446813 1.0426857 -0.5013057 -0.3335642 0.3697488 0.55326796 0.114073396 -0.10300104 -0.34270984 -0.15569924 -0.25023237 -0.10360827 -0.39261562 0.015581072 -0.95835555 0.12885883 -0.51685804 0.4288777 0.64642495 -0.36633217 0.012160854 0.3899796 0.16865015 0.65385824 -0.9862242 -0.5875448 0.4463343 0.5266199 0.531631 0.007659607 0.1678411 -0.11199378 1.0010366 -0.4915374 0.367383 0.367641 -0.028859735 0.34115157 -1.0993966 0.40293035 0.047576614 -0.41522622 0.7752653 0.18391599 0.18822946 -0.45798698 -0.28573015 -0.12668972 -0.74550605 -0.091303825 0.26932523 0.008469189 -0.36176944 0.1889711 -0.5892545 -0.36242318 -0.20956334 0.29289675 0.08922284 -0.12749392 -0.421739 0.29722998 -0.05273319 0.83659434 -0.49136466 -0.47738212 0.09951742 -0.3596173 -0.45942196 0.41144428 0.91891694 -0.439215 0.12735508 -0.123948805 0.7343256 -0.92444766 0.15355231 0.17110799 -0.5464775 -0.1512371 -0.51394445 -0.37879977 -0.14774466 0.082313895 0.051276814 0.6815111 0.26307 -0.57658833 -0.6668502 0.7255067 0.051695563 -0.1432908 0.8693922 -0.11175565 -0.35005823 0.6927446 -0.67441046 -0.32575518 -0.39465874 0.02014813
911 0.017782306 -0.46682858 -0.27911758 -0.5925734 0.5530179 -0.066643976 -0.87955034 -1.2036676 1.1107029 0.0768623 -0.76144654 1.1457546 0.038327083 0.7682048 0.7235868 0.47759235 1.2290003 -0.45676434 0.51883817 0.74888074 -0.24841322 0.9824339 -0.21433772 0.7381717 -0.27543664 0.9745797 0.19790982 0.95865595 0.14883617 1.2526333 -0.6151458 -0.40128815 0.3884367 0.6673197 0.15299122 -0.09579506 -0.40743187 -0.22535728 -0.3265913 -0.1257869 -0.51745826 0.0059829974 -1.1609608 0.1162627 -0.618269 0.5581546 0.78835374 -0.4518109 -0.016563397 0.504534 0.23054366 0.7870547 -1.230525 -0.7209981 0.5562673 0.66418904 0.63786733 0.013065613 0.24980468 -0.1157184 1.2707064 -0.6137564 0.46675318 0.4622293 -0.08035332 0.44532266 -1.3914702 0.519708 0.12130055 -0.5050199 0.98083943 0.16773126 0.28189024 -0.49869648 -0.3750816 -0.19153818 -0.8915726 -0.0979421 0.32054487 0.00440296 -0.4772256 0.2623339 -0.71598345 -0.4765339 -0.2900608 0.33121377 0.11363949 -0.14904135 -0.50914943 0.39716133 -0.051478073 1.0107348 -0.61086893 -0.6131359 0.14811793 -0.446568 -0.55401826 0.5183175 1.139685 -0.54131407 0.12383972 -0.20172614 0.8911323 -1.0989608 0.18036754 0.1940016 -0.6725017 -0.19063556 -0.624757 -0.43416768 -0.14385594 0.12255362 0.054155145 0.82522947 0.3021055 -0.68049574 -0.79473543 0.93608844 0.078865476 -0.16177732 1.0119895 -0.17538156 -0.4538075 0.81061214 -0.808323 -0.34523866 -0.46665296 0.017200021
21 0.15794297 -0.29559636 -0.06308128 -0.30327824 0.32517144 -0.06752267 -0.5010451 -0.62835395 0.57561266 0.0004258671 -0.35778365 0.5394675 -0.032766 0.4478007 0.48435473 0.208331 0.6748179 -0.16446476 0.2509381 0.4344516 -0.16238114 0.60809976 -0.12847105 0.28664136 -0.1183201 0.57546836 0.26196778 0.49147648 0.14549471 0.5809372 -0.29365218 -0.24903284 0.06411765 0.40350482 0.108551934 0.00049182423 -0.14978762 -0.051339187 -0.15011041 -0.0042134817 -0.26874143 -0.009101233 -0.5630616 0.031848505 -0.36462632 0.37338954 0.369132 -0.2827208 -0.055077586 0.34202698 0.09287822 0.36948812 -0.658137 -0.47191316 0.28322032 0.34931317 0.35716417 -0.013248891 0.1431448 -0.012309901 0.77612317 -0.32869318 0.26439056 0.23086423 -0.058429744 0.34504488 -0.78348094 0.2499282 0.19811408 -0.20228721 0.60239977 0.04867978 0.25602573 -0.21148379 -0.23658563 -0.20363629 -0.47298667 -0.04596398 0.121722266 0.009992098 -0.32814917 0.22212277 -0.35586044 -0.27330342 -0.3010685 0.12893355 0.1277641 -0.05051971 -0.27376392 0.20731285 0.03032141 0.5110451 -0.3995633 -0.37873498 0.20083682 -0.22199063 -0.26126507 0.3118106 0.6168256 -0.34396207 -0.010242833 -0.18413745 0.394236 -0.5285972 0.11620091 0.035782296 -0.352804 -0.035896935 -0.3432198 -0.1489634 -0.009818214 0.11541929 0.04093567 0.3454765 0.10388778 -0.3181795 -0.3865449 0.5167893 0.12032841 -0.040975552 0.52279866 -0.15428902 -0.35158443 0.4098611 -0.4980449 -0.08886576 -0.30080432 -0.014121351
915 -0.07975672 -0.50857884 -0.3271603 -0.6780776 0.5589694 -0.029417248 -0.8671853 -1.2754531 1.1763134 0.13023692 -0.8127479 1.267635 0.082377635 0.783372 0.71549785 0.52651715 1.2820224 -0.51293105 0.56291044 0.7891968 -0.25205427 0.93710685 -0.20379248 0.84656775 -0.32950842 0.9989102 0.12359481 0.98997647 0.11860047 1.3612444 -0.6692413 -0.44871494 0.49823472 0.7010095 0.12734246 -0.1445698 -0.46988758 -0.23362075 -0.33941856 -0.15007427 -0.49297482 0.014953824 -1.2463441 0.17238279 -0.6406839 0.5467415 0.8592063 -0.44600862 0.040320624 0.5072058 0.20114303 0.8345142 -1.2686769 -0.73838395 0.5901758 0.6869877 0.6873011 0.006004 0.20604968 -0.16948567 1.2635478 -0.6432072 0.45109302 0.47502705 -0.025700431 0.4164851 -1.4184688 0.529873 0.044189118 -0.56076944 1.0035223 0.24656795 0.21002279 -0.6023429 -0.38850638 -0.14342105 -0.9549654 -0.12959242 0.34075373 0.038851295 -0.4617625 0.20351993 -0.75885236 -0.46967408 -0.22370829 0.38402474 0.09499281 -0.15193945 -0.5318772 0.40212306 -0.07640199 1.07105 -0.5945019 -0.5976521 0.06419232 -0.47436023 -0.5897088 0.54337806 1.1952474 -0.5429227 0.19096048 -0.16510618 0.9515762 -1.1756657 0.22442219 0.23726141 -0.6807086 -0.22286761 -0.6540972 -0.53224725 -0.19884576 0.1046443 0.04784276 0.9029248 0.3460274 -0.7382668 -0.8497664 0.9289166 0.051597226 -0.15765369 1.1210202 -0.12625134 -0.41949087 0.89378124 -0.8391021 -0.44420707 -0.47831818 0.009185298
1096 0.083131686 -0.39695245 -0.03241882 -0.3639049 0.35539308 -0.1565568 -0.8763793 -1.1206623 0.9846976 0.21953893 -0.8323741 0.7345543 -0.15874994 0.5435159 0.46026933 0.47336587 1.0818827 -0.42943925 0.52420896 0.535544 -0.14686967 0.77080965 -0.17656901 0.59067845 -0.26423383 0.84990734 0.10800559 0.6783252 0.17228185 1.0877569 -0.48972884 -0.109653756 0.464048 0.6069614 0.019001868 -0.1849018 -0.19354437 -0.15315185 -0.16457805 0.2002898 -0.5367747 0.021739783 -0.85244244 0.17975266 -0.48964807 0.53638387 0.5409555 -0.5648163 -0.14206521 0.34334674 0.326079 0.98428714 -0.82353103 -0.5989212 0.50162494 0.5340819 0.530642 -0.020719534 0.44464123 0.14501397 1.2802528 -0.3745657 0.41011178 0.31126902 -0.3224809 0.32526374 -1.1129963 0.42838538 0.046689864 -0.31733945 0.7156325 0.14581034 0.18853188 -0.3535259 -0.18719117 -0.05087587 -0.52474034 -0.19475083 0.22003654 -0.0796346 -0.46144286 0.2070745 -0.60355353 -0.53294593 -0.30625975 0.25079167 0.02114172 -0.173813 -0.36091727 0.11928899 -0.05365785 0.86324126 -0.51201284 -0.5884528 0.26089752 -0.22813067 -0.56190056 0.4639728 0.8165507 -0.40904525 0.14207119 -0.123867854 0.92468446 -1.1414987 0.1438947 0.1143883 -0.739576 -0.42434162 -0.3895905 -0.16498077 -0.07751783 0.095458716 0.005230989 0.6556714 0.25209424 -0.46027637 -0.82209015 0.85075873 0.02968961 -0.34791848 0.8113309 -0.1743231 -0.5574518 0.71533626 -0.6808176 -0.32296324 -0.6534577 0.25471088
1097 0.034792427 -0.24663095 -0.03393732 -0.24891275 0.26586282 -0.09013947 -0.5565556 -0.72484154 0.61165386 0.15153264 -0.5406168 0.48847947 -0.080682494 0.3829961 0.2938592 0.3001581 0.6927407 -0.27752945 0.29608032 0.3541974 -0.14560385 0.494097 -0.09301218 0.3787769 -0.15359247 0.49027672 0.06691519 0.37515467 0.082855895 0.663301 -0.28577983 -0.06407674 0.34331942 0.38568863 0.051354345 -0.1298369 -0.12751605 -0.07364458 -0.11315332 0.1280811 -0.32844368 -0.0077298554 -0.55412 0.1004913 -0.3563798 0.2784316 0.3079498 -0.3465763 -0.07185584 0.18568772 0.20584767 0.6011197 -0.49975583 -0.4355495 0.29939032 0.32181326 0.35170028 -0.0034843853 0.25081685 0.04423712 0.75572574 -0.22810405 0.22682692 0.15269108 -0.19487856 0.18411471 -0.6890778 0.23977749 0.012666169 -0.21274517 0.40360153 0.10732709 0.13237633 -0.25299823 -0.094525695 -0.06618191 -0.3365813 -0.10633099 0.17590281 -0.035455998 -0.28388962 0.1581027 -0.394779 -0.2869327 -0.20879072 0.13003409 0.027785787 -0.12095232 -0.24052851 0.066881284 -0.069768496 0.5498275 -0.34012973 -0.3592722 0.21954611 -0.10875667 -0.3452125 0.24269821 0.53424895 -0.25113112 0.10275918 -0.026608136 0.55978644 -0.6781796 0.07679603 0.07066955 -0.4963262 -0.24377014 -0.24410774 -0.11482416 -0.07244604 0.008174719 0.05256301 0.40919837 0.19098493 -0.28194803 -0.5400372 0.4940252 0.01047748 -0.24238133 0.55002373 -0.08847606 -0.35466433 0.47372678 -0.40949577 -0.24509375 -0.41313255 0.16694121
1098 0.1079305 -0.33612174 -0.0054382943 -0.3347635 0.36742324 -0.16867429 -0.869071 -1.0750786 0.94865906 0.2223939 -0.83295697 0.7189782 -0.12470609 0.5464674 0.42428526 0.4672398 1.0346572 -0.41220757 0.5251394 0.50155854 -0.1628646 0.78054845 -0.17104349 0.5665296 -0.23744917 0.804693 0.115186125 0.67813087 0.14233625 1.0427158 -0.5083698 -0.08464517 0.4725753 0.57882136 0.021515291 -0.15630789 -0.19195764 -0.15429708 -0.17218006 0.2119841 -0.5409714 0.0323821 -0.83956134 0.1593125 -0.4808234 0.5261704 0.5180601 -0.50769174 -0.14092134 0.32290822 0.33396235 0.94835114 -0.81638885 -0.58554274 0.4891154 0.53581077 0.5204069 0.01267213 0.46837008 0.1239593 1.2396976 -0.37652212 0.38671437 0.29167336 -0.3526518 0.31320745 -1.1182474 0.4547966 0.03873656 -0.32021207 0.68229365 0.11065741 0.18972749 -0.3283666 -0.20227072 -0.043963358 -0.506843 -0.18321058 0.23056632 -0.081695095 -0.45466173 0.24407159 -0.5955541 -0.50926274 -0.3156211 0.22062847 -0.007457327 -0.17547616 -0.36051935 0.12801826 -0.07478453 0.8235461 -0.51554406 -0.5713937 0.29015353 -0.1988397 -0.55174106 0.41278812 0.7846694 -0.38297975 0.1451715 -0.12378986 0.91616344 -1.0891794 0.115772255 0.08512353 -0.72627616 -0.4342985 -0.3757208 -0.15515903 -0.075638324 0.067699954 -0.011363208 0.63910466 0.2502065 -0.44678533 -0.813528 0.8381272 0.028482607 -0.3489759 0.75377935 -0.18425351 -0.54264164 0.70586693 -0.65920436 -0.30893922 -0.6171602 0.27214137
912 -0.08499313 -0.42652807 -0.26653603 -0.54117566 0.41803864 0.003267306 -0.67794377 -1.0131825 0.95467246 0.10345623 -0.65987927 1.0102198 0.057809364 0.600629 0.5838619 0.4273291 1.0113903 -0.38630226 0.4690548 0.6230846 -0.18009046 0.737679 -0.15533753 0.6963386 -0.27505335 0.8293288 0.0723175 0.82020634 0.09764101 1.1207495 -0.5444687 -0.38234514 0.36754486 0.5595959 0.07182332 -0.12094172 -0.3920687 -0.1924284 -0.2563963 -0.15732591 -0.3644489 0.025352726 -0.9983154 0.14190733 -0.48910835 0.4627394 0.7171829 -0.36821076 0.043477617 0.4336011 0.15799126 0.67265546 -1.0294293 -0.55367863 0.46667916 0.55056536 0.5314653 -0.001804279 0.13795784 -0.12114031 1.0244901 -0.5214119 0.3731406 0.40787005 -0.0029997712 0.33001193 -1.1170466 0.4325108 0.04052212 -0.4419115 0.8151841 0.22051546 0.12848753 -0.47407654 -0.33220983 -0.08789546 -0.7836218 -0.11703901 0.24992497 0.024148487 -0.35085192 0.13462763 -0.6052365 -0.3950211 -0.15031677 0.35449 0.08515641 -0.122356236 -0.4113019 0.33991936 -0.044730384 0.854178 -0.45023176 -0.45337474 -0.01451571 -0.40066275 -0.46004337 0.47022706 0.94650924 -0.431797 0.1444039 -0.16419564 0.75975025 -0.97153586 0.18772574 0.20177792 -0.50731575 -0.16525726 -0.55192405 -0.43441105 -0.16236134 0.123142846 0.037828427 0.74211466 0.27837428 -0.60844153 -0.6684598 0.7698678 0.04433935 -0.10136071 0.89859706 -0.10202733 -0.3187061 0.6978185 -0.6979655 -0.33471638 -0.38034296 0.01149165
913 -0.06967606 -0.41255423 -0.2605984 -0.53838813 0.43348542 -0.022105334 -0.69364667 -1.0283604 0.95318633 0.08942814 -0.650505 1.0039861 0.0549701 0.61170334 0.58372736 0.43185282 1.0311062 -0.41656145 0.46365783 0.61973315 -0.1711956 0.7589565 -0.17601638 0.68554795 -0.27773687 0.841838 0.08805981 0.8386595 0.10865839 1.126322 -0.5459288 -0.36337134 0.36021078 0.5611031 0.07403793 -0.11969071 -0.38858768 -0.20521839 -0.2634268 -0.1465032 -0.39795068 0.018392656 -1.0037297 0.1351605 -0.49238816 0.4755687 0.71996874 -0.38025188 0.021863189 0.4368347 0.17396966 0.6842134 -1.0419925 -0.5616563 0.47879913 0.56799257 0.5401461 -0.006236039 0.1605229 -0.11069959 1.0496774 -0.5294093 0.38694903 0.4151693 -0.021917265 0.34215158 -1.14126 0.4441119 0.056333143 -0.4533505 0.8324995 0.19513714 0.15392438 -0.46348137 -0.33913127 -0.10076482 -0.7768532 -0.118776485 0.26078984 0.014078612 -0.37240458 0.13680667 -0.6172845 -0.4053573 -0.15155119 0.33919442 0.07621056 -0.11991453 -0.41487953 0.34028745 -0.04466738 0.86599976 -0.4591071 -0.47381437 -0.0015751316 -0.40734693 -0.4778511 0.47123677 0.9691417 -0.43176898 0.15776822 -0.17588156 0.7762776 -0.976403 0.18428564 0.20936292 -0.5255083 -0.19036888 -0.5429402 -0.43810523 -0.155557 0.1160669 0.025291871 0.7518876 0.2622359 -0.60432 -0.6777563 0.7943739 0.042655185 -0.10893723 0.89604145 -0.10631997 -0.3350591 0.6959439 -0.6868313 -0.3403732 -0.3800197 0.00031114047
144 0.119457915 -0.21958299 -0.113127716 -0.23677811 0.29335937 -0.07040272 -0.47974166 -0.5614075 0.48732826 -0.018128011 -0.31079656 0.45391923 -0.048847247 0.37250942 0.41870293 0.18117231 0.58804065 -0.1639333 0.16760544 0.35639375 -0.14620496 0.5341063 -0.08343692 0.23459782 -0.061656825 0.4399543 0.17808725 0.3505646 0.1334755 0.47419637 -0.2067989 -0.13135184 0.105996154 0.31634197 0.13802777 -0.01081965 -0.10973934 -0.07478651 -0.12434911 -0.016374325 -0.27525082 -0.017801248 -0.47977754 0.0032586933 -0.33540618 0.25079978 0.28453416 -0.26137543 -0.06738134 0.22437729 0.13719375 0.33071962 -0.53605545 -0.38876292 0.216129 0.26419434 0.2760487 -0.0043237414 0.13469751 -0.015262562 0.6309653 -0.25312796 0.25116637 0.20591907 -0.0749257 0.27549502 -0.61693317 0.17359132 0.12357661 -0.16752885 0.44276085 0.03744485 0.23739213 -0.17518021 -0.10614004 -0.18189514 -0.36859185 0.00058552966 0.15501574 -0.03591294 -0.23771088 0.20593782 -0.30128762 -0.22942887 -0.26499817 0.10087363 0.124085195 -0.08213322 -0.24133614 0.16820596 0.003267111 0.4667778 -0.35644308 -0.33957666 0.22082335 -0.17634477 -0.25903082 0.20541471 0.51070845 -0.2732994 -0.022092866 -0.07394475 0.33069113 -0.46689638 0.025362447 0.05639868 -0.36597428 -0.03152774 -0.25417313 -0.089564666 -0.034090593 0.07441945 0.07003527 0.29275733 0.10876127 -0.29196212 -0.3396891 0.41883114 0.06508904 -0.09668556 0.42670703 -0.10533305 -0.26741037 0.31835672 -0.38205174 -0.10080424 -0.24843347 0.006758826
1221 0.05560309 -0.3050196 -0.029373819 -0.30098653 0.31534135 -0.13264742 -0.71926486 -0.9365817 0.78479636 0.18774456 -0.67743504 0.59990555 -0.12705567 0.46441153 0.37892824 0.3930637 0.88991535 -0.36102957 0.3925123 0.44209823 -0.14125109 0.6281537 -0.14810792 0.48334825 -0.20533797 0.66631824 0.09350175 0.5216305 0.12554878 0.8567173 -0.3710093 -0.073628016 0.41693214 0.48711243 0.039359238 -0.17442603 -0.13822635 -0.11249342 -0.14118768 0.16992533 -0.44886434 -0.004513109 -0.6944519 0.12920922 -0.42933843 0.4033645 0.41046092 -0.45593172 -0.10901632 0.26047716 0.26423556 0.7952002 -0.64904976 -0.52594745 0.40736535 0.42102596 0.43782562 -0.012302112 0.3630266 0.10538524 1.0191278 -0.28973022 0.32627583 0.22598486 -0.26209617 0.25082588 -0.8915989 0.32152116 0.033365496 -0.26453272 0.5618196 0.11123522 0.17478411 -0.29342407 -0.13601725 -0.07854456 -0.41774538 -0.14596614 0.19387631 -0.060982235 -0.37024018 0.18123698 -0.5026093 -0.41257045 -0.2551887 0.17263389 0.026631886 -0.15992764 -0.29379082 0.0824775 -0.059241034 0.70724076 -0.4200742 -0.4762061 0.24386033 -0.15970325 -0.46003622 0.34682623 0.68148786 -0.33390054 0.124554306 -0.06525872 0.7323322 -0.8997497 0.10160991 0.09418568 -0.6295156 -0.34627324 -0.30018902 -0.13860624 -0.07525298 0.041921906 0.03569165 0.5281497 0.22118083 -0.36444113 -0.6786254 0.6595604 0.006337948 -0.30474383 0.67334795 -0.13263191 -0.45842043 0.5810308 -0.52434367 -0.29682457 -0.5279091 0.2083209
614 0.16458723 -0.49909353 -0.086788744 -0.4477315 0.30717814 -0.21536297 -0.6826124 -0.9169244 0.7978441 -0.035941347 -0.4546239 0.60277706 -0.08554496 0.58904785 0.58056056 0.17511635 1.119092 -0.48352373 0.30744225 0.59091246 -0.10286303 0.7023703 -0.30201858 0.45631188 -0.36280245 0.8136389 0.23246935 0.6312545 0.24827409 0.8368678 -0.20940949 -0.086832516 0.21789673 0.60203505 -0.0348418 -0.117327206 -0.09832398 -0.20753546 -0.13603742 0.08247657 -0.4426318 -0.10680423 -0.6940347 0.060565643 -0.32239473 0.5060207 0.42192495 -0.59859705 -0.10917074 0.52759165 0.18319601 0.75755286 -0.65873706 -0.5700206 0.46830878 0.54880226 0.6306293 -0.14830498 0.2102821 0.22099982 1.1043565 -0.39409003 0.38808623 0.25639442 -0.01644223 0.3461656 -1.0804918 0.19759606 0.21699159 -0.14503181 0.6763312 0.06992328 0.2810025 -0.38348168 -0.1723267 -0.16381569 -0.5167671 -0.06112265 0.108799614 0.05438814 -0.5110384 -0.001738524 -0.5932581 -0.44345126 -0.25076833 0.20855255 0.18953462 -0.10176214 -0.495345 0.17746341 0.045778345 0.7558131 -0.41242862 -0.6363393 0.12529872 -0.37193805 -0.35369155 0.53774863 0.9250843 -0.4637076 0.17314187 -0.1798894 0.56814355 -0.77380675 0.28149194 0.23537888 -0.719703 -0.1454037 -0.404036 -0.15057743 0.07717074 0.12512214 0.18584841 0.5670512 0.13798474 -0.33976227 -0.5277956 0.6843888 0.11125695 -0.16150358 0.8449439 -0.081082985 -0.47798485 0.6309864 -0.55217546 -0.17337054 -0.5361945 -0.0980791
910 0.012628244 -0.47920987 -0.2648679 -0.56397396 0.48134035 -0.04623689 -0.7690533 -1.1087352 1.0166646 0.061766252 -0.6671461 1.0350796 0.0044401158 0.68745095 0.6928379 0.43436378 1.1479672 -0.41937906 0.46221536 0.7081569 -0.2125532 0.8692152 -0.21660368 0.6661815 -0.2645684 0.9196848 0.18591428 0.8443823 0.15897916 1.1369352 -0.52304274 -0.3971921 0.33146548 0.6314796 0.13942257 -0.09927115 -0.35450068 -0.18092069 -0.28371084 -0.12666316 -0.45442966 -0.016882166 -1.0419179 0.12212385 -0.56482375 0.5170915 0.7166809 -0.4542787 -0.018107727 0.4862716 0.18252753 0.7191337 -1.1056365 -0.66827863 0.5036775 0.58518755 0.60324776 -0.027148176 0.18457201 -0.0846331 1.1804236 -0.5363115 0.4254656 0.41686484 -0.027045002 0.42027342 -1.2466285 0.4287476 0.13316531 -0.43738994 0.9204957 0.18851817 0.26172447 -0.46819913 -0.3327882 -0.19746001 -0.8117754 -0.08947344 0.26376465 0.025924856 -0.45125312 0.19683541 -0.639597 -0.43892297 -0.26432782 0.3091102 0.13750707 -0.12060572 -0.47343388 0.34184602 -0.009136747 0.94655496 -0.55174124 -0.5698069 0.114221826 -0.4166011 -0.48640168 0.50999385 1.0618097 -0.5211541 0.10802871 -0.18804397 0.78605425 -1.019999 0.19394468 0.18701504 -0.6022076 -0.14871354 -0.5817732 -0.39451146 -0.11821325 0.13740535 0.0707399 0.73633814 0.27219206 -0.6083986 -0.7090515 0.84091955 0.091192745 -0.14409505 0.96064156 -0.15289229 -0.4284804 0.7425143 -0.7453755 -0.3116451 -0.46805036 -0.0060799513
841 0.07351049 -0.3032364 -0.040779877 -0.2894675 0.29887307 -0.10994642 -0.66685635 -0.85517275 0.7576828 0.1556838 -0.6242399 0.5856773 -0.104492456 0.44574413 0.38362414 0.3561774 0.8372042 -0.31389028 0.3933126 0.42536834 -0.12529139 0.6108766 -0.13291723 0.44507545 -0.1943376 0.64882505 0.104053296 0.51401967 0.12692632 0.8171041 -0.3700821 -0.10327462 0.34483317 0.47149685 0.040511884 -0.12910739 -0.1446286 -0.10155815 -0.13365684 0.13380401 -0.40496778 0.007639899 -0.6677594 0.12086529 -0.4003347 0.4074278 0.41452062 -0.41476297 -0.103351906 0.2704306 0.23988584 0.7227507 -0.64782876 -0.481763 0.373909 0.4072401 0.41991386 -0.00689703 0.32168493 0.0912112 0.9772731 -0.2918646 0.31740236 0.24132782 -0.22389992 0.26714402 -0.8787773 0.3188815 0.048442468 -0.24447943 0.5623377 0.10371073 0.1738184 -0.27187285 -0.14670475 -0.07330492 -0.42738056 -0.124315314 0.1759637 -0.04879419 -0.35387546 0.1719066 -0.45508218 -0.3932048 -0.25778386 0.1858126 0.037567798 -0.13655896 -0.29486308 0.108925216 -0.03330558 0.66435033 -0.41865742 -0.45287186 0.2210714 -0.18177211 -0.42136297 0.34699357 0.6441809 -0.333615 0.094746806 -0.095641136 0.6783174 -0.85036194 0.106006004 0.0850691 -0.5692744 -0.2829407 -0.31486592 -0.1373534 -0.056965064 0.07145405 0.019289503 0.4936744 0.19554953 -0.35433015 -0.62777483 0.6352532 0.030316005 -0.25652286 0.6294156 -0.14000574 -0.42523506 0.5556671 -0.5246964 -0.23511034 -0.48959902 0.17941648
150 -0.06943732 -0.3814519 -0.1441662 -0.39564833 0.7780324 -0.037017748 -0.871601 -1.1481 1.0690024 0.25504416 -1.2719159 0.6878555 0.16787726 1.1192294 0.63080996 0.5139084 1.1831638 -0.079275146 0.7444244 0.7393969 -0.6901679 1.0758579 0.18655477 0.8739423 0.020452093 0.5004928 0.08177379 0.5995061 -0.20693028 1.1520602 -0.6156116 -0.09613835 0.67428833 0.7044588 0.40653834 -0.17407005 -0.5796868 0.016239766 -0.24430183 0.04305769 -0.27548656 0.09127373 -0.97732246 -0.020307554 -0.7656859 0.3321869 0.53428185 -0.22971664 0.15787727 0.3391508 0.16798055 0.74585986 -0.7885576 -0.97229236 0.33658436 0.49729443 0.61467624 0.23834452 0.29507506 -0.43129027 1.1206137 -0.38105756 0.19000612 0.027280297 -0.57190496 0.2465366 -1.5872318 0.6378605 -0.052025568 -0.49145976 0.36489177 0.33250487 0.21970274 -0.7753065 -0.33497512 -0.28997967 -0.59563905 -0.07995472 0.4987519 0.19605067 -0.40653116 0.5284785 -0.7239109 0.056809127 -0.5403742 0.24252273 0.18539499 -0.36492985 -0.42466852 0.38206083 -0.5761308 0.8626666 -0.7802985 -0.25668293 0.59858173 -0.016219515 -0.45606774 0.30153567 0.9028705 -0.14583068 -0.027684232 0.048170142 0.6743263 -0.78170466 0.1630519 0.07356477 -1.057598 -0.21808244 -0.6424293 -0.101778045 -0.5979157 -0.26302427 0.32265848 0.6902765 0.7565722 -0.586315 -0.93567425 0.6675754 0.022298643 -0.33755863 0.9315588 -0.15465233 -0.48565215 1.0052879 -0.86241484 -0.36254832 -0.39922035 0.5576694
64 0.06879867 -0.26212338 0.0022788097 -0.2612299 0.30827183 -0.14953658 -0.71004957 -0.91774017 0.75984997 0.18752418 -0.6829375 0.54994375 -0.109776385 0.4444373 0.34150994 0.39173332 0.8514049 -0.36326125 0.3987425 0.39919212 -0.12528883 0.6207904 -0.1594107 0.4659839 -0.19941393 0.6480381 0.076520935 0.538375 0.10913635 0.86192334 -0.38375437 -0.033433087 0.39719677 0.47130015 0.013988943 -0.16761185 -0.15554215 -0.14156878 -0.13987385 0.19273086 -0.44945037 -0.0009901689 -0.67413765 0.1302384 -0.38432065 0.4126861 0.41337216 -0.4335107 -0.12633397 0.25706506 0.28748178 0.8039537 -0.62878096 -0.4821126 0.40639615 0.44180092 0.4302153 -0.0017657808 0.3965561 0.12421542 1.0156703 -0.29181895 0.30700415 0.22618681 -0.31585035 0.23362547 -0.89895415 0.35381708 0.030968789 -0.26579875 0.53917897 0.0767744 0.16196243 -0.27418074 -0.14436516 -0.036546372 -0.38673204 -0.17138062 0.19169238 -0.064833865 -0.36837912 0.16589266 -0.49113277 -0.4157073 -0.23604028 0.17203394 -0.01060045 -0.14380828 -0.28201482 0.07281647 -0.06287344 0.66797197 -0.3947803 -0.4691747 0.2248827 -0.15295768 -0.47596177 0.34017557 0.6473208 -0.2873692 0.14337347 -0.078158006 0.75927544 -0.8879713 0.10097182 0.09541671 -0.6095892 -0.39148518 -0.28241378 -0.12685284 -0.063495085 0.03489547 -0.003013363 0.52882683 0.20118587 -0.34408608 -0.67725295 0.68271077 0.004490298 -0.29423314 0.62989694 -0.13746397 -0.4649706 0.55790704 -0.5041125 -0.2740215 -0.5159972 0.23314677
318 -0.023075806 -0.2739619 -0.10933881 -0.29105026 0.5478591 -0.0504531 -0.6466194 -0.86357516 0.75778115 0.14919245 -0.83404064 0.50789714 0.081888296 0.7704123 0.47555634 0.36597863 0.8690486 -0.12654415 0.46725383 0.52274495 -0.45467982 0.769801 0.073757514 0.58242553 -0.012926035 0.39943787 0.08465498 0.43516606 -0.08884447 0.8161315 -0.4027194 -0.06325508 0.44571006 0.49945617 0.28107092 -0.12849422 -0.36919898 -0.019719746 -0.17688167 0.04009172 -0.25255257 0.024214169 -0.702236 -0.008403046 -0.5444096 0.25405303 0.3915234 -0.22136505 0.07017309 0.25861263 0.14927195 0.55206144 -0.5783307 -0.6923625 0.26842704 0.3656138 0.44355324 0.13357362 0.21215011 -0.25471443 0.8276935 -0.28053907 0.1702959 0.05676668 -0.3820307 0.20649964 -1.0935482 0.40663245 0.0064845462 -0.3345959 0.32510456 0.20468923 0.20545912 -0.51643413 -0.21467908 -0.2283663 -0.42604142 -0.05771809 0.34278288 0.11993869 -0.31587246 0.3507766 -0.51714516 -0.020177636 -0.37701458 0.1550352 0.1288591 -0.24235088 -0.30817193 0.2510325 -0.34463587 0.63627166 -0.54532015 -0.24387975 0.42193344 -0.0496507 -0.34480053 0.2281712 0.6791567 -0.15321608 0.0024029708 0.027684053 0.4924764 -0.5855974 0.10756071 0.07319406 -0.74448234 -0.17680623 -0.43606928 -0.084165275 -0.3657996 -0.16374637 0.20908375 0.4919807 0.48933384 -0.41049686 -0.65651846 0.5078607 0.01969399 -0.24300016 0.6737747 -0.11514254 -0.377065 0.67434216 -0.58306986 -0.26376906 -0.31480595 0.343236
149 -0.06577611 -0.32777804 -0.11706048 -0.35109404 0.7223382 -0.05744088 -0.80219775 -1.0692654 0.966761 0.24319881 -1.165512 0.60362136 0.15367132 1.0297991 0.55373657 0.47910815 1.0885158 -0.09870023 0.6605691 0.66100246 -0.64289546 0.9750859 0.15585542 0.79544896 0.013735162 0.4349158 0.06756397 0.530721 -0.20068662 1.0475234 -0.5455837 -0.050855402 0.6436436 0.63260907 0.37994358 -0.17442773 -0.520275 0.0076198126 -0.22554754 0.06291272 -0.27181074 0.06160925 -0.8831952 -0.018191393 -0.700137 0.2873369 0.47561425 -0.21558245 0.13221194 0.29699206 0.1747831 0.6892429 -0.67828816 -0.9038682 0.31455615 0.4531875 0.5716449 0.20979834 0.29039273 -0.3943129 1.0158685 -0.33247837 0.16176495 -0.0011348019 -0.5540629 0.20858666 -1.4488448 0.57161427 -0.04606093 -0.45257753 0.31328923 0.29410693 0.21063732 -0.71446645 -0.28806257 -0.27613917 -0.50942045 -0.075788 0.46108398 0.18331656 -0.38761586 0.4746759 -0.6690858 0.0672255 -0.4810088 0.1942071 0.15908496 -0.33927184 -0.38904107 0.3254731 -0.53974414 0.79155743 -0.709308 -0.24186377 0.57352483 0.0033755696 -0.42031074 0.26015368 0.83248216 -0.11530472 -0.008250869 0.07077582 0.6261004 -0.69852495 0.15034567 0.07241174 -0.98995143 -0.23599558 -0.5590898 -0.08929752 -0.5527375 -0.27856764 0.2990624 0.6304559 0.7033686 -0.5117042 -0.8738218 0.60227144 0.005593953 -0.3335862 0.8475631 -0.13821049 -0.46343222 0.91363144 -0.74970067 -0.35584947 -0.37342077 0.52565473
840 0.05616207 -0.13552254 0.0057858247 -0.13547541 0.18768084 -0.100699514 -0.44748414 -0.5172737 0.43757582 0.09507024 -0.39428866 0.3188337 -0.067643486 0.24763986 0.20112912 0.22053567 0.47691727 -0.20539238 0.22911713 0.21211596 -0.061562885 0.38006905 -0.07773164 0.25328234 -0.109389216 0.36855808 0.04654916 0.32230523 0.07887472 0.49742845 -0.23155165 0.0058720247 0.21697782 0.26205653 0.00057506963 -0.08613738 -0.0791493 -0.09843826 -0.087575406 0.11235676 -0.27769753 0.012246742 -0.3906251 0.06440875 -0.23105597 0.2470467 0.24143621 -0.23961902 -0.085372426 0.14795856 0.19077128 0.45717704 -0.37247774 -0.25957736 0.23344247 0.2634279 0.22571294 0.01467513 0.24767232 0.07913713 0.5923479 -0.18151572 0.2003472 0.16515143 -0.20002785 0.15002486 -0.5140165 0.21989638 0.016893514 -0.15261902 0.30674988 0.024015147 0.09560255 -0.13624439 -0.075482026 -0.013208975 -0.22340873 -0.09289766 0.12524806 -0.07049519 -0.19634327 0.1173529 -0.28475118 -0.25610653 -0.14151645 0.10696911 -0.01794842 -0.09511326 -0.15508501 0.053742357 -0.039311644 0.37220612 -0.23623459 -0.27047536 0.1406518 -0.090723656 -0.2909192 0.18147331 0.3499756 -0.16370383 0.076929376 -0.051344104 0.4453649 -0.51628727 0.02273188 0.048927214 -0.34133425 -0.23010805 -0.14794807 -0.065645665 -0.030089853 0.031633932 -0.019809533 0.30701426 0.10451382 -0.21920195 -0.3835488 0.41205966 -0.009520046 -0.16657995 0.33232868 -0.07906692 -0.2508382 0.29205835 -0.29709947 -0.14718552 -0.279955 0.12797384
316 -0.071245514 -0.32963228 -0.12698522 -0.33429322 0.7431789 -0.027049037 -0.8181724 -1.0490783 0.9905553 0.23007157 -1.2242956 0.60027397 0.17942792 1.0532417 0.5800287 0.48643285 1.0684927 -0.040281326 0.72195923 0.6683216 -0.66018504 1.0183753 0.21251309 0.8271094 0.03859185 0.43529174 0.056512162 0.5802154 -0.21349758 1.0906523 -0.6118188 -0.06015759 0.61651975 0.6482284 0.37880147 -0.15681978 -0.57286024 3.341439e-05 -0.22532447 0.020595834 -0.23594005 0.10438122 -0.9081829 -0.04372828 -0.69612426 0.31705597 0.5117274 -0.17525047 0.16332994 0.32685798 0.16871358 0.6883132 -0.7281515 -0.8698263 0.2991014 0.46227735 0.54756105 0.25486898 0.28384003 -0.42033905 1.0375451 -0.36000037 0.17637765 0.03479246 -0.5891737 0.22575521 -1.4985344 0.64108497 -0.0542033 -0.46065995 0.29916742 0.2893768 0.19111247 -0.7249207 -0.335201 -0.24226725 -0.53432024 -0.09079009 0.4876672 0.16627692 -0.3518356 0.5078248 -0.676926 0.06721707 -0.5160752 0.23969615 0.16205189 -0.36081216 -0.37114927 0.3913772 -0.5741274 0.77840555 -0.7143447 -0.20626825 0.5516164 -0.0111445235 -0.43858477 0.2731308 0.8014462 -0.08734983 -0.045434438 0.038827606 0.6214685 -0.7113792 0.14278926 0.062050506 -0.9884601 -0.22478463 -0.6044745 -0.068657644 -0.59756845 -0.24771303 0.28602293 0.6496282 0.72746533 -0.56702286 -0.86132795 0.6486031 0.0071669533 -0.29712 0.83167785 -0.13853437 -0.43034232 0.91664445 -0.81915313 -0.31700462 -0.3266876 0.5618127
1545 -0.032113176 -0.25751472 -0.15531902 -0.327431 0.2634785 0.00055166986 -0.42997533 -0.6146135 0.58810127 0.060105048 -0.40388903 0.6205217 0.034066495 0.35920686 0.36485487 0.2639614 0.59274954 -0.21775112 0.2951779 0.37848946 -0.113417596 0.47556227 -0.07859825 0.4264873 -0.15946732 0.50677246 0.037219837 0.5183171 0.05982476 0.6818499 -0.3504102 -0.2203792 0.20678052 0.33772218 0.045242026 -0.0541848 -0.2386766 -0.12500934 -0.1465031 -0.1081373 -0.21276821 0.029747754 -0.61484873 0.08042939 -0.2955304 0.29552495 0.4463408 -0.21688579 0.028399507 0.27188393 0.10186589 0.403842 -0.6481568 -0.32287288 0.2840369 0.34772143 0.30530766 0.016883895 0.0924665 -0.06887162 0.62899786 -0.33034822 0.24028598 0.28102747 -0.010062524 0.22369045 -0.69052464 0.27972126 0.021196762 -0.27465883 0.5014872 0.12016555 0.07527818 -0.28352398 -0.20502922 -0.03484215 -0.49130097 -0.062048197 0.16159968 0.005029455 -0.19699562 0.09810364 -0.3629901 -0.24495491 -0.10990469 0.22077274 0.044883605 -0.07258128 -0.25465032 0.22323954 -0.023037087 0.5071415 -0.27664384 -0.27106622 -0.014918823 -0.25783476 -0.29941288 0.28756064 0.557799 -0.24920319 0.066948324 -0.10599549 0.4694464 -0.5959559 0.10634022 0.12111481 -0.3012877 -0.09346654 -0.34200996 -0.26088837 -0.10078111 0.082051724 0.0030488144 0.4492153 0.15699135 -0.38910013 -0.3919648 0.4851569 0.030076845 -0.047345877 0.5221367 -0.05875752 -0.18204696 0.40632868 -0.45110703 -0.18804087 -0.20804307 0.0017686575
1053 0.09423496 -0.17831711 -0.08095956 -0.19379514 0.23130228 -0.057114948 -0.37402242 -0.45498863 0.3957518 -0.012447796 -0.24887036 0.36562756 -0.03385496 0.3050456 0.32377914 0.15392457 0.47880873 -0.13658318 0.155367 0.28820518 -0.111532174 0.42037877 -0.08386865 0.19905142 -0.060394734 0.36930466 0.15141721 0.304806 0.103060275 0.39396167 -0.16956232 -0.12411493 0.07318492 0.26834115 0.11548232 -0.0026219424 -0.099933684 -0.049878906 -0.10432646 -0.014048573 -0.22263806 -0.01746264 -0.38038358 0.017650323 -0.2598055 0.21305144 0.23536459 -0.20796767 -0.05812863 0.18830734 0.09433047 0.27389753 -0.44273108 -0.31259644 0.18820465 0.21946502 0.2333942 0.0045212526 0.11553636 -0.010772633 0.52587426 -0.20698495 0.19423658 0.15273392 -0.06380416 0.22047488 -0.5259429 0.16006406 0.1158692 -0.13358915 0.36977163 0.02268417 0.18564409 -0.14527157 -0.0987994 -0.14312565 -0.2937527 -0.0032627336 0.108664155 -0.006241453 -0.22009292 0.15765719 -0.24081905 -0.18597789 -0.2125696 0.07380476 0.0910517 -0.047741164 -0.19858256 0.13635507 0.006598359 0.38307375 -0.28235698 -0.2714605 0.17206039 -0.14691469 -0.20496766 0.17378339 0.42460623 -0.23698358 -0.009602532 -0.071782604 0.27650508 -0.38291368 0.036000527 0.033059537 -0.28673267 -0.027152874 -0.21260607 -0.076668374 -0.016840281 0.049608555 0.046277754 0.23214564 0.086760074 -0.21495411 -0.2871595 0.3472387 0.05515363 -0.07274086 0.3426727 -0.094441175 -0.22262686 0.2761008 -0.29891667 -0.0773773 -0.20947896 0.008251767
839 0.043206595 -0.1914891 -0.011485862 -0.17366563 0.19904913 -0.08616068 -0.45904702 -0.5768458 0.48952264 0.10100709 -0.4173802 0.35650948 -0.08313127 0.2786559 0.24149513 0.24237657 0.5403586 -0.22224563 0.2525192 0.26046696 -0.07249933 0.39614812 -0.09348056 0.293503 -0.12685804 0.42051858 0.05250891 0.34163633 0.088642344 0.55284524 -0.2373183 -0.033985656 0.22961791 0.30851522 0.014146139 -0.093841866 -0.09770762 -0.08858765 -0.08781505 0.101920106 -0.27533865 0.0014277593 -0.42808658 0.0741968 -0.25241554 0.26592475 0.26915577 -0.28620616 -0.07409013 0.18170577 0.1786448 0.48792455 -0.41449723 -0.30017263 0.2533817 0.27271006 0.263295 -0.0060713943 0.23271994 0.074569374 0.65067077 -0.19162081 0.20918143 0.16722126 -0.17656676 0.16886047 -0.56741005 0.2176558 0.029073862 -0.16062188 0.35595992 0.062037006 0.10752314 -0.1764237 -0.08803507 -0.03881951 -0.25814697 -0.094390646 0.1248965 -0.047593284 -0.22385934 0.101347595 -0.3027319 -0.27228907 -0.1518264 0.12170994 0.01318128 -0.0892448 -0.17605793 0.061614715 -0.026410745 0.42796072 -0.2549424 -0.30090728 0.1346158 -0.115908794 -0.29298326 0.22815968 0.41968545 -0.20069686 0.073672615 -0.060894866 0.46590242 -0.57212347 0.05881344 0.06491846 -0.37521034 -0.22377552 -0.1885396 -0.0845229 -0.03787669 0.04220901 0.002144572 0.33432162 0.12460902 -0.23680434 -0.41610658 0.4371421 0.012159446 -0.1724973 0.40586188 -0.08639174 -0.2810728 0.34450105 -0.33526582 -0.16149423 -0.3207921 0.12770855
320 -0.0045821415 -0.14108083 -0.050682213 -0.15040953 0.29086027 -0.021960486 -0.33797663 -0.43965545 0.40243056 0.08542881 -0.4708384 0.26670086 0.06214751 0.42251724 0.24102652 0.19798122 0.44967476 -0.042294357 0.2793654 0.2781639 -0.2514102 0.42066288 0.04602012 0.32260114 -0.0009162935 0.21104278 0.043444555 0.2447404 -0.06683023 0.4439763 -0.24206933 -0.04086986 0.24243309 0.27100497 0.15036127 -0.055109758 -0.21393143 -0.0014812032 -0.09412921 0.016344724 -0.12249116 0.02554425 -0.37252244 -0.011037479 -0.28208697 0.14280668 0.20996799 -0.09202006 0.041169472 0.13617872 0.06746932 0.28539166 -0.318057 -0.36445925 0.13503349 0.19507134 0.24301852 0.08543454 0.1219976 -0.1479261 0.44610924 -0.15355241 0.08597891 0.021401552 -0.21762551 0.109265395 -0.60924274 0.24844585 -0.0038235474 -0.18509412 0.16443385 0.107350975 0.093689896 -0.27928114 -0.13465361 -0.115482375 -0.22633031 -0.031091675 0.18513896 0.06823053 -0.16888073 0.2013147 -0.2774831 0.002018567 -0.208244 0.08807235 0.067861244 -0.13041785 -0.1668886 0.14814056 -0.20299777 0.3291783 -0.29242924 -0.11274047 0.2270283 -0.023979384 -0.17822862 0.12138011 0.3552414 -0.067731984 -0.0046141576 0.0005680404 0.2681128 -0.30773377 0.05899383 0.021168945 -0.39586484 -0.08752608 -0.24028681 -0.044828817 -0.20532486 -0.08590724 0.10467642 0.26024178 0.26439434 -0.22227773 -0.35013875 0.2719383 0.017316623 -0.12173104 0.35122663 -0.070738554 -0.19336216 0.37162197 -0.32452485 -0.12736405 -0.1551664 0.2001532
61 0.018704932 -0.28873762 0.001124507 -0.26830032 0.30274588 -0.15108408 -0.74374306 -0.97656745 0.78679085 0.22070639 -0.7290918 0.54155403 -0.15307765 0.42859036 0.31541404 0.42210042 0.8806345 -0.40937915 0.39278063 0.39726037 -0.12353587 0.5816962 -0.14688042 0.49809164 -0.22203085 0.6443002 0.031851437 0.48775765 0.11450537 0.89613056 -0.3581285 0.01286075 0.47717682 0.48495692 0.0011977025 -0.22794119 -0.1326489 -0.13587798 -0.122259304 0.23909013 -0.4663862 -0.004288499 -0.6746524 0.15324722 -0.41321048 0.38768327 0.39824948 -0.49422076 -0.13147059 0.23530985 0.31076658 0.8789035 -0.57400423 -0.5075613 0.41270489 0.4259139 0.435977 -0.024620922 0.39983565 0.15070495 1.0241784 -0.26781595 0.30707517 0.20873639 -0.33687595 0.19961323 -0.84680706 0.32244247 -0.009778638 -0.26587102 0.49560785 0.111405425 0.13658035 -0.29758468 -0.09647905 -0.011428117 -0.35234487 -0.19789085 0.21004932 -0.08317948 -0.3548772 0.13670154 -0.5016817 -0.4291759 -0.21504179 0.180455 -0.017223692 -0.16504055 -0.26961797 0.027278 -0.07515733 0.69445634 -0.37853613 -0.47850826 0.24056046 -0.12668534 -0.50353664 0.33553985 0.6397701 -0.2838072 0.17798077 -0.027220553 0.7885916 -0.9479824 0.093470395 0.12239053 -0.64684826 -0.43796125 -0.2596523 -0.12826285 -0.08653584 0.015215716 0.014584967 0.54729223 0.22600847 -0.34623966 -0.723072 0.67396665 -0.024872724 -0.3525089 0.6855867 -0.10860889 -0.48152393 0.5752146 -0.49248618 -0.33653414 -0.5670696 0.26860577
933 0.035831075 -0.3520146 -0.19119354 -0.40781966 0.3721121 -0.048143107 -0.6004587 -0.8372904 0.7602459 0.03797864 -0.49604324 0.7626643 -0.005813479 0.5181836 0.52614367 0.3226001 0.8599774 -0.30797708 0.34382892 0.52072406 -0.15720986 0.6660984 -0.15644576 0.48708117 -0.18651028 0.69202757 0.14836608 0.62879074 0.1254533 0.8433186 -0.39293402 -0.27882904 0.22853273 0.47113457 0.11187965 -0.06364911 -0.26061004 -0.13074572 -0.2025161 -0.08296696 -0.34564793 -0.018008824 -0.7745101 0.08032887 -0.42418006 0.38711235 0.538056 -0.3382118 -0.022559922 0.3554825 0.14975382 0.5355169 -0.8280903 -0.5028272 0.3714828 0.43735182 0.4485748 -0.0070898933 0.15449183 -0.056770697 0.89530146 -0.40466443 0.33484936 0.3172671 -0.03602611 0.325961 -0.94242954 0.32518503 0.107250564 -0.32024604 0.68704385 0.1232042 0.2145821 -0.33603877 -0.23560773 -0.1556554 -0.59972864 -0.05683829 0.20329648 0.007296335 -0.34079874 0.1649979 -0.47371632 -0.33114412 -0.22252274 0.22280952 0.102616556 -0.09136664 -0.34511945 0.25411248 -0.011418982 0.69938636 -0.42499024 -0.42966545 0.10425454 -0.3098553 -0.3775736 0.37455106 0.79345983 -0.38229844 0.06895485 -0.13917144 0.58422697 -0.76374304 0.13191126 0.13789442 -0.45820716 -0.110494584 -0.42880931 -0.27574897 -0.08746143 0.10977428 0.049691647 0.5449957 0.19791155 -0.46340704 -0.53064704 0.6429426 0.06493626 -0.103935055 0.70669365 -0.110590905 -0.32726848 0.54782623 -0.556557 -0.22575651 -0.34668714 0.0033570523
1542 -0.004003468 -0.19505012 -0.109642625 -0.25024173 0.21310887 -0.020048168 -0.34678736 -0.48173982 0.4545515 0.04576468 -0.31163377 0.46792302 0.014245701 0.3048666 0.2847807 0.19935103 0.49425513 -0.18191217 0.21286751 0.2966345 -0.090134114 0.38001212 -0.08360815 0.30292854 -0.12163267 0.39851996 0.061739534 0.38563836 0.05521423 0.50858796 -0.25521216 -0.16856016 0.16562283 0.26825932 0.047986235 -0.043346856 -0.16297157 -0.0917724 -0.12719136 -0.051610705 -0.1998754 -0.0018258485 -0.46973625 0.05758204 -0.24646418 0.22892132 0.3200778 -0.18377256 0.0024074786 0.20034352 0.08850797 0.32375047 -0.4831926 -0.28415847 0.22275454 0.26620317 0.2604289 0.007389158 0.08760465 -0.049773872 0.51176304 -0.2437295 0.18296073 0.18538167 -0.026632147 0.17228758 -0.5490448 0.20802377 0.032216035 -0.20586826 0.39103368 0.08490543 0.09613893 -0.2140885 -0.14614366 -0.05965429 -0.35696596 -0.040117502 0.11953566 0.004823296 -0.18330145 0.09374238 -0.2871025 -0.19350122 -0.10522286 0.14556707 0.0395397 -0.059628587 -0.20374294 0.15397148 -0.020776901 0.40671268 -0.24036214 -0.24193053 0.035854068 -0.17537142 -0.2232233 0.21376559 0.456857 -0.21257275 0.060809452 -0.074283 0.35531452 -0.45516333 0.082079545 0.082821004 -0.26561382 -0.07998353 -0.25083625 -0.18564528 -0.06419989 0.048306588 0.019905265 0.336666 0.11957132 -0.2785825 -0.3247258 0.3756034 0.029389877 -0.05921749 0.41193268 -0.059644457 -0.17560446 0.3317026 -0.3267052 -0.15155753 -0.19309105 0.0031455676
1543 -0.00014435593 -0.19225326 -0.10582787 -0.22071703 0.18465969 -0.005956993 -0.3174635 -0.43267697 0.40818495 0.012802147 -0.26450384 0.4080448 -0.0032803656 0.25772303 0.2923438 0.1701214 0.4404917 -0.14992186 0.19196026 0.2745328 -0.06774171 0.34533647 -0.064221136 0.27153367 -0.10421673 0.36969477 0.058409143 0.3457556 0.0690799 0.45538914 -0.21934594 -0.15825018 0.1011167 0.24807258 0.041988492 -0.03409427 -0.15090516 -0.0819683 -0.10177551 -0.06411929 -0.16292839 0.0065478133 -0.4118996 0.046754755 -0.20982033 0.21603467 0.3035403 -0.180008 0.00084851927 0.20241228 0.076553024 0.28476703 -0.45025504 -0.23684877 0.195635 0.23698583 0.21405262 -0.0018659754 0.059464406 -0.030199926 0.47863513 -0.22178802 0.18593626 0.19894196 -0.013293923 0.1797611 -0.48376444 0.18199676 0.05136067 -0.16456906 0.36264753 0.07746381 0.09006993 -0.18017945 -0.13152412 -0.056444753 -0.33183703 -0.035684448 0.10747647 -0.00945107 -0.15208763 0.081148595 -0.24384965 -0.19034411 -0.1087957 0.1460459 0.05757901 -0.048888773 -0.17528999 0.1514182 -0.0049770074 0.3639082 -0.21381114 -0.21312816 0.01606445 -0.17623512 -0.2053853 0.20960303 0.40263176 -0.19074114 0.028241912 -0.08598746 0.29626444 -0.42010027 0.07095303 0.08089561 -0.22206102 -0.04955929 -0.2363637 -0.15011017 -0.058176346 0.07891464 0.021837499 0.2957785 0.09727114 -0.26387075 -0.26676777 0.3544211 0.03456065 -0.034674678 0.36541092 -0.05073686 -0.14392138 0.27219686 -0.31563818 -0.11219849 -0.16005802 -0.0073518944
317 -0.03760195 -0.2815997 -0.109786056 -0.27765563 0.6231779 -0.03899747 -0.7029551 -0.8907458 0.8178435 0.15909368 -0.97815603 0.5004793 0.11382653 0.8584094 0.51468784 0.39695987 0.9056248 -0.058441896 0.5656011 0.55644166 -0.5275838 0.864532 0.14312863 0.6615497 0.029478021 0.39410686 0.07087151 0.48999718 -0.1392487 0.90221477 -0.4847488 -0.046264037 0.4749872 0.54162437 0.31735957 -0.12616 -0.45481843 -0.018191159 -0.18653218 0.016343998 -0.22652665 0.06802095 -0.74913 -0.042902287 -0.58128726 0.273945 0.43163967 -0.18564649 0.11039197 0.2921495 0.15475774 0.5741831 -0.6231779 -0.719147 0.26382425 0.3930612 0.4501537 0.18967101 0.24152878 -0.31461412 0.8966521 -0.3088066 0.17774373 0.059660885 -0.48864174 0.2158212 -1.2350055 0.515088 -0.008085903 -0.37591296 0.28548694 0.21889669 0.19235167 -0.5777671 -0.26690516 -0.22090378 -0.44671726 -0.068747446 0.39959508 0.12035409 -0.30497196 0.4169441 -0.56547207 0.01695576 -0.44019398 0.1967712 0.1453717 -0.29582626 -0.3075651 0.3227014 -0.44319156 0.66286 -0.5948629 -0.2083396 0.46411264 -0.029758897 -0.37550136 0.23966324 0.6869858 -0.0931843 -0.035841327 0.01759787 0.52021325 -0.6052584 0.11016354 0.063886285 -0.8152093 -0.18190634 -0.4925645 -0.050893124 -0.4648307 -0.17763577 0.2278848 0.5371839 0.57675135 -0.47458753 -0.70396847 0.5623389 0.011651551 -0.24387497 0.69593894 -0.12641725 -0.37634006 0.7333971 -0.67392224 -0.24915422 -0.2815894 0.43525872
60 0.049439583 -0.21358973 -0.006768643 -0.20402981 0.24359596 -0.11326973 -0.5661524 -0.72916436 0.60247517 0.1339741 -0.5287377 0.4343631 -0.09936235 0.34792587 0.284885 0.29908726 0.67194194 -0.2867984 0.2990716 0.31674773 -0.09948637 0.49028525 -0.1263832 0.3612548 -0.15526636 0.5145841 0.06761354 0.420046 0.10030119 0.670973 -0.2894562 -0.02699614 0.30602145 0.3758626 0.014438984 -0.13184118 -0.113075055 -0.11280923 -0.10560679 0.14809632 -0.35398665 -0.005132441 -0.53238237 0.10020956 -0.30984926 0.32157055 0.32208845 -0.3511492 -0.107006975 0.20662105 0.22679085 0.6313131 -0.49907914 -0.38564593 0.31655663 0.3415445 0.3266569 -0.010321561 0.30045494 0.10720108 0.80545175 -0.22768262 0.2562812 0.19348386 -0.23450235 0.19525063 -0.6889117 0.26311323 0.031085046 -0.20539209 0.42912567 0.06337524 0.13440251 -0.21588054 -0.0985981 -0.035800856 -0.30817944 -0.13355707 0.15720153 -0.057099324 -0.28558964 0.12877204 -0.38037845 -0.33584872 -0.19201426 0.13482954 0.003970835 -0.117288254 -0.22096084 0.056102842 -0.038678974 0.53127587 -0.3104846 -0.3752593 0.18249877 -0.131761 -0.3724978 0.26798043 0.5088089 -0.23895565 0.10957347 -0.055846363 0.59018695 -0.7051407 0.0739238 0.076165125 -0.48251793 -0.2938068 -0.21823159 -0.09460761 -0.047079306 0.042218514 0.0005780091 0.41245902 0.15329106 -0.28039366 -0.5220734 0.54126585 0.006063938 -0.23385814 0.5023323 -0.10086394 -0.3644678 0.4306178 -0.40232798 -0.21702415 -0.40780646 0.17203225
427 0.101632364 -0.1680634 -0.076779015 -0.18196324 0.19779368 -0.036515955 -0.32041925 -0.37817124 0.3506315 -0.018564293 -0.21847935 0.32833624 -0.035045687 0.27212194 0.30520388 0.12248524 0.4252364 -0.09024721 0.14652412 0.26387903 -0.08810334 0.3901367 -0.07538644 0.17597266 -0.053469714 0.34439814 0.15310216 0.29395005 0.0950231 0.34614164 -0.16405503 -0.13957202 0.036776114 0.24235871 0.09369753 0.0075510573 -0.09075739 -0.0416677 -0.09176357 -0.026649566 -0.18516631 -0.017203916 -0.3442579 0.014421563 -0.2171725 0.21521981 0.22453836 -0.18390065 -0.03926726 0.18734358 0.07949541 0.223968 -0.41642204 -0.26030183 0.16897121 0.20263103 0.20624335 0.0059622573 0.09641239 -0.0034690618 0.47090968 -0.18730433 0.18141864 0.15444674 -0.03946988 0.21554065 -0.4771566 0.15123694 0.10830043 -0.11717234 0.34673494 0.023130473 0.16884103 -0.11738789 -0.11521706 -0.13715255 -0.28975344 0.010335604 0.088160336 -0.0026223736 -0.19240893 0.13908812 -0.21579775 -0.17793241 -0.20504738 0.08423732 0.09044829 -0.03932094 -0.17451976 0.13203257 0.023092328 0.32773674 -0.25319648 -0.2454777 0.13159323 -0.13731764 -0.16363184 0.1745928 0.37924716 -0.22295867 -0.025952699 -0.09403366 0.23601612 -0.342176 0.045248542 0.02755591 -0.23616843 0.0028418314 -0.21605907 -0.069832474 -0.009843914 0.07483644 0.04463379 0.21041852 0.07482383 -0.20675243 -0.23198952 0.31284502 0.070936106 -0.049075756 0.30014136 -0.08852866 -0.19938426 0.24033993 -0.29622787 -0.03829546 -0.17757669 -0.0051211216
62 0.009550943 -0.24222177 0.016157955 -0.23510456 0.2718578 -0.13814464 -0.69253135 -0.9020078 0.73219365 0.22810976 -0.71114135 0.519521 -0.12761581 0.38763133 0.25935566 0.39663503 0.7965657 -0.38532558 0.38457072 0.34835458 -0.116791025 0.5386014 -0.12439255 0.47525305 -0.20457618 0.58268297 0.014554748 0.4638733 0.08873969 0.84154165 -0.36314744 0.023035463 0.4739859 0.44521916 -0.017286194 -0.20715207 -0.136789 -0.13264012 -0.111834124 0.2348418 -0.4299279 0.011242193 -0.6388204 0.1476262 -0.37613866 0.3613148 0.36560947 -0.43824464 -0.1111823 0.205338 0.296895 0.839143 -0.5342345 -0.45557523 0.38594374 0.41077536 0.39101857 -0.00080513797 0.39304978 0.13415655 0.947215 -0.254798 0.26962838 0.19591233 -0.33653307 0.16236013 -0.79378736 0.320782 -0.035598747 -0.25638634 0.44143656 0.09810147 0.09697042 -0.2751 -0.09148509 0.025501946 -0.32888007 -0.2002863 0.20338869 -0.091238596 -0.31974566 0.14140476 -0.48067853 -0.4058888 -0.18887778 0.16978407 -0.04198776 -0.15954043 -0.2426113 0.018500984 -0.08840803 0.63782793 -0.34583694 -0.4349519 0.21362396 -0.1116832 -0.47686926 0.2979755 0.5771833 -0.24565025 0.18830091 -0.018779768 0.7641137 -0.89115494 0.0769044 0.100189865 -0.6008587 -0.4412478 -0.22628288 -0.117770985 -0.08571142 0.006003659 0.00042927338 0.52651197 0.21125638 -0.3238015 -0.68964046 0.6346068 -0.029915033 -0.33841404 0.61878407 -0.098151386 -0.44312024 0.549749 -0.46652624 -0.32496804 -0.51973015 0.2731827
319 0.021953192 -0.18498623 -0.06560397 -0.20093814 0.37592703 -0.03849511 -0.4476548 -0.5679627 0.5290038 0.08115787 -0.56888914 0.36404967 0.057629403 0.53166604 0.3386914 0.23806962 0.59500265 -0.06024429 0.3377979 0.36680353 -0.29871076 0.57163614 0.025601473 0.3854121 -0.0079681175 0.317153 0.102416545 0.34817177 -0.04764487 0.5672579 -0.3072947 -0.070328206 0.26077804 0.357704 0.1881619 -0.04374552 -0.25795907 -0.02015117 -0.13208275 0.010390238 -0.18936147 0.027836848 -0.49392134 -0.019821733 -0.3667077 0.2130975 0.28806707 -0.13534638 0.03670241 0.20527492 0.10158677 0.36180952 -0.45309743 -0.4611287 0.19034377 0.27407274 0.3081756 0.09926927 0.1651393 -0.16573049 0.6099293 -0.22128579 0.14063066 0.07153375 -0.25237957 0.1679954 -0.80332905 0.31918508 0.029411545 -0.2389785 0.26798418 0.1175369 0.15199071 -0.3256671 -0.17923318 -0.15512684 -0.3192466 -0.029938405 0.21710175 0.066591665 -0.23347983 0.2558451 -0.35115448 -0.04321337 -0.2816671 0.10391017 0.09115714 -0.1448717 -0.22067483 0.20238028 -0.22203922 0.44068873 -0.3820948 -0.18226027 0.2833948 -0.059326217 -0.24199264 0.17552924 0.47811002 -0.12898439 -0.026708081 -0.03125807 0.35199136 -0.4034875 0.0759534 0.0285096 -0.48690322 -0.096628025 -0.320143 -0.05540446 -0.22433896 -0.07783848 0.12874104 0.33466956 0.30589172 -0.2919262 -0.4349085 0.38626197 0.03762925 -0.13736582 0.44708228 -0.098719314 -0.26398763 0.45256245 -0.42628026 -0.13628672 -0.2007173 0.21808922
1242 0.049080577 -0.16164285 -0.07920181 -0.16326937 0.17164987 -0.023935406 -0.26919824 -0.3470218 0.32048094 0.015265368 -0.20071271 0.30594075 -0.02973565 0.2254469 0.24755205 0.121223204 0.37626454 -0.10524825 0.116912484 0.2331059 -0.09315621 0.30052716 -0.050834946 0.1647315 -0.057101868 0.2855076 0.10065543 0.20047674 0.077822246 0.3039349 -0.13070051 -0.10694018 0.09471697 0.21055283 0.08654885 -0.016694563 -0.06985261 -0.020197151 -0.07783448 -0.011729124 -0.14876789 -0.021567693 -0.2979754 0.023561694 -0.21798502 0.14213939 0.1865416 -0.16311897 -0.024234965 0.14175081 0.06460134 0.21621455 -0.32984903 -0.26096392 0.13812263 0.16028039 0.18394823 -0.012759547 0.06470223 -0.02327215 0.3750978 -0.15371935 0.14407079 0.10454098 -0.01244056 0.15840918 -0.38595617 0.094662644 0.0587475 -0.10507333 0.27096897 0.05428339 0.13064209 -0.12679385 -0.0627744 -0.11477646 -0.23919563 0.0013897478 0.085509054 0.0030913823 -0.15771684 0.11014553 -0.1856179 -0.122732356 -0.15861431 0.07644401 0.07815293 -0.053778693 -0.15724477 0.088576935 -0.0003051594 0.30653703 -0.22462311 -0.20582137 0.12134173 -0.10491117 -0.14497791 0.13885365 0.32207423 -0.18934849 -0.007662575 -0.039487157 0.20972054 -0.29947594 0.04357971 0.039772145 -0.2310403 -0.010250024 -0.16558169 -0.06833051 -0.026656127 0.033563342 0.06559116 0.18123327 0.0905499 -0.17523937 -0.2287853 0.23999496 0.04771138 -0.07219546 0.29806992 -0.0507142 -0.15796337 0.23745526 -0.24514103 -0.080915056 -0.17795594 0.0020269733
59 0.04059351 -0.22775204 -0.023651788 -0.21592358 0.23156562 -0.0897387 -0.53670657 -0.6860039 0.58480304 0.13857223 -0.51692295 0.4488261 -0.088384464 0.33457908 0.284431 0.290723 0.64709586 -0.25356415 0.30084005 0.31631115 -0.10711283 0.4649662 -0.09467777 0.3610894 -0.14809561 0.49290153 0.053686388 0.38260156 0.08926167 0.6409676 -0.28236407 -0.052698757 0.3003266 0.36138496 0.02486156 -0.1285107 -0.10955989 -0.09299164 -0.10428092 0.12510456 -0.31993645 0.008427835 -0.5175609 0.10237166 -0.30868894 0.30242074 0.30843574 -0.33260491 -0.07980588 0.19769107 0.2009919 0.5989465 -0.481696 -0.3834761 0.2892738 0.31684628 0.315185 -0.006171169 0.26454782 0.08093543 0.75800204 -0.21861756 0.2392926 0.17444587 -0.20598367 0.18823774 -0.660395 0.2458565 0.013580586 -0.19275044 0.40334514 0.082250044 0.11257934 -0.21903798 -0.09840994 -0.036798157 -0.31700444 -0.11775299 0.14944544 -0.04940543 -0.26023915 0.13403898 -0.3658493 -0.30658183 -0.19382839 0.14687563 0.020470025 -0.122854136 -0.21526955 0.065291554 -0.047407765 0.51286966 -0.31127217 -0.35207075 0.17517072 -0.11866923 -0.34566897 0.2511601 0.48504156 -0.23506936 0.09481342 -0.045839977 0.5513023 -0.67759085 0.07135732 0.06900575 -0.46107814 -0.2528058 -0.22205013 -0.095524855 -0.056637794 0.035078768 0.01862809 0.39202905 0.16364588 -0.27191088 -0.5077829 0.49470478 0.010080045 -0.21669169 0.4916925 -0.09119962 -0.33320838 0.43118086 -0.40067196 -0.20774992 -0.3870999 0.1624624
1638 0.13168763 -0.32055455 -0.09340302 -0.2670214 0.31193572 -0.050334025 -0.49824905 -0.70681673 0.5779677 -0.008130977 -0.33731946 0.5305947 -0.047493614 0.46608847 0.46065268 0.24356787 0.72831476 -0.23814274 0.18283193 0.4621739 -0.16186811 0.563877 -0.12773421 0.30272427 -0.15956342 0.5556131 0.26094404 0.39068505 0.1873711 0.5762804 -0.2617653 -0.24743474 0.10464865 0.44677243 0.12452343 -0.012690557 -0.11741625 -0.079530455 -0.11893569 -0.032319006 -0.3287616 -0.04440838 -0.5214831 0.019814484 -0.37449062 0.34080583 0.36915675 -0.3373989 -0.0656613 0.29034197 0.17356084 0.39727613 -0.6494973 -0.46244276 0.33858284 0.2871701 0.39995855 -0.026233293 0.16049173 -0.00010465699 0.77799535 -0.3233658 0.27421662 0.18853289 -0.066011205 0.33860353 -0.7538621 0.1918359 0.14279722 -0.18248898 0.59217 0.048831623 0.2825359 -0.24355038 -0.10144912 -0.22496395 -0.4353764 -0.02405239 0.11693192 0.026702523 -0.3453082 0.17307699 -0.38409054 -0.2844615 -0.26183933 0.087784715 0.13485198 -0.078992054 -0.2944202 0.14603738 0.044949986 0.56801575 -0.4055508 -0.38036004 0.24173689 -0.23532496 -0.28374743 0.28915247 0.66718155 -0.3575085 -0.014405191 -0.15378693 0.40971014 -0.58715576 0.10025308 0.10237229 -0.3979738 0.0065563484 -0.32210603 -0.11930856 -0.012675722 0.097779915 0.075211 0.35118583 0.13813603 -0.32506895 -0.45155492 0.5001696 0.10795346 -0.08372273 0.55352384 -0.12413432 -0.33529162 0.39053366 -0.4748933 -0.117186 -0.36778516 -0.043327205
1639 0.14170405 -0.3517166 -0.096616134 -0.293462 0.30273396 -0.025641821 -0.49094906 -0.6991311 0.6159232 0.0021558276 -0.36130297 0.57878214 -0.03564873 0.4802256 0.48654488 0.251632 0.7547032 -0.2105103 0.2355929 0.50127107 -0.164215 0.58942384 -0.121007405 0.3226818 -0.15947984 0.602449 0.27060184 0.43283966 0.18344027 0.6083943 -0.30172625 -0.30718526 0.089159176 0.46367967 0.12701364 0.008235429 -0.14250228 -0.06309413 -0.12588723 -0.057201624 -0.31600723 -0.025661932 -0.552804 0.029941065 -0.37996203 0.37749282 0.40034312 -0.33696607 -0.044898674 0.31295678 0.1409311 0.4053276 -0.7068272 -0.46656898 0.34555826 0.3046224 0.41524455 -0.020130536 0.14644854 -0.010269656 0.8200043 -0.3411467 0.28865525 0.19809519 -0.04222023 0.36259365 -0.81242704 0.22603495 0.15237297 -0.1831468 0.6443674 0.07426089 0.2771278 -0.2635927 -0.14371261 -0.22856739 -0.49504507 -0.027379835 0.09711406 0.038862996 -0.35572895 0.18028904 -0.38808355 -0.29657528 -0.2802639 0.11801008 0.1495243 -0.077398 -0.31996882 0.1709812 0.06176799 0.5876546 -0.42429072 -0.38144824 0.21988666 -0.25447753 -0.26900017 0.32913545 0.6896075 -0.39153314 -0.03836434 -0.19261907 0.42173207 -0.6178065 0.13315605 0.084520295 -0.39156085 0.03713979 -0.36583513 -0.13391252 -0.0067634257 0.1281487 0.06956454 0.359928 0.14796029 -0.3466028 -0.44738787 0.52540517 0.14224425 -0.068923734 0.57385194 -0.13436115 -0.33717135 0.43382844 -0.53082764 -0.091664985 -0.3697058 -0.041343153
1859 0.057953537 -0.096592814 -0.033622753 -0.10369774 0.12328697 -0.03305254 -0.20332256 -0.24084403 0.21809717 -0.00092223956 -0.14357351 0.2001574 -0.021016467 0.1684435 0.17814727 0.07728722 0.25865042 -0.06521554 0.086752 0.1528808 -0.06454062 0.23820306 -0.0469364 0.112786226 -0.035313267 0.20179573 0.08536849 0.16918689 0.051388662 0.21432924 -0.101595454 -0.061969824 0.041790955 0.14808403 0.05794328 -0.00090642215 -0.05058041 -0.03145495 -0.06120352 -0.0066602305 -0.12296342 -0.013667765 -0.2119718 0.0063789194 -0.13970615 0.117501296 0.13321131 -0.10707988 -0.029283581 0.10322583 0.052320983 0.1540264 -0.23710258 -0.17107368 0.09788651 0.12078715 0.13036877 0.0008833421 0.06369626 -0.012209103 0.2802716 -0.11462357 0.09863115 0.08766906 -0.034016922 0.1207545 -0.29243797 0.08858779 0.06333492 -0.073363304 0.20388147 0.019133324 0.10313913 -0.07970965 -0.06096815 -0.072529055 -0.16595565 5.8670692e-05 0.06271553 8.4206826e-05 -0.119449794 0.081081 -0.13451111 -0.0972419 -0.112846255 0.040309403 0.044672288 -0.03382499 -0.10556968 0.07042022 -0.004837305 0.19764267 -0.15390565 -0.14084582 0.08885059 -0.07541655 -0.1120003 0.09642893 0.23057054 -0.12140797 -0.0015668022 -0.0398658 0.15334494 -0.20137282 0.020292245 0.021722807 -0.1626001 -0.024906222 -0.1209728 -0.039519273 -0.00803976 0.03174525 0.026895639 0.13482283 0.05119069 -0.12421178 -0.15736291 0.1942696 0.034268424 -0.036856093 0.18130319 -0.051580694 -0.121640034 0.15535642 -0.16588147 -0.035743885 -0.11567659 0.0077178464
63 0.053185116 -0.19255812 -0.0040598447 -0.19439201 0.22775863 -0.10122906 -0.5174782 -0.66030353 0.5554949 0.13196042 -0.49065748 0.41216782 -0.08167915 0.3248856 0.25838733 0.281262 0.61896616 -0.26426706 0.28268218 0.29166862 -0.0928739 0.44857824 -0.11514775 0.3371094 -0.14214534 0.47506574 0.06268187 0.38743803 0.08499017 0.6221635 -0.27549025 -0.030650623 0.28994367 0.34550115 0.01652191 -0.12002424 -0.10957745 -0.093466826 -0.10522832 0.13728176 -0.32915 -5.609482e-05 -0.494473 0.09502746 -0.29009324 0.29727575 0.3006744 -0.31069773 -0.094174355 0.18598245 0.20595959 0.57368034 -0.4639276 -0.3635129 0.2886771 0.31281766 0.3100374 -0.0028145567 0.28120303 0.0827096 0.7337251 -0.20860678 0.22674565 0.16774178 -0.21435955 0.17900807 -0.651385 0.24929246 0.026025679 -0.19614193 0.39786252 0.058563933 0.1175729 -0.20487714 -0.10015913 -0.035782237 -0.29157543 -0.11620767 0.14462034 -0.046765704 -0.26523268 0.12939171 -0.35651526 -0.29512355 -0.17914385 0.11835197 0.00247258 -0.10322627 -0.20725498 0.052508187 -0.038658988 0.49116153 -0.2884915 -0.33956105 0.16797785 -0.11782145 -0.33927414 0.24009942 0.47677472 -0.21848504 0.10151744 -0.057198584 0.544881 -0.6390707 0.066485785 0.06273368 -0.44486284 -0.2712463 -0.20470867 -0.09304496 -0.04125166 0.02242778 0.0042024762 0.38173133 0.15112637 -0.25078422 -0.49058732 0.48849663 0.0055641215 -0.21517429 0.4645281 -0.098320246 -0.330939 0.4065717 -0.36992747 -0.19866137 -0.36957136 0.1595538
1544 -0.025236558 -0.17998374 -0.10962428 -0.25408494 0.19956912 0.0015662995 -0.3206764 -0.46002927 0.444963 0.05776666 -0.32907963 0.48338008 0.040474612 0.28104833 0.26274428 0.20511891 0.44860333 -0.16501947 0.24525006 0.29036775 -0.092839435 0.36883107 -0.05910583 0.3317817 -0.118523754 0.3831669 0.025320137 0.4084887 0.027034985 0.5241841 -0.28381357 -0.17382668 0.17639576 0.2507615 0.03515333 -0.03463557 -0.19363014 -0.08740465 -0.118044354 -0.07926175 -0.15835898 0.033224266 -0.4789988 0.06414989 -0.2216523 0.22856933 0.34356827 -0.14782265 0.028937502 0.19489053 0.06854201 0.30642533 -0.50232655 -0.25443488 0.21608326 0.2747722 0.24650995 0.024098704 0.08105829 -0.07006136 0.4747775 -0.25078055 0.17343329 0.20547687 -0.013211355 0.16349252 -0.5547151 0.23706728 0.010394103 -0.21887384 0.38225797 0.08966412 0.04442246 -0.21867707 -0.17069712 -0.016979864 -0.38296273 -0.047776133 0.12234674 0.012238923 -0.16024601 0.08928331 -0.28653485 -0.18096869 -0.07704748 0.1670716 0.021746207 -0.052347776 -0.20141532 0.17071164 -0.029753596 0.38601217 -0.21542712 -0.19465435 -0.011354105 -0.18484361 -0.22011301 0.21670756 0.42792815 -0.18505931 0.05432173 -0.087757275 0.3727242 -0.4510236 0.08634021 0.08459773 -0.22991548 -0.083551 -0.26191235 -0.20556234 -0.08427333 0.05112205 -0.0030924783 0.3500472 0.12201163 -0.2884598 -0.31664738 0.36740837 0.026577631 -0.03696042 0.39472184 -0.049109716 -0.13519156 0.3310076 -0.3483364 -0.14606647 -0.15896636 0.0143683525
532 0.0831406 -0.1401469 -0.07194904 -0.14254594 0.16949256 -0.024556026 -0.27805245 -0.2971285 0.2944329 -0.031343207 -0.1857489 0.2879936 -0.025357947 0.22620486 0.27471423 0.10933512 0.3418452 -0.06416386 0.1379669 0.2182426 -0.073195875 0.34299716 -0.0469627 0.14123638 -0.032466047 0.29438743 0.12112141 0.254937 0.085600175 0.287771 -0.1514566 -0.12169478 0.014717924 0.1948872 0.08088688 0.01846598 -0.078750655 -0.036309294 -0.08541031 -0.042928535 -0.13672438 0.004077708 -0.2944058 0.0029839117 -0.192012 0.1863785 0.19431502 -0.14485891 -0.01922919 0.15701576 0.06307483 0.18042761 -0.36533335 -0.21348737 0.13232137 0.16759545 0.15772918 0.011988618 0.071014166 -0.013135008 0.39838663 -0.17560239 0.161337 0.14906065 -0.027913217 0.19640681 -0.40445367 0.13947329 0.09617195 -0.08964198 0.29955733 0.011796318 0.14406641 -0.095871426 -0.09913971 -0.10237433 -0.24719255 0.007650685 0.08579573 -0.021829486 -0.1420551 0.13535422 -0.17759287 -0.14833868 -0.17584047 0.089019775 0.077058166 -0.035876025 -0.144619 0.12520367 0.009120498 0.2738022 -0.2214504 -0.19470918 0.103989266 -0.1241275 -0.13915527 0.1475728 0.30250898 -0.18192561 -0.03930891 -0.083866835 0.18789738 -0.28986922 0.030942041 0.019762231 -0.18491657 0.01767608 -0.19033036 -0.053027313 -0.0071695913 0.08492602 0.02888366 0.17296094 0.06066641 -0.18870565 -0.18418214 0.27065763 0.062263906 -0.023421567 0.22939049 -0.07195038 -0.14307706 0.1899057 -0.26481116 -0.013654638 -0.13016973 -0.009345873
889 0.1486575 -0.34517622 -0.046639513 -0.32796612 0.24051856 -0.1755823 -0.5070135 -0.644448 0.5719737 -0.017182864 -0.35971528 0.44874495 -0.027865581 0.46720207 0.39561322 0.113374084 0.8247984 -0.34687546 0.24893467 0.43813786 -0.09962125 0.54425734 -0.22777428 0.3312423 -0.27138767 0.57633084 0.17805956 0.507639 0.15365334 0.5976689 -0.19534606 -0.056353252 0.1788599 0.4375019 -0.036392335 -0.0565999 -0.08395903 -0.15489939 -0.123792045 0.081782304 -0.32872167 -0.059301857 -0.5322494 0.0452072 -0.23686914 0.38147536 0.29839268 -0.3946181 -0.068357654 0.38111603 0.12547854 0.54828876 -0.5017985 -0.4285245 0.35173687 0.43486562 0.4785395 -0.08261154 0.17853442 0.1392098 0.7919897 -0.303276 0.27776322 0.17033273 -0.024264945 0.2411542 -0.8513347 0.18804277 0.14003026 -0.11540217 0.485165 0.030128606 0.20240538 -0.28081766 -0.15807703 -0.10984419 -0.38694116 -0.032756757 0.07447555 0.050561775 -0.3899432 0.023345573 -0.4565958 -0.32312047 -0.18721029 0.14418383 0.114644386 -0.072759256 -0.39093456 0.15153752 0.0068320385 0.5478242 -0.31730673 -0.47402787 0.11330272 -0.26395726 -0.25662118 0.38455296 0.67950493 -0.3354257 0.1337172 -0.141894 0.44164 -0.5414383 0.213232 0.16181114 -0.54981446 -0.104815364 -0.2917697 -0.1080759 0.06874776 0.061526008 0.12620057 0.42306155 0.09798267 -0.23781715 -0.3961265 0.5083547 0.0929943 -0.11491656 0.59491605 -0.074109346 -0.35683474 0.50475836 -0.41926455 -0.11808177 -0.37316644 -0.072845325
1684 0.13125774 -0.3346568 -0.104164556 -0.26251236 0.27065265 -0.024813352 -0.4553735 -0.6571321 0.566376 -0.017973293 -0.3093655 0.5220265 -0.058386438 0.42550427 0.47229195 0.2271404 0.69322777 -0.20408534 0.20414901 0.46280926 -0.1399914 0.5324317 -0.115860425 0.2908638 -0.16109417 0.5732842 0.2544046 0.38866058 0.19230385 0.56024337 -0.25928053 -0.27883026 0.059114814 0.43790528 0.10305514 0.0020625375 -0.11916477 -0.07098123 -0.11350925 -0.060761195 -0.28395346 -0.025242085 -0.5009981 0.033755537 -0.3404451 0.3468125 0.36602822 -0.3317083 -0.042098872 0.3043619 0.1348582 0.37991717 -0.6484722 -0.41913548 0.31803912 0.27588943 0.37164775 -0.035472974 0.122257195 0.00717116 0.7616498 -0.31266955 0.28148705 0.19580857 -0.03555492 0.34168226 -0.7244162 0.1939476 0.15338844 -0.1560712 0.59591657 0.060947727 0.25649425 -0.23566417 -0.12464568 -0.21314587 -0.44809398 -0.03194003 0.08132808 0.022752624 -0.32595587 0.13714102 -0.355093 -0.2940186 -0.251792 0.12562323 0.1560568 -0.0733648 -0.28914624 0.15686335 0.06720819 0.5409641 -0.3843742 -0.3611553 0.18465273 -0.25223458 -0.25012493 0.31733257 0.63273424 -0.36475942 -0.034509733 -0.1848362 0.37290087 -0.57924175 0.11753073 0.09482111 -0.350131 0.037124243 -0.3375981 -0.11415849 -0.0072434903 0.14410341 0.073059395 0.32683417 0.1240654 -0.3248933 -0.40524662 0.49145037 0.123881966 -0.061286755 0.5411766 -0.11847587 -0.30643982 0.36949515 -0.49088246 -0.08041198 -0.342017 -0.053698175
297 0.1317625 -0.13903913 -0.15158604 -0.047231026 0.13321437 0.058483876 -0.26576674 0.0024047783 0.1490683 -0.24085522 0.061337948 0.24215211 -0.106583245 0.00078451727 0.3994844 -0.010729789 0.060151257 0.16128866 -0.00031396502 0.11639056 0.015461907 0.31502375 0.17086923 -0.048433118 0.108502194 0.19318207 0.12504068 0.15051726 0.21998197 0.014178669 -0.070937335 -0.1367203 -0.2958446 0.07519565 0.061398167 0.12547208 0.00035506234 -0.060825974 -0.036784388 -0.2101995 0.010181405 0.12211605 -0.16839223 -0.11348004 -0.12440509 0.126751 0.1418413 -0.07644452 0.03456368 0.17339665 0.056366578 -0.042478185 -0.38135564 0.054414894 -0.029094279 0.050905395 -0.15609376 0.05830269 -0.0929622 0.024984492 0.22283699 -0.2126582 0.2514908 0.36222726 0.068298884 0.31208205 -0.05569432 0.04289564 0.14194323 0.061579213 0.21803021 -0.09333979 0.12828648 0.1186963 0.005879151 -0.038126677 -0.2673046 0.068897754 0.08719564 -0.21937387 0.111620344 0.21510507 -0.011489112 -0.19828144 -0.2764861 0.20830525 0.19199899 -0.07880917 -0.023514025 0.25774023 0.098884374 0.07837629 -0.1613651 -0.10978937 0.004320325 -0.20015997 -0.1007665 0.0639423 0.014700483 -0.1562282 -0.2272318 -0.13149963 -0.095605284 -0.1530989 -0.15844989 -0.023885636 0.059140418 0.27804703 -0.15174513 0.062265124 0.014124125 0.3334365 0.027081246 0.011480647 -0.07610903 -0.26554164 0.12801075 0.23002423 0.041284494 0.16745654 -0.0337329 0.0029326126 0.10519639 -0.12692922 -0.3169834 0.21859352 0.13392654 -0.15546377
