2142 64
324 1.2215277 -0.7165819 -1.2282754 -1.107962 1.8070292 0.6088092 -4.4567065 -0.89470416 2.2865276 -1.4444872 -0.2593395 5.302662 -0.8197933 0.35868955 3.9904747 0.69565463 1.1715822 0.39355484 0.020711023 1.5082382 -0.76014566 2.6948857 1.7555037 0.102262706 0.45165986 1.5789924 1.1678231 0.5464484 2.67122 -0.7079819 -0.55135584 -1.1985532 -1.3295263 -0.08471496 0.2755099 1.057882 1.8393242 -0.6754534 -0.90447474 -0.90534526 -1.5432302 2.2822893 -2.1633737 -0.41084245 -3.0052495 -0.28135112 1.0288029 -0.8963404 -0.20950218 0.53861636 0.9292484 0.054077517 -4.9266706 -1.1725959 -0.26555923 -0.2990959 -2.2046347 1.1077731 -0.79108584 -0.8717744 1.9603856 -2.9927573 2.922592 3.5818403
325 1.2238094 -0.67734355 -1.1582183 -1.0830482 1.7137477 0.5787122 -4.3314347 -0.8390717 2.1904438 -1.4471403 -0.21550776 5.102901 -0.79597384 0.3519231 3.886594 0.66299915 1.141432 0.41136897 0.017672066 1.470999 -0.72802657 2.6380634 1.6654632 0.048249044 0.45219138 1.5627748 1.1769681 0.56449395 2.5950978 -0.7153692 -0.5445473 -1.1858101 -1.3852676 -0.10717016 0.2778654 1.0741744 1.7934015 -0.6683747 -0.8896485 -0.9179513 -1.5269653 2.2218437 -2.1065257 -0.41537485 -2.9093285 -0.2247835 0.9861095 -0.81599385 -0.23123555 0.5140343 0.9358473 -0.00435714 -4.841866 -1.1209222 -0.24153486 -0.27187765 -2.1264236 1.06073 -0.7523004 -0.86061823 1.9545127 -2.932578 2.8397262 3.511926
1013 1.0685849 0.19233015 -0.47868958 -1.8633825 1.9530447 -1.610443 -2.1616364 -3.6939864 1.4330962 1.237921 -1.9436336 3.439103 0.36734396 3.0569463 1.0291511 1.020805 3.4156065 -2.2145147 -0.48955262 1.5022931 -1.3425647 2.249459 -0.40418595 1.487448 -0.43190798 -0.4759497 1.3965621 -0.83397496 -0.35405457 0.73188776 0.14051159 1.1149249 3.9385052 1.194403 1.3622732 -0.781728 0.4510011 0.85204214 -1.0765125 2.3416183 -2.6984332 -1.0969481 -1.5932066 -0.13067083 -2.7588048 -0.69317603 -0.11306216 -1.8147155 -0.69643116 -0.52855927 0.91028035 1.7686344 -0.11340898 -4.1197467 1.0054324 0.5462304 2.0794942 0.33180392 1.2219052 -0.332531 0.58512765 -0.2601731 0.41624978 -1.2641275
4 0.9991861 0.1698501 -0.47410345 -1.7862215 1.8604984 -1.560407 -2.0630748 -3.5663207 1.3634769 1.1665043 -1.8183278 3.2471712 0.32403195 2.9075413 0.9950742 0.96841925 3.2505968 -2.1628294 -0.52978444 1.4305207 -1.2440361 2.1281912 -0.40668455 1.4096867 -0.4306595 -0.45341402 1.3303169 -0.8436542 -0.33749846 0.7191252 0.19712043 1.1082808 3.7642565 1.1666657 1.3176533 -0.77903026 0.4411523 0.8127843 -1.0055062 2.2511783 -2.5774205 -1.1030731 -1.492015 -0.14168642 -2.6328874 -0.69592524 -0.12561405 -1.7930787 -0.6820476 -0.50055 0.8853667 1.6871755 -0.03913284 -3.9338791 0.95945686 0.49875644 1.9873599 0.26859704 1.1548592 -0.29497722 0.5446846 -0.21216702 0.39355022 -1.2396475
1251 2.1185098 0.050928865 -0.57277787 -1.6994843 0.309705 -0.16272388 -0.6106502 -0.006362218 0.9785194 0.653959 -1.2900989 4.5445423 1.447733 1.899511 0.85727346 0.43748832 2.3312454 1.2301625 1.6570283 2.0792649 -2.1141832 2.0194407 -0.03561789 0.7181467 0.01410444 0.2509307 1.9532688 0.77723414 0.0010147361 -0.8162692 -2.1775494 -2.80829 0.6137155 0.21402028 0.7735076 2.0714066 0.011658141 1.7810086 -1.2545143 -0.42097378 -1.3769083 0.8387556 -1.6102933 0.39295942 -1.900017 1.0416595 0.512202 1.1968132 -0.028832855 -0.27603877 -0.5891909 -0.24757938 -3.7450058 -2.8266592 0.8969102 0.750099 1.7969713 1.077178 -0.16409966 -1.5109282 0.90217495 -1.3935586 0.5853824 0.3944164
1250 2.0469234 0.050667938 -0.5712206 -1.6528815 0.3227828 -0.14702636 -0.6583963 -0.007021159 0.9728211 0.6362979 -1.2896425 4.474302 1.3998495 1.8302267 0.859777 0.44243348 2.25918 1.2047354 1.6246579 2.0164921 -2.0619597 1.9779034 0.021265507 0.7209166 0.031308375 0.2270244 1.883291 0.75582767 0.026563969 -0.7882895 -2.1327136 -2.7198684 0.6127896 0.18566218 0.7264861 2.0185306 0.031655844 1.7061318 -1.2343054 -0.41906187 -1.3525156 0.870804 -1.6010722 0.37204307 -1.8785081 1.0040083 0.50697273 1.1705217 -0.008134098 -0.27447742 -0.54785156 -0.20973337 -3.679446 -2.74205 0.8641636 0.73592544 1.6992066 1.0685353 -0.1762814 -1.4755777 0.87609494 -1.3921475 0.6001028 0.4404245
842 3.2754805 2.114897 0.8211728 0.34541082 1.3561772 -1.7904823 -2.2840934 -1.3916568 0.429623 -0.90053546 -0.8203358 1.2897413 0.45898202 2.041897 0.80173135 0.673233 1.6095471 -0.82186884 0.19611156 0.13742691 -0.7334693 3.6490922 -0.98677224 -0.18550669 0.60951513 0.43449175 2.6164646 2.5492816 0.37123367 0.1793133 -1.9074085 0.2634255 -0.65620846 0.025070647 0.16308197 0.7971357 0.004490177 -0.43428728 -1.0274438 0.5863791 -3.2324073 -0.003288913 -1.1757033 -1.1018661 -0.8968765 1.8023853 0.8305676 0.35243255 -1.6476195 0.34601882 1.4480236 -0.10238764 -2.84812 -0.8623823 1.5003144 1.7940915 0.9954492 0.73561347 2.5425856 0.4854149 2.7160816 -1.696759 1.7272913 1.5000422
843 3.1475453 2.0584962 0.77781445 0.32470864 1.3378009 -1.7758785 -2.222154 -1.4316106 0.40070248 -0.85214746 -0.78562075 1.2049944 0.41561782 2.0026197 0.7622482 0.6679734 1.599843 -0.89381844 0.10887673 0.12819026 -0.68872756 3.5314763 -0.9761319 -0.16855627 0.59374493 0.39238444 2.528997 2.406091 0.32262605 0.19569746 -1.7794442 0.3530461 -0.5425339 0.034521863 0.18868425 0.6979581 0.013671701 -0.42909795 -0.9904638 0.63646317 -3.1657531 -0.06909166 -1.1416298 -1.0864697 -0.90212387 1.6880983 0.7740599 0.27673116 -1.6141198 0.2984164 1.44004 -0.063448 -2.6370199 -0.8823492 1.4531021 1.7181555 0.9967834 0.68283355 2.4925275 0.4888937 2.5988736 -1.5992694 1.6569118 1.3895929
1258 0.9363526 -1.8724103 -0.38445386 -1.3209187 0.7653089 -0.6627236 -1.2088114 -3.32771 2.044135 -0.12333964 -0.6936266 2.619574 -0.95150065 1.1486439 2.8143127 0.63531435 3.1500287 -1.8016824 0.2723855 1.4937117 -0.36656517 1.5525762 -1.711536 1.3602582 -1.1911671 2.7387338 0.9513335 1.3529332 1.364872 2.2424507 0.04800876 -1.0857111 -0.4076016 1.7034674 0.27582633 -0.42661548 0.06264202 0.29477003 0.21540238 0.32967198 -1.3318843 -0.7510911 -0.7816866 0.74985725 -0.7706331 0.5245987 1.9895958 -2.9328496 -1.1449878 2.0502214 -0.3769364 0.8712852 -2.1377041 -1.4051393 1.8411007 0.6823364 1.5532439 -0.6812982 -0.03456912 0.90619993 3.3194866 -0.95617914 1.7314645 0.93373364
1257 0.9588553 -1.8727196 -0.42175516 -1.3254313 0.7835547 -0.65870464 -1.2731289 -3.314127 2.0265012 -0.20405798 -0.6092941 2.6191282 -0.9887776 1.1461003 2.8863187 0.6104963 3.1426466 -1.801555 0.19591245 1.5070522 -0.34145525 1.5860785 -1.7072105 1.3035439 -1.1609263 2.7534416 0.989224 1.3239094 1.4264246 2.1780674 0.10215073 -1.0745466 -0.49285528 1.6778532 0.3019845 -0.40673587 0.11907107 0.26341435 0.19658296 0.29460835 -1.3642187 -0.7525305 -0.7947396 0.7103356 -0.8085679 0.5123193 1.9671413 -2.9473422 -1.1740768 2.0483449 -0.33459866 0.83656174 -2.169194 -1.419375 1.8093513 0.6646247 1.498156 -0.70373255 -0.062463578 0.9073395 3.3296618 -0.98943734 1.7744274 0.9887537
323 0.5749108 0.03308355 0.009092921 -0.27117348 0.5485612 -0.24242677 -0.7365943 -0.73894376 0.6418604 0.052428577 -0.7123735 1.138858 0.1305955 0.74101424 0.5949215 0.39026022 0.87444794 -0.20100456 0.46827352 0.38944203 -0.4593719 0.9959217 -0.030108474 0.53285706 -0.021174854 0.36246344 0.48504573 0.65968406 0.17833322 0.4488492 -0.61696607 -0.23508559 0.21449238 0.28776145 0.010373482 0.12545794 -0.11091622 0.02936234 -0.29476857 0.13938887 -0.6390503 0.2603754 -0.57815164 -0.061882403 -0.490282 0.34048918 0.56172925 -0.2232245 -0.15227374 0.31231198 0.09527617 0.2702597 -1.0166142 -0.5517867 0.47618896 0.41036266 0.33966148 0.35638547 0.35165513 -0.0128141595 0.8580381 -0.63358873 0.539309 0.40201962
24 1.1655617 0.003149958 0.36751404 -0.66711825 0.46652582 -0.49270892 -1.0715266 -1.7081131 1.6506528 1.0063288 -2.0742357 2.7566426 0.34464058 1.3274033 0.5051339 1.0432448 2.1306736 -0.65490085 1.5679798 0.7487798 -0.74405074 1.5452518 -0.36944133 1.4797417 -0.5451937 0.9781645 0.7542231 1.5843382 0.19337788 1.3507205 -1.7417169 -0.81883043 1.413176 0.75918245 -0.5352135 0.06753513 -0.29419303 0.45826888 -0.51074487 0.9292702 -1.3381999 0.5295441 -1.2249527 0.5862202 -0.68394524 1.0798889 1.1964893 -0.72217315 -0.33342928 0.5052943 -0.040695496 1.3987477 -2.0428023 -1.2939336 1.3858324 1.034789 1.1731905 0.6198567 1.0828646 0.39678302 1.9174978 -1.0197273 0.9866059 0.5314412
1127 0.5376603 0.02189494 -0.009813094 -0.3404831 0.42579362 -0.26576677 -0.5995232 -0.72844464 0.55673295 0.10882014 -0.5905125 1.1405092 0.12902778 0.67998016 0.47789726 0.3406942 0.848377 -0.3126428 0.3622972 0.38178107 -0.373139 0.79554677 -0.14051075 0.46903986 -0.09349958 0.3019579 0.47878808 0.49477264 0.14384724 0.40368304 -0.5195383 -0.2504848 0.3244836 0.26344535 0.05773357 0.117990345 -0.056037825 0.1082803 -0.2970153 0.19347814 -0.64442074 0.12429507 -0.5297823 0.018321691 -0.46940887 0.28490078 0.45132652 -0.24786644 -0.19371177 0.23553255 0.09074784 0.27455324 -0.89721733 -0.6207464 0.4798615 0.37842125 0.4135634 0.2453644 0.3068912 -0.010322654 0.7224091 -0.51808375 0.4238224 0.26777583
25 1.1621208 0.026750231 0.3519383 -0.628163 0.4749133 -0.46514434 -1.0663165 -1.6153864 1.5737765 0.9265656 -1.9849856 2.670722 0.3500334 1.2881058 0.5136312 0.9993176 2.037432 -0.59042466 1.5106481 0.72053623 -0.726479 1.5391426 -0.34920543 1.4102297 -0.48627272 0.9452052 0.7658799 1.5573679 0.19645502 1.2737682 -1.7130315 -0.8103366 1.3057907 0.70599794 -0.49906117 0.1136748 -0.27532038 0.42068875 -0.5055797 0.85415983 -1.3185937 0.54156834 -1.1997362 0.5309951 -0.6713713 1.0541145 1.1498694 -0.6586465 -0.32726556 0.48472416 -0.019621829 1.2984093 -2.0493538 -1.2335505 1.3241811 1.0132565 1.1080151 0.6250429 1.0334643 0.35382044 1.861629 -1.0389955 0.97863334 0.55344814
332 1.0012363 0.12126475 0.35984033 0.079803325 1.6830424 -0.39673498 -1.565699 -1.6811913 1.4898648 -0.010678671 -2.6141782 1.3389888 0.32579735 2.1434903 1.1654879 1.043006 1.71269 -0.11268505 1.8989471 0.51795185 -1.3351853 2.6277697 0.49264812 1.8656782 0.41250074 0.69670534 0.69389904 2.037665 -0.09033745 1.8238846 -2.0013893 -0.06886886 0.32966894 0.88854015 -0.09728351 0.016859422 -1.210869 -0.2530887 -0.5579975 0.027974945 -0.7949758 0.99794215 -1.0793501 -0.5353273 -0.6121402 1.0697511 1.7231882 -0.10319546 0.0052890265 1.0640057 0.050722905 0.7207561 -1.810611 -0.49916637 0.9010792 1.009377 0.45444167 1.250903 1.0692161 0.06193358 2.4140692 -1.5482228 1.1055793 1.0018224
152 1.0075413 0.10982054 0.36896434 0.090548396 1.575143 -0.39264086 -1.4486477 -1.6099708 1.4102398 -0.009781862 -2.5479548 1.2337214 0.3500405 2.0895765 1.0961215 1.0171353 1.66444 -0.07212408 1.8625315 0.51264983 -1.2995125 2.5606987 0.4066439 1.8069758 0.40087578 0.7145819 0.69623905 2.0409267 -0.08933155 1.7860092 -1.9630654 -0.13862312 0.24930163 0.85939187 -0.09144473 0.053818803 -1.1988636 -0.22040695 -0.5198374 -0.012195332 -0.75679094 0.92044514 -1.0145296 -0.5120191 -0.5329677 1.1269555 1.697929 -0.0647916 -0.015722336 1.0689452 0.005027297 0.66998595 -1.7793511 -0.44923 0.93164575 1.0147024 0.49665374 1.1956952 1.047751 0.09643266 2.4080906 -1.4817134 1.0817661 0.9458964
153 1.0126518 0.24257989 0.35123065 0.068663314 1.407947 -0.42112604 -1.2957695 -1.3868214 1.2464418 0.02931935 -2.2621477 1.2074479 0.41571322 1.9059291 0.9125921 0.91438377 1.5117384 -0.052631818 1.6650947 0.4568237 -1.2051302 2.3203561 0.3318697 1.569084 0.36586776 0.5453214 0.7135341 1.8295574 -0.11119325 1.5095997 -1.8478742 -0.16761585 0.29151383 0.7294553 -0.085970365 0.13923497 -1.068411 -0.1224584 -0.5142048 0.02030845 -0.8048557 0.80564404 -0.96009576 -0.45347545 -0.50974816 1.0380136 1.4725045 0.03524923 -0.046313446 0.8960755 0.052926756 0.5569389 -1.6951889 -0.48358515 0.89751947 0.9881549 0.5486379 1.0881555 1.0048121 0.06127319 2.1077447 -1.3487539 0.9421494 0.8136997
845 0.619902 0.44877827 -0.026551023 -0.5368419 0.64533913 -0.38134685 -0.6614023 -0.98635817 0.7003667 0.37890643 -1.0024232 1.7850032 0.5463789 1.0878606 0.22215228 0.5834344 1.1906352 -0.5391344 0.5988352 0.420729 -0.54417926 1.096704 -0.15698436 0.8848868 -0.2206765 0.17271903 0.47248647 0.91800517 -0.074779294 0.6416998 -1.0507385 -0.31270498 0.9247525 0.23264927 -0.06583952 0.102553636 -0.30420342 0.12920776 -0.55288655 0.35565075 -1.0010185 0.14632757 -0.91583854 0.08535717 -0.58314073 0.4483673 0.73203117 0.014260417 -0.172084 0.13379872 0.15595008 0.47389618 -1.2303237 -0.83875567 0.7706437 0.738103 0.75146955 0.51824814 0.5496049 -0.13252583 0.7320291 -0.7568922 0.44196394 0.2619555
366 0.60892934 0.033505555 0.03962768 -0.38418677 0.4830212 -0.29044992 -0.6691286 -0.7820131 0.5985246 0.073826954 -0.6782249 1.1817199 0.119792305 0.70741475 0.57283604 0.3857303 0.9127651 -0.30151713 0.42084515 0.40164503 -0.4165669 0.93905497 -0.16980854 0.47864747 -0.13273932 0.4110942 0.60528654 0.6697196 0.17475818 0.46410644 -0.59486485 -0.32029942 0.20162061 0.30045155 -0.044356816 0.10627152 -0.051185943 0.05992474 -0.3125672 0.22651395 -0.65397805 0.15666468 -0.625634 -0.003953507 -0.44331872 0.38255373 0.52010095 -0.27669847 -0.26040542 0.33923665 0.14936413 0.34320676 -1.0797559 -0.64649063 0.56642056 0.42887315 0.48260108 0.271773 0.3421744 0.033929814 0.8635399 -0.5783571 0.53028405 0.38004363
917 0.89828986 0.5781041 -0.08940392 -0.8931241 0.93865407 -0.54716295 -0.92955554 -1.570672 1.0851469 0.520957 -1.4263419 2.7881713 0.7547303 1.5585274 0.4374123 0.88357866 1.8342831 -0.95256364 0.933788 0.72115046 -0.7912044 1.6056254 -0.35983598 1.3720558 -0.39130828 0.3744331 0.68621963 1.4858787 -0.07245387 1.0872625 -1.5409139 -0.5807281 1.3559966 0.37897205 -0.11811048 0.11855376 -0.50793564 0.18956392 -0.86050254 0.4640475 -1.4693968 0.1842253 -1.4388435 0.17157711 -0.8371555 0.6945626 1.2054429 -0.10413982 -0.28677833 0.31666535 0.123915665 0.70451725 -1.9574959 -1.2403413 1.2902576 1.1829529 1.1795738 0.69754153 0.77100235 -0.13726306 1.1610323 -1.1568549 0.6953689 0.47684383
22 0.7481451 0.08603623 0.1395655 -0.3618898 0.5501841 -0.33789647 -0.73885745 -0.8423642 0.6336136 0.08242671 -0.67395335 1.2480608 0.19946109 0.8174597 0.57124275 0.38620985 0.98974854 -0.30150536 0.41878927 0.41059095 -0.4718869 1.0221579 -0.18143624 0.49668875 -0.13305718 0.42367703 0.65072626 0.8098049 0.22416694 0.4747508 -0.73467314 -0.3619584 0.20265551 0.30321714 -0.070212 0.13338546 -0.10565493 0.12919128 -0.32419005 0.2802543 -0.7613871 0.21058376 -0.61295897 0.032039344 -0.52182543 0.5223238 0.58511555 -0.24998336 -0.26640424 0.41122663 0.086220436 0.2739284 -1.1358005 -0.72417295 0.66720635 0.5695051 0.49978676 0.2603456 0.4326612 0.047752757 0.9916931 -0.7215075 0.54882145 0.4014284
151 0.92086715 0.15804245 0.30934596 0.052288275 1.2933279 -0.35188565 -1.2074738 -1.2767684 1.1759156 -0.0011633972 -2.0582097 1.1338854 0.34049153 1.7150807 0.91089135 0.8459178 1.4070041 -0.04838684 1.5445023 0.4388602 -1.0983365 2.1348727 0.3010328 1.4549657 0.31889066 0.58772933 0.64105135 1.7086488 -0.057800952 1.4131324 -1.6921364 -0.19364463 0.20194419 0.6884009 -0.09191645 0.12971248 -0.9724137 -0.12994598 -0.45880213 -0.005188541 -0.7068575 0.7583628 -0.87443715 -0.40010348 -0.4594184 0.96049565 1.3998642 -0.009575947 -0.0443359 0.87056065 0.027458057 0.5156187 -1.6114862 -0.40806454 0.8130714 0.89542955 0.46163383 0.9885751 0.87814385 0.06000269 2.0028033 -1.2502424 0.91881 0.80988723
365 0.5711055 0.046241254 0.052833065 -0.35690695 0.46184972 -0.29865372 -0.64550215 -0.7689704 0.5733988 0.081168376 -0.66362524 1.0935181 0.11269684 0.6881336 0.52984196 0.36598298 0.8850312 -0.31183442 0.3867037 0.37969655 -0.38656956 0.8969078 -0.17090821 0.466865 -0.12050458 0.36115128 0.5733978 0.61948884 0.14876623 0.45172665 -0.55452615 -0.27380037 0.22698225 0.29357484 -0.03933899 0.07447686 -0.051517073 0.05121571 -0.30382153 0.24109869 -0.6396495 0.13155377 -0.5868446 -0.01567849 -0.4242987 0.34826618 0.4934566 -0.2868862 -0.24852565 0.32165602 0.15146458 0.34509572 -0.98788625 -0.6202496 0.5377031 0.415416 0.47207108 0.2572726 0.3451486 0.041891076 0.81361115 -0.5433709 0.49326354 0.3404093
1222 0.78236544 0.061674066 0.2482591 -0.44014308 0.3122674 -0.34667417 -0.7079304 -1.0840969 1.0414696 0.6675692 -1.3690664 1.7889524 0.2479992 0.8803049 0.28298968 0.6909991 1.3725919 -0.39482582 1.0258625 0.48605326 -0.49494073 1.0363427 -0.22860534 0.9593754 -0.32285056 0.59313124 0.5416694 1.0265713 0.09995529 0.8171383 -1.1660703 -0.53676 0.95444244 0.4690688 -0.3339595 0.05968077 -0.17815949 0.3185085 -0.36671212 0.6011498 -0.90813553 0.34298027 -0.80048305 0.33967966 -0.4535647 0.73339474 0.7407896 -0.4054297 -0.20968796 0.28121287 -0.031507228 0.88328505 -1.3486514 -0.8638767 0.9019385 0.68027484 0.7720094 0.42350024 0.7502637 0.24152052 1.2396535 -0.6595996 0.64286906 0.33550656
1221 0.7613303 0.059553187 0.2548405 -0.4361238 0.3223063 -0.32924002 -0.6903996 -1.1175041 1.0481656 0.6961428 -1.396835 1.8107872 0.26471406 0.89880544 0.27539462 0.70602363 1.3998697 -0.41102684 1.0432116 0.49842218 -0.50783694 1.0200009 -0.22147217 0.9985824 -0.3461499 0.59090304 0.51912546 1.033746 0.07971542 0.8544755 -1.1904873 -0.5361439 1.0029577 0.4832451 -0.34123248 0.047195543 -0.19830075 0.32247716 -0.35842952 0.6168349 -0.90352875 0.3470016 -0.8017765 0.35257453 -0.4594674 0.73421 0.7503413 -0.42991683 -0.19569802 0.2950299 -0.03519283 0.91636914 -1.3371155 -0.8708455 0.92815775 0.68646985 0.7932091 0.43986985 0.7536557 0.23401666 1.235132 -0.65603256 0.6321773 0.30203962
916 0.67444634 0.3919416 -0.039653078 -0.6179475 0.67313415 -0.4128038 -0.723081 -1.1789116 0.8039606 0.39086312 -1.0679057 1.9658195 0.51015687 1.1381099 0.33201173 0.6306192 1.3221775 -0.65230733 0.67923754 0.51758456 -0.5912367 1.1798997 -0.22557487 0.99527895 -0.2647366 0.27436498 0.48801303 1.0549288 -0.033870958 0.79675066 -1.0876285 -0.3658368 0.97819185 0.2996566 -0.078171484 0.06444881 -0.34854245 0.1528246 -0.57741994 0.34761018 -1.0434453 0.15435095 -1.0025055 0.1104488 -0.61246485 0.50112087 0.839243 -0.12663808 -0.20973776 0.22424889 0.10939081 0.5214374 -1.3793571 -0.90158117 0.9039472 0.80980283 0.83753127 0.49274164 0.576386 -0.07112973 0.86336243 -0.8255569 0.523899 0.32990822
914 0.677588 0.39867446 -0.024328139 -0.5923616 0.67711455 -0.41645283 -0.71217513 -1.168762 0.79204243 0.3864248 -1.0548233 1.8979363 0.5090802 1.127003 0.31580207 0.6312532 1.2998987 -0.65309435 0.65455234 0.500662 -0.58238345 1.1698275 -0.23548181 0.984898 -0.2690127 0.2631729 0.48441085 1.0459139 -0.035438064 0.8022703 -1.0664034 -0.33368286 0.9543543 0.3063963 -0.06723033 0.057852548 -0.35359398 0.13881662 -0.56658465 0.3585535 -1.0460843 0.14634098 -0.9794566 0.10512043 -0.6004145 0.49780366 0.82696706 -0.11122727 -0.2202581 0.22521399 0.10800053 0.5129527 -1.3270725 -0.87663585 0.8886862 0.8124537 0.83773583 0.49013776 0.5822328 -0.05946429 0.85324436 -0.8061263 0.51482403 0.31433782
1098 0.7696142 0.006409611 0.23887168 -0.4509313 0.32534915 -0.31956133 -0.73307425 -1.103818 1.1144092 0.6841266 -1.4091867 1.8658288 0.25660497 0.8807175 0.30887994 0.71116114 1.4166359 -0.4175367 1.0850998 0.49599543 -0.52398574 1.0225363 -0.19106542 1.0024347 -0.34462637 0.61697346 0.48992747 1.041683 0.12709329 0.8878434 -1.2139195 -0.5270157 0.9865395 0.49778765 -0.36517966 0.079587705 -0.19756801 0.30382 -0.34006548 0.62768006 -0.8937388 0.40268162 -0.8147584 0.38511348 -0.460993 0.72942376 0.79284596 -0.4506763 -0.20024242 0.32253692 -0.019473543 0.9320857 -1.3773334 -0.8574424 0.899483 0.6818665 0.7802665 0.42191383 0.7100272 0.21894772 1.2511901 -0.7065812 0.64554226 0.343586
1096 0.73313785 -0.046937786 0.21374847 -0.4643963 0.30537066 -0.31634396 -0.71691185 -1.1197851 1.1084955 0.6518817 -1.358023 1.8329712 0.21845493 0.856029 0.34435144 0.67748374 1.4197025 -0.43373653 1.0482159 0.51171863 -0.4910067 0.9954414 -0.21537852 0.99065375 -0.37944856 0.6526743 0.48133639 1.032177 0.15666927 0.9120965 -1.1594346 -0.5403846 0.92152476 0.5064561 -0.35087177 0.058836956 -0.19849114 0.28578386 -0.31950992 0.5995664 -0.8741015 0.374952 -0.7965493 0.40137327 -0.44553128 0.71003145 0.8087434 -0.49777588 -0.21503909 0.34206027 -0.034500338 0.9151436 -1.3603771 -0.8331712 0.90480185 0.6622979 0.76231235 0.38731337 0.68022084 0.23047028 1.2602979 -0.6939099 0.65751255 0.36001205
913 0.6585793 0.48665994 -0.073656075 -0.7102183 0.7345894 -0.4199908 -0.70916706 -1.199944 0.8301222 0.4590706 -1.170238 2.1834812 0.6493286 1.2458805 0.26456115 0.69695723 1.4185086 -0.7036605 0.74511534 0.54658455 -0.650055 1.244781 -0.22022268 1.0905526 -0.30091593 0.21994914 0.48957717 1.1032289 -0.105167076 0.81904554 -1.2193258 -0.4125238 1.169351 0.2562916 -0.08310719 0.07164358 -0.39437503 0.16662242 -0.66947204 0.37386933 -1.1337125 0.17595287 -1.1259781 0.13174732 -0.6895792 0.5292449 0.8953794 -0.035579015 -0.18185341 0.16757129 0.12662871 0.5697619 -1.4723316 -1.0277267 0.9430968 0.89174765 0.91192585 0.564394 0.58429766 -0.16991012 0.81041837 -0.88185537 0.5007854 0.31258208
911 0.77357584 0.3711921 -0.10324725 -0.74884266 0.79756856 -0.44446272 -0.88050455 -1.3171773 0.94917667 0.4169718 -1.2007796 2.3587353 0.5766174 1.3227619 0.473519 0.70932287 1.565386 -0.72558117 0.73253375 0.67424166 -0.7182794 1.3833908 -0.24454199 1.0929189 -0.29538587 0.33169222 0.65419084 1.0996062 0.010251615 0.8187875 -1.1891353 -0.491857 1.1004395 0.33525288 -0.021775901 0.11364466 -0.30502465 0.17970389 -0.6968454 0.39494607 -1.2318401 0.19638272 -1.1700611 0.11709552 -0.80476224 0.5261003 0.90405285 -0.17537428 -0.23284164 0.24162403 0.14027776 0.5963846 -1.6313677 -1.1666851 1.0023204 0.887716 0.9289767 0.5537574 0.60220885 -0.14432797 0.9867432 -0.9570755 0.6188474 0.37069917
21 0.59786344 0.054392327 0.11885178 -0.29484823 0.45760572 -0.28758985 -0.6007368 -0.73001945 0.5294879 0.08762221 -0.5833431 1.0324694 0.15501206 0.6744472 0.48512545 0.33818042 0.82270014 -0.28221598 0.34860831 0.3482236 -0.3917158 0.84930784 -0.15498017 0.43914062 -0.12078193 0.37554732 0.5412561 0.66345054 0.18396625 0.43779764 -0.59955996 -0.2877447 0.17547616 0.28165665 -0.059410688 0.08716285 -0.09072138 0.09355736 -0.246213 0.24053219 -0.6209009 0.16202298 -0.5073296 0.02233508 -0.4204915 0.42963168 0.4977808 -0.22315031 -0.22190225 0.35452184 0.067320034 0.238711 -0.9267492 -0.5919719 0.5561396 0.4661568 0.4291832 0.20726247 0.35337272 0.05377672 0.8374731 -0.5928587 0.45854324 0.33557492
1097 0.4822623 -0.003859739 0.12176599 -0.26049584 0.21430653 -0.16546135 -0.4447279 -0.6087217 0.6153605 0.3237061 -0.77585953 1.0949067 0.13794951 0.51416075 0.23961718 0.38565782 0.7952334 -0.20915559 0.602601 0.30768564 -0.3254459 0.6482545 -0.11248429 0.54631484 -0.17985135 0.38021222 0.3261585 0.62408805 0.09691014 0.48975953 -0.6964711 -0.36674154 0.44242933 0.28126636 -0.18069014 0.093903966 -0.12983066 0.17266823 -0.21322235 0.2761306 -0.50436866 0.22754927 -0.49154076 0.1863554 -0.2837364 0.42261887 0.46918973 -0.23956832 -0.12854002 0.20724896 -0.013252433 0.46155608 -0.88465273 -0.47446674 0.51618516 0.40718523 0.4314666 0.26627728 0.36746815 0.10811106 0.75082934 -0.44870028 0.39829537 0.25574765
144 0.5123913 0.05979045 -0.027692946 -0.28025982 0.37323132 -0.20551267 -0.57895446 -0.60419124 0.4957616 0.0859654 -0.5291277 1.038298 0.14262865 0.5732493 0.43929005 0.28894636 0.7426093 -0.21985498 0.30906674 0.35503933 -0.35427794 0.76020026 -0.075798355 0.37594226 -0.05407216 0.28147364 0.43217668 0.45688608 0.16159287 0.30383846 -0.49236232 -0.2464171 0.2562018 0.1993522 0.027781406 0.14573185 -0.035545368 0.070819266 -0.24532595 0.14246985 -0.5859516 0.17102471 -0.4873236 0.00429107 -0.43874562 0.2742553 0.3773137 -0.18496904 -0.1749087 0.17273208 0.085235626 0.2201915 -0.86543 -0.5492359 0.4057584 0.32853267 0.33562416 0.22701235 0.27185544 -0.030173842 0.6520731 -0.48457885 0.4258282 0.2939702
910 0.724139 0.3411531 -0.08292575 -0.7238788 0.76298785 -0.4191142 -0.83884656 -1.2778523 0.92652524 0.4039619 -1.1836189 2.2632434 0.53752 1.2529179 0.46628597 0.704118 1.5122565 -0.70444006 0.7387398 0.63670003 -0.67631584 1.3200984 -0.24056162 1.0640644 -0.28977683 0.3368112 0.5948914 1.0740151 0.014174105 0.8163903 -1.1547755 -0.47098368 1.0722365 0.33295235 -0.04932107 0.09213489 -0.30277106 0.16920975 -0.665509 0.38337424 -1.1714945 0.20557268 -1.1344357 0.13476011 -0.76737386 0.5300479 0.89390504 -0.18361138 -0.22345267 0.26122323 0.118510485 0.5982107 -1.5714033 -1.091599 0.96784204 0.85267 0.8875741 0.5305506 0.5749434 -0.117475614 0.9853056 -0.91352224 0.5922615 0.38396055
915 0.71531826 0.40347034 -0.08193361 -0.75017273 0.75504804 -0.43017665 -0.75770396 -1.2947457 0.89944345 0.4728279 -1.2062565 2.2889707 0.61937237 1.2880211 0.3562698 0.71182615 1.515968 -0.7388841 0.7792976 0.6245528 -0.6862808 1.2833004 -0.2647843 1.1371332 -0.3252685 0.28665036 0.5655799 1.1148255 -0.06539162 0.87004894 -1.2331983 -0.48343927 1.174863 0.34144184 -0.061398435 0.08547254 -0.39264286 0.19662483 -0.6833546 0.4127046 -1.1627295 0.16107228 -1.1468697 0.16592452 -0.7143939 0.5406385 0.93432075 -0.1084274 -0.19467734 0.22756495 0.07533251 0.6000967 -1.5405066 -1.0900453 1.0179487 0.9070884 0.9831928 0.5631992 0.60409844 -0.1370368 0.91939145 -0.90526843 0.53601414 0.31836057
149 0.7983334 0.17124152 0.30692062 0.05583729 1.1807336 -0.34794348 -1.0664514 -1.2033 1.0623114 0.06558135 -1.9370464 0.99660635 0.32341957 1.5974761 0.7449923 0.7828854 1.2896715 -0.06639831 1.40762 0.38237143 -1.0077839 1.9174117 0.2739846 1.3594362 0.28578442 0.45289302 0.5575891 1.5124031 -0.13357972 1.2967925 -1.5105368 -0.0984126 0.31513116 0.6280421 -0.08360682 0.06263538 -0.909679 -0.09849828 -0.4178879 0.052048873 -0.62896866 0.65093166 -0.7935804 -0.3657858 -0.3965295 0.848373 1.2281959 -0.022022013 -0.02561653 0.76203793 0.032677684 0.49790248 -1.3427321 -0.42486387 0.7433667 0.822955 0.47082916 0.8891169 0.8465086 0.05424757 1.7576526 -1.0886129 0.76419455 0.62247974
1684 0.70663416 -0.0047308113 0.21558909 -0.3299605 0.587513 -0.42998263 -0.5654373 -1.7651517 0.80833256 0.59671175 -1.1340604 1.5745555 0.4814743 1.3822967 0.35079178 0.7213653 1.5688574 -1.106559 0.48586753 0.7287557 -0.59772825 0.96731067 -0.29212415 1.087795 -0.67336726 0.44129327 0.8773471 0.49826607 0.07540328 0.9895281 -0.96077204 -0.38086888 1.0963432 0.8797754 -0.13041821 -0.11740365 -0.24466138 0.06784261 -0.25891703 0.59289545 -1.1568013 -0.02519735 -0.535352 0.16455044 -0.5901584 0.5409677 0.6942703 -0.6981433 -0.13641246 0.3671438 0.2438081 0.63560563 -0.92629665 -1.1387701 1.294744 0.5556197 1.2196321 0.25517356 0.75291115 0.10940653 1.1169164 -0.8016351 0.43386248 -0.373298
614 0.8059686 -0.23452969 0.04851405 -0.57971567 0.3596882 -0.36102194 -0.7855503 -0.65434766 0.85771096 0.01647641 -0.7287021 1.708334 0.30324784 0.8251647 0.7554174 0.14704284 1.3598046 -0.35794485 0.70403737 0.6318528 -0.4555272 1.0818529 -0.1490633 0.640362 -0.3965016 0.64618796 0.5708132 0.9294283 0.3933282 0.45988554 -0.747153 -0.4393489 0.2616787 0.37263185 -0.36731732 0.26630086 0.04373805 0.009800465 -0.27244914 0.16418555 -0.72081095 0.41096568 -0.722847 0.124218345 -0.3404319 0.59288484 0.6226738 -0.3596772 -0.116895124 0.5740089 -0.049428646 0.4997556 -1.3786602 -0.6669918 0.7810745 0.6836864 0.63879097 0.2876946 0.25549388 0.1710531 1.144874 -0.93277925 0.7138761 0.59746164
912 0.5722771 0.378935 -0.06421414 -0.6124685 0.6147951 -0.36328745 -0.620666 -1.0577197 0.7174206 0.39061138 -0.98799384 1.8500667 0.518891 1.0641106 0.2657332 0.5750805 1.2234063 -0.5963444 0.6050834 0.48431 -0.56137687 1.0605673 -0.21857761 0.9186365 -0.26379558 0.2034097 0.43787003 0.9151106 -0.0852434 0.70081776 -0.99433887 -0.35536626 0.98887086 0.2442646 -0.04767519 0.052079737 -0.3161754 0.14954047 -0.5626436 0.33226442 -0.965603 0.11346739 -0.9509472 0.11242894 -0.59853464 0.43713802 0.7496986 -0.0700787 -0.17158246 0.16024913 0.10463968 0.4835223 -1.2296048 -0.8972616 0.8073993 0.74080265 0.79478306 0.4579949 0.4954724 -0.12745538 0.70539045 -0.73260057 0.42374223 0.25148743
838 0.39352128 0.005137024 0.1403222 -0.2245623 0.18684801 -0.18460739 -0.4062184 -0.63461894 0.5999973 0.37139952 -0.77400607 0.95839167 0.12968883 0.47217238 0.16603594 0.3851739 0.7611088 -0.26195022 0.55583584 0.24452874 -0.25815758 0.54380816 -0.115047336 0.55056834 -0.2054844 0.32169944 0.24609514 0.5576989 0.06027017 0.5283914 -0.63511294 -0.22914386 0.5479882 0.27605116 -0.20853488 0.0021389117 -0.116887726 0.13040589 -0.17934953 0.35557997 -0.49107963 0.19894902 -0.42739996 0.19928275 -0.24321525 0.3737829 0.44032627 -0.26117817 -0.116959706 0.17713758 -0.004239441 0.52474904 -0.7032565 -0.44456682 0.48417088 0.37330142 0.41458964 0.21886797 0.40520325 0.15109429 0.67374104 -0.3750687 0.35849354 0.19219925
840 0.4061041 8.429654e-05 0.1439281 -0.21511893 0.17665824 -0.18297176 -0.38677868 -0.6096101 0.5853143 0.3574265 -0.7529716 0.9326565 0.12850468 0.46402055 0.1737611 0.36888576 0.75184023 -0.23628785 0.5652882 0.24517441 -0.24791862 0.54475456 -0.123323 0.5294786 -0.19433568 0.34400836 0.24874696 0.5716721 0.072468504 0.51641905 -0.62244236 -0.2495767 0.49448985 0.27095643 -0.20980513 0.004844579 -0.11430212 0.1391519 -0.17736477 0.33325985 -0.47077802 0.18243946 -0.40692592 0.20419405 -0.2248959 0.39554736 0.43618062 -0.2491508 -0.124047 0.19348173 -0.0061458587 0.49403274 -0.6981954 -0.42947105 0.4899804 0.3808522 0.41750342 0.21712297 0.3974142 0.14837466 0.6937682 -0.3626008 0.36064374 0.20114322
150 0.65504915 0.15705231 0.24267721 0.03984981 1.0074466 -0.2848479 -0.9123225 -1.019864 0.8818716 0.050789505 -1.6236008 0.84070945 0.27856922 1.3618646 0.6259535 0.6471741 1.0723815 -0.06654015 1.1664987 0.3279814 -0.845618 1.6125287 0.2503043 1.1460748 0.24816476 0.35398746 0.46890295 1.2482902 -0.119825184 1.084291 -1.260597 -0.060706194 0.2895936 0.5338722 -0.060563814 0.041274827 -0.7640265 -0.08691799 -0.35744512 0.055378284 -0.5354866 0.55661714 -0.6717989 -0.32278815 -0.36248463 0.69232243 1.0115206 -0.008339973 -0.020364307 0.61782765 0.028306084 0.41694474 -1.1243745 -0.36902797 0.61017877 0.68596804 0.38663524 0.7580272 0.70874095 0.032336697 1.4478993 -0.923097 0.6293357 0.516254
1053 0.37000877 0.055281363 -0.006112317 -0.22554074 0.32196388 -0.18600406 -0.4412786 -0.54059815 0.39025292 0.09477821 -0.44408765 0.7879961 0.119634934 0.4891855 0.3041219 0.25824746 0.61403644 -0.2222845 0.25485072 0.26401582 -0.27758515 0.57764524 -0.071043506 0.34514266 -0.058515366 0.2044489 0.33221266 0.36427242 0.09859567 0.28719482 -0.3695807 -0.15874861 0.25628355 0.20016393 0.04411009 0.07326475 -0.06755873 0.08060168 -0.19517706 0.15552789 -0.46805128 0.101664804 -0.3619604 0.022953251 -0.33764368 0.204933 0.29734442 -0.17298935 -0.14292033 0.13644472 0.053894605 0.21886335 -0.6171857 -0.45048136 0.349637 0.26473698 0.29855713 0.19258921 0.2462422 -0.0057349927 0.5232488 -0.3634938 0.30447677 0.16441852
316 0.6919783 0.17981854 0.2396877 0.042672113 1.00245 -0.27967447 -0.9062167 -1.0004672 0.8845759 0.04321123 -1.6268433 0.8712763 0.30679336 1.3681602 0.62206024 0.65269464 1.0747083 -0.0463214 1.1804767 0.33766314 -0.8589373 1.629494 0.24304827 1.1311815 0.23979895 0.36000186 0.49419403 1.2855489 -0.10348826 1.0742205 -1.3140377 -0.090409234 0.26423147 0.5214476 -0.06546225 0.06782538 -0.7558013 -0.08340557 -0.36611754 0.025905088 -0.5550964 0.55262256 -0.68958986 -0.32747367 -0.35198733 0.7281993 1.0306494 0.031448428 -0.03258885 0.62778836 0.04424449 0.40677753 -1.1824242 -0.362982 0.6156961 0.6894549 0.4015747 0.7663981 0.7100884 0.017707895 1.4575227 -0.9388287 0.6525664 0.5398625
427 0.39381492 0.021311741 -0.021932887 -0.25473702 0.320391 -0.17240985 -0.4483423 -0.538423 0.40036497 0.072198965 -0.42729968 0.8050968 0.084836066 0.49039707 0.36605933 0.23403218 0.64356536 -0.20256972 0.23381153 0.2846116 -0.25945303 0.60251015 -0.10617523 0.3441788 -0.08222428 0.25454727 0.35985875 0.3981939 0.1298683 0.29495218 -0.3656537 -0.19430825 0.20357777 0.2115397 0.03086303 0.06341418 -0.041041847 0.06564194 -0.17944221 0.14599046 -0.47491056 0.079312 -0.37709793 0.032233384 -0.32679716 0.22947434 0.33466545 -0.21425639 -0.14490403 0.18355317 0.07189226 0.19288035 -0.66512734 -0.4304362 0.37533206 0.2765846 0.30184478 0.16851349 0.23379439 0.013806565 0.54964006 -0.37260005 0.33201206 0.21327992
1542 0.3754563 0.1819609 -0.023772197 -0.33868417 0.35345167 -0.20729133 -0.40340504 -0.5775951 0.43280947 0.1951281 -0.5462465 1.0560222 0.2575509 0.6034919 0.21015039 0.32451618 0.70474404 -0.3072767 0.33747166 0.2866298 -0.31209207 0.64039177 -0.11843122 0.47716916 -0.13479814 0.16662835 0.29114458 0.52986115 0.0017738598 0.36352894 -0.56801623 -0.23078918 0.47582808 0.14572372 -0.028706962 0.06668685 -0.13665411 0.071830496 -0.31309178 0.17454642 -0.56450343 0.079482965 -0.5337387 0.054658238 -0.35738435 0.2720287 0.4142501 -0.06677054 -0.10796437 0.11059755 0.06903436 0.26341012 -0.7407259 -0.50880176 0.4547039 0.41370058 0.42758712 0.26466012 0.27495015 -0.065138556 0.47200915 -0.43891 0.28426567 0.18352069
319 0.48678192 0.112918116 0.122566886 -0.05858523 0.6358773 -0.20524281 -0.65127605 -0.68347716 0.5974924 0.023013439 -0.967628 0.7348048 0.16229585 0.85114914 0.4508415 0.41130784 0.7516597 -0.09404844 0.65373886 0.25769484 -0.5206166 1.0661142 0.08813581 0.6649867 0.11324298 0.27805465 0.39133137 0.7710725 0.0151505 0.6295835 -0.78197116 -0.08226907 0.19769484 0.33316958 -0.028892398 0.07662962 -0.3706249 -0.04309866 -0.25765935 0.07543502 -0.4745047 0.33241776 -0.48823857 -0.18379474 -0.32467398 0.42995802 0.6248654 -0.052288506 -0.06917559 0.37522623 0.07305742 0.27903235 -0.8373248 -0.33778694 0.4182779 0.446015 0.263442 0.44519332 0.44695368 0.00996129 0.947057 -0.627735 0.46884787 0.3894892
1642 0.7078753 0.0044554216 0.22997443 -0.27768075 0.5322476 -0.41735795 -0.50261444 -1.6060425 0.73299855 0.5557225 -1.0620253 1.4255626 0.4816395 1.2853674 0.31769246 0.68104 1.4662939 -1.0163549 0.48115882 0.672007 -0.5567787 0.9194685 -0.30136108 1.0227478 -0.6212367 0.43626818 0.85531515 0.53695405 0.05494452 0.92812884 -0.93656844 -0.39902887 0.9514187 0.82440186 -0.12777789 -0.085217476 -0.2789758 0.081678875 -0.2133195 0.5138088 -1.1001413 -0.037280686 -0.45593452 0.13306366 -0.5165062 0.56854707 0.67643094 -0.6339088 -0.14086263 0.38419613 0.21372615 0.5530121 -0.8961942 -1.0174104 1.2389086 0.5627602 1.187722 0.23396027 0.72203755 0.11619594 1.1058972 -0.7732316 0.39211604 -0.3379543
60 0.49605545 0.006194456 0.16173552 -0.2760642 0.21920508 -0.195387 -0.49256262 -0.7496171 0.7343779 0.42495996 -0.9202284 1.2200067 0.15383443 0.56816095 0.24382272 0.4541296 0.92347324 -0.26813293 0.68682146 0.32773885 -0.32972515 0.6781364 -0.14251216 0.6464743 -0.22636756 0.43484065 0.3338144 0.70107085 0.106102176 0.57748103 -0.77458805 -0.35692787 0.60868853 0.32988498 -0.24773845 0.03952324 -0.11609025 0.17517462 -0.22142787 0.40379998 -0.58121955 0.25427896 -0.53792536 0.25228283 -0.29854518 0.48112902 0.5238492 -0.30711162 -0.14838636 0.2249235 -0.013443735 0.61712724 -0.9403326 -0.5596698 0.5960894 0.4498958 0.47761455 0.27530053 0.46983668 0.1723562 0.86074716 -0.46815863 0.45832545 0.2703768
59 0.55652946 -0.005753011 0.16693476 -0.3048888 0.2434264 -0.20854649 -0.5486487 -0.8102764 0.7939943 0.45956734 -1.0126173 1.3438139 0.16190585 0.6184848 0.2811662 0.5031831 1.0031152 -0.2788853 0.7606222 0.35301414 -0.36950353 0.7510226 -0.14261575 0.71613026 -0.24393545 0.48333058 0.35735112 0.7515361 0.10601768 0.6361572 -0.8485002 -0.40271765 0.64206773 0.35908675 -0.25072703 0.041032672 -0.1292591 0.19277425 -0.25215033 0.42204303 -0.6343789 0.28875175 -0.5879643 0.27142307 -0.33053917 0.5302151 0.5753458 -0.34021887 -0.15884843 0.25832585 -0.018128624 0.6714253 -1.0219021 -0.613474 0.63660544 0.48943207 0.52355194 0.3120885 0.5069893 0.18373701 0.94471055 -0.51690173 0.4956228 0.28473362
317 0.66834784 0.14542127 0.23004568 0.050519962 0.95188564 -0.2631859 -0.8658529 -0.9322144 0.83297116 0.0049501914 -1.5187998 0.8096348 0.2548056 1.2697809 0.6342929 0.6046789 1.0221866 -0.028747108 1.1145717 0.3173372 -0.8094242 1.5599662 0.21336645 1.0488346 0.2447184 0.37908536 0.4785884 1.2295464 -0.06577455 1.0135761 -1.2314837 -0.10446339 0.17798448 0.48983565 -0.056351196 0.08319528 -0.71387213 -0.0919947 -0.33132806 0.0024059473 -0.5205868 0.5329507 -0.6293133 -0.3106296 -0.330237 0.6915459 0.99202305 0.0063016503 -0.03312387 0.62299114 0.02825225 0.3635481 -1.1466336 -0.32217914 0.5891468 0.65245897 0.3509209 0.7146712 0.6604095 0.02799116 1.4239705 -0.89818335 0.6480093 0.5516646
839 0.36162648 0.018293306 0.1349718 -0.1788749 0.16792695 -0.15097968 -0.37472042 -0.5165625 0.51381373 0.29674447 -0.65787905 0.8341365 0.10254785 0.39841905 0.15119608 0.33459112 0.6333326 -0.19195315 0.50115305 0.2022577 -0.21566674 0.48730823 -0.082852386 0.45333937 -0.15247606 0.2870248 0.22199835 0.5062281 0.073479064 0.4279425 -0.5652218 -0.21780561 0.42957214 0.2269508 -0.18690231 0.032239325 -0.08953556 0.10515814 -0.16402248 0.2923297 -0.41803768 0.19363034 -0.37385505 0.1564826 -0.20919074 0.3476724 0.3706184 -0.20847474 -0.09562029 0.16012453 0.015902858 0.4251258 -0.6574381 -0.36054015 0.41936 0.3237408 0.32247072 0.20975222 0.36291182 0.117275886 0.6082832 -0.34118998 0.32224208 0.20832023
933 0.5953862 0.24472055 -0.04468935 -0.50605416 0.584517 -0.3349313 -0.65800846 -0.9798325 0.69516706 0.2775152 -0.8677526 1.6445614 0.37841123 0.9426838 0.3764238 0.5206703 1.1366056 -0.524755 0.5461868 0.46068916 -0.49393287 1.0081284 -0.18873216 0.7783823 -0.20401946 0.28490782 0.47623217 0.8118221 0.02924811 0.6205849 -0.86429185 -0.33437765 0.72444826 0.26518703 -0.030466055 0.08572835 -0.23181054 0.12878083 -0.4654504 0.2933198 -0.8773815 0.13706155 -0.8245771 0.08088419 -0.55890554 0.40155908 0.6890073 -0.14771484 -0.18353932 0.2041491 0.1015121 0.4265984 -1.1790266 -0.80716085 0.7227225 0.63263613 0.66987205 0.40144604 0.45612746 -0.06803128 0.7816063 -0.6939096 0.48229545 0.29499668
320 0.29694125 0.052694645 0.091600515 -0.009306317 0.42670846 -0.12011416 -0.40277532 -0.452048 0.38980496 0.0240478 -0.69462657 0.41697127 0.12618363 0.58526206 0.2844866 0.2910582 0.47964087 -0.041641403 0.4984612 0.15697478 -0.36526003 0.69561285 0.08791387 0.49637407 0.085416175 0.17466429 0.20428596 0.5310686 -0.031342488 0.47017464 -0.546463 -0.047032718 0.13926347 0.23743224 -0.026146136 0.025837544 -0.30916953 -0.024393408 -0.1504214 0.027625632 -0.24738824 0.2298128 -0.29788262 -0.12703277 -0.16408643 0.29649672 0.43816215 -0.02107551 -0.023131235 0.26730022 0.0066090818 0.18785086 -0.5148554 -0.18348515 0.26874688 0.28736052 0.18666093 0.3151244 0.2890056 0.0147007285 0.6362169 -0.4049817 0.29008526 0.22469538
1543 0.27992478 0.15061963 -0.014778756 -0.27345157 0.26845643 -0.13802509 -0.31171602 -0.45097792 0.35190225 0.15867932 -0.46308294 0.8627026 0.22696495 0.47272483 0.16431017 0.2591598 0.5604414 -0.22822887 0.32299268 0.2396656 -0.2549486 0.49765727 -0.072648585 0.41719818 -0.11400958 0.1240967 0.20682462 0.43778145 -0.0101915905 0.29894474 -0.48867315 -0.20703897 0.37685657 0.11089283 -0.042705584 0.0627481 -0.13867247 0.06435118 -0.24685703 0.1288059 -0.42224747 0.101384535 -0.43332994 0.06256397 -0.26448494 0.22920626 0.36475345 -0.02462927 -0.06950469 0.09123168 0.03653973 0.21895748 -0.6317554 -0.3918709 0.36688986 0.34067896 0.32843968 0.22680452 0.20474963 -0.06622644 0.3775587 -0.35880235 0.22921963 0.17374673
61 0.5663258 -0.027284356 0.21153913 -0.32162094 0.15085581 -0.17603187 -0.4565424 -0.75426346 0.8406885 0.553438 -1.109724 1.4002302 0.1912092 0.58841705 0.17355907 0.54013234 1.0360036 -0.2208033 0.9254226 0.3731808 -0.376677 0.70354533 -0.16301961 0.768185 -0.2792804 0.5289509 0.33392957 0.8471126 0.07942756 0.68080014 -0.9759051 -0.5252703 0.69821477 0.36596373 -0.33848855 0.0832226 -0.18341011 0.27639613 -0.24731667 0.44438452 -0.59676826 0.34358066 -0.5964252 0.36194226 -0.27478495 0.6252685 0.6272836 -0.31125304 -0.12578996 0.25692317 -0.098512836 0.729568 -1.1067591 -0.5988986 0.6901733 0.5314718 0.5989808 0.3418172 0.5209935 0.19974142 0.96836424 -0.52134025 0.47954255 0.2841458
1639 0.6674823 0.008544956 0.19711795 -0.29831904 0.53931326 -0.38721767 -0.5561094 -1.4632217 0.71643335 0.4529758 -0.984703 1.3656387 0.3905454 1.1816667 0.3559118 0.6174148 1.3605636 -0.8824143 0.44280425 0.60898364 -0.5193824 0.9345125 -0.26359466 0.90875125 -0.49104246 0.40685546 0.75780463 0.5470237 0.08469215 0.8480811 -0.8538065 -0.3354116 0.8356927 0.70358694 -0.0845347 -0.06623748 -0.2221003 0.071191505 -0.23501807 0.47666293 -1.0243222 -0.0018327625 -0.49768645 0.09433441 -0.51916844 0.513136 0.6473095 -0.57552534 -0.1730567 0.34681964 0.2028498 0.521901 -0.8902619 -0.9347486 1.0910028 0.51940227 1.0110861 0.24243005 0.6605433 0.1173489 1.0555693 -0.723349 0.43609512 -0.18833883
318 0.5039594 0.1229403 0.15345636 -0.021470236 0.67047036 -0.2250573 -0.63305634 -0.7492786 0.6075999 0.04570757 -1.0640543 0.6786971 0.19821115 0.94111115 0.44733796 0.44882366 0.80230325 -0.1111963 0.7492637 0.25416738 -0.5776508 1.1214566 0.1061152 0.7474842 0.13528892 0.25895113 0.3721752 0.84347296 -0.04816245 0.7068889 -0.8454141 -0.07471819 0.22036754 0.35483357 -0.023714604 0.046744507 -0.47315016 -0.03952602 -0.2613799 0.07535527 -0.4499244 0.32715017 -0.4919103 -0.19061942 -0.28784272 0.48212734 0.6861303 -0.04476605 -0.047167208 0.407021 0.033301685 0.30674556 -0.81610835 -0.33639666 0.46500185 0.48871902 0.3162921 0.4988473 0.48185143 0.02124891 0.9919899 -0.6254448 0.44719133 0.35063797
1545 0.3869528 0.23353434 -0.011088015 -0.3661872 0.38523707 -0.21831284 -0.39485508 -0.65425557 0.46664912 0.23989877 -0.62547195 1.1490146 0.3251721 0.6442595 0.16817942 0.3724001 0.7303566 -0.3531504 0.41340047 0.2920954 -0.35380912 0.6897825 -0.13010663 0.59285784 -0.1687398 0.15935552 0.25018796 0.6387877 -0.0423687 0.4599267 -0.67176217 -0.21557862 0.5668617 0.14659303 -0.059001673 0.0540267 -0.20395842 0.06712904 -0.3256217 0.17686589 -0.5836302 0.10416307 -0.5972823 0.07744154 -0.3442194 0.31104133 0.5108067 -0.02811458 -0.10656855 0.13059218 0.061743464 0.29571515 -0.8176128 -0.50983095 0.52225363 0.49202248 0.4679087 0.30538657 0.3234894 -0.058852766 0.47687232 -0.49161643 0.29433802 0.22327729
64 0.48421395 0.015384527 0.16045067 -0.2717346 0.20372674 -0.19061051 -0.4266704 -0.69012344 0.6749587 0.4311494 -0.88746125 1.1478614 0.17762308 0.55067366 0.19423196 0.44718775 0.8807088 -0.23441385 0.6791466 0.31411827 -0.32335192 0.6389969 -0.12792349 0.6233385 -0.20847416 0.39200062 0.3066247 0.6636646 0.06513167 0.55150145 -0.76247644 -0.35553467 0.58998954 0.3064856 -0.2345673 0.038825795 -0.14309393 0.1901952 -0.2219091 0.38145217 -0.53566074 0.24163632 -0.5046014 0.24331218 -0.2635222 0.47103032 0.49802405 -0.2634834 -0.115424804 0.20185994 -0.021985438 0.58593976 -0.8731109 -0.5277703 0.5715273 0.44290546 0.4965805 0.2754269 0.45442414 0.14772119 0.79208475 -0.4409689 0.3924686 0.21282451
841 0.45117104 0.021058016 0.11407472 -0.26253533 0.2733382 -0.20839341 -0.4998216 -0.7248172 0.65437824 0.3404661 -0.7945774 1.0868485 0.13125846 0.5667084 0.2603571 0.41424346 0.84596163 -0.2998909 0.555559 0.29369438 -0.29340622 0.6566936 -0.110410266 0.5758891 -0.20221226 0.356742 0.3190789 0.58534944 0.09091257 0.5313844 -0.654518 -0.24661899 0.5498766 0.30530536 -0.16501953 0.010025594 -0.090152845 0.13988116 -0.2072273 0.36182675 -0.5689501 0.1999537 -0.49873096 0.16818425 -0.3317797 0.39301762 0.46962038 -0.30033037 -0.14953499 0.2025617 0.037142262 0.52688956 -0.7910479 -0.51933074 0.5269516 0.3971041 0.43915138 0.2503117 0.42514738 0.13498953 0.7629293 -0.43220943 0.41608772 0.23415203
63 0.46092626 0.011666775 0.13766363 -0.2748901 0.1955702 -0.17724486 -0.43003452 -0.6729407 0.65964913 0.41646004 -0.83474916 1.1408522 0.1563227 0.5207676 0.20421304 0.4242373 0.85198027 -0.25960135 0.6153581 0.3030578 -0.30043927 0.5933431 -0.1363025 0.5960487 -0.21297011 0.3842716 0.2993832 0.6084005 0.07939047 0.52561957 -0.70003396 -0.33017066 0.596255 0.3016075 -0.21273841 0.028793134 -0.1115103 0.19541247 -0.21802479 0.38200077 -0.5420792 0.21914154 -0.4966532 0.2434402 -0.28766593 0.4265603 0.46690154 -0.27247554 -0.13000627 0.18292402 -0.010882485 0.56489414 -0.8352004 -0.5471842 0.5385854 0.40262562 0.4714244 0.25189063 0.42575693 0.1352448 0.74567163 -0.4060398 0.3855743 0.20205927
1242 0.2854391 0.03468372 -0.0066186716 -0.1553537 0.24714644 -0.1454856 -0.33901358 -0.4056343 0.30565143 0.06434775 -0.3176424 0.5868604 0.061319593 0.34563664 0.2489583 0.18443608 0.45457256 -0.19161876 0.1627473 0.18737364 -0.19532889 0.4446245 -0.074360825 0.2373516 -0.059363212 0.17976545 0.25772062 0.2663343 0.089685015 0.22181942 -0.27594945 -0.09787521 0.1913049 0.1517383 0.026028635 0.046166223 -0.026360994 0.041240472 -0.14880186 0.122247964 -0.3562438 0.046457637 -0.27586502 0.00016043756 -0.26331118 0.14242987 0.24795075 -0.14680202 -0.11813368 0.1302991 0.06032605 0.1623694 -0.4678436 -0.3352335 0.26683795 0.21282214 0.2145977 0.119176425 0.19266021 0.009136997 0.38513756 -0.2831474 0.24975793 0.14236942
1638 0.59079206 -0.0015592215 0.14894643 -0.24135853 0.4425118 -0.3081557 -0.48272026 -1.1863549 0.6081976 0.33988324 -0.80982065 1.1846114 0.3230332 0.96888924 0.33536392 0.5063842 1.1237434 -0.69404674 0.39035365 0.5134482 -0.4419445 0.8065609 -0.2134608 0.7467284 -0.40607238 0.37080258 0.66034317 0.49374124 0.112555474 0.68035984 -0.7411143 -0.3411407 0.62066096 0.58404183 -0.09152582 -0.0061495584 -0.17340055 0.05413491 -0.20148998 0.34638596 -0.8440244 0.0348808 -0.43012545 0.08071912 -0.43167531 0.4533768 0.5623673 -0.4494716 -0.14778782 0.31341982 0.16974373 0.39965814 -0.84473544 -0.76966536 0.9128283 0.43777078 0.82276165 0.22090383 0.53220844 0.08389633 0.91000867 -0.6473513 0.39522648 -0.085061
1544 0.32989383 0.22998044 -0.01629522 -0.32648954 0.33104154 -0.19285567 -0.33797175 -0.556651 0.37425193 0.19922973 -0.5191713 0.99608046 0.27853915 0.54518056 0.13713735 0.31755474 0.6185535 -0.3256875 0.32958534 0.25136673 -0.29390013 0.5899602 -0.117124975 0.49368364 -0.13891317 0.12390898 0.2138221 0.5423989 -0.039089482 0.37691197 -0.5599876 -0.1762306 0.50177056 0.10451931 -0.039820973 0.044424046 -0.167947 0.06549766 -0.28816232 0.15394722 -0.5105213 0.085197374 -0.5194491 0.06093382 -0.2965768 0.25549868 0.42873228 -0.021032372 -0.0942421 0.086153276 0.05331352 0.24231464 -0.69493365 -0.4492199 0.44126806 0.42830342 0.41654393 0.25494882 0.27894357 -0.062825896 0.3867076 -0.41222194 0.24831086 0.18830019
1859 0.22536916 0.023605514 0.01613724 -0.12884843 0.15026121 -0.09934873 -0.21098453 -0.2613655 0.21860598 0.075027294 -0.26425257 0.45016128 0.074128866 0.2729936 0.15818048 0.12716323 0.34297892 -0.08170182 0.16804953 0.14918497 -0.17113286 0.32799378 -0.051365938 0.20254008 -0.040606968 0.11679421 0.19203335 0.21631545 0.037884746 0.15254621 -0.24301668 -0.11307455 0.14295015 0.1122585 0.009444208 0.058335677 -0.038022537 0.056615297 -0.11836475 0.07585899 -0.25217846 0.05207558 -0.20942402 0.019231023 -0.17180122 0.13296111 0.17792653 -0.06330922 -0.066517726 0.07570792 0.0130629195 0.12576775 -0.34897435 -0.25338334 0.19139053 0.15569861 0.19293211 0.101737216 0.12748244 -0.020190649 0.27393228 -0.20131713 0.14522631 0.09612675
532 0.2502491 0.02416229 -0.022626622 -0.1678405 0.21519722 -0.106887415 -0.31859004 -0.33422828 0.27021343 0.047506917 -0.29765174 0.58257335 0.07174598 0.33181784 0.25319865 0.17591906 0.42170823 -0.13847737 0.18289326 0.19153725 -0.18083698 0.4108477 -0.05233796 0.22433706 -0.0505001 0.16747029 0.22380784 0.2592918 0.09112069 0.18158592 -0.26302135 -0.13311848 0.15520197 0.11987749 0.019067721 0.052463807 -0.009848361 0.048480973 -0.14572072 0.08752563 -0.3013531 0.083150014 -0.26877517 0.023014098 -0.25258616 0.1495948 0.21362416 -0.1275353 -0.07487809 0.0954648 0.046594974 0.13807636 -0.45907465 -0.3150181 0.23769762 0.1761785 0.1904625 0.11903687 0.14309871 -0.018007923 0.3568826 -0.27478847 0.22571748 0.15081528
1641 0.26036003 0.0038832044 0.0749426 -0.111781195 0.1955324 -0.13025242 -0.23130895 -0.5433015 0.28724524 0.17346805 -0.387118 0.5494039 0.16061409 0.43511835 0.14618295 0.24331385 0.514077 -0.31343746 0.19058035 0.23693703 -0.19739126 0.34917393 -0.07459486 0.35363105 -0.1994643 0.17782041 0.2963686 0.21230015 0.046802595 0.31872404 -0.3464069 -0.16368207 0.2905689 0.27001673 -0.045902476 -0.012677402 -0.07428968 0.013466464 -0.09869249 0.15479195 -0.3822161 0.0359002 -0.18949243 0.039015822 -0.20300683 0.20035285 0.25996482 -0.2045389 -0.055951364 0.13785072 0.07676072 0.18835069 -0.39165753 -0.34480643 0.41616768 0.20237361 0.36878392 0.10756965 0.23771411 0.028413583 0.41543356 -0.30302116 0.17998245 -0.048649017
62 0.449112 -0.030761091 0.15107736 -0.2763169 0.14555305 -0.14833477 -0.3810094 -0.66275805 0.6915305 0.45404053 -0.9142782 1.1763287 0.1546859 0.50718707 0.16557302 0.43224886 0.8615499 -0.2174651 0.7282735 0.3163006 -0.3239126 0.5893457 -0.12838447 0.64735067 -0.22688429 0.4148481 0.2837829 0.65847456 0.06304533 0.56568766 -0.7755524 -0.40920907 0.6030951 0.3233941 -0.24840266 0.05978211 -0.1562624 0.23002926 -0.19993272 0.3677304 -0.4893223 0.25226063 -0.49748892 0.2799977 -0.25276327 0.48303804 0.5019234 -0.27748036 -0.09484591 0.21683751 -0.07630963 0.606388 -0.87662244 -0.5200638 0.558956 0.43428034 0.49005163 0.28072596 0.41239882 0.14433391 0.7873202 -0.42752907 0.37732276 0.21667571
888 0.34643236 -0.057179317 0.042996865 -0.18796079 0.16018233 -0.15413398 -0.28955066 -0.27118602 0.31269032 0.011675404 -0.3178706 0.64113086 0.120125204 0.35384876 0.27656606 0.08325825 0.528961 -0.13517046 0.27943343 0.23508427 -0.19634609 0.45366848 -0.083116755 0.25498146 -0.12608056 0.23538893 0.24061972 0.4184034 0.12609725 0.1965838 -0.33383307 -0.17095715 0.10075813 0.13591798 -0.13959351 0.1007742 -0.014196501 0.014189545 -0.12255132 0.07062246 -0.29895356 0.15586582 -0.29022133 0.0432749 -0.12441106 0.2566685 0.26104194 -0.10286847 -0.054850094 0.21324146 -0.021423046 0.18914065 -0.54683775 -0.2631351 0.32771903 0.2914192 0.26018175 0.12832712 0.1377378 0.06349706 0.4600586 -0.37030417 0.29081658 0.23101825
889 0.59294814 -0.20928827 0.042431813 -0.4113978 0.24205957 -0.26763776 -0.5351723 -0.44075364 0.5904731 -0.0018825937 -0.51143754 1.1773064 0.21448526 0.5900931 0.5326986 0.07093325 0.9944692 -0.26051882 0.5120332 0.4617993 -0.32641998 0.7651437 -0.14564884 0.4552895 -0.3158904 0.4807403 0.38788104 0.7340572 0.2867014 0.33603537 -0.5478147 -0.31685242 0.1481803 0.27670425 -0.31186527 0.1937748 0.017860798 0.002686898 -0.19231007 0.11802088 -0.48328698 0.3022757 -0.51583874 0.11293978 -0.1956179 0.44935614 0.4488233 -0.25688675 -0.07039088 0.454344 -0.07400572 0.3572666 -0.9795111 -0.44610262 0.5852643 0.52988374 0.48177937 0.17991443 0.16543134 0.14974293 0.8267316 -0.67238575 0.5256885 0.4307273
297 0.083394244 -0.11493007 -0.19174367 -0.08961251 0.18145865 0.17825615 -0.57192826 0.072492905 0.23417272 -0.28668964 0.12609865 0.58611786 -0.17117086 -0.11947952 0.5344212 0.024197772 -0.03596158 0.16823542 -0.07162911 0.14480047 -0.033524085 0.24048334 0.32981083 -0.11927612 0.10941169 0.17604704 0.09165471 -0.03261283 0.40303648 -0.2335611 0.02634304 -0.14532095 -0.3376108 -0.09013753 0.032981284 0.16453847 0.32241148 -0.14275698 -0.076271474 -0.21585268 -0.08018416 0.35559994 -0.21703471 -0.08450266 -0.36584663 -0.11408607 0.055023946 -0.05609593 0.013605951 0.03341017 0.12794529 -0.07914401 -0.6183302 -0.020349855 -0.16281144 -0.13560735 -0.4824944 0.12563021 -0.22001038 -0.15524614 0.14431751 -0.3657285 0.36284867 0.5365981
229 0.24666339 0.01517185 0.010495881 -0.12925823 0.19842221 -0.121482626 -0.27902952 -0.34389287 0.24958752 0.022656051 -0.27759132 0.48984042 0.048568036 0.3074355 0.23176363 0.16032226 0.389243 -0.12735507 0.15852058 0.15110616 -0.17298174 0.39781195 -0.056413863 0.21384466 -0.033483572 0.15352646 0.2167989 0.27434587 0.07066944 0.18276542 -0.23792373 -0.11198251 0.1092371 0.129267 0.008294761 0.041471723 -0.027303457 0.014720909 -0.12548144 0.08742459 -0.30049357 0.06502743 -0.24249336 0.0051367236 -0.19246012 0.13955055 0.22795321 -0.11368369 -0.09735494 0.12817945 0.057779826 0.119264506 -0.4223924 -0.24102275 0.22719721 0.17344026 0.16752599 0.107958 0.15167694 0.019330125 0.36513326 -0.2400925 0.22820845 0.15406916
201 0.39553317 -0.031589948 -0.070868425 -0.26858303 0.3556794 -0.12604146 -0.58164346 -0.5074519 0.46886244 -0.0031157269 -0.3806738 0.9578953 0.025914475 0.446418 0.52087533 0.23708151 0.6262683 -0.15251812 0.23249921 0.32096574 -0.2857811 0.6378911 -0.0081330165 0.31503958 -0.05894791 0.31505445 0.3532828 0.3740011 0.23076212 0.23295502 -0.34697014 -0.24107435 0.106020816 0.17026155 0.020738717 0.12049391 0.03906178 0.03398378 -0.20044497 0.06385299 -0.46117708 0.18442915 -0.42805755 0.0047472687 -0.43524644 0.18011756 0.35031897 -0.22035651 -0.119918175 0.20194246 0.07679773 0.179114 -0.8051223 -0.4464648 0.31482023 0.22769496 0.16077618 0.20811576 0.15112604 -0.03629382 0.57086 -0.47413397 0.4193936 0.35345754
918 0.34766924 0.12453102 -0.022907011 -0.27219513 0.33802384 -0.17412123 -0.39449072 -0.5288325 0.40002695 0.13875893 -0.4976008 0.94220704 0.20529544 0.5359344 0.23350227 0.29511026 0.63382816 -0.24523705 0.31956786 0.2821199 -0.3033604 0.5855821 -0.07340597 0.4156639 -0.095009446 0.15728459 0.30458927 0.436636 0.034056045 0.3088478 -0.4894138 -0.20800455 0.38392487 0.15369698 0.003572405 0.081097335 -0.11121382 0.07717596 -0.28134608 0.15977417 -0.4986445 0.11024879 -0.45977086 0.02722177 -0.34421343 0.22568518 0.37064898 -0.0773271 -0.10651728 0.11526282 0.056824703 0.24032296 -0.6964192 -0.4651892 0.38660866 0.3446681 0.35303617 0.24054547 0.24864672 -0.045599665 0.4505172 -0.39700568 0.2820067 0.17600173
934 0.41929063 0.16925876 -0.033149675 -0.34412014 0.38981378 -0.22258006 -0.44527143 -0.63685083 0.4675329 0.17926504 -0.56760037 1.1313351 0.25184625 0.6253351 0.25746965 0.3400509 0.7584602 -0.3257166 0.3649302 0.31522277 -0.34529623 0.6895447 -0.11635464 0.5012508 -0.13047093 0.19911245 0.33231378 0.56696975 0.026536865 0.38779435 -0.59961915 -0.24840885 0.4564426 0.16566858 -0.020580353 0.083681315 -0.13929026 0.075976096 -0.328275 0.17380558 -0.59076685 0.11292247 -0.5683536 0.058273986 -0.3874289 0.2759281 0.4545268 -0.0831349 -0.1243826 0.13619612 0.067911625 0.27669892 -0.8341259 -0.5316669 0.48747125 0.4368623 0.43101665 0.2782074 0.30396914 -0.054447692 0.53315014 -0.47970468 0.34192383 0.2239325
581 0.33883148 0.028930299 0.052634537 -0.11114365 0.3877056 -0.14560626 -0.46109602 -0.48616374 0.41202888 0.028830597 -0.55567646 0.6246713 0.0929857 0.5178576 0.35532436 0.2663673 0.5349503 -0.10538762 0.36672574 0.21166085 -0.30047736 0.6700144 0.012035038 0.3965172 0.035449773 0.23317228 0.29330584 0.4636135 0.073415175 0.3532799 -0.46811372 -0.10467198 0.14176363 0.21782875 -0.012700033 0.06636257 -0.14076367 -0.0050128573 -0.18922809 0.06627715 -0.37521592 0.19237936 -0.3567368 -0.074431196 -0.27537295 0.25945204 0.39659825 -0.10512752 -0.091501445 0.22493327 0.054253362 0.17957504 -0.6162836 -0.28958553 0.3027471 0.27513885 0.17779283 0.2618541 0.26483798 0.016417632 0.61280483 -0.4098138 0.35203254 0.2671413
1643 0.48785844 -0.015461856 0.12348848 -0.20566797 0.38337195 -0.22378689 -0.4386082 -0.9956338 0.54016006 0.2740257 -0.69306695 1.0363711 0.26572618 0.799392 0.3190839 0.4358628 0.9397125 -0.57155865 0.34619322 0.44615278 -0.3726789 0.66934186 -0.13745186 0.64833957 -0.3586298 0.34666157 0.5499546 0.40608647 0.116165735 0.5869781 -0.6437203 -0.31177416 0.5061525 0.4921344 -0.08200772 -0.0017712903 -0.13175806 0.032763895 -0.15989041 0.26871982 -0.6972843 0.08170461 -0.36441872 0.08454901 -0.38239682 0.3783142 0.48251832 -0.38014993 -0.0939532 0.28147742 0.1270867 0.33996254 -0.74501884 -0.61933494 0.7547877 0.35182768 0.65369403 0.20544426 0.42823297 0.057571694 0.79174453 -0.57230204 0.35947976 -0.047614682
1644 0.55134857 0.001159911 0.16589075 -0.22499792 0.4347746 -0.2969596 -0.44772628 -1.1786547 0.5951899 0.35755855 -0.8041913 1.1304204 0.32914284 0.95617324 0.29649693 0.5116746 1.1054646 -0.69276077 0.37973604 0.5056123 -0.43461964 0.7508683 -0.20703386 0.7440912 -0.42300585 0.35878775 0.63719076 0.4506874 0.09001428 0.67985374 -0.7152115 -0.30376503 0.65363395 0.5845342 -0.08999271 -0.031892926 -0.17888156 0.04628945 -0.18892372 0.35365897 -0.8247348 0.035036586 -0.40193468 0.09619087 -0.40815628 0.44191077 0.5422127 -0.44601572 -0.12965329 0.29807523 0.16257432 0.41711313 -0.7720436 -0.742106 0.8978551 0.43613684 0.8167767 0.21515131 0.5315794 0.08190136 0.87488085 -0.61858577 0.35997346 -0.12540415
964 0.19492689 0.025380304 -0.020158477 -0.16884805 0.17094025 -0.09315126 -0.2217331 -0.3050838 0.24096453 0.07278489 -0.2691207 0.53071177 0.08228408 0.27844635 0.16857044 0.15621935 0.36279303 -0.1487806 0.18931773 0.16475578 -0.15957643 0.3321173 -0.055530038 0.23027006 -0.061794225 0.14069565 0.16503368 0.25314808 0.045818795 0.1896419 -0.26402754 -0.14323378 0.17449667 0.098384514 -0.013395333 0.047975894 -0.057086382 0.0395131 -0.14238793 0.07203594 -0.2591552 0.06448344 -0.251344 0.033702526 -0.181137 0.13886611 0.22681555 -0.07917646 -0.069462374 0.10242001 0.012576194 0.13705759 -0.41219848 -0.25287047 0.223329 0.18910588 0.18771735 0.11541565 0.12421163 -0.015297142 0.2934728 -0.2288912 0.1830898 0.12655461
1247 0.40222523 -0.053317852 -0.099088825 -0.32057142 0.3133784 -0.13769197 -0.5326265 -0.5532927 0.5011777 0.12052814 -0.46451363 1.0645363 0.12755024 0.4891686 0.4374679 0.25065702 0.6746547 -0.225816 0.21582521 0.35417673 -0.29291177 0.54613096 -0.052360807 0.33545756 -0.115967035 0.22269335 0.38418642 0.26972088 0.17681272 0.1933089 -0.33345494 -0.28923282 0.3140655 0.2137008 0.049499113 0.08516192 0.044049166 0.16579913 -0.24029693 0.15300892 -0.476534 0.1629262 -0.43015668 0.06854997 -0.5096272 0.15795334 0.3042706 -0.29786384 -0.15100837 0.16208437 0.049449865 0.23652549 -0.71312505 -0.64581424 0.37555945 0.26888907 0.28720093 0.14602228 0.11636496 -0.083103344 0.48406786 -0.43480936 0.35036796 0.23062412
960 0.20620099 0.03679395 -0.017361129 -0.15804237 0.20003417 -0.10412427 -0.2589841 -0.3301105 0.25126415 0.05509372 -0.28191817 0.5478127 0.08519923 0.29651615 0.2028265 0.1646311 0.37736684 -0.16752382 0.18316086 0.17011677 -0.15643331 0.37160328 -0.055413127 0.2400518 -0.057546273 0.15993921 0.18429326 0.30807772 0.06475441 0.22253546 -0.2865535 -0.14342952 0.15503123 0.09363887 -0.012669551 0.03987057 -0.06128921 0.012974871 -0.139364 0.06862476 -0.29549676 0.074443966 -0.26579696 0.016178789 -0.18270206 0.1549708 0.260996 -0.088833 -0.07611728 0.1110875 0.03400994 0.13124648 -0.46042344 -0.24024941 0.24804904 0.20605269 0.1740451 0.13012765 0.13644417 -0.0009895596 0.33074144 -0.27052265 0.21757096 0.16424577
962 0.20947212 0.071239285 -0.015208089 -0.17537281 0.1951884 -0.10423961 -0.23983803 -0.3231412 0.23801787 0.086984366 -0.29684564 0.5600753 0.11312579 0.31431445 0.14572331 0.17050093 0.3847064 -0.17020647 0.18719742 0.17031005 -0.16727196 0.3498024 -0.04927723 0.24927147 -0.06662976 0.1136436 0.18495522 0.2671524 0.025857631 0.20725356 -0.28765264 -0.13680433 0.23116483 0.09223847 -0.008756771 0.043272078 -0.06589829 0.036729977 -0.16486958 0.10013449 -0.2911258 0.05963549 -0.27085277 0.024813086 -0.20613557 0.13507734 0.22935362 -0.06304869 -0.05840099 0.0802054 0.03228142 0.15153563 -0.4254126 -0.27170745 0.23804383 0.21161957 0.21163571 0.14383025 0.1464762 -0.01762697 0.28435105 -0.24151315 0.17669836 0.114390954
961 0.41301197 0.07490924 -0.03518338 -0.3019156 0.37042192 -0.19550557 -0.47456113 -0.5930595 0.46207988 0.113174066 -0.51312625 1.0269004 0.15389748 0.5743715 0.35372686 0.2942646 0.71530235 -0.2714829 0.32076693 0.32506543 -0.3158366 0.6736799 -0.09694483 0.43810806 -0.09706227 0.25587827 0.3671201 0.48085216 0.10635505 0.34494647 -0.4895815 -0.24933861 0.32407048 0.18995935 0.0048342976 0.096601784 -0.08244173 0.08432005 -0.2725821 0.15848781 -0.54463345 0.12431557 -0.49438536 0.027661953 -0.3929309 0.2458927 0.41307786 -0.15381272 -0.15248848 0.17935728 0.064903475 0.24634546 -0.8064779 -0.5080111 0.4262074 0.34983006 0.35035753 0.23590457 0.2474724 -0.022247568 0.5725513 -0.45170194 0.3551025 0.24679442
296 0.095697336 -0.08246451 -0.13946594 -0.10162808 0.17621629 0.10675156 -0.4684118 -0.0327695 0.23097931 -0.18731712 0.02440284 0.5296218 -0.113115795 -0.015385176 0.4388442 0.056695897 0.062136997 0.08546714 -0.019594122 0.14732642 -0.050711464 0.24870838 0.22705293 -0.024002146 0.06951092 0.16732953 0.09641769 0.042845916 0.30116782 -0.10716928 -0.022016741 -0.12602405 -0.20734206 -0.03691442 0.026368994 0.12516305 0.21156281 -0.08826576 -0.08889323 -0.13718313 -0.123808816 0.27300644 -0.21263544 -0.054892004 -0.3088207 -0.05512453 0.08946852 -0.08294313 0.0008768431 0.05681131 0.09274779 -0.026977206 -0.5276416 -0.06756433 -0.07821853 -0.061374262 -0.3004069 0.1197287 -0.12947746 -0.10239668 0.17366703 -0.31205058 0.31422564 0.422183
294 0.13834453 -0.083393864 -0.13647221 -0.10556309 0.18936828 0.10086586 -0.5166908 -0.055742394 0.24551314 -0.19637361 0.0016538552 0.5843275 -0.10786925 -0.0016942306 0.48349994 0.060395055 0.09640512 0.07985367 0.0005424514 0.16051994 -0.07299133 0.29156718 0.20872977 -0.01791684 0.07060937 0.19698654 0.12562676 0.08372907 0.3242292 -0.10534245 -0.05686287 -0.15564021 -0.23742557 -0.031086031 0.013811698 0.13203038 0.22601248 -0.10432739 -0.084223345 -0.15066452 -0.14503185 0.2931896 -0.23594417 -0.054061588 -0.3213186 -0.026908722 0.115518354 -0.07761876 -0.022419563 0.07760496 0.10012332 -0.03293185 -0.5952601 -0.07902922 -0.05227201 -0.037137084 -0.3025123 0.12420611 -0.1082594 -0.09478944 0.22886784 -0.36300424 0.3453725 0.44947964
923 0.31271905 0.07499779 -0.03553717 -0.28493005 0.3091827 -0.17916276 -0.37307426 -0.55128914 0.388748 0.1440296 -0.46864855 0.8968183 0.16744986 0.5019132 0.24420124 0.27999458 0.6392285 -0.28810707 0.27605358 0.27045283 -0.267227 0.5396055 -0.1065817 0.40748528 -0.12608914 0.1793316 0.27430212 0.39237654 0.04905343 0.32731494 -0.41620338 -0.17301828 0.39515528 0.17931633 -0.005191108 0.039487734 -0.08255645 0.07660991 -0.24810535 0.18206596 -0.47096625 0.071001805 -0.43121928 0.05263399 -0.32078436 0.19070776 0.3414723 -0.13874578 -0.106791764 0.119053006 0.047385238 0.24793676 -0.60964894 -0.47134882 0.393079 0.32052773 0.34291315 0.1875551 0.23383945 -0.021652555 0.44478688 -0.35833883 0.2621874 0.13961826
921 0.31584853 0.22231832 -0.036063883 -0.33504134 0.36874402 -0.1826315 -0.36125264 -0.5595932 0.40291902 0.2034213 -0.54037 1.0473332 0.2888484 0.59035623 0.15659687 0.3333395 0.6583653 -0.31976557 0.3414684 0.2639725 -0.31573334 0.5935036 -0.09385638 0.5106518 -0.13340518 0.10550197 0.2469504 0.5255304 -0.031456243 0.37464908 -0.5772916 -0.1945163 0.5307337 0.117176756 -0.030187681 0.036957633 -0.17980616 0.06710534 -0.33097 0.16126496 -0.53353393 0.09502666 -0.5463615 0.046659715 -0.32678396 0.24724866 0.41758433 -0.01120934 -0.090249434 0.08689822 0.061318573 0.25548977 -0.7125519 -0.47942033 0.43788996 0.4266433 0.40105802 0.27741453 0.28024635 -0.08242369 0.39625838 -0.43081844 0.24950513 0.1757097
925 0.28423983 0.17968744 -0.034449067 -0.33796844 0.31831074 -0.17377868 -0.3110262 -0.5569855 0.38725075 0.20814715 -0.52133995 1.006264 0.2671199 0.55089134 0.14671038 0.3081287 0.6565298 -0.32564807 0.333968 0.25943938 -0.28081977 0.53293717 -0.0987891 0.4959805 -0.15347032 0.12646404 0.22605318 0.47784886 -0.026994878 0.37283248 -0.52647793 -0.21606952 0.52605957 0.128263 -0.033639267 0.03675678 -0.16627768 0.08422021 -0.29760194 0.16956857 -0.50280964 0.07082383 -0.50803787 0.085817374 -0.31748447 0.22923616 0.41179606 -0.048575033 -0.0779476 0.09046123 0.0309453 0.2553394 -0.68032134 -0.4751246 0.4304531 0.38213605 0.41327298 0.2433409 0.24505138 -0.071075045 0.37241834 -0.38883987 0.22879453 0.14293875
965 0.37073302 0.096215904 -0.01260437 -0.2753981 0.34608567 -0.20722555 -0.43393856 -0.59255147 0.42633218 0.14934762 -0.52965087 0.91584873 0.17699954 0.5714011 0.2638819 0.28397268 0.6797439 -0.28828555 0.29720083 0.2808097 -0.29963362 0.6274601 -0.10519 0.43612552 -0.099894054 0.18556878 0.31842116 0.43609795 0.04651156 0.34002015 -0.4606831 -0.1645586 0.40416875 0.1852121 0.008450839 0.05449844 -0.09774714 0.07556099 -0.2569807 0.1996857 -0.5143128 0.08274607 -0.45576406 0.03013357 -0.35717642 0.2217989 0.3691359 -0.14125308 -0.13533495 0.14121945 0.064785235 0.26049522 -0.66023636 -0.4921433 0.41559502 0.34605426 0.37442678 0.21965572 0.27964687 -0.01592159 0.5040937 -0.39422125 0.29660514 0.16620213
515 0.18113422 0.007848834 0.0026458474 -0.11385869 0.14436322 -0.08660483 -0.1903968 -0.2457537 0.19687851 0.06234661 -0.23316428 0.3792121 0.058043648 0.24483365 0.13395245 0.11654756 0.30007654 -0.09494859 0.14004503 0.13564046 -0.1405305 0.27443752 -0.050548997 0.17225282 -0.038610987 0.100920424 0.16129638 0.19479331 0.028657194 0.14423363 -0.20225419 -0.07781617 0.13593428 0.10352678 0.006177818 0.024262246 -0.037658118 0.04145567 -0.09747793 0.07057305 -0.21508883 0.046281982 -0.17024371 0.02039111 -0.14733231 0.11352012 0.15468742 -0.0781908 -0.052411374 0.07183731 0.014137708 0.11827896 -0.29127023 -0.20844054 0.17860718 0.13198844 0.15180883 0.09477812 0.12494892 0.002865547 0.24474493 -0.17210153 0.1375223 0.08284277
329 0.15880568 0.02535022 0.031415682 -0.050746363 0.24026163 -0.09025779 -0.2517069 -0.30982715 0.23299454 0.034200013 -0.3576241 0.30963075 0.04623994 0.32227087 0.1772647 0.15660316 0.31861547 -0.09451182 0.2199768 0.10989979 -0.17235297 0.37980515 0.0070802057 0.26934034 0.012000738 0.10742162 0.13602868 0.2610235 0.012815344 0.2611484 -0.26559162 -0.018851247 0.13358024 0.14119245 -0.015746064 -0.008349669 -0.11276822 -0.0074717947 -0.09664495 0.07001729 -0.1890441 0.080120385 -0.18694358 -0.051815655 -0.13841404 0.13517535 0.23598574 -0.0763955 -0.037756715 0.12871012 0.023812465 0.13638736 -0.29306024 -0.16726403 0.17540036 0.16810519 0.11625327 0.14172834 0.17620371 0.025726853 0.3526854 -0.20795022 0.16905853 0.11955895
1034 0.40547487 -0.09586811 0.03912334 -0.32069853 0.25125498 -0.16762291 -0.4690192 -0.6957746 0.6415682 0.32720914 -0.7142669 1.1784017 0.10365651 0.5314706 0.35760248 0.371696 0.8487292 -0.26292005 0.5166037 0.37195992 -0.31316411 0.6146861 -0.11459172 0.57207716 -0.20108199 0.3916588 0.31594527 0.49525806 0.14433138 0.48156965 -0.558478 -0.3156676 0.49364066 0.31038377 -0.12359 0.05350935 -0.06999394 0.17962758 -0.20147495 0.2732336 -0.5109277 0.19491008 -0.49560252 0.19676705 -0.3725565 0.32029915 0.45642728 -0.33486918 -0.11017764 0.2277539 -0.0053622453 0.4687557 -0.8209241 -0.55482155 0.4857463 0.32433048 0.4160022 0.23206812 0.28084457 0.073599406 0.7030876 -0.44667956 0.40639192 0.22443746
554 0.16712052 0.013588159 0.013925578 -0.097423844 0.13883536 -0.08560579 -0.18258919 -0.23387052 0.18119559 0.047327053 -0.19523919 0.3526177 0.05258834 0.22072165 0.14094247 0.10596052 0.27601737 -0.09022359 0.122956455 0.11097672 -0.11420702 0.25906137 -0.030851603 0.1529178 -0.0351455 0.10078402 0.15188217 0.17706694 0.035264213 0.13547322 -0.17149167 -0.06587386 0.106011376 0.08966488 0.0076918644 0.033231393 -0.022444528 0.016850073 -0.088666216 0.07295309 -0.2021737 0.038738318 -0.16881566 -0.00016653088 -0.13879895 0.10322745 0.1468432 -0.07757943 -0.0586421 0.07776493 0.023203896 0.09685385 -0.2724266 -0.17844114 0.16485345 0.124780126 0.12672766 0.08963558 0.11916472 0.009428143 0.24843773 -0.16629674 0.14720863 0.091092385
1640 0.18724751 0.0047776448 0.044406705 -0.07482914 0.13788064 -0.08925645 -0.15830445 -0.3540175 0.19782205 0.09346454 -0.23677404 0.36504242 0.08372254 0.27958935 0.11855322 0.16249375 0.3442866 -0.21145403 0.11744986 0.16493203 -0.13250482 0.23900189 -0.055209797 0.22311778 -0.12522994 0.12139807 0.20632821 0.14926507 0.044688754 0.21468273 -0.2301903 -0.11111695 0.18453257 0.16994604 -0.030660754 0.00075032614 -0.044610996 0.01641869 -0.058420543 0.10966334 -0.25180128 0.023617266 -0.13223544 0.02107288 -0.13228483 0.13235773 0.1760737 -0.13821298 -0.044883244 0.09561812 0.04510226 0.12709638 -0.2731001 -0.22226341 0.2722379 0.12841134 0.24578075 0.06714904 0.16420288 0.0304633 0.28424233 -0.19855496 0.12217474 -0.01767472
2 0.37517133 -0.028876081 -0.053092323 -0.24244618 0.33496505 -0.120774746 -0.5391412 -0.47511664 0.44510219 0.011489047 -0.36825627 0.90285397 0.0393298 0.41853103 0.47931537 0.2249803 0.5753161 -0.15084836 0.23198193 0.31265077 -0.26858166 0.61733866 -0.028366255 0.29242957 -0.057307247 0.3026451 0.32468984 0.36571094 0.21713278 0.23450091 -0.35885707 -0.2367743 0.096511275 0.16781805 0.015410592 0.107955344 0.018079571 0.031491484 -0.2017073 0.060048543 -0.44489893 0.18528038 -0.40815723 0.0056024035 -0.38416412 0.17783271 0.3348015 -0.21053925 -0.13195406 0.19810703 0.08089535 0.18262878 -0.768633 -0.4012512 0.30680493 0.23212862 0.16333735 0.18062027 0.13757928 -0.030232318 0.5650096 -0.43581596 0.39489847 0.3270207
920 0.2846848 0.0695547 -0.01755178 -0.24365348 0.27756035 -0.13851297 -0.3281571 -0.46196654 0.34854004 0.11641694 -0.4066492 0.7853102 0.15065573 0.43246713 0.22593865 0.24217534 0.5530986 -0.22729191 0.26289964 0.22834347 -0.2448224 0.4944493 -0.07921363 0.36182967 -0.09162658 0.16410291 0.2547445 0.37762377 0.04364204 0.28400198 -0.39917523 -0.18635376 0.29692557 0.14783333 -0.00617164 0.05715705 -0.09802717 0.05661691 -0.21842654 0.12438358 -0.4089673 0.08154294 -0.37246838 0.02947247 -0.27485386 0.19187805 0.32949206 -0.10114426 -0.0942759 0.12141008 0.03201281 0.20882423 -0.5829042 -0.38009953 0.3370417 0.286782 0.30272508 0.18797663 0.19640383 -0.022975717 0.4070037 -0.32953173 0.24632461 0.15820283
55 0.16218658 0.014433216 0.011630456 -0.091070466 0.13029826 -0.08186998 -0.18271299 -0.22799456 0.17331499 0.040877275 -0.19811237 0.33886725 0.0509256 0.21655348 0.14809144 0.11093503 0.27553838 -0.09397274 0.12820835 0.108088546 -0.11924594 0.25965044 -0.054178845 0.15060812 -0.045061626 0.1119944 0.14424698 0.19025227 0.051374435 0.13963832 -0.17314894 -0.08617251 0.0950157 0.08531055 -0.0024016078 0.036204215 -0.04049539 0.02548331 -0.08235914 0.064161025 -0.19001545 0.043495502 -0.15704288 0.005708024 -0.12503399 0.10585348 0.16149427 -0.07988079 -0.06654676 0.09260985 0.013611991 0.103900135 -0.28061906 -0.1706022 0.15870509 0.12140718 0.12740739 0.08274784 0.109143905 0.015919516 0.24569204 -0.16094719 0.14510567 0.09349292
924 0.27325037 0.14611135 -0.035333954 -0.29094592 0.29000273 -0.16954483 -0.3039368 -0.5251408 0.35632107 0.17129453 -0.45589972 0.891602 0.21115276 0.4860762 0.16880476 0.28113 0.6046146 -0.29550657 0.27941677 0.23313646 -0.24471605 0.49457586 -0.11967137 0.43783277 -0.13277836 0.14042601 0.22155623 0.44589156 -0.010905261 0.34849826 -0.4569506 -0.19076893 0.42628863 0.13170622 -0.034992184 0.020080635 -0.13932098 0.069338016 -0.25638112 0.16521801 -0.46081227 0.052443773 -0.44658065 0.062092386 -0.27421877 0.20695044 0.37421113 -0.07877756 -0.08372916 0.10459747 0.038811993 0.23894684 -0.59868675 -0.42336604 0.3940168 0.34413174 0.36798424 0.20045623 0.22540711 -0.03477832 0.3865024 -0.34716246 0.22736071 0.14371957
330 0.295961 -0.0024902395 0.032251775 -0.10864159 0.36850998 -0.12614249 -0.41479617 -0.48989138 0.40837651 0.040395938 -0.55647653 0.5968661 0.07715246 0.5003299 0.32771736 0.26044995 0.53008974 -0.1208852 0.37167245 0.22076318 -0.28780994 0.62452555 0.008465887 0.40925446 -0.0024529742 0.24148329 0.2621414 0.4425515 0.07397013 0.39312235 -0.43324086 -0.11590133 0.1589157 0.22298868 -0.012292591 0.04424646 -0.15220475 0.0053657517 -0.15299308 0.07467395 -0.32478318 0.16278455 -0.32041568 -0.043543253 -0.2547755 0.23486008 0.3848599 -0.12783048 -0.061541867 0.2381966 0.037128005 0.19935568 -0.57652265 -0.28909785 0.2962235 0.25231314 0.20368925 0.22474925 0.23781496 0.023430355 0.58611304 -0.3854389 0.31121165 0.22705644
1423 0.44910866 0.056035332 -0.0033575632 -0.28706458 0.33319622 -0.2137768 -0.45366418 -0.5781067 0.43684834 0.14499779 -0.5024323 0.92589056 0.16836254 0.58609724 0.331462 0.28421307 0.72439545 -0.22816774 0.29833913 0.31949824 -0.32098356 0.65025645 -0.11009428 0.3917126 -0.095572 0.22719923 0.37478483 0.3963402 0.06665437 0.28577226 -0.43377817 -0.20806514 0.34484574 0.20564269 0.033147868 0.07558903 -0.067391895 0.10628468 -0.23750223 0.18926959 -0.51989603 0.078802414 -0.4264286 -0.00047330087 -0.4035556 0.22393425 0.32308862 -0.18907323 -0.16042706 0.13256961 0.0696347 0.25084087 -0.6900169 -0.5433374 0.40655014 0.30215904 0.38311356 0.2047596 0.27364525 -0.03015169 0.5599693 -0.38857195 0.31245852 0.16448928
250 0.14787884 0.005076357 0.0052188006 -0.0815368 0.10932696 -0.06936399 -0.1514154 -0.19610631 0.15196848 0.04037897 -0.16866249 0.31131417 0.048290044 0.1822874 0.12655702 0.08417176 0.22929682 -0.0654044 0.1209274 0.101971425 -0.10106225 0.21246304 -0.031485032 0.14406961 -0.041083496 0.09587516 0.124898456 0.16330943 0.035405803 0.11628977 -0.15570769 -0.09096279 0.08987483 0.06916106 0.005391647 0.034626752 -0.02164151 0.02997106 -0.06748394 0.04843039 -0.16542839 0.04448493 -0.14734583 0.0075372322 -0.12045069 0.09860722 0.12769267 -0.06345089 -0.047470365 0.0665982 0.019056141 0.075304106 -0.25029835 -0.15333323 0.14218204 0.11589805 0.121569484 0.07121519 0.08316941 -0.0012987794 0.21661817 -0.14590971 0.12333138 0.076896735
212 0.26117712 0.01581934 -0.009477292 -0.14076598 0.19223729 -0.08915434 -0.29461226 -0.28152886 0.23765524 0.022188028 -0.24091214 0.50037074 0.042369742 0.2810637 0.2373161 0.13864595 0.35300982 -0.09178651 0.14625144 0.17118183 -0.16553275 0.38327107 -0.038173117 0.1932764 -0.023788754 0.17428769 0.22849843 0.24187645 0.09735318 0.15892434 -0.24215005 -0.1229789 0.083321415 0.10915541 -0.00041997866 0.06938367 -0.02214012 0.031934075 -0.12263061 0.06257769 -0.28637403 0.09312851 -0.24166375 -0.009198826 -0.2127171 0.1303095 0.20145917 -0.09951365 -0.082408056 0.11540701 0.042558197 0.1188574 -0.44490862 -0.25873825 0.206888 0.17036483 0.14779724 0.12834032 0.14051892 0.001106905 0.33226365 -0.26746172 0.21513304 0.17774822
1245 0.38938397 -0.019878315 -0.06373438 -0.25369853 0.29680052 -0.14856504 -0.4680496 -0.5243843 0.44764668 0.09660349 -0.43883488 0.9135264 0.1175206 0.44782385 0.37974536 0.23640162 0.5992736 -0.20713033 0.1992504 0.2887506 -0.26749906 0.5223819 -0.075854026 0.3062388 -0.093209095 0.19365652 0.3733974 0.29688218 0.15996738 0.20080039 -0.3193087 -0.2250898 0.2717823 0.2039092 0.026479837 0.059406083 0.0077876225 0.12584831 -0.1990276 0.15241733 -0.4626911 0.14167762 -0.38523516 0.05027034 -0.42615327 0.18284331 0.28786084 -0.26249444 -0.15092699 0.15682128 0.058260217 0.22663707 -0.6352285 -0.56081593 0.35510975 0.2709037 0.26102588 0.1434176 0.170465 -0.033696663 0.48484978 -0.39147615 0.32017955 0.21277604
66 0.31081077 0.04296347 0.004549832 -0.19061023 0.27373087 -0.16183628 -0.36777788 -0.4592673 0.32857436 0.074986875 -0.3885383 0.66525 0.07976941 0.41057417 0.26537082 0.20957398 0.5218434 -0.20173472 0.22030748 0.21648137 -0.22160347 0.5070328 -0.060426038 0.29164678 -0.05080158 0.17362314 0.2624971 0.3132405 0.07646151 0.24870849 -0.3236377 -0.10872026 0.2402978 0.16425268 0.0063071055 0.03226708 -0.055774305 0.04973335 -0.17083615 0.1427456 -0.395725 0.08304849 -0.3254933 0.0009134415 -0.27697408 0.1716578 0.25956577 -0.1444352 -0.1134826 0.13548489 0.072284505 0.19854161 -0.5109743 -0.3733287 0.30362496 0.238495 0.24835056 0.15824226 0.21449763 0.013270414 0.44453672 -0.30496004 0.271203 0.15454622
410 0.45062783 0.027137814 0.019735115 -0.29549187 0.3857829 -0.2447692 -0.51824564 -0.6598556 0.47002724 0.08765695 -0.49357456 0.89793444 0.091294676 0.5503079 0.4236549 0.28581142 0.7375387 -0.2812355 0.28098154 0.31992117 -0.30962446 0.6919043 -0.1357903 0.38579065 -0.110085905 0.2908366 0.41696936 0.45710403 0.13089024 0.3545095 -0.4251872 -0.21348046 0.22084977 0.2569462 0.001836123 0.06007524 -0.045997772 0.07198833 -0.22666131 0.20457487 -0.5258806 0.09102337 -0.44806916 0.027027946 -0.3740043 0.25643083 0.39484426 -0.26380998 -0.1801625 0.24767835 0.09986033 0.25693315 -0.75250876 -0.52259654 0.4310198 0.33705205 0.3797657 0.19027004 0.269763 0.04313571 0.63536096 -0.45028475 0.3907747 0.23355226
1025 0.14512809 0.01839238 -0.0035411965 -0.09040178 0.12814458 -0.07336684 -0.17795584 -0.20763934 0.16271749 0.02952223 -0.18669644 0.3308457 0.04604023 0.19653858 0.12639709 0.09618207 0.24110413 -0.09222192 0.11317593 0.098811656 -0.11111916 0.23671663 -0.028831815 0.14987253 -0.026321195 0.09492065 0.12953947 0.18084495 0.041838996 0.12239835 -0.16753258 -0.07248292 0.08858159 0.07484572 0.0010795123 0.018860698 -0.02664007 0.02294952 -0.09003852 0.052627135 -0.18909606 0.042538274 -0.1646958 0.008342695 -0.12408068 0.08899598 0.14410688 -0.065109484 -0.049818896 0.070175655 0.024532123 0.08256131 -0.26868162 -0.16246215 0.1480059 0.11402195 0.11663807 0.08392269 0.09719716 0.0012981653 0.21424116 -0.1596124 0.12711881 0.086829305
56 0.24853912 -0.0007607816 0.0070799687 -0.15177843 0.24665819 -0.14846326 -0.33645153 -0.44278914 0.305759 0.04661078 -0.30370086 0.5503757 0.03382762 0.35404447 0.267302 0.18281443 0.46088618 -0.20165774 0.14186473 0.1725898 -0.16421507 0.42958727 -0.08784048 0.25126234 -0.078041516 0.1844561 0.227301 0.26956508 0.09215459 0.2385846 -0.22073045 -0.07768272 0.18275736 0.15403345 0.023176065 0.0021786764 -0.033923887 0.014444141 -0.11420667 0.13876589 -0.3419524 0.043169122 -0.252018 -0.0057262387 -0.24311492 0.14029938 0.23396423 -0.18994337 -0.11687314 0.14166893 0.07017657 0.17518784 -0.42660043 -0.2996441 0.24962758 0.18403734 0.19573776 0.11431616 0.1895893 0.04952833 0.41041264 -0.25978765 0.24092317 0.14095734
1225 0.1715257 0.034367 0.018391646 -0.07322313 0.11861717 -0.087068014 -0.14881629 -0.21324728 0.14991161 0.042864807 -0.19858097 0.31211436 0.05457332 0.21559934 0.11177775 0.10329432 0.2669888 -0.09171349 0.13573006 0.1072132 -0.10922344 0.2505134 -0.04733458 0.15344812 -0.026298007 0.09245622 0.14781462 0.18293232 0.015963126 0.13829562 -0.18984875 -0.065089114 0.11658746 0.09319491 -0.0018662559 0.018811475 -0.03850661 0.035862055 -0.07456034 0.074786045 -0.18966901 0.040451605 -0.14932513 0.003885527 -0.11752454 0.109895125 0.13965431 -0.055791724 -0.06346396 0.06553983 0.028427763 0.08934834 -0.25555775 -0.17579022 0.15896733 0.13243696 0.15468852 0.08765505 0.120966755 0.011020817 0.22720481 -0.1553597 0.122562945 0.059043415
963 0.14947428 0.030309021 -0.0068186913 -0.09996866 0.12864771 -0.06833671 -0.16942814 -0.21798836 0.17009649 0.053394422 -0.21158403 0.3638286 0.073595956 0.21297202 0.106269844 0.10923223 0.26598543 -0.10955478 0.12964088 0.10916185 -0.12504873 0.24735539 -0.04126069 0.16349912 -0.04357425 0.07732868 0.12373886 0.18964887 0.025172621 0.14639181 -0.19848728 -0.0835608 0.14815378 0.06808629 -0.012379038 0.025022628 -0.035624433 0.030234238 -0.101125985 0.07350391 -0.19948208 0.049072057 -0.1838541 0.017893557 -0.14075144 0.100313194 0.1600561 -0.057097863 -0.041465834 0.068358935 0.019194853 0.10598563 -0.27683073 -0.18339835 0.16009098 0.13863114 0.1459713 0.08785269 0.109708704 -0.011228878 0.20363478 -0.16640529 0.13013208 0.08197947
68 0.19091469 0.0068461634 0.019337222 -0.13542657 0.19660613 -0.10540033 -0.24326251 -0.36085588 0.2510663 0.062168542 -0.26586267 0.42853284 0.051301755 0.27959603 0.18998739 0.14727601 0.37011445 -0.15530169 0.16654348 0.14336552 -0.15391925 0.3395865 -0.071235366 0.21425343 -0.060563322 0.15011762 0.16979955 0.21971887 0.04867475 0.2125414 -0.20270959 -0.08868801 0.15609916 0.13663688 4.4481592e-05 0.007820167 -0.043740436 0.027831845 -0.093297176 0.108677685 -0.2700042 0.035322387 -0.21869236 0.023983032 -0.18526025 0.12244428 0.19973804 -0.13290855 -0.09732136 0.09815333 0.022971751 0.13679758 -0.3304829 -0.26687497 0.22752711 0.16491424 0.1779029 0.09492397 0.14326304 0.014748211 0.31622952 -0.20053206 0.18714869 0.08475415
67 0.18632273 -0.009422702 0.0062757283 -0.14714348 0.18328796 -0.09250501 -0.23041007 -0.3483552 0.24882938 0.08534239 -0.27169988 0.45517525 0.051510185 0.26681322 0.1807658 0.15568466 0.3753179 -0.1497742 0.17342792 0.16682489 -0.14962097 0.31340957 -0.07351575 0.232217 -0.06306235 0.15699232 0.1664864 0.20812605 0.058562588 0.211092 -0.21515433 -0.10607654 0.16045402 0.14320365 -0.0023663333 0.008769663 -0.03506029 0.04110581 -0.09895555 0.09529726 -0.2402401 0.03749629 -0.21868978 0.03665255 -0.1846425 0.116206914 0.20615584 -0.13328885 -0.087725855 0.10083915 0.00091231073 0.14259578 -0.3382135 -0.2724062 0.2209714 0.15870114 0.18327606 0.097522475 0.12250278 0.0037959353 0.31224012 -0.19696446 0.17493866 0.076321825
985 0.24854068 0.12834284 -0.013352066 -0.20252044 0.25663826 -0.14404531 -0.29475772 -0.39903587 0.2959921 0.11344363 -0.36749092 0.6950459 0.15801615 0.40011063 0.15540218 0.22662114 0.46199983 -0.22150585 0.23048685 0.1923207 -0.20453045 0.4311266 -0.06426808 0.32150653 -0.08103875 0.107460484 0.20339301 0.3493018 0.016452737 0.25079912 -0.37776184 -0.14035077 0.31235647 0.09763861 -0.025780156 0.037498742 -0.09175821 0.040980354 -0.19856629 0.1123676 -0.3786816 0.059997406 -0.3484784 0.022989556 -0.23480915 0.18032521 0.27939436 -0.045535836 -0.08993831 0.08577482 0.04765026 0.18111807 -0.507356 -0.33357814 0.3024072 0.26584828 0.2661203 0.1830016 0.19324924 -0.030878361 0.3235308 -0.29391432 0.20296085 0.13802402
1280 0.16875213 0.020821067 0.009702115 -0.10371163 0.10964259 -0.07098002 -0.15338582 -0.2083196 0.16373625 0.048328936 -0.18092139 0.32576823 0.064574674 0.19670834 0.12259422 0.10629919 0.2597938 -0.078096926 0.1157558 0.122454025 -0.10916849 0.23808888 -0.05351482 0.13908875 -0.034162216 0.097909175 0.14448468 0.15819341 0.026835907 0.117097884 -0.16334315 -0.09436837 0.09520337 0.08171162 -0.0008133262 0.030810768 -0.029672392 0.036690105 -0.08419061 0.06640494 -0.18951678 0.033542033 -0.14508498 0.007113083 -0.12482456 0.09053308 0.12955536 -0.07478893 -0.056278832 0.05870805 0.016905062 0.07904368 -0.25673074 -0.18446146 0.15407383 0.12464643 0.13557228 0.07264029 0.091874294 0.0033714396 0.2228809 -0.1395063 0.11836064 0.077871606
328 0.1419646 0.035823308 0.051541068 -0.0019834654 0.20591857 -0.06949994 -0.18677633 -0.21594548 0.17965734 0.010006279 -0.3184797 0.19609071 0.066992864 0.28048107 0.12748738 0.13860317 0.23443788 -0.030007891 0.2209097 0.075717755 -0.15644939 0.33547294 0.03104987 0.22624357 0.03607097 0.08146955 0.10826823 0.2468287 -0.008931245 0.2130224 -0.2583336 -0.014756658 0.08237039 0.10814524 -0.018830486 0.003179999 -0.13142462 -0.013880496 -0.08687934 0.021296557 -0.137279 0.09554905 -0.14186414 -0.063499376 -0.07771223 0.14662391 0.20917036 -0.008274943 -0.015456702 0.11161798 0.019213645 0.093896836 -0.23308153 -0.100534774 0.14190672 0.14451475 0.09765632 0.15050924 0.15096268 0.0164939 0.29819742 -0.17969915 0.14209549 0.10186821
209 0.3328871 0.037275013 -0.034803893 -0.1950519 0.2649762 -0.13543044 -0.39436445 -0.40751672 0.33498755 0.036631048 -0.3296059 0.718122 0.070126384 0.39984736 0.33249116 0.20196861 0.5061806 -0.1452734 0.20426574 0.23606318 -0.23039275 0.5184324 -0.044597823 0.25578126 -0.043200806 0.20082761 0.30662233 0.31196204 0.12232395 0.18028349 -0.31157652 -0.16629833 0.14102359 0.13547432 0.027446972 0.08793009 -0.012969224 0.040046897 -0.17793363 0.081455566 -0.39925566 0.12114969 -0.32355374 -0.0041681104 -0.3164275 0.17237118 0.2702643 -0.1272311 -0.10451273 0.13358411 0.057441846 0.13706152 -0.5994042 -0.3639018 0.27087352 0.20895861 0.19811492 0.16919382 0.15638392 -0.020144055 0.4363621 -0.34973556 0.2942698 0.2133969
200 0.30629092 0.047995053 -0.026503306 -0.16814972 0.23964119 -0.12114112 -0.35349512 -0.34607244 0.29502392 0.043063235 -0.31108198 0.64068455 0.072964236 0.3556797 0.28082937 0.1804235 0.44849318 -0.1153116 0.18317755 0.2085916 -0.22181398 0.46718156 -0.033692364 0.23941438 -0.027226912 0.16993551 0.26903298 0.28856444 0.10218542 0.17631377 -0.29080075 -0.14234698 0.13857554 0.119901985 0.017464336 0.08469633 -0.007918125 0.04314323 -0.16635306 0.074124746 -0.34318033 0.1045264 -0.30132246 -0.012662907 -0.28498346 0.16172059 0.23005596 -0.09871935 -0.090355165 0.116934694 0.052216005 0.13570225 -0.5323485 -0.32812342 0.23685558 0.20555377 0.19075797 0.16310494 0.16289201 -0.019650675 0.37343833 -0.30252627 0.2580498 0.18841821
1472 0.10928512 0.018137934 0.012061219 -0.065276474 0.07648709 -0.052919324 -0.11580986 -0.15192436 0.11954456 0.028776322 -0.14690846 0.2177083 0.037133344 0.1511221 0.08172941 0.068373635 0.18880054 -0.060103398 0.08633073 0.07318949 -0.08505821 0.17632814 -0.03856663 0.11083182 -0.030433824 0.06549841 0.09736429 0.1338301 0.016433822 0.0960772 -0.12838612 -0.05967984 0.06181641 0.05295138 0.0007263832 0.020837674 -0.027447818 0.022596078 -0.061033532 0.03731704 -0.13471499 0.031363603 -0.104346044 0.0032678246 -0.07741082 0.070701525 0.097260006 -0.052377027 -0.043705333 0.0487934 0.019350562 0.06309742 -0.17368993 -0.11053205 0.11658807 0.09221904 0.10240983 0.048793696 0.08538175 0.008220529 0.16750723 -0.09732402 0.08636724 0.049139623
656 0.2659974 0.013711543 0.002612577 -0.1560296 0.20799041 -0.112050086 -0.29846302 -0.3396999 0.27105322 0.043929838 -0.28841192 0.5377869 0.05286777 0.3180557 0.2348051 0.15553448 0.3953301 -0.12204991 0.16988277 0.1876112 -0.17922921 0.39753127 -0.05019988 0.22175717 -0.0364673 0.15459356 0.22070517 0.26213342 0.076054394 0.17409283 -0.26168686 -0.12186288 0.13297166 0.123568445 0.010983036 0.049866978 -0.029352767 0.044760484 -0.12168318 0.09699163 -0.30968547 0.07599917 -0.24742986 0.006641424 -0.22466703 0.14699149 0.21745904 -0.11651719 -0.09304777 0.113074444 0.04472024 0.1414547 -0.43616235 -0.2740715 0.23641488 0.17472641 0.1960609 0.11018134 0.15868393 -0.0029565662 0.3624025 -0.24714936 0.22045384 0.14543779
938 0.32279637 0.120340146 -0.025650213 -0.25448665 0.30390954 -0.16917814 -0.359348 -0.49943414 0.36804244 0.13839689 -0.4520593 0.8245035 0.16817184 0.48316523 0.21340989 0.26504257 0.5745172 -0.25330126 0.26090273 0.2446216 -0.2598491 0.5323129 -0.09591784 0.38120577 -0.09682145 0.1439071 0.26346985 0.4062523 0.028910253 0.31294802 -0.42407924 -0.16280702 0.35232565 0.14519332 -0.011535504 0.03607953 -0.09873465 0.05167971 -0.23077255 0.15548514 -0.44681197 0.08032198 -0.40443692 0.03133726 -0.30462277 0.20368062 0.34291893 -0.10380972 -0.104933225 0.11780936 0.069562726 0.22599408 -0.58899385 -0.40820196 0.36366326 0.3127914 0.32029343 0.1998899 0.23835355 -0.026104633 0.41468978 -0.361219 0.2497083 0.1586671
148 0.09807864 0.013520452 0.009593198 -0.07880831 0.08641344 -0.058722798 -0.10356593 -0.15631737 0.12337355 0.049590446 -0.13951051 0.2306442 0.03641026 0.15374301 0.07911443 0.07816539 0.18421514 -0.0620479 0.0818524 0.07241888 -0.08050088 0.15855965 -0.028132094 0.114213414 -0.034042463 0.057747547 0.09624046 0.115421705 0.014321962 0.096164845 -0.12489088 -0.040645197 0.09010259 0.07363658 -0.0021144093 0.0022031872 -0.035390384 0.029242039 -0.05331161 0.061826248 -0.1282576 0.02342631 -0.098606944 0.011796336 -0.093215525 0.057788987 0.103584 -0.05879536 -0.033030733 0.055207662 0.010761122 0.07230439 -0.16787976 -0.14477414 0.111503035 0.07753681 0.10844193 0.042902384 0.0664763 0.00977131 0.14563549 -0.09404972 0.0795813 0.03203111
1246 0.15579596 -0.00848162 -0.025805974 -0.097252354 0.11178614 -0.068550006 -0.19239327 -0.20042638 0.17212908 0.03215598 -0.16875368 0.3680491 0.051103383 0.18009001 0.14705504 0.08877565 0.24176608 -0.078284524 0.08325721 0.11527325 -0.11254315 0.20895077 -0.03550466 0.1162302 -0.03514216 0.083515145 0.15340196 0.13375668 0.067002095 0.085193805 -0.12910606 -0.082239434 0.100689374 0.07448651 0.010214839 0.029870879 0.011505348 0.040801466 -0.07760985 0.053508937 -0.19156475 0.05772795 -0.16110024 0.020390904 -0.16100353 0.08229898 0.11284669 -0.101381615 -0.053798232 0.055291757 0.017753026 0.09411828 -0.2595801 -0.21690221 0.1356852 0.10443187 0.10667592 0.05451635 0.068156935 -0.017313339 0.20459397 -0.1524446 0.1257067 0.09658606
295 0.13278562 -0.036162782 -0.08647323 -0.09326537 0.16176674 0.04426762 -0.3686706 -0.086484574 0.19158244 -0.108194366 -0.04916691 0.46227953 -0.053575475 0.0598158 0.32466158 0.07317905 0.12852168 0.034315687 0.030214107 0.13998711 -0.08901432 0.25585008 0.1309356 0.02045791 0.041732054 0.13258803 0.12721263 0.085895665 0.21631919 -0.051212568 -0.08937944 -0.121244 -0.09691374 2.7010485e-05 0.011180788 0.105154306 0.1312401 -0.053178072 -0.09367321 -0.07614744 -0.1454105 0.2009392 -0.20369366 -0.040647294 -0.25605735 0.0056453315 0.10271403 -0.058580793 -0.020624597 0.047331814 0.07370448 0.0013866199 -0.4499385 -0.10492006 0.00036453898 0.006453917 -0.1603841 0.11494555 -0.04601444 -0.077260405 0.18298359 -0.266218 0.25330284 0.3011779
327 0.12743598 0.021005986 0.024716726 -0.010534535 0.16325413 -0.051726855 -0.17460416 -0.19991572 0.16017035 0.01067351 -0.25795034 0.19550756 0.048409887 0.2211507 0.12170017 0.1032652 0.2013206 -0.042048898 0.17540649 0.0752544 -0.12587309 0.27034098 0.010955885 0.18394777 0.018021833 0.08624103 0.10772934 0.20267978 0.016727144 0.18167162 -0.19993259 -0.02880046 0.0566718 0.094514124 -0.012050432 0.018456249 -0.097162105 -0.013402015 -0.06449332 0.013687142 -0.120670475 0.07457611 -0.13302955 -0.044327974 -0.076765224 0.108407386 0.17044266 -0.024326712 -0.017153172 0.10523232 0.017894963 0.07828451 -0.23063268 -0.09650134 0.11948777 0.12572528 0.07385814 0.11037551 0.11642259 0.0052697766 0.25657722 -0.16008157 0.12386886 0.09402836
1621 0.12290841 0.02100131 0.015678247 -0.061629277 0.081529945 -0.054311533 -0.12875298 -0.13893458 0.12366214 0.027088601 -0.13661283 0.22815295 0.04137777 0.13894555 0.09210571 0.07708107 0.166365 -0.03952413 0.09651011 0.07882116 -0.0930339 0.18853454 -0.030800706 0.09740709 -0.007836263 0.061050497 0.101951085 0.14238907 0.031047838 0.08382252 -0.1439431 -0.06664891 0.057260703 0.046601303 -0.010999045 0.045937948 -0.03843764 0.023594104 -0.0697444 0.02851598 -0.13048421 0.04269306 -0.110351704 0.009119632 -0.08182182 0.09880758 0.11600545 -0.01837078 -0.033066534 0.051305387 0.012022565 0.044540726 -0.2188539 -0.11946561 0.111341074 0.09589752 0.08826117 0.06910504 0.08288116 0.0051308093 0.16621082 -0.12807956 0.09646872 0.06974648
72 0.24907936 0.019929456 0.017444147 -0.13822162 0.22878616 -0.15233728 -0.3327487 -0.41954648 0.28725573 0.050038468 -0.3111525 0.50979614 0.029410351 0.33396238 0.25983196 0.17109962 0.43016952 -0.19172935 0.14467235 0.16838741 -0.16570966 0.42161793 -0.061794646 0.23338424 -0.06483405 0.1678428 0.21159287 0.27350196 0.09143412 0.22583021 -0.23895697 -0.074950844 0.1723047 0.14545488 0.015316335 0.011190108 -0.039569423 0.021326097 -0.11819124 0.12225381 -0.3209275 0.055014014 -0.24628478 0.0021103506 -0.22700183 0.13529614 0.23245859 -0.16711752 -0.102650434 0.14606586 0.07413391 0.17792928 -0.41340193 -0.2795607 0.24354267 0.19569466 0.18018277 0.10292624 0.18097776 0.034557033 0.40064988 -0.26056692 0.23352832 0.14053868
331 0.124533616 0.020212278 0.038261965 -0.027839947 0.15055193 -0.07418161 -0.15592341 -0.20793696 0.15433542 0.022882683 -0.23666178 0.20411257 0.04183632 0.2171715 0.11287157 0.109450184 0.21923402 -0.06441657 0.15761335 0.06754989 -0.12069227 0.26467395 0.0032272965 0.17745854 0.012265142 0.073363334 0.10289131 0.19070014 0.005623984 0.18061262 -0.18484624 -0.0202331 0.08708963 0.088073045 -0.01300527 -0.0024657806 -0.0907552 6.628706e-05 -0.07405816 0.04814505 -0.14415394 0.052406773 -0.12382019 -0.034244422 -0.09228738 0.10265707 0.15732431 -0.037133437 -0.025208572 0.09307585 0.026036046 0.08997567 -0.19205002 -0.109393574 0.13089812 0.11489705 0.08918067 0.10676599 0.11999827 0.018263523 0.24312803 -0.14017893 0.113399915 0.071599655
922 0.2147826 0.13601239 -0.014357069 -0.23071198 0.2314441 -0.12536085 -0.24241474 -0.3963815 0.27585918 0.1364204 -0.37076902 0.70725024 0.187461 0.39028418 0.112994775 0.22735752 0.45438707 -0.23626447 0.23547068 0.18254708 -0.19896339 0.3995285 -0.076555975 0.34415385 -0.10804689 0.09979063 0.16815783 0.36544123 -0.015194627 0.27259088 -0.39936534 -0.15653716 0.3492603 0.09606637 -0.036292788 0.020383611 -0.118646406 0.04096095 -0.21989794 0.110594064 -0.36271626 0.06311022 -0.35949478 0.050149787 -0.21098961 0.17809607 0.2955792 -0.029008517 -0.07319322 0.08045882 0.030267479 0.1740518 -0.50035137 -0.3134186 0.30892074 0.295189 0.28356317 0.17918772 0.18315318 -0.034178007 0.29332417 -0.2982171 0.17419204 0.12441104
919 0.21918993 0.055991095 -0.011339262 -0.16161019 0.20578131 -0.12239162 -0.24131349 -0.3567151 0.26580805 0.07977351 -0.30324212 0.5754577 0.10814838 0.3200578 0.16039795 0.18829353 0.41374394 -0.17835812 0.19524142 0.16745666 -0.17934413 0.35866892 -0.078896336 0.27455953 -0.07730672 0.13602646 0.1884152 0.29843476 0.031155927 0.23265013 -0.30044505 -0.1299644 0.22268677 0.117493175 -0.006439012 0.021955337 -0.0730839 0.047173247 -0.1625075 0.09713324 -0.30278057 0.05961877 -0.2728214 0.026030982 -0.18992601 0.15063834 0.24867223 -0.09224765 -0.08124487 0.09443359 0.031404022 0.15112807 -0.42424318 -0.28003645 0.2612096 0.21989572 0.2246414 0.1244544 0.16391854 -0.0051262514 0.31588262 -0.24537672 0.18192391 0.11611751
1052 0.27448577 0.028197799 -0.0034641912 -0.18748303 0.22464167 -0.13297102 -0.2970182 -0.3890319 0.29033536 0.096516185 -0.33981183 0.6313989 0.09902477 0.3753766 0.21535294 0.18616231 0.46221453 -0.1553994 0.21091403 0.21083286 -0.21900636 0.4116182 -0.065141454 0.264425 -0.06659469 0.14535397 0.24437216 0.25855967 0.051464554 0.20979111 -0.2907387 -0.13473828 0.24399665 0.15116577 0.02555281 0.049201507 -0.040732402 0.07918319 -0.15927333 0.1252924 -0.34122893 0.06919442 -0.2967368 0.02296326 -0.2653265 0.14165555 0.21915075 -0.11282247 -0.08505649 0.09752408 0.027722202 0.17111161 -0.44902715 -0.36912602 0.25385174 0.19675945 0.2448664 0.13285488 0.16309078 -0.029898565 0.348367 -0.25453135 0.20463926 0.111524954
206 0.17139895 -0.042615186 -0.06768474 -0.11051309 0.18010487 0.010639968 -0.37839156 -0.15447147 0.23784272 -0.086700544 -0.11368707 0.50923586 -0.024392957 0.12599322 0.33997935 0.09510419 0.20064548 0.0056251944 0.069250554 0.14785333 -0.11698689 0.31599194 0.090111405 0.081754506 0.010818208 0.17244333 0.15537198 0.14626007 0.19279304 0.021255272 -0.14223795 -0.13134128 -0.0659939 0.036881376 0.006220895 0.09497109 0.10305032 -0.031455435 -0.10518528 -0.043530125 -0.19639899 0.18842785 -0.21440497 -0.029277192 -0.25633895 0.04223583 0.15420894 -0.082854934 -0.04157798 0.08293884 0.06908256 0.04424483 -0.48293355 -0.15479635 0.058944564 0.050376426 -0.084015414 0.11591159 -0.0010578363 -0.05060687 0.2557188 -0.28509378 0.26773515 0.28914398
1037 0.34210733 -0.048885163 0.036527403 -0.24671768 0.20306933 -0.1411129 -0.38615718 -0.5474068 0.51063615 0.24770649 -0.5509996 0.93203086 0.102747306 0.42537022 0.28295186 0.28754205 0.67802435 -0.2218469 0.38592744 0.30034062 -0.24733374 0.5008572 -0.09676999 0.44541425 -0.15597074 0.30614468 0.26610807 0.3854114 0.114151336 0.375682 -0.4356548 -0.24477383 0.38837567 0.2367668 -0.08784495 0.037718058 -0.060053375 0.12564445 -0.16834275 0.21129265 -0.42267603 0.15919755 -0.4005151 0.14233872 -0.300782 0.24443202 0.35085988 -0.24447066 -0.09746247 0.17442663 0.018224707 0.36646572 -0.65029985 -0.4453332 0.38642463 0.2653615 0.32369128 0.18192509 0.24694936 0.058183078 0.56630814 -0.36498404 0.32633752 0.17678563
203 0.15080126 0.0047858795 -0.007450602 -0.10463847 0.14979832 -0.053172953 -0.19730626 -0.23581599 0.19703656 0.033453412 -0.21564987 0.35693505 0.04087421 0.22170305 0.18045975 0.11340766 0.27208787 -0.07496343 0.13768655 0.11473259 -0.13551918 0.2715582 -0.010760791 0.17028037 -0.03469141 0.10927202 0.14299875 0.1899856 0.046748012 0.13663165 -0.17763853 -0.10437848 0.07336991 0.09294394 0.002789985 0.0377453 -0.03748153 0.025387516 -0.07905899 0.04043314 -0.17920199 0.07537065 -0.17151709 0.0007214046 -0.13559249 0.10194275 0.15940925 -0.083029576 -0.03376192 0.08487883 0.009037627 0.09728528 -0.29486492 -0.17419873 0.15632112 0.1247338 0.106435336 0.1014901 0.07768566 0.0014691766 0.24341917 -0.16947553 0.13986193 0.107273676
662 0.34433687 0.07150805 -0.004231796 -0.19104661 0.26892173 -0.1699784 -0.3627905 -0.427015 0.31914896 0.09272923 -0.39855492 0.7063285 0.1104351 0.4557472 0.25300002 0.22417578 0.5267676 -0.17037109 0.24228318 0.22672123 -0.27290002 0.5244664 -0.0606559 0.29233518 -0.0409859 0.15368322 0.30640244 0.33377662 0.058133 0.228961 -0.36233404 -0.14203264 0.2308748 0.15627053 0.02236259 0.07335759 -0.046526894 0.071079545 -0.18614362 0.13586308 -0.4087703 0.08993192 -0.3379595 -0.004709273 -0.30736873 0.2085022 0.26593715 -0.11386139 -0.10192863 0.10327195 0.0714319 0.18384975 -0.5445862 -0.39610925 0.30489874 0.23867676 0.2665454 0.17217335 0.23843807 -0.010626661 0.42565432 -0.3125874 0.26720247 0.15323952
1279 0.14216982 0.001385448 -0.0015646783 -0.10058025 0.12153249 -0.072803535 -0.168297 -0.2138196 0.16098773 0.039439257 -0.17434502 0.31235582 0.038595114 0.19084056 0.14649576 0.095412455 0.24735188 -0.09769353 0.08979078 0.1081258 -0.10656908 0.2174805 -0.04222469 0.13981079 -0.0443162 0.09769329 0.12078928 0.14148277 0.04190295 0.11736367 -0.14253464 -0.066745915 0.098992 0.08512197 0.012081547 0.0035097778 -0.011593291 0.016140314 -0.07043766 0.06281134 -0.17561127 0.029440008 -0.1480965 0.0070922105 -0.12962553 0.07889225 0.13386433 -0.09564112 -0.06119092 0.06338711 0.02114124 0.08301264 -0.24229932 -0.17406003 0.14552005 0.10397335 0.11462866 0.065309115 0.08622227 0.011509939 0.2184986 -0.14880708 0.118341886 0.08104754
986 0.2330905 0.09428585 -0.004345312 -0.19684844 0.22325325 -0.121879324 -0.23018666 -0.38532478 0.26851594 0.13173296 -0.36322495 0.63804454 0.1682208 0.38723645 0.13278489 0.20195174 0.45494696 -0.20496385 0.24144462 0.18891452 -0.21322092 0.39565504 -0.073837444 0.32943714 -0.08183179 0.11241549 0.17947432 0.33753237 -0.012560125 0.26291984 -0.36542517 -0.13962904 0.31596914 0.10942542 -0.014237232 0.03163515 -0.114102386 0.05412071 -0.18076359 0.12045548 -0.34071666 0.054970972 -0.3160735 0.047458235 -0.21655615 0.16419755 0.26994696 -0.046526667 -0.06939364 0.07610976 0.017327152 0.17361985 -0.45099849 -0.32567555 0.30016333 0.25978413 0.28203946 0.16352887 0.18532279 -0.01899141 0.3102719 -0.26801077 0.16569614 0.10353941
1021 0.18213056 0.04840476 0.0022669486 -0.1076425 0.13441789 -0.07661614 -0.17905481 -0.1802312 0.17355439 0.05631201 -0.19826636 0.39963108 0.07695776 0.22709157 0.11256398 0.10824717 0.25993207 -0.053662427 0.13734755 0.1307727 -0.13605016 0.2657376 -0.01709427 0.15311937 -0.033013783 0.06394942 0.1702486 0.17759159 0.031013329 0.09929513 -0.21337289 -0.11257643 0.1354954 0.07216277 0.011486315 0.068829216 -0.025657957 0.043605793 -0.124854036 0.060085762 -0.20932665 0.059754033 -0.19890396 -0.0017265048 -0.17451198 0.1051041 0.12931445 -0.0035868553 -0.040954966 0.041144483 0.023237567 0.083101824 -0.31323493 -0.22606692 0.16261391 0.13941032 0.14745894 0.097505964 0.103976235 -0.04102861 0.19485149 -0.17457661 0.13104585 0.09328082
171 0.11837667 0.012438983 0.007821339 -0.0780264 0.08778167 -0.051590033 -0.11555956 -0.16030738 0.1345474 0.039349914 -0.14440379 0.2601052 0.044925187 0.16621892 0.101110995 0.079942964 0.2073473 -0.060856365 0.10721869 0.084650956 -0.09191608 0.17981268 -0.035156425 0.12430035 -0.027412198 0.08228888 0.1020837 0.13727053 0.023639929 0.102641985 -0.14589211 -0.06679499 0.07811344 0.060769595 -0.00022410681 0.021493148 -0.038283426 0.02839551 -0.062303446 0.049608745 -0.14772342 0.020852244 -0.1120785 0.0034183054 -0.099959575 0.074231245 0.12064264 -0.0460723 -0.03526973 0.057833392 0.013892945 0.07389632 -0.21020281 -0.13932532 0.120130815 0.08814786 0.108096175 0.062775336 0.06698464 -0.005854258 0.17252593 -0.12087077 0.09478239 0.06412342
