2142 16
324 4.156654 0.38181394 -2.4214115 -0.7321778 3.8592093 0.9100611 -6.00395 4.2871585 1.3106583 -4.614371 3.9496093 7.353529 -2.0506995 -1.5654279 5.7955203 -0.116296254
325 4.049696 0.15364496 -2.2346144 -0.7239058 3.6310844 0.9166092 -5.763717 4.070656 1.3469788 -4.60725 3.8247995 7.0028067 -2.1887908 -1.5671716 5.836091 -0.12081868
1013 1.0521985 1.3264061 -0.50941914 -3.7012925 2.01778 -2.4649723 -4.88947 -5.8684826 1.5391643 3.9867651 -1.5786731 5.013611 1.0501641 4.872589 1.2836615 1.521861
4 1.0514481 1.4743451 -0.49447316 -3.8010693 2.022657 -2.5020018 -5.070617 -5.9896097 1.6966711 4.037296 -1.8033177 5.2613134 1.108143 4.9205356 1.2510954 1.6493125
1257 3.4442484 -3.509865 -0.91604125 -3.2047553 0.8410491 -1.8112699 -1.64291 -4.846065 3.6865427 -1.0942248 0.8900359 5.2503095 -2.280417 0.9836663 5.1294627 0.54557174
1258 3.5222893 -3.5080597 -0.90580904 -3.1716175 0.9231765 -1.8378934 -1.7300793 -4.7829537 3.7456927 -1.152324 0.85275424 5.3777742 -2.3182454 0.87296295 5.226691 0.56287247
843 6.225496 3.5948741 2.220136 1.1877085 3.0354848 -3.7433727 -5.2256994 -2.417799 0.5459141 -2.0541823 0.13795121 2.0803273 -0.4440441 3.7410467 2.5406532 0.02861225
842 6.1101303 3.4717338 2.2062306 1.1000322 3.055475 -3.796565 -5.242056 -2.5839841 0.55987126 -1.9928087 0.16822204 1.9877367 -0.5107962 3.6997712 2.5821934 0.0019165126
1250 4.76284 0.532525 -0.12460712 -2.7388117 0.3556504 0.56527877 -0.32382515 1.0000842 2.9029453 0.30027705 -0.16489024 8.141274 2.9283984 3.962244 1.8373562 -0.09789714
1251 5.2222414 0.55570143 -0.06823721 -2.9755476 0.3419954 0.64898694 -0.23767765 1.1523634 3.207289 0.2397481 -0.09582167 8.849748 3.1929686 4.3048086 1.965452 -0.16697466
323 1.700867 0.06981516 0.252912 -0.45471105 1.0590694 -0.4167337 -1.3335112 -0.7149949 1.2413872 -0.57792735 -0.55359954 2.2835546 0.005433927 1.1227974 1.6055133 0.38457975
25 3.6696777 -0.26315752 1.4753482 -0.5512337 0.5015402 -0.75908095 -3.2015667 -2.241143 3.0418136 -0.09655922 -3.0700905 4.7078023 -1.3025528 1.1137975 2.26798 1.2092705
24 3.7068307 -0.18121214 1.453283 -0.60356796 0.49850535 -0.79572874 -3.2539952 -2.2611878 3.0835648 -0.058999345 -3.072119 4.8518457 -1.2725866 1.1792275 2.2564082 1.2454472
1127 1.3437513 0.24434462 0.3007275 -0.3576178 0.66675866 -0.4534919 -1.1389843 -0.66577786 0.81999654 -0.30409086 -0.43392313 1.7518638 -0.004463902 0.9307893 0.98442 0.28073665
845 1.294593 1.1451185 0.4428314 -0.55300087 1.4942944 -0.38819826 -1.8985898 -1.4185518 1.299241 -0.4502155 -1.3069215 3.334623 0.3817145 1.3336949 1.2358631 0.8285635
365 1.6030676 0.17980562 0.52395386 -0.7923304 0.8225693 -0.51335377 -1.37968 -0.85793513 1.1366527 -0.34190598 -0.86140716 2.256601 -0.0065099653 1.169799 1.3760571 0.33259267
153 3.2723472 -0.6037524 1.0861729 -0.09638248 2.0370557 -0.43707666 -1.3967619 -1.2655803 2.7628396 -1.7874216 -2.790778 2.9044101 0.45520857 3.1044466 3.244592 0.7645359
917 2.0212922 2.5500908 0.83293587 -0.68242896 2.4987645 -0.55393213 -2.9363048 -1.9074303 1.6471484 -0.87002224 -2.0625968 5.2979813 0.91580045 2.166376 1.5783185 1.3417066
332 3.4444196 -0.99571145 1.0554175 -0.08684144 2.2840824 -0.30161446 -1.3728915 -1.2340819 2.99104 -2.1834614 -2.9515474 2.9904714 0.24884507 3.2314887 3.7689102 0.7635404
22 1.7992934 0.2055993 0.7851215 -0.6085454 1.0511959 -0.5065262 -1.4141128 -0.9139036 1.1511657 -0.344517 -0.5617243 2.1687062 0.21879053 1.3467367 1.2473493 0.23046753
151 3.1319776 -0.68166935 1.0301974 -0.13773404 2.06701 -0.4159262 -1.3503873 -1.351152 2.7082644 -1.7435963 -2.739841 2.7610672 0.41648525 3.0678596 3.2574573 0.80987513
1222 2.326548 -0.064491116 0.9770691 -0.4068302 0.3140701 -0.5582938 -2.145856 -1.503727 1.9767914 0.040440366 -2.1012022 3.1215265 -0.8566482 0.7206162 1.3698056 0.89748377
914 1.5947074 1.3393899 0.54139584 -0.50855726 1.5279031 -0.41478467 -1.971384 -1.3690451 1.2993101 -0.5962389 -1.2778785 3.4736395 0.3915442 1.3269764 1.2685511 0.8344707
366 1.3840531 0.11937137 0.38281196 -0.6939031 0.7706142 -0.4001343 -1.2006992 -0.7073021 0.9551367 -0.324818 -0.6701225 1.9900105 -0.015203787 0.9863166 1.2243314 0.30287203
1097 1.7407603 -0.1500131 0.6729703 -0.32037365 0.30210018 -0.29906324 -1.5399028 -1.0240711 1.4190316 -0.081227235 -1.4551501 2.369103 -0.60702634 0.5311709 1.0688598 0.58024675
152 3.2284808 -0.91729957 1.0065273 -0.11002423 2.0734055 -0.2846555 -1.3086535 -1.2969235 2.8413055 -1.975585 -2.9491963 2.8285625 0.3603538 3.1674724 3.4678202 0.8151642
916 1.5934801 1.279753 0.49517533 -0.48044986 1.5150582 -0.4146524 -1.9809618 -1.2938476 1.2533858 -0.68267184 -1.208413 3.4370084 0.29430664 1.2721716 1.332773 0.7624832
21 1.5926285 0.23205674 0.69893456 -0.52083164 0.99539506 -0.5189679 -1.3304409 -0.889261 0.9904655 -0.28228015 -0.5668529 2.000479 0.16157433 1.1937041 1.17719 0.2815257
910 1.8894998 1.7709779 0.63767946 -0.6055258 1.8669865 -0.46139595 -2.3332758 -1.3311878 1.3941907 -0.718006 -1.5194819 4.2302866 0.69631475 1.818468 1.4243851 0.93889284
1096 2.391469 -0.09958916 0.94079304 -0.43075305 0.27724013 -0.5834227 -2.1212785 -1.4666064 2.0166605 -0.028621927 -2.0306706 3.1501858 -0.7645209 0.80706096 1.3269213 0.77372015
1221 2.2356715 -0.0796584 0.9461393 -0.35991117 0.31014603 -0.49257323 -2.0172703 -1.450404 1.8688232 0.027257854 -1.9790903 3.003801 -0.79416513 0.71871054 1.3661824 0.8404519
915 1.8108723 1.9876066 0.6721528 -0.5082668 2.0222423 -0.4160324 -2.4012208 -1.405675 1.3549092 -0.8591517 -1.6118525 4.321875 0.7576636 1.7483779 1.3787975 0.9978185
912 1.5684409 1.8339146 0.6904793 -0.39349616 1.8003879 -0.34758195 -2.1400378 -1.3431668 1.2736442 -0.8357012 -1.5906026 3.8120105 0.6215795 1.5020156 1.268876 0.90903246
144 1.3594514 0.25242478 0.1686365 -0.39120355 0.6749307 -0.33793387 -1.1274445 -0.6584787 0.8626619 -0.25884297 -0.4413969 1.862688 0.08898427 0.85269505 1.0417454 0.2421344
911 1.8741189 1.5821773 0.5480456 -0.5652688 1.8055501 -0.4464204 -2.276372 -1.2863958 1.4317445 -0.73613894 -1.4007071 4.1044083 0.6110692 1.726636 1.4517739 0.84272736
1098 2.3990295 -0.09032849 0.9460949 -0.345516 0.3193932 -0.5219559 -2.0703053 -1.3537766 1.9724529 -0.07603392 -1.9514966 3.090588 -0.7593044 0.70640576 1.3649752 0.8081871
614 2.27902 0.46655488 0.78410983 -1.5014478 0.5388264 -1.6721753 -2.206281 -0.4345236 1.2181871 -0.14870527 -0.9268495 2.991913 1.3300729 2.4444091 0.71265787 -0.9395154
149 2.666113 -0.8149513 0.89099073 -0.0193016 1.6625217 -0.2060159 -0.90644145 -0.93499523 2.4054608 -1.6605461 -2.3414955 2.319654 0.24442506 2.4288197 2.8583188 0.6405306
913 1.5358076 1.8710006 0.64671195 -0.44717216 1.7989333 -0.41485724 -2.1332164 -1.3167027 1.2074556 -0.72460604 -1.5416656 3.7995062 0.68523943 1.575183 1.1563473 0.94057393
840 1.2322129 -0.128144 0.47422945 -0.2232707 0.14084303 -0.26117134 -1.0903794 -0.7387646 1.0675755 0.044567354 -1.1060066 1.6683787 -0.36991566 0.36267644 0.7498007 0.4141621
59 1.8649821 -0.062343113 0.7199574 -0.23135722 0.23756541 -0.31720427 -1.5711224 -1.0040795 1.4699867 -0.10542104 -1.5630671 2.4373984 -0.5933369 0.49163043 1.1344957 0.5935421
319 1.6409569 -0.23297918 0.51905406 -0.11423233 1.0639539 -0.1546437 -0.78453875 -0.5932792 1.413983 -0.90612024 -1.3351574 1.6966695 0.15499608 1.488863 1.6108019 0.36679685
1053 0.935722 0.11543486 0.13136746 -0.3650548 0.5359778 -0.26768705 -0.9001286 -0.6709422 0.71682477 -0.17967789 -0.34912604 1.4881519 0.021918278 0.63955635 0.7828828 0.2875948
1543 0.784753 0.7101241 0.34111282 -0.28027475 0.7864119 -0.22427325 -1.0855899 -0.74898285 0.65531164 -0.3132334 -0.729019 1.7456024 0.21216558 0.7674976 0.6977957 0.3994159
1684 1.7065908 -0.0051445244 0.79763937 0.03731816 0.9807753 -0.41028664 -1.5624619 -2.3321307 1.2388233 -0.07358011 -0.8737197 2.7236865 0.13611968 1.7624763 1.3561753 0.9402107
1638 1.6675378 -0.030820401 0.76243067 0.088952534 0.9779397 -0.36083364 -1.5227123 -1.964659 1.1368967 -0.20052272 -0.8148912 2.5143173 0.09040155 1.5660386 1.2886387 0.85354525
317 2.2816894 -0.51808465 0.75022465 -0.041653696 1.4632624 -0.2090947 -0.8679663 -0.8828085 1.9430358 -1.346093 -1.9785433 2.0326173 0.25227582 2.1579273 2.367857 0.5123794
316 2.1314752 -0.523714 0.6921847 0.0056410823 1.3582985 -0.14474165 -0.855288 -0.77252096 1.8725935 -1.310407 -1.9205908 1.8517497 0.22690156 2.0005314 2.2369375 0.48719946
320 1.0062084 -0.22405419 0.3245292 -0.037547845 0.61504036 -0.077043064 -0.40859735 -0.3912521 0.8405987 -0.5686395 -0.89980274 0.9134725 0.14914413 0.96070814 0.9970202 0.27028728
1639 1.6467463 -0.059524387 0.76063573 0.048669815 0.9764342 -0.32363725 -1.4939293 -1.9196211 1.1360862 -0.22059219 -0.7094219 2.5340564 0.08931174 1.5294247 1.3181448 0.8539933
150 2.1714106 -0.5742581 0.7143794 -0.07152454 1.3374859 -0.20859754 -0.84319115 -0.87025803 1.918403 -1.2822052 -1.8731152 1.9560252 0.19191347 2.0280383 2.2859304 0.47535756
63 1.6356708 -0.07880416 0.64290893 -0.20863487 0.26830325 -0.2966058 -1.4212307 -0.97228074 1.3554648 -0.074084066 -1.3716613 2.1071582 -0.58709836 0.4275117 1.0674905 0.5774218
61 1.7932023 -0.25549093 0.74705917 -0.29640383 0.14843895 -0.32048848 -1.6199932 -1.1589236 1.5921506 -0.055252735 -1.7421554 2.4061952 -0.8237919 0.36542258 1.0869731 0.69733286
318 1.6998168 -0.24135534 0.539347 -0.10159961 1.0622798 -0.20039363 -0.8046099 -0.7586704 1.4377601 -0.9129638 -1.3505343 1.698418 0.1722415 1.5432488 1.7164913 0.42268047
532 0.9319153 0.24198452 0.06115683 -0.32813752 0.56299037 -0.19525845 -0.88973135 -0.3191723 0.5805853 -0.25444147 -0.28168878 1.4829828 0.06348864 0.70120573 0.82544464 0.2407243
839 1.1342856 -0.11124597 0.47755313 -0.23490311 0.16752425 -0.2294199 -1.0413588 -0.72755855 1.0103076 0.028038802 -1.033796 1.5961583 -0.36647573 0.3704796 0.67950326 0.42491192
64 1.6340625 -0.091891676 0.68205726 -0.28209406 0.1998909 -0.35596785 -1.3893098 -1.1076444 1.3713403 0.04621555 -1.4471123 2.1758838 -0.5184273 0.4875355 0.98307484 0.61638135
427 0.97632986 0.19700904 0.08371899 -0.37655342 0.5637899 -0.1982778 -0.8574767 -0.43337855 0.59977114 -0.22743751 -0.2824586 1.3845286 0.008925622 0.663339 0.7851433 0.16372703
1544 0.93120044 0.8410012 0.38884082 -0.29735103 0.92146456 -0.1799518 -1.1031743 -0.76442146 0.7148599 -0.43418545 -0.8112667 2.0761387 0.22379133 0.71349764 0.751132 0.49496374
838 1.1005735 -0.13813864 0.43005115 -0.19255185 0.10994486 -0.21831647 -0.94209725 -0.6392856 0.9509019 -0.01199078 -0.9819335 1.4464186 -0.34381595 0.3027024 0.6730275 0.36972147
1242 0.79058343 0.19734298 0.16047488 -0.17925604 0.4324821 -0.2498532 -0.6712504 -0.46226 0.54328 -0.072175466 -0.33494824 1.0947727 0.046676457 0.5377165 0.53291917 0.18257612
841 1.4374623 0.04195937 0.5331668 -0.20393181 0.3102733 -0.32459936 -1.2838948 -0.8444846 1.1800729 -0.076822616 -1.1235027 1.8902386 -0.39659512 0.5350295 0.8751596 0.47112244
60 1.4835969 -0.04575379 0.63645387 -0.2082873 0.18533963 -0.30318737 -1.2645127 -0.98211676 1.2739581 -0.0037527722 -1.3527524 1.9590099 -0.46858558 0.49974263 0.89932036 0.48509172
889 1.799081 0.24969625 0.53344196 -1.1414964 0.47511673 -1.227179 -1.666919 -0.19902867 0.85829675 -0.17709243 -0.6725159 2.2563882 1.02377 1.911936 0.5549471 -0.78416586
1542 0.67647 0.4929079 0.25178835 -0.26490474 0.6425128 -0.18173698 -0.8547798 -0.5540597 0.6010242 -0.20227176 -0.60057896 1.4914106 0.15220487 0.6564207 0.5651775 0.35230058
1642 1.6450261 -0.06684278 0.7305262 0.07226751 0.9352841 -0.3960489 -1.5008547 -2.0136826 1.1553729 -0.1362849 -0.7849719 2.514699 0.09958198 1.5192717 1.3511932 0.8930577
1545 0.8759548 0.7349166 0.35452837 -0.25076652 0.9097811 -0.19095254 -1.070395 -0.74097127 0.7080329 -0.39262763 -0.7271256 1.8906639 0.21598673 0.691759 0.716481 0.4642921
1859 0.58615553 0.11605547 0.15071233 -0.16589919 0.29148495 -0.15261754 -0.5193333 -0.25602302 0.38775295 -0.08647799 -0.22114068 0.83702034 0.0036956873 0.3804889 0.45157593 0.084949754
62 1.5687014 -0.23518622 0.6246374 -0.22811194 0.11613189 -0.2326607 -1.353005 -0.9915164 1.3873742 -0.07527995 -1.5176653 2.1527586 -0.70156604 0.32466283 0.9931903 0.5516615
934 1.382367 0.944366 0.40971664 -0.37443703 1.2098722 -0.35231304 -1.4792839 -0.92507714 0.98826736 -0.4709069 -0.90596277 2.7126937 0.33483002 1.1786077 1.0122948 0.5609243
229 0.7083722 0.14548148 0.16032813 -0.25087437 0.37915102 -0.23621196 -0.604601 -0.446533 0.45639288 -0.14423327 -0.33230332 1.0850637 0.060833305 0.6027068 0.5557822 0.19169147
933 1.1276884 0.90281504 0.32172415 -0.35933763 1.1225342 -0.3326753 -1.4451336 -0.8979024 0.84134567 -0.39846596 -0.82120186 2.4132285 0.30830798 1.0229088 0.89493835 0.5518695
923 0.9639561 0.55874234 0.22501123 -0.3100866 0.72789633 -0.24965905 -0.9552531 -0.57172596 0.6441189 -0.303792 -0.5742389 1.847695 0.2690703 0.84867746 0.6849716 0.36841604
1644 1.3602513 -0.058656335 0.6916401 0.07132008 0.8088435 -0.3026058 -1.2162727 -1.7573969 0.99324447 -0.14479381 -0.6742155 2.0976782 0.08043933 1.327496 1.0690876 0.775511
1643 1.3915058 -0.0008555335 0.6852419 0.038507357 0.8183214 -0.31070614 -1.3203691 -1.8047951 1.0002277 -0.1279926 -0.7215517 2.1529424 0.049909364 1.3095357 1.096892 0.7655538
888 0.8240177 0.08456711 0.26810047 -0.45403165 0.263391 -0.5482981 -0.76670194 -0.14836076 0.40711743 -0.116340525 -0.35307336 1.0871001 0.36812106 0.8387485 0.35874414 -0.29370052
297 0.4329214 -0.0031201474 -0.40235338 0.010131355 0.46678713 0.26596728 -0.6672623 0.86227816 0.072530694 -0.75842595 0.75149095 0.7594666 -0.3944121 -0.46201593 0.7416344 -0.07782561
1247 2.0021589 0.0053143012 0.40992993 -0.20176047 0.3930915 -0.46522278 -0.91076183 -0.66595274 1.2803096 -0.43633422 -0.6371736 1.9567145 0.2503757 0.9923938 1.1761311 0.19505082
581 1.1801164 0.07102936 0.41638714 -0.1553834 0.7618037 -0.26891825 -0.7910903 -0.5825042 0.88134307 -0.42505208 -0.75463337 1.4002818 0.17407346 1.0467647 1.0159699 0.27730808
1641 0.71129245 0.06708808 0.35731974 0.021163397 0.38018098 -0.15907344 -0.6773488 -0.7840277 0.48666263 -0.057741147 -0.4018376 1.0249559 0.08338323 0.6327014 0.50309545 0.36754864
294 0.62246996 0.080419496 -0.21009058 -0.10261132 0.47947493 0.088492036 -0.790679 0.4132318 0.20499933 -0.54259884 0.37855887 0.98883075 -0.246992 -0.09846577 0.80599797 -0.0056361877
964 0.6399513 0.29360867 0.16144714 -0.20242381 0.43971264 -0.185285 -0.62978464 -0.39396763 0.43396324 -0.18458079 -0.36195636 1.0903916 0.06491049 0.5020314 0.47698024 0.20561343
296 0.2875573 0.015529076 -0.30281755 -0.023435818 0.35352167 0.19615118 -0.5182946 0.6282771 0.050817113 -0.5516072 0.5686378 0.57808304 -0.32229537 -0.35576853 0.58158827 -0.039538506
1640 0.6487644 0.033211406 0.26628682 -0.02755522 0.36632282 -0.13760799 -0.5857099 -0.7141933 0.4751445 -0.06579205 -0.2878132 0.98800075 0.015315901 0.55911636 0.50880665 0.3469846
56 0.89580095 0.13960186 0.19721021 -0.26323387 0.48198083 -0.26504296 -0.72408324 -0.44476184 0.61999524 -0.20305602 -0.27906883 1.3626158 0.05088044 0.69388473 0.69707495 0.17741214
963 0.5267678 0.28267598 0.12103963 -0.13658297 0.39574385 -0.1042812 -0.571809 -0.3021655 0.3728769 -0.1723088 -0.34571677 0.98187906 0.11969757 0.4232097 0.38698018 0.16789667
662 1.2328255 0.40660724 0.06150676 -0.23393002 0.74894494 -0.27087215 -1.2245563 -0.1846411 0.59276754 -0.38342148 -0.18237396 1.8991231 -0.101084374 0.80814993 0.996339 0.31824446
962 0.47004467 0.26546264 0.13051073 -0.15648888 0.35698166 -0.12880145 -0.4888872 -0.33558542 0.30439126 -0.1344707 -0.29500392 0.8024664 0.06621984 0.39993694 0.34518453 0.1590659
960 0.4720849 0.21919549 0.119516626 -0.13303643 0.3749188 -0.17252076 -0.52039695 -0.3058975 0.2937044 -0.14566767 -0.27020502 0.8151632 0.049192563 0.3857679 0.41291896 0.13579218
1038 1.5312308 -0.06705203 0.32108897 -0.518076 0.3667504 -0.12830354 -1.4051278 -0.72232324 1.295 -0.103316754 -0.97416353 2.2932026 -0.44759917 0.4756436 1.0142684 0.49655196
200 1.0047588 0.16250977 0.03290136 -0.27075344 0.5747286 -0.18783326 -0.82994217 -0.28428957 0.62491316 -0.33226117 -0.21048452 1.4326589 -0.07903249 0.5633132 0.923879 0.19676821
1245 1.7115667 -0.051609453 0.32410187 -0.1630616 0.3611864 -0.3933051 -0.7615204 -0.6619343 1.1405191 -0.37773252 -0.596593 1.7070822 0.20349824 0.8096173 1.0623133 0.19573063
961 1.0912461 0.39406326 0.22315688 -0.29021275 0.69515663 -0.2737116 -0.97428346 -0.51279765 0.7021838 -0.3082473 -0.47774234 1.7480053 0.081080705 0.8169094 0.80282855 0.2575612
515 0.5228188 0.020523233 0.09196964 -0.14930266 0.24938716 -0.122034006 -0.35383958 -0.19548602 0.35408866 -0.124117546 -0.20063397 0.66453844 0.024599312 0.36838952 0.35644937 0.06704977
250 0.49735114 0.06931847 0.12948121 -0.09943238 0.21463335 -0.15636536 -0.3291589 -0.25408584 0.30045107 -0.08366301 -0.18402573 0.6384009 0.050633017 0.3372742 0.33945587 0.055275377
921 0.7376527 0.80842716 0.30262297 -0.22373255 0.86876154 -0.12534581 -0.99454767 -0.54233223 0.597732 -0.345518 -0.66034395 1.8259474 0.2615273 0.7187333 0.6012711 0.44835317
330 1.1292555 0.029061075 0.36074212 -0.063560285 0.70495373 -0.22322686 -0.68149185 -0.5205362 0.83477116 -0.4778261 -0.7702879 1.2228332 0.13995217 1.0013227 0.9109985 0.24226433
924 0.74047583 0.77877045 0.29706565 -0.19758642 0.79169935 -0.21716486 -0.9677313 -0.6764657 0.56646484 -0.32751265 -0.70289046 1.6828723 0.21968815 0.7143475 0.59673476 0.42913124
965 1.0408086 0.366343 0.20372626 -0.25171527 0.6690115 -0.26464328 -1.0060875 -0.5071179 0.67861336 -0.34691662 -0.44261864 1.6219712 0.09092609 0.7566429 0.7836496 0.22236289
70 0.54204804 0.09243769 0.16018102 -0.18390241 0.21863672 -0.1675332 -0.3912828 -0.21992248 0.3199307 -0.086152256 -0.21078971 0.7623641 0.04645075 0.39916223 0.37025303 0.06845022
67 0.6305364 0.113109306 0.15599355 -0.22647642 0.40449396 -0.17603065 -0.61513585 -0.46104118 0.44570544 -0.082546316 -0.24037406 0.8890982 -0.011913513 0.4057123 0.4919885 0.18231568
925 0.565256 0.6717563 0.28060803 -0.16484852 0.67758876 -0.12516668 -0.7580991 -0.504482 0.45173454 -0.32039213 -0.58710366 1.3949718 0.20601389 0.58560556 0.46824282 0.34149277
554 0.48598137 0.07593112 0.15768284 -0.1102749 0.26860926 -0.15396173 -0.36828518 -0.24039432 0.32528725 -0.109586686 -0.1811472 0.6505029 0.030863628 0.34755492 0.36554685 0.0798816
329 0.5634111 -0.041924216 0.16980796 -0.056893434 0.36341852 -0.07453847 -0.29083553 -0.2151705 0.45482102 -0.2890899 -0.44777393 0.6114755 0.06709447 0.54654455 0.5446405 0.09327334
919 0.7060148 0.303762 0.14903435 -0.15781035 0.5265565 -0.19924876 -0.6590584 -0.39537865 0.49676517 -0.28797942 -0.32038227 1.2276987 0.09032881 0.49911004 0.5429512 0.24986279
201 0.89177585 0.1528706 0.033589102 -0.23726065 0.5446602 -0.15849653 -0.8022593 -0.14623097 0.5148145 -0.36102137 -0.076441154 1.2482588 -0.091903776 0.46393546 0.8098322 0.106155604
985 0.65272325 0.42545933 0.21215011 -0.22636503 0.58683556 -0.21095109 -0.7877257 -0.5635673 0.5677474 -0.17031603 -0.5142603 1.3561909 0.12104804 0.6184287 0.54799414 0.32418406
922 0.61347747 0.64157486 0.2796305 -0.21891369 0.6825527 -0.15591268 -0.86671877 -0.5819101 0.48797894 -0.2511033 -0.5850924 1.4806143 0.20446675 0.6287985 0.50456864 0.37605828
72 0.8152166 0.16268864 0.2098565 -0.21682717 0.37164927 -0.29367793 -0.6667408 -0.42000425 0.52436066 -0.15515867 -0.2977086 1.1150488 -0.007347233 0.56049556 0.65562534 0.12661105
918 0.77612185 0.42661208 0.21407732 -0.19397566 0.59806 -0.1919844 -0.7761525 -0.45476872 0.5338486 -0.26741937 -0.41880906 1.3955128 0.16529989 0.6405072 0.55017143 0.27866948
176 0.41776273 0.1411563 0.089723 -0.1343196 0.2051066 -0.114325106 -0.3346687 -0.23098004 0.24121894 -0.05897779 -0.16746351 0.5982357 0.055318523 0.3219918 0.2711906 0.11047619
331 0.49711204 -0.12530088 0.18215692 -0.03880741 0.27740818 -0.08038667 -0.22566155 -0.23635477 0.43910715 -0.24803607 -0.3834722 0.55002004 0.044432618 0.4264398 0.5175873 0.124124944
1029 0.34587815 0.06971963 0.09488097 -0.11246226 0.20135704 -0.06418161 -0.3124464 -0.1434864 0.21734767 -0.11928031 -0.13214923 0.5598655 0.015975377 0.2633388 0.26277882 0.057022586
328 0.4898186 -0.027199242 0.1870141 -0.04933332 0.3302641 -0.106862076 -0.27669945 -0.26798326 0.39966998 -0.21703628 -0.3924959 0.530473 0.10932788 0.5106505 0.4576501 0.14028284
1034 1.3300704 0.039585136 0.42859995 -0.29473355 0.3374942 -0.32435462 -1.1152635 -0.78938985 1.0300554 -0.011274036 -0.9098022 1.963992 -0.23464583 0.6430279 0.8841417 0.4085637
327 0.4361544 -0.02739817 0.10953421 0.0019160089 0.25676045 -0.026989564 -0.2601278 -0.1801632 0.352465 -0.21374375 -0.34262142 0.47767597 0.069779165 0.34541914 0.38627082 0.06961582
1050 0.41259325 0.0884198 0.09653232 -0.11592903 0.25654423 -0.105026275 -0.3751282 -0.1642763 0.29807937 -0.14425026 -0.13688216 0.5837149 -0.014304736 0.28163883 0.32288074 0.07574913
55 0.40057373 0.12530293 0.12300031 -0.09949159 0.23402847 -0.14878899 -0.38085678 -0.21085587 0.24378842 -0.074147 -0.17077646 0.5590139 0.055998594 0.3460649 0.31839702 0.09180343
657 1.0391608 0.34355545 0.046815906 -0.17362785 0.6047306 -0.21925381 -1.0579573 -0.061015733 0.43887457 -0.3176262 -0.10776126 1.5025326 -0.082402706 0.62748086 0.7492379 0.24325429
1225 0.41774863 0.08171332 0.10123714 -0.06813662 0.17677246 -0.10627363 -0.28801376 -0.17419988 0.2295624 -0.09803261 -0.16041046 0.570709 0.012066049 0.2865451 0.3023543 0.07082724
215 0.69568235 0.05669052 0.046952117 -0.18238997 0.36118343 -0.1216168 -0.5183771 -0.20542648 0.3863121 -0.18464492 -0.140848 0.8782796 -0.009271376 0.3760347 0.6041091 0.14829895
211 0.553425 0.11242004 0.062061474 -0.15164796 0.33793104 -0.11066762 -0.40270707 -0.25792462 0.35288683 -0.18847306 -0.16266267 0.76294494 0.01253987 0.39723155 0.51140654 0.09955
1621 0.2957041 0.022247346 0.10648267 -0.10213929 0.13020447 -0.10874345 -0.27269763 -0.20667595 0.24873744 -0.051859196 -0.12077342 0.3872194 -0.008335398 0.19062565 0.25486046 0.07504761
175 0.41403025 0.1361902 0.090950094 -0.07112256 0.23766255 -0.16465838 -0.3596731 -0.20224981 0.2704773 -0.07370378 -0.18946576 0.5586702 0.037543286 0.34192935 0.29293552 0.077734165
1423 0.87884134 0.11975922 0.11716153 -0.31708837 0.5074834 -0.24644938 -0.85046184 -0.44920853 0.59371144 -0.17094402 -0.2570474 1.3110608 -0.039442 0.5424548 0.74930245 0.22652525
1280 0.3996693 0.1057293 0.09713471 -0.13673456 0.20963481 -0.078203425 -0.3347884 -0.18188095 0.272657 -0.07873761 -0.15504475 0.5392546 0.055354483 0.24936716 0.30378646 0.114394374
656 0.6826641 0.23998879 0.1001447 -0.1687111 0.43709108 -0.12740183 -0.7106536 -0.1476669 0.367722 -0.19242421 -0.185445 1.0245407 -0.015741045 0.45799226 0.5047906 0.14029753
148 0.31728128 0.0744475 0.11942793 -0.12014169 0.15719269 -0.10982518 -0.26653117 -0.1892636 0.27200374 -0.034534182 -0.16135629 0.481982 -0.00016619057 0.24860881 0.24691658 0.097189866
540 1.223492 -0.016455974 0.2786466 -0.47751898 0.4188118 -0.096453905 -1.1850649 -0.6011577 1.0719745 -0.14116873 -0.7293085 1.8753711 -0.3673763 0.39907125 0.8625036 0.35378394
1472 0.27719212 0.05604968 0.062042065 -0.10379498 0.11466476 -0.037693802 -0.24721175 -0.09277276 0.22211729 -0.09729855 -0.13768266 0.4369458 0.018600991 0.20435004 0.2252874 0.03352204
920 0.63029045 0.33613873 0.1672425 -0.19538884 0.51489085 -0.15037145 -0.6850045 -0.37326664 0.42021844 -0.21181923 -0.2894176 1.1406366 0.0934484 0.47372282 0.49912393 0.22034389
1279 0.43009803 0.100612305 0.10526568 -0.1276949 0.2160083 -0.15602088 -0.36231554 -0.1941748 0.24289684 -0.078396134 -0.15664825 0.5458087 0.0024839935 0.26396245 0.33044344 0.07660895
1246 0.5982889 -0.039403107 0.10270416 -0.07700497 0.11544869 -0.17082565 -0.3082442 -0.23766103 0.40550366 -0.13560443 -0.22031087 0.67864794 0.09243863 0.3150471 0.37586147 0.06059947
444 1.0031666 0.20778821 0.050480515 -0.3052456 0.61938995 -0.24071115 -0.94419724 -0.3957797 0.6189125 -0.2753663 -0.17461258 1.4796544 -0.072071925 0.58847666 0.89003974 0.22153509
66 0.6795058 0.11700234 0.10740144 -0.23728219 0.36964846 -0.192132 -0.5560028 -0.35204634 0.4191532 -0.18166067 -0.23827428 1.0085253 -0.0071827644 0.43580747 0.54822767 0.12291191
207 0.5524506 0.107909985 0.11175216 -0.19674042 0.31268772 -0.19164717 -0.5898401 -0.34761474 0.3757086 -0.21110371 -0.15436465 0.7896319 -0.089203306 0.3496021 0.4967263 0.16725889
1226 0.42994115 0.0812142 0.07589228 -0.075767085 0.19851154 -0.13110763 -0.31921065 -0.2638681 0.2802747 -0.08548457 -0.18794328 0.57126445 -0.021137476 0.2619238 0.34399968 0.082391255
852 0.46315584 0.03328095 0.17198558 -0.05375362 0.08506272 -0.14172138 -0.39854226 -0.2854603 0.29747102 -0.04415009 -0.36965472 0.5296333 -0.11838111 0.16036344 0.21519645 0.10055471
295 0.33039135 0.024638282 -0.1394511 -0.070381045 0.28588077 0.083681956 -0.3872699 0.23859397 0.11288699 -0.30611917 0.23488337 0.56551015 -0.15463024 -0.07220044 0.42930633 0.022761507
410 1.0226424 0.16724975 0.28778175 -0.40127167 0.63186115 -0.38058543 -0.92022103 -0.6738889 0.67681813 -0.20457618 -0.38024086 1.3009075 -0.026427155 0.7049576 0.84045506 0.20254737
930 0.7173465 0.0605009 0.16142033 -0.2942535 0.38091087 -0.20396915 -0.5394274 -0.496319 0.4731903 -0.10372711 -0.314649 1.0360006 0.008071601 0.57537305 0.50787526 0.17327562
177 0.36322686 0.05100744 0.07406853 -0.11304622 0.16018645 -0.09415019 -0.30044642 -0.1711832 0.2630757 -0.062575065 -0.15745802 0.48134103 0.03920652 0.27710813 0.29066175 0.0891531
203 0.53692573 0.09729257 0.0894099 -0.13638698 0.31084767 -0.087871596 -0.39502358 -0.22206888 0.37394196 -0.20466821 -0.16626659 0.6687768 -0.015823193 0.34834722 0.4950528 0.082347974
392 0.70890456 0.025824672 0.12314119 -0.25790557 0.35805634 -0.20585103 -0.548553 -0.43623236 0.55350083 -0.115574636 -0.2822333 1.0456477 0.037663415 0.50544727 0.580524 0.19297831
1025 0.32271096 0.034905534 0.054148965 -0.116458625 0.16564403 -0.09493639 -0.28417456 -0.16027941 0.23401704 -0.08305574 -0.15109201 0.5171432 0.015696451 0.23588581 0.24619374 0.038323294
322 0.31023574 -0.02281568 0.07247174 -0.024255013 0.18424028 -0.080711566 -0.18596323 -0.20588234 0.24339549 -0.08735307 -0.18621431 0.35218862 0.015490299 0.25324914 0.3009413 0.059826862
1437 0.8785741 0.1034603 0.10633973 -0.27598038 0.42449915 -0.1677258 -0.599409 -0.43473613 0.5950918 -0.112741105 -0.32180548 1.3089916 0.08960153 0.58079076 0.67504585 0.11742298
1383 0.7482027 0.12265524 0.18687944 -0.21964435 0.38190624 -0.2043556 -0.6280415 -0.39738217 0.44537967 -0.1866163 -0.31566176 1.0105506 0.028927194 0.47330478 0.53100616 0.12167203
202 0.8056562 0.09654308 0.025589973 -0.30057743 0.47525796 -0.16192174 -0.7071299 -0.32278502 0.55553126 -0.26203388 -0.21244512 1.1767557 -0.032520156 0.5079021 0.6975384 0.19252077
1020 0.3877422 0.08831822 0.10097418 -0.12336094 0.1724748 -0.13992395 -0.34066474 -0.18621281 0.27264264 -0.12728588 -0.1867297 0.5139343 -0.015908709 0.24285276 0.29615492 0.08489242
939 0.36886364 0.038408823 0.0864672 -0.047957804 0.16733828 -0.099144034 -0.25499043 -0.1539685 0.25506565 -0.14418773 -0.1228038 0.4957706 0.007545804 0.22022462 0.2704886 0.08786781
172 0.3998256 0.09536838 0.06961894 -0.07816258 0.21384504 -0.12643625 -0.3201755 -0.17599097 0.20448914 -0.102696985 -0.15200755 0.4969168 0.01173642 0.23682742 0.27786312 0.08699983
206 0.37203404 0.006034083 -0.1420652 -0.056596704 0.3239501 0.07262548 -0.49395174 0.28533155 0.15732929 -0.3818694 0.26783052 0.616808 -0.14866416 -0.077676594 0.52305096 -0.008740316
2 0.83096695 0.10120916 0.0592141 -0.26367489 0.502567 -0.15356971 -0.7298126 -0.24347422 0.5672634 -0.23760183 -0.15513879 1.2869375 -0.021626573 0.4864613 0.76001465 0.13433386
173 0.3125814 0.056446273 0.04468215 -0.09496369 0.15218356 -0.048176173 -0.2926104 -0.13099854 0.19784449 -0.044658083 -0.14139292 0.48251036 0.03560665 0.21567614 0.2432146 0.06263084
213 0.40763983 0.016601091 -0.12466338 -0.041105084 0.3065968 0.060522296 -0.53273916 0.29920006 0.12596148 -0.3743342 0.23214671 0.6335516 -0.14312735 -0.08537455 0.52802163 0.022604877
938 0.7439092 0.43603334 0.15280244 -0.23969717 0.5752314 -0.17584331 -0.785526 -0.46963343 0.5414791 -0.17811424 -0.45955974 1.3475089 0.11438041 0.59595364 0.54741526 0.28845495
209 0.74514675 0.15410212 -0.024879668 -0.16837315 0.4884787 -0.109209456 -0.6583623 -0.13309485 0.4529864 -0.3497987 -0.057066176 1.1306807 -0.09158857 0.39426988 0.7524021 0.15570958
1022 0.34187925 0.060450863 0.12160578 -0.10643201 0.15668789 -0.11538532 -0.2741851 -0.1963246 0.2613171 -0.067678764 -0.1529965 0.5255265 0.014153247 0.23843238 0.2727248 0.054733273
986 0.5466104 0.33485088 0.18877669 -0.14116056 0.46237522 -0.115658104 -0.58611536 -0.43509737 0.38276374 -0.18116857 -0.37220374 1.0213888 0.11084757 0.44310668 0.4456956 0.21187991
204 0.48783752 0.08668652 0.057382897 -0.10147955 0.28559732 -0.12378288 -0.3842445 -0.22852597 0.36405757 -0.13027482 -0.1919967 0.63309693 -0.025899412 0.33384624 0.45197728 0.08984158
171 0.29936638 0.07088065 0.107916266 -0.06375238 0.13962524 -0.06686104 -0.2197469 -0.13108166 0.22148308 -0.08199156 -0.099030495 0.3986206 0.0071772533 0.22034377 0.24868889 0.06241611
115 0.24725613 0.009336735 0.054696895 -0.08926534 0.14343868 -0.023825113 -0.1598962 -0.09716601 0.17663889 -0.035941355 -0.1315286 0.39617416 -7.800658e-05 0.15235749 0.1962069 0.029338382
205 0.5732429 0.123660974 0.08890098 -0.16489229 0.29520047 -0.098392 -0.5057114 -0.22357233 0.3630652 -0.17909805 -0.16293034 0.78494555 -0.05214782 0.35494852 0.43752402 0.10967584
407 0.2429344 0.07390961 0.09893616 -0.07554264 0.11421496 -0.10352559 -0.19388163 -0.15406851 0.14346868 -0.032503456 -0.14728498 0.33478394 0.049488712 0.21160956 0.17335196 0.073015064
945 0.67521024 0.40767223 0.14832099 -0.20931032 0.54119015 -0.1408395 -0.7088143 -0.40960494 0.47705713 -0.24089584 -0.3761711 1.3211488 0.1200959 0.5550648 0.55632925 0.2555808
1026 0.5943894 0.09665026 0.1261158 -0.22103989 0.36885384 -0.17076159 -0.58819056 -0.3692926 0.4334929 -0.06670667 -0.24383382 0.94087815 -0.0071149 0.36172146 0.48807243 0.1285637
68 0.38990715 0.112687 0.14551604 -0.13689215 0.28937533 -0.12167343 -0.43299067 -0.33252245 0.3145662 -0.09106016 -0.16106485 0.55847746 0.014028997 0.28990746 0.34096003 0.09629656
241 0.7224903 0.14681908 0.106658466 -0.20742922 0.36952665 -0.15402722 -0.53756267 -0.27985469 0.46402785 -0.17247434 -0.21232753 0.9249603 -0.021102978 0.46062252 0.5691559 0.101488866
71 0.31974533 0.022930548 0.076735854 -0.119453914 0.134536 -0.12403421 -0.24186891 -0.19025607 0.22866198 -0.05952114 -0.16356927 0.4434371 0.006582073 0.270725 0.21410945 0.07981671
339 0.6268194 0.11318104 0.12132068 -0.15575206 0.30409077 -0.19193277 -0.4640391 -0.3124598 0.396933 -0.134523 -0.21361083 0.8726151 0.043877225 0.43489864 0.46592304 0.14092006
1426 0.47764468 0.11426485 0.055477876 -0.18190858 0.23754178 -0.17119195 -0.41517735 -0.34069523 0.34530833 -0.048433214 -0.19210598 0.6844755 -0.0072018844 0.3104293 0.34520862 0.092887126
853 0.39621463 0.0033493424 0.1655674 -0.088239826 0.025545329 -0.10773607 -0.33102465 -0.262125 0.29380596 -0.017103495 -0.33282796 0.4711708 -0.14964928 0.15462585 0.22795235 0.11826508
174 0.3201359 0.06365799 0.06420689 -0.07685023 0.114737354 -0.0626842 -0.25483093 -0.17824742 0.2189406 -0.06376933 -0.12523665 0.4404019 0.04984793 0.24116541 0.19269109 0.0866234
941 0.32640442 0.038468454 0.056026585 -0.045413546 0.112389915 -0.052177846 -0.21028233 -0.18891685 0.22071114 -0.045077 -0.120361686 0.4089927 0.014501655 0.22737795 0.1931012 0.047977526
1 0.74485904 0.12067813 0.108313024 -0.19199571 0.42251423 -0.1656349 -0.60910505 -0.2892115 0.45041397 -0.227429 -0.2047852 0.9938382 0.009000926 0.49947158 0.6243368 0.1470402
210 0.42554063 0.021465186 0.08188899 -0.093209326 0.22898436 -0.1247261 -0.3016693 -0.2565736 0.25947207 -0.14639688 -0.1636383 0.49987456 -0.065574065 0.3002542 0.3957241 0.05659948
338 0.7754789 0.10208482 0.17934951 -0.23232387 0.3287749 -0.19092849 -0.5691388 -0.41734383 0.5271555 -0.1821911 -0.3456626 1.0262755 0.003632536 0.547059 0.59905684 0.15966175
588 0.3086032 -0.0047995965 0.10401352 -0.09285169 0.15968089 -0.077536024 -0.19306768 -0.15623055 0.17651996 -0.06458043 -0.1224828 0.3787627 -0.013641707 0.22388816 0.19355868 0.033710465
854 0.315667 0.03101505 0.12582085 -0.062983476 0.030749116 -0.051615406 -0.24506909 -0.14867376 0.19508146 -0.008205098 -0.19532365 0.4026488 -0.066355206 0.09358414 0.14841168 0.059566937
222 0.5018431 0.14527018 0.11320033 -0.11716748 0.26362216 -0.16774292 -0.4429416 -0.29388276 0.30252588 -0.11147609 -0.20676656 0.65791553 0.044248395 0.38129005 0.2956 0.13529661
279 0.5497564 0.15198587 0.09527773 -0.1620206 0.31291 -0.16943642 -0.49728933 -0.28440723 0.37871405 -0.1301353 -0.19952893 0.7979375 0.005039587 0.42121506 0.40227053 0.086397745
321 0.29097345 0.043492265 0.11053143 -0.055657327 0.12983662 -0.08199022 -0.17956161 -0.16105424 0.16687739 -0.061856765 -0.17746824 0.35438445 -0.0028740985 0.18715796 0.18206222 0.0729016
270 0.22227146 0.01623022 0.033887256 -0.03998212 0.09373972 -0.10458798 -0.21143503 -0.1367236 0.18279654 -0.042187348 -0.15662031 0.33815354 -0.0072643836 0.17470457 0.15906356 0.07369225
984 0.53910244 0.2935644 0.18496002 -0.15435304 0.4106104 -0.14153118 -0.5325567 -0.38971218 0.41054335 -0.18596525 -0.3347219 1.0090333 0.06823834 0.41501316 0.43303594 0.20047124
368 0.4636109 0.03135513 0.19285452 -0.26855454 0.27189937 -0.16885953 -0.4197333 -0.30388272 0.33119142 -0.08236873 -0.22406898 0.6328221 0.029636143 0.31814247 0.4317651 0.07162153
212 0.50282514 0.06202252 0.07449896 -0.15965718 0.24134307 -0.08593488 -0.38963613 -0.15916254 0.25937393 -0.11983953 -0.10708423 0.6337775 -0.026046753 0.29819053 0.37422898 0.0638595
1439 0.38936558 0.048557073 0.11596312 -0.12633984 0.19946374 -0.09401194 -0.34436256 -0.23169544 0.2849112 -0.007921131 -0.21689993 0.5956157 0.09846128 0.31811047 0.2961021 0.07059918
1024 0.40365085 0.1168005 0.11885576 -0.03727504 0.18054534 -0.12023228 -0.3283439 -0.2240726 0.22945087 -0.11141448 -0.12889 0.48893124 -0.013610286 0.24109592 0.2773257 0.038001318
1051 0.44425368 0.07226552 0.093830265 -0.09294748 0.26315236 -0.14442627 -0.43505153 -0.3064805 0.3077477 -0.09042414 -0.1962203 0.64325833 -0.0010721117 0.3259125 0.3618089 0.100991085
942 0.43120953 0.3992169 0.13495585 -0.15231524 0.437791 -0.11698623 -0.5919411 -0.41808757 0.3702767 -0.19953902 -0.40802094 0.9651282 0.14591056 0.45892137 0.37901756 0.24445699
1021 0.31578118 0.08969065 0.12401423 -0.050818518 0.18996237 -0.12023351 -0.30437133 -0.17218569 0.2460625 -0.062477194 -0.11670335 0.4339061 -0.02931643 0.22613028 0.24057895 0.06434514
1288 0.23643306 0.030006843 0.044878982 -0.034342427 0.08988973 -0.07895546 -0.16575138 -0.08203739 0.15969457 -0.04587445 -0.116827935 0.27156678 -0.009727633 0.1854977 0.13482277 0.05742768
943 0.54443437 0.39932686 0.16321892 -0.15357798 0.5021418 -0.15819764 -0.6864743 -0.43041888 0.4096867 -0.24839593 -0.33352068 1.0900149 0.1037563 0.42792606 0.4687507 0.25284255
217 0.20854467 0.018057037 0.08543074 -0.033844322 0.0890267 -0.08374901 -0.19604251 -0.10526353 0.11031919 -0.040254705 -0.08256393 0.2649855 0.010896779 0.12765302 0.19244309 0.031905994
1725 0.22419843 -0.006715904 0.08249859 -0.048968066 0.093363576 -0.015905913 -0.12548089 -0.11627785 0.16039592 -0.046298806 -0.1123963 0.28606814 0.03455522 0.16928868 0.17080478 0.059444886
940 0.723528 0.39717397 0.17719644 -0.1876686 0.5034697 -0.18466944 -0.6693424 -0.3585896 0.44093323 -0.22686517 -0.34855098 1.2072294 0.10352331 0.5340595 0.5562766 0.22592235
1023 0.24111618 0.070434496 0.07440161 -0.052725866 0.11277755 -0.081488006 -0.20927209 -0.19758794 0.17536567 -0.009883602 -0.119162984 0.31352016 -0.0077081597 0.20602395 0.18242675 0.04373045
1027 0.6045668 0.06762723 0.11861884 -0.14511107 0.343077 -0.17514591 -0.49187702 -0.30660075 0.4076463 -0.1814282 -0.1848222 0.8482651 -0.00971376 0.42590883 0.47759905 0.10949226
1019 0.5026131 0.047440633 0.09003925 -0.17923361 0.28366184 -0.18544576 -0.44146103 -0.2792011 0.35336795 -0.114482276 -0.22432725 0.71852607 -0.0046424484 0.3688619 0.40623555 0.102581605
224 0.41458493 0.08251366 0.11567448 -0.09750241 0.235622 -0.15888055 -0.3310444 -0.29136878 0.32342756 -0.068065085 -0.19603495 0.6168184 -0.0034018208 0.35819167 0.2978206 0.08009894
218 0.3105198 0.06318786 0.08254171 -0.041277245 0.1250832 -0.054002017 -0.22476517 -0.16740099 0.16550195 -0.05718517 -0.14539935 0.36686578 0.022384865 0.18321347 0.21642031 0.034390695
208 0.21381414 0.019891769 0.026699929 -0.076847345 0.11313691 -0.06616351 -0.24792105 -0.1166173 0.10887636 -0.092024766 -0.062317517 0.26860854 -0.043064717 0.132718 0.20934905 0.059406735
231 0.26319218 0.002904242 0.10593827 -0.031473897 0.12206965 -0.08393591 -0.19616507 -0.13869725 0.14762595 -0.06621725 -0.17790268 0.2834681 0.022943612 0.1835022 0.17617065 0.04186971
245 0.5129891 0.050895147 0.031367436 -0.13284768 0.30920088 -0.057919495 -0.44359997 -0.077094555 0.28873816 -0.23332644 -0.016051468 0.65941596 -0.08069217 0.19086385 0.4727269 0.08412043
1851 0.52097416 0.08906401 0.12819166 -0.11594964 0.23269339 -0.15086918 -0.39392737 -0.29941964 0.35115263 -0.116505496 -0.20068988 0.65809023 -0.008860718 0.37510768 0.39362925 0.108887896
1031 0.24682286 0.04522788 0.019912548 -0.10343202 0.12495512 -0.090605564 -0.2619586 -0.12456085 0.1906612 -0.07518363 -0.08723636 0.40665004 0.005412763 0.16673075 0.23658742 0.076393455
1037 0.97861236 0.046926316 0.30486965 -0.22426978 0.21877947 -0.21870868 -0.7727988 -0.5356398 0.7944916 -0.009029491 -0.6106655 1.4379948 -0.08532897 0.46027005 0.63415575 0.26045963
243 0.50095654 0.08203131 0.048672225 -0.14173494 0.25092453 -0.05939771 -0.4086099 -0.1495789 0.31112975 -0.13290264 -0.13360031 0.7209502 0.0056668515 0.29720372 0.41875643 0.10914442
679 0.4766837 0.086433776 0.1454114 -0.07825097 0.28036729 -0.14314169 -0.43548852 -0.2590214 0.3451147 -0.12063049 -0.1853433 0.61999226 0.012395095 0.32608673 0.40046751 0.08079284
977 0.47040078 0.07511085 0.0959327 -0.14903611 0.23541051 -0.13410808 -0.4051018 -0.22369997 0.2913834 -0.10683696 -0.18202524 0.6549264 0.008591703 0.27821243 0.35195917 0.08179316
1052 0.5445155 0.09102094 0.1309325 -0.10378718 0.2671588 -0.13956243 -0.39686638 -0.24209681 0.3186568 -0.15921544 -0.16283166 0.71287733 0.023520209 0.3583246 0.3935287 0.09434433
226 0.19131896 0.06581592 0.043209597 -0.043538466 0.109793 -0.040313035 -0.17484428 -0.13861611 0.1487948 -0.033877235 -0.09662436 0.3264967 0.011138262 0.19653186 0.13799527 0.06228008
411 0.6475669 0.11164205 0.22503647 -0.2395874 0.3670864 -0.1561383 -0.5077178 -0.32070804 0.39337787 -0.17371339 -0.20193096 0.7934118 0.021083603 0.40603104 0.49617085 0.08683064
1223 0.42278588 0.0332029 0.065058894 -0.114204735 0.20839044 -0.06929888 -0.32410288 -0.1671002 0.26373416 -0.09020361 -0.17095196 0.62760305 -0.0015413885 0.2912388 0.3537639 0.07365758
928 0.23405156 0.016319888 0.038381483 -0.058098096 0.10986808 -0.067547314 -0.1725696 -0.16669266 0.20763421 -0.06337357 -0.12713206 0.37750518 -0.028136037 0.16066462 0.16980322 0.062013246
370 0.47978452 0.010764441 0.18460786 -0.1920993 0.23258395 -0.128069 -0.37674803 -0.20040941 0.2711303 -0.13133809 -0.14315717 0.5962579 0.013617745 0.26699406 0.35413358 0.072502635
539 0.66540086 -0.08772545 0.1936052 -0.14592619 0.13026187 -0.055118687 -0.59269476 -0.30355367 0.5986677 -0.10841282 -0.4729583 0.94674253 -0.29163995 0.15428895 0.43115222 0.19022705
587 0.2127787 0.079407744 0.09220129 -0.057803303 0.10297048 -0.08492909 -0.19068612 -0.08394576 0.14630793 -0.034731053 -0.08643776 0.30701146 0.001976586 0.18729657 0.13977927 0.01948562
1018 0.6133807 0.1089941 0.12283923 -0.14705037 0.3227753 -0.1576146 -0.46992585 -0.31431964 0.39769578 -0.1410237 -0.21321818 0.8026607 -0.004937672 0.40497315 0.43779594 0.10808032
1041 0.22147572 0.029467642 0.024267742 -0.07223114 0.14739856 -0.09620107 -0.1956077 -0.092181966 0.16241747 -0.047941774 -0.085014075 0.34684917 0.03686788 0.15277213 0.21350276 0.036405817
247 0.55050856 0.07388005 0.03952036 -0.14501105 0.28144485 -0.13683614 -0.43632647 -0.17744549 0.3214813 -0.17775823 -0.13413978 0.7478335 -0.047851108 0.33283114 0.47729656 0.104986824
230 0.19365425 0.006014988 0.06523078 -0.027584162 0.07935892 -0.07404889 -0.13341935 -0.11725189 0.15197541 -0.0512867 -0.13252915 0.26696068 0.021704325 0.14037526 0.11933145 0.07953591
37 0.5535774 0.040554944 0.17546469 -0.16469269 0.26276636 -0.16336197 -0.48570588 -0.30192253 0.4242835 -0.08807745 -0.32179487 0.8230203 -0.028621126 0.33515412 0.41739625 0.12734868
1424 0.6880293 0.1084111 0.05660548 -0.24536093 0.38113543 -0.18753631 -0.6872062 -0.38345397 0.45136997 -0.13635184 -0.21103598 1.0513022 -0.0009858983 0.3916458 0.61653894 0.1838244
944 0.48188707 0.36708668 0.16486748 -0.13990527 0.40894997 -0.16511264 -0.56174487 -0.332702 0.34100994 -0.15089463 -0.33907792 0.92111164 0.1190927 0.4403571 0.34151706 0.21684748
31 0.43058482 0.084374435 0.08848579 -0.115631916 0.24487242 -0.102103785 -0.39766237 -0.20371665 0.28479683 -0.10109292 -0.1630878 0.5946479 -0.004254763 0.27778748 0.3627605 0.09508943
1906 0.20774575 0.008252469 0.027777754 -0.01859507 0.053870823 -0.057229023 -0.097157925 -0.035102006 0.12961257 -0.062537834 -0.038515404 0.19342291 -0.03423391 0.08368537 0.1747402 0.05597401
908 0.19197625 0.06858592 0.041882038 -0.010564003 0.11203063 -0.07959165 -0.14249408 -0.114644796 0.13502379 -0.07509568 -0.10359822 0.25503168 -0.004654926 0.10960544 0.12643057 0.05166603
248 0.2933561 0.012038582 0.013123582 -0.10840961 0.120231956 -0.0521064 -0.20551656 -0.08242525 0.19750935 -0.07084574 -0.08512579 0.44776267 0.0023740365 0.14540778 0.25310826 0.055951763
1035 0.54432267 -0.03554332 0.2493552 -0.11099382 0.08816726 -0.100501426 -0.50351936 -0.3582268 0.52026725 0.014747622 -0.505325 0.7798634 -0.1456286 0.16806816 0.3337699 0.20724781
1036 0.64606214 -0.045038875 0.28750286 -0.12812504 0.10757798 -0.14190556 -0.581108 -0.37084228 0.5718344 -0.011886838 -0.5313299 0.93353546 -0.14701776 0.2706703 0.3840145 0.19306909
443 0.7742979 0.13674271 0.06379136 -0.29335636 0.4848589 -0.14786434 -0.7241515 -0.3031417 0.5195406 -0.2205198 -0.10144248 1.2111927 -0.0013649341 0.500245 0.6889636 0.17036314
293 0.43044147 0.048304424 0.089766376 -0.120725974 0.21972255 -0.10062349 -0.34701598 -0.20913243 0.284341 -0.09888442 -0.12327084 0.50809133 -0.03685123 0.2746801 0.28892243 0.08090122
927 0.19336097 -0.0033971583 0.038889978 -0.06050442 0.08789733 -0.054048557 -0.170485 -0.16414373 0.11164858 -0.05515093 -0.113625616 0.2981292 -0.025190992 0.15890166 0.15253353 0.060468554
228 0.2177102 0.04667771 0.06957127 -0.05277402 0.10387079 -0.06483168 -0.14182222 -0.06435552 0.14023522 -0.06609137 -0.06967696 0.2520358 0.036253326 0.15703185 0.14836179 0.055887252
971 0.21050763 0.02777508 0.033036597 -0.055006973 0.11764094 -0.07673015 -0.16028675 -0.15054575 0.17359503 -0.03463214 -0.11057768 0.3107617 0.01119983 0.13085462 0.18494076 0.0817113
38 0.48907337 -0.038084917 0.18667655 -0.064002246 0.06419964 -0.10303629 -0.4200047 -0.28538528 0.38553256 0.005709385 -0.39693034 0.66782916 -0.15124132 0.11996119 0.28093478 0.1451922
969 0.4587648 0.10215809 0.06846064 -0.10862787 0.28106415 -0.09980926 -0.38723153 -0.22775783 0.29635835 -0.1451546 -0.1526281 0.7388472 0.025595695 0.31028077 0.3769572 0.07418504
541 0.47288477 -0.020132145 0.19501953 -0.07713992 0.08467151 -0.06238279 -0.44358495 -0.2817355 0.45148978 -0.031700153 -0.45779443 0.66556466 -0.16715237 0.109489985 0.3027793 0.19707881
1224 0.36453453 0.06948771 0.089404635 -0.083679155 0.23098761 -0.10736513 -0.30961132 -0.2073237 0.25988746 -0.123770595 -0.1884511 0.52928895 -0.005039248 0.23808262 0.27265662 0.061495584
242 0.22707775 0.0072626574 0.02524942 -0.07129961 0.08957649 -0.06379909 -0.18190446 -0.09315803 0.12253426 -0.07086346 -0.07445448 0.30889976 -0.013535374 0.15021153 0.19865552 0.03982921
367 0.4237026 0.058894113 0.19264342 -0.1908909 0.25046688 -0.10286623 -0.3362494 -0.21995705 0.28448412 -0.05456754 -0.22964796 0.5413005 0.024641246 0.31155607 0.30999362 0.08874601
968 0.45528677 0.11939878 0.13458739 -0.10912173 0.26633027 -0.15477878 -0.36215177 -0.22472644 0.27206331 -0.13478166 -0.16139507 0.677266 0.060203243 0.33461237 0.33756837 0.0687764
225 0.19701368 0.04664281 0.08960061 -0.06474705 0.09245531 -0.10621315 -0.16711572 -0.140014 0.15972783 -0.05442562 -0.14655504 0.26084045 -0.009113815 0.18756846 0.15571502 0.026229378
1289 0.17473485 0.0110512115 0.043507647 -0.03558487 0.07908693 -0.058057588 -0.083300315 -0.101213105 0.10310673 -0.041980967 -0.09755204 0.19957922 -0.0041688145 0.08248566 0.08157399 0.012438212
413 0.6599031 0.1278837 0.17829183 -0.25212833 0.3791314 -0.27259296 -0.59268486 -0.45579156 0.42551258 -0.07383094 -0.28269237 0.8957116 -0.012636866 0.5006899 0.54346037 0.16438079
412 0.526492 0.101065025 0.17447492 -0.19783603 0.26888108 -0.18863429 -0.4349564 -0.25005606 0.32237062 -0.051178116 -0.21451792 0.66251636 0.010363567 0.38327226 0.35493225 0.13054413
929 0.61193866 0.023276007 0.12511136 -0.22011547 0.2956663 -0.22464584 -0.4604018 -0.4271908 0.410508 -0.09891225 -0.29949573 0.81931293 -0.021322371 0.44404587 0.45407146 0.11030805
1287 0.16716488 0.057142556 0.035004262 -0.02451546 0.09337451 -0.048295 -0.15320814 -0.10532419 0.1233988 -0.038184915 -0.1260352 0.22707729 -0.015919667 0.14799385 0.15066333 0.05305324
1030 0.38412136 0.072774455 0.11736142 -0.02088408 0.16891532 -0.14946562 -0.2680377 -0.22998905 0.1880051 -0.09886603 -0.13762972 0.44674215 -0.02491796 0.25407147 0.22461154 0.061835475
1028 0.33042473 0.05624231 0.10530853 -0.104879655 0.15675132 -0.070786186 -0.24859709 -0.18923244 0.19209938 -0.056740712 -0.11794511 0.41353682 -0.013147378 0.1973292 0.21588013 0.0760601
39 0.49480206 -0.010486884 0.18953831 -0.07708538 0.056637973 -0.08901073 -0.47314727 -0.26643667 0.40558565 -0.012028301 -0.44630322 0.70478797 -0.14056963 0.1682254 0.32926774 0.18263748
33 0.4502512 0.012610052 0.17086995 -0.04472926 0.02959169 -0.059554745 -0.42288306 -0.2750487 0.3390349 0.021867545 -0.36298543 0.59258384 -0.18916553 0.07158419 0.23476522 0.149523
660 0.16717322 0.073160544 0.023696642 -0.06302777 0.08046418 -0.028656373 -0.18756749 -0.04816508 0.08591192 -0.032627176 -0.03566439 0.283981 0.018132368 0.15360276 0.17369701 0.052250475
94 0.25055492 0.033002187 0.051740497 -0.051350296 0.07945588 -0.059960917 -0.11890912 -0.16254905 0.18311794 0.025162205 -0.16830966 0.29045954 0.038838014 0.17738919 0.16590744 0.06757654
1438 0.7265157 0.016577711 0.14077716 -0.21699138 0.2839688 -0.21831377 -0.44931206 -0.3756341 0.46341708 -0.09967703 -0.23965813 0.9674076 0.006015321 0.42965618 0.4889591 0.09938735
142 0.17200944 0.030608105 0.02243965 -0.0601146 0.057864536 -0.054434676 -0.07168565 -0.08395727 0.11835648 -0.031223182 -0.08938576 0.17623909 -0.011124916 0.10710469 0.092735864 0.003711994
1726 0.15946254 0.015142585 0.05013866 -0.041759208 0.10290176 -0.004901602 -0.09542998 -0.110248275 0.13547811 -0.004027385 -0.074378155 0.23517339 -0.009174184 0.101970784 0.12891702 0.042624507
308 0.49195635 -0.007030167 0.18287379 -0.011876026 0.3296577 -0.087510414 -0.26872388 -0.26398566 0.41472402 -0.1953997 -0.4280299 0.5279576 0.09915863 0.5191967 0.49610403 0.16055104
659 0.18746176 0.07033738 -0.011710388 0.0010337598 0.12013965 -0.031968143 -0.18018581 0.017386518 0.08950282 -0.049130805 -0.042254545 0.26951203 -0.012573889 0.10288331 0.11990215 0.030357745
312 0.30468488 -0.008531047 0.11434261 -0.031196162 0.19034758 -0.02266699 -0.10359475 -0.15105446 0.27341166 -0.1707681 -0.23781802 0.2577026 0.044086058 0.23094651 0.25811833 0.05559462
706 0.20821305 0.026211873 0.017662311 -0.06575599 0.047381103 -0.021043066 -0.1384669 -0.06757849 0.119762875 -0.0691718 -0.10615013 0.22302178 0.019870812 0.14416827 0.14725475 0.037831392
244 0.6260027 0.12150951 0.09463166 -0.18954913 0.38024586 -0.12988137 -0.5379314 -0.20928542 0.4130801 -0.2264748 -0.12934375 0.83788466 -0.050444458 0.35781026 0.548052 0.07805494
29 0.15582591 -0.023409829 0.05359671 -0.018895343 0.1095394 -0.046987846 -0.090313554 -0.11296909 0.16669261 -0.048909582 -0.12222568 0.23540851 -0.001467712 0.12245905 0.14922762 0.048231617
1232 0.18858838 0.047307767 0.015829483 -0.068560615 0.057857838 -0.029341666 -0.15444961 -0.08760809 0.104672074 0.0010903054 -0.061712082 0.24347661 -0.009441431 0.1337382 0.14278038 0.03733671
389 0.55535316 0.035555616 0.09982832 -0.17853302 0.2641175 -0.12873602 -0.43935198 -0.2968618 0.403342 -0.12833121 -0.24398452 0.83366865 0.070032254 0.41631415 0.4162044 0.15145195
1376 0.61650544 0.13945128 0.15678662 -0.17393094 0.30756986 -0.14615709 -0.5081997 -0.3496225 0.37767956 -0.11538029 -0.26298666 0.83583516 0.013044734 0.44072038 0.44507918 0.098263025
658 0.18494372 0.053571913 0.008547194 0.002042126 0.09311066 -0.016040886 -0.1711952 -0.076450065 0.06306908 -0.02333674 -0.06509895 0.23269288 0.024313202 0.14602551 0.101024866 0.018260662
305 0.48011553 -0.06941148 0.17393205 -0.03678506 0.35887292 -0.0926702 -0.23256105 -0.2136009 0.44597104 -0.2904652 -0.42351514 0.49325144 0.063441806 0.43084407 0.49939153 0.14842048
604 0.16050722 -0.0010778303 0.048499573 -0.036470123 0.09238754 -0.026727619 -0.1049092 -0.099708304 0.104916126 -0.037746273 -0.06355622 0.23855564 0.007603949 0.07806905 0.1268501 0.043479152
983 0.40093142 0.18725021 0.13623202 -0.10409114 0.28931838 -0.12882395 -0.4040401 -0.33272266 0.27718624 -0.10070392 -0.27694508 0.7233849 0.043791596 0.32570007 0.32047963 0.15558505
227 0.5169281 0.04202876 0.0797522 -0.14614166 0.2790128 -0.10099528 -0.41137013 -0.18197773 0.36036894 -0.15085359 -0.14770323 0.7355477 -0.014078851 0.2927229 0.44014975 0.12107508
36 0.44238126 -0.039739493 0.18583111 -0.103897355 0.08752504 -0.08065758 -0.40047672 -0.3205252 0.3823878 -0.009047931 -0.4111452 0.62896407 -0.13492952 0.12851791 0.28833637 0.16252725
391 0.19676696 0.029644309 0.047504827 -0.05747856 0.122627154 -0.06494596 -0.17268792 -0.08672383 0.14850293 -0.05188211 -0.09195695 0.27833477 -0.004140793 0.10226259 0.1250205 0.012181965
1233 0.5503526 0.029965473 0.19014281 -0.11121824 0.11802963 -0.082600914 -0.45315763 -0.28436953 0.3984533 -0.041538786 -0.354777 0.76631755 -0.10980091 0.22461063 0.35850418 0.13620779
1043 0.17087933 0.027114566 0.020070206 -0.081173524 0.06893777 -0.071757324 -0.17966852 -0.10840999 0.14524797 -0.03289579 -0.068675116 0.23620829 0.0067969705 0.11185297 0.12152464 0.018742852
1440 0.32766792 0.038186643 0.05084194 -0.10384899 0.13189487 -0.056338985 -0.19762252 -0.16831431 0.26429486 -0.07893338 -0.14147918 0.49714512 0.082449496 0.22197057 0.24307613 0.08024007
855 0.20617619 -0.018443689 0.10934958 -0.03738404 0.050478 -0.05767508 -0.15197004 -0.09212022 0.14368635 -0.0422196 -0.12219122 0.25045854 -0.031374983 0.070800036 0.15133107 0.040855456
34 0.41529024 -0.026998611 0.15307263 -0.119900435 0.03359186 -0.118891895 -0.38584125 -0.33297324 0.3795632 0.023559667 -0.43410483 0.57467324 -0.11481946 0.1306824 0.26043755 0.18581094
440 0.47876757 0.0758293 0.027522115 -0.12605873 0.259274 -0.09362543 -0.42746115 -0.1393902 0.29146424 -0.15366797 -0.11294507 0.6470946 -0.0645292 0.2346433 0.39380512 0.085794814
311 0.36789548 0.004174192 0.07491765 -0.06693118 0.14574362 -0.06633613 -0.14996065 -0.14501803 0.2824445 -0.15038866 -0.18319929 0.42668197 0.016411193 0.24123822 0.27109426 0.075605944
269 0.12612525 -0.008915562 0.07526249 -0.03991397 0.083001025 -0.038109142 -0.07330781 -0.10552344 0.08371513 -0.030990189 -0.06728355 0.20246583 0.036926895 0.10355351 0.084403165 0.06694125
856 0.47795862 0.02015468 0.16155301 -0.0775132 0.14996707 -0.10002583 -0.35114178 -0.21529527 0.31745258 -0.08443997 -0.30153853 0.5491776 -0.087882124 0.2058357 0.32177496 0.111465305
975 0.37061208 0.09900059 0.099744625 -0.080408126 0.22666223 -0.100226596 -0.3461717 -0.18773822 0.27490944 -0.1284249 -0.13008855 0.5592993 0.043520797 0.27023888 0.3120259 0.07036088
278 0.46412462 0.058250464 0.08238121 -0.12871838 0.23247458 -0.09096859 -0.3224292 -0.25742525 0.34149745 -0.088161334 -0.17132567 0.669809 0.02497471 0.3064587 0.34162614 0.06898582
214 0.21592218 0.0057566203 0.057176188 -0.058355667 0.07809158 -0.03870743 -0.17863658 -0.051494807 0.11906639 -0.0715785 -0.056580458 0.2435906 0.007263513 0.1369245 0.1676964 0.05415594
661 0.14201047 0.040344547 -0.0006982058 -0.05308342 0.084573835 -0.0069555994 -0.10110811 -0.040688325 0.10082133 -0.022890847 -0.07183603 0.23982821 0.017549705 0.090645336 0.1344443 0.033269398
369 0.36229673 0.042994767 0.16987896 -0.115637854 0.19645494 -0.096996635 -0.24703482 -0.20374553 0.2447897 -0.10416436 -0.16211799 0.4510075 0.02755312 0.2422997 0.3049302 0.09139546
1042 0.19036952 0.033348136 0.044714786 -0.05175105 0.1155906 -0.05025105 -0.11669561 -0.058660872 0.07903969 -0.03690338 -0.045659542 0.23904902 0.02491452 0.10469048 0.13406995 -0.0066191363
1832 0.13647658 0.030541975 0.06837905 -0.018669711 0.07884035 -0.045329195 -0.102360964 -0.06621755 0.073985174 -0.026712412 -0.06227638 0.14129004 -0.009377776 0.07467105 0.11438834 0.011955899
357 0.576058 0.04839505 0.12332904 -0.16902354 0.30053902 -0.16487107 -0.454553 -0.34470946 0.3823676 -0.15070716 -0.2606501 0.7799955 0.043545797 0.44484296 0.4646274 0.14390737
603 0.333616 5.0853523e-05 0.10370067 -0.14674401 0.15868075 -0.12671924 -0.30539617 -0.34509864 0.27151796 -0.007640118 -0.25221357 0.5220641 0.0022762085 0.33283466 0.28275588 0.10778394
707 0.12778316 0.008472101 0.0038596492 -0.027807355 0.05641168 -0.031091835 -0.12249989 -0.09086369 0.053675093 -0.041674245 -0.03639282 0.14928329 -0.0038499655 0.07823323 0.058013495 0.001997532
948 0.4183133 0.18617566 0.12504347 -0.1258017 0.2732406 -0.14469612 -0.39292604 -0.28475577 0.27446452 -0.09573084 -0.25065812 0.69532895 0.06265981 0.3814461 0.30770975 0.1253613
310 0.4855664 -0.012029558 0.15269327 -0.07996825 0.292009 -0.082343355 -0.23091629 -0.21456125 0.40989223 -0.19193617 -0.38165253 0.49748102 0.06521556 0.46880096 0.43073997 0.147907
708 0.18122366 -0.0060365763 0.06409566 -0.038881365 0.03815765 -0.017100908 -0.07185035 -0.04517036 0.11747661 -0.07548401 -0.03567491 0.1671345 0.004356348 0.07384402 0.11804859 0.015073028
1382 0.082722485 0.033363007 0.01510899 -0.046770487 0.053300638 -0.033044435 -0.105647385 -0.09022868 0.101443544 0.03715436 -0.09580731 0.19338913 0.017087437 0.09274751 0.08949186 0.049657717
590 0.13977522 -0.003614369 0.05448763 -0.04239377 0.073033564 -0.036802035 -0.09511853 -0.1107578 0.07691515 0.0013066987 -0.063311696 0.14228886 0.013853404 0.11702649 0.09170087 0.01634025
387 0.12897158 -0.0057969242 0.026839701 -0.07216117 0.06556053 -0.008290263 -0.13367686 -0.07904072 0.12069398 -0.02340659 -0.08308743 0.20473364 0.01657772 0.06998603 0.10087124 0.049821388
676 0.09886438 -0.001818004 0.03586573 -0.018058259 0.060437553 -0.036973663 -0.072145775 -0.0747775 0.08777161 -0.028673477 -0.04700918 0.1503445 0.02100248 0.09844516 0.12075475 0.023646167
304 0.33595154 0.010230362 0.16022712 -0.17550276 0.18392213 -0.08326876 -0.2746784 -0.1522269 0.22455528 -0.054280195 -0.17381422 0.43423223 0.040340893 0.2613542 0.25580952 0.04463638
354 0.27884078 0.07014153 0.05553695 -0.08318696 0.14089118 -0.059426416 -0.23447737 -0.14838095 0.18079036 -0.09111677 -0.110843346 0.39149553 0.050405715 0.23419604 0.24695218 0.069612585
300 0.3351109 0.037250992 0.11942699 -0.0857439 0.15584576 -0.09318718 -0.20325996 -0.23477112 0.21906179 -0.022884488 -0.15831639 0.44700196 0.01618172 0.27347422 0.206521 0.054660346
1375 0.14493963 0.020855634 0.023424357 -0.060541734 0.096400134 -0.02933995 -0.17191833 -0.029269898 0.13815723 -0.04816812 -0.082421795 0.27460027 0.03397176 0.14140326 0.11023642 0.0029631034
1425 0.3322026 0.011965268 0.05860681 -0.10900298 0.13156119 -0.10254668 -0.27119023 -0.21658005 0.26377156 -0.113670334 -0.13477542 0.44561416 -0.010857181 0.17101274 0.3189983 0.05610887
967 0.08896371 0.05636258 0.022277394 -0.032218054 0.09497468 -0.049541555 -0.07970596 -0.090048976 0.056244943 -0.033906315 -0.058654837 0.19288094 0.015657881 0.109666124 0.03860765 0.020659192
348 0.38593626 0.081346706 0.10467271 -0.10542719 0.171735 -0.12074419 -0.28453317 -0.2105987 0.26629004 -0.090256765 -0.13246676 0.56341237 0.009291079 0.28106692 0.31120273 0.09473499
99 0.09536826 -0.0327586 0.037444144 -0.050569884 0.02841252 0.0026222612 -0.04669907 -0.048767604 0.090408556 -0.031291943 -0.03286182 0.16406064 0.008555845 0.08890001 0.1059932 0.014001115
1379 0.12481573 -0.0030859287 0.06011782 -0.0572789 0.052198704 -0.049127836 -0.13585989 -0.10803777 0.11469334 -0.044101294 -0.08252926 0.1708351 0.014298786 0.12728328 0.12460785 0.053852335
358 0.14257236 0.012598659 0.030646227 -0.03835226 0.07269939 -0.05473776 -0.05764336 -0.04934772 0.117844276 -0.015637856 -0.075263 0.19669808 0.044464685 0.095190436 0.046731 0.010445689
589 0.1148464 0.0096349735 0.043414555 -0.023495752 0.04602304 -0.04777326 -0.10729413 -0.037137806 0.101524025 -0.022545705 -0.055881787 0.16022025 0.010671762 0.07359995 0.09987199 0.0063926056
303 0.3286418 0.04143191 0.16127598 -0.14583868 0.1593652 -0.07479185 -0.23763931 -0.18099649 0.2079998 -0.06270921 -0.11140221 0.3477221 0.034123592 0.19450891 0.21263775 0.026840439
232 0.44196135 0.0816782 0.109110326 -0.056312453 0.16857977 -0.12964001 -0.31940764 -0.18281062 0.287668 -0.070446126 -0.22452855 0.47217318 0.012720165 0.27413866 0.28554386 0.11562493
1377 0.095057525 0.050784476 0.056625754 -0.047674716 0.04760586 -0.05036019 -0.084356554 -0.09617801 0.03541696 -0.01318905 -0.047924485 0.14553185 0.015944356 0.10941552 0.08970659 -0.0073668025
40 0.47970068 0.0138930455 0.14205244 -0.11540763 0.20087938 -0.12748042 -0.35597274 -0.2009478 0.33432642 -0.09020288 -0.25065637 0.6683539 -0.027894089 0.2502294 0.34191176 0.0901947
978 0.4444047 0.17322935 0.08713586 -0.11713007 0.26750004 -0.07184478 -0.35896 -0.2178095 0.2660816 -0.12131872 -0.22600403 0.7275 0.078037724 0.31330252 0.30298957 0.11877209
345 0.13084893 0.021120653 0.03137901 -0.025301283 0.04473657 -0.05324323 -0.07023862 -0.07533148 0.07524024 -0.021007258 -0.083298236 0.16004035 -0.0036266034 0.08655882 0.11165678 -0.0023292387
313 0.2850017 0.013154548 0.083226465 -0.023508597 0.123482004 -0.05154753 -0.12191986 -0.13944843 0.17131867 -0.08659162 -0.14500418 0.18368854 0.013723703 0.20270151 0.21191055 0.03704339
647 0.12971255 0.026371814 0.040433466 -0.049313758 0.020610478 -0.021928264 -0.03966853 -0.058149993 0.05391235 -0.030946627 -0.04959039 0.14486057 -0.012914377 0.056129176 0.08546312 0.039440695
246 0.15714051 -0.030866843 0.03931478 -0.03135093 0.080531895 0.0014609729 -0.10177027 -0.010212505 0.08139034 -0.064480074 -0.017708942 0.20430703 0.019669944 0.068600155 0.13867846 0.007291892
1374 0.09568369 0.027875658 0.021390442 -0.025053138 0.07787778 -0.039679214 -0.07845746 -0.06205311 0.06209545 -0.031135075 -0.07670906 0.16002218 -0.017767139 0.096527025 0.12278516 -0.0077611655
301 0.27624336 -0.015068182 0.12787011 -0.089204304 0.18659507 -0.12186087 -0.22593121 -0.18013577 0.21989375 -0.09846057 -0.13480428 0.30010068 -0.020562738 0.19365759 0.22499868 0.029943885
1230 0.4454408 -0.027552333 0.14808424 -0.07285245 0.12466672 -0.07023954 -0.41188166 -0.27756563 0.37300342 -0.052535415 -0.33486074 0.6285061 -0.097770974 0.20428887 0.34211057 0.12758127
966 0.10771554 0.059486035 0.059602056 -0.024151016 0.09596095 -0.059208076 -0.123933546 -0.10984938 0.0409681 -0.022203047 -0.050876535 0.17613335 0.038834374 0.127458 0.10323526 0.040102985
591 0.11668862 0.035840146 0.038547885 -0.061956055 0.061725765 -0.03820835 -0.10074116 -0.06546826 0.104717545 -0.027312793 -0.08840884 0.17744413 0.010072242 0.06473984 0.10772747 0.008231711
307 0.30051553 -0.030314155 0.070334695 -0.05835214 0.16080615 -0.031653307 -0.09481027 -0.16418625 0.23637229 -0.084555365 -0.18178771 0.2860267 -0.018088002 0.23960191 0.22979711 0.022803072
1380 0.08515109 0.02504282 0.011383676 -0.03521435 0.06465887 -0.014091081 -0.06673797 -0.06500655 0.033012155 -0.0065406756 -0.022441765 0.14027265 0.037775278 0.053511538 0.095470175 -0.000406876
116 0.09293697 -0.008729928 0.02001145 -0.018545756 0.077705845 -0.018028246 -0.06832111 -0.06998086 0.080855414 -0.012487707 -0.032553136 0.10865405 -0.0031315163 0.09056696 0.06537435 0.00032194698
949 0.35541436 0.1815926 0.111204125 -0.061710633 0.3025233 -0.07956516 -0.3616936 -0.1817129 0.24066636 -0.17027862 -0.15720895 0.65760833 0.029589258 0.3053328 0.28003305 0.12669998
646 0.11907634 0.04741648 0.050726194 -0.040868018 0.0306799 -0.030411176 -0.077545695 -0.06515602 0.05798083 -0.017763166 -0.042915475 0.15030558 -0.005454573 0.05658834 0.09708622 0.016846668
1040 0.33416536 0.094673395 0.081384264 -0.14302604 0.22112396 -0.108910725 -0.346446 -0.2502228 0.21471381 -0.08463165 -0.101603515 0.49664393 -0.005816518 0.2540701 0.24977939 0.051291898
951 0.41315058 0.139061 0.07663399 -0.07937504 0.24946551 -0.11913773 -0.39353186 -0.24876317 0.28614148 -0.10552142 -0.24467301 0.60496545 0.055933878 0.296614 0.29200843 0.14395973
349 0.31259906 0.03533705 0.10367773 -0.06971668 0.1284244 -0.112384826 -0.24682401 -0.10785206 0.1953822 -0.09304711 -0.0930146 0.42163786 -0.0098211 0.21103895 0.23747297 0.027626965
1381 0.1407411 0.07623108 0.046353165 -0.05049983 0.05764816 -0.044668306 -0.14581394 -0.058835827 0.10909528 -0.020360326 -0.106706835 0.19275324 0.0076778927 0.13329682 0.09936671 0.04694904
309 0.21723484 -0.011198148 0.05494948 -0.0022916226 0.13259746 -0.077404186 -0.113022946 -0.14246868 0.16006982 -0.08542862 -0.15971233 0.22160654 0.0064042746 0.20953739 0.2018513 0.033620935
408 0.113945365 0.013201862 0.017105207 -0.005639075 0.056861807 -0.009415622 -0.057375986 -0.09052049 0.10049277 -0.005592271 -0.039565854 0.11160324 -0.005097634 0.07042423 0.06880973 0.042105667
234 0.13194267 -0.029143404 0.031748734 -0.005783425 0.0457081 -0.044861708 -0.0574585 -0.064172134 0.106652066 -0.08997991 -0.04093244 0.1553586 -0.01694913 0.06348941 0.11496916 0.009807624
1229 0.10641375 0.02731073 0.041395623 -0.020008795 0.03201026 -0.010026284 -0.10431229 -0.053095046 0.118336454 -0.04593314 -0.07215466 0.16734236 0.010170445 0.047201004 0.12372822 0.03213536
439 0.35779554 0.07286362 0.048663907 -0.09666409 0.22118519 -0.07194876 -0.2657852 -0.11704422 0.27221808 -0.14230472 -0.12364292 0.51125646 -0.010342355 0.25193483 0.29316372 0.08415182
1265 0.12952985 -0.0012201075 0.033138227 -0.015464018 0.05911639 -0.03274325 -0.07622701 -0.09046792 0.112026654 -0.01632122 -0.07270232 0.1439639 0.0031998681 0.056506228 0.09798603 0.024242355
140 0.08562066 0.028258003 0.04385251 -0.020244941 0.03943202 -0.029820986 -0.086511016 -0.044370014 0.039975073 -0.030432396 -0.011768852 0.16505903 0.0035199265 0.055904496 0.07689244 -0.003452382
143 0.10254078 0.033234134 0.03541769 0.007063254 0.03311282 -0.014091841 -0.08221509 -0.01666591 0.05692078 -0.040347062 -0.020968448 0.11492557 0.008166525 0.07560825 0.0522728 0.015871594
315 0.45684093 0.03163982 0.13429078 -0.08453612 0.22907452 -0.0806989 -0.29206935 -0.25331172 0.30790007 -0.15278806 -0.28271845 0.5194148 0.030872075 0.3698537 0.35328007 0.11577682
223 0.45524186 0.08048387 0.099076636 -0.12488139 0.2656974 -0.06759189 -0.35083756 -0.175987 0.2744395 -0.15072724 -0.10747644 0.59445953 -0.015488257 0.26305023 0.3657684 0.07580419
280 0.09881729 0.026364278 0.029675595 0.0010513975 0.056169845 0.0038730244 -0.049245443 -0.03190595 0.035933036 -0.05405696 -0.041669685 0.11260865 0.027667068 0.03528372 0.06923165 -0.0068658222
78 0.05579216 0.025302937 -0.003516298 -0.017854983 0.05242412 -0.015596888 -0.018817984 -0.014454935 0.025884176 -0.027769042 -0.04864947 0.108669356 0.038183924 0.046828732 0.034532174 -0.010303625
674 0.15791449 -0.0075068986 0.032726523 -0.005708012 0.067362376 -0.00944562 -0.06499321 -0.03175728 0.07954861 -0.04606022 -0.052458204 0.18544649 0.033031993 0.066861875 0.08758655 0.041030638
27 0.08014268 0.02493911 0.042985912 -0.03792596 0.018205235 -0.0041817133 -0.04185249 -0.019858157 0.08409021 -0.025392486 -0.036387477 0.12135094 -0.0025107975 0.060044184 0.08822408 0.037923686
442 0.2945513 0.03695251 -0.015906774 -0.0639211 0.15610689 -0.029933685 -0.22635446 -0.01322913 0.18639791 -0.12848186 -0.042607445 0.35944346 0.004148482 0.10906535 0.23604026 0.051430147
299 0.2400921 0.017790461 0.035755146 -0.106595345 0.11509887 -0.03551996 -0.17563932 -0.1654903 0.21617092 -0.051914573 -0.10787538 0.393611 0.021332888 0.20880954 0.22858573 0.053484295
221 0.13078104 0.05051732 -0.00058394246 -0.026287207 0.06581628 -0.026728448 -0.09919633 -0.051522434 0.0358499 -0.06045868 -0.025936335 0.14226647 -0.0036422976 0.037047863 0.101635896 -0.0096383905
96 0.091573335 0.03941421 0.0288648 -0.025308454 0.04005827 -0.037555035 -0.050389815 -0.05059696 0.10053566 0.00048169575 -0.055784855 0.1395841 0.038616892 0.06570414 0.037118897 0.005587884
390 0.07864235 0.008197644 0.029347803 -0.06585426 0.05547961 -0.022220872 -0.080387905 -0.09774361 0.04963186 -0.017839966 -0.050717875 0.1079737 0.028937735 0.08624018 0.08802562 0.0061241044
306 0.29680598 0.0036546006 0.050259106 -0.06510981 0.14445871 -0.07378412 -0.1285257 -0.13636646 0.21260116 -0.14547594 -0.16821747 0.28595173 -0.0013095861 0.16951562 0.21217296 0.048236806
976 0.33252117 0.19932573 0.08494795 -0.09365942 0.20888327 -0.12470243 -0.34605843 -0.21734409 0.22447395 -0.1114548 -0.21963479 0.616366 0.0302198 0.283663 0.24153161 0.09691597
302 0.23968549 0.040851768 0.08797854 -0.12003943 0.13505934 -0.08439868 -0.15989432 -0.1072281 0.1725311 -0.056955382 -0.11144169 0.33259404 0.023804069 0.14500593 0.17238432 0.05008986
953 0.10508465 0.013167752 0.0146322455 -0.029663492 0.016482899 0.004862218 -0.035738688 0.02035397 0.048133526 -0.05360095 0.002089655 0.13960569 0.027721759 0.040839233 0.110442795 -0.009745956
950 0.266964 0.100986436 0.05782191 -0.06897343 0.14836057 -0.065957144 -0.24263662 -0.12539867 0.19484086 -0.042648792 -0.14132018 0.3643875 0.0016094409 0.19030713 0.16384053 0.09194588
1830 0.2662584 0.0052982764 0.053714745 -0.049712785 0.086078085 -0.10446777 -0.1602296 -0.14231497 0.1768037 0.0039324616 -0.109966464 0.31662607 -0.0005041978 0.17378822 0.15268992 0.03684174
673 0.11800565 -0.0008591568 0.032408997 0.0016881975 0.046961416 -0.07278979 -0.10614833 -0.099983715 0.045123294 -0.009450741 -0.08036912 0.10451658 0.00031180843 0.07006635 0.03971586 0.016403485
441 0.27484873 0.024711791 0.010716228 -0.11305522 0.15475333 -0.028843502 -0.2861976 -0.086198606 0.20103551 -0.10839725 -0.05328336 0.40487006 -0.04631252 0.1445923 0.2337399 0.047376655
98 0.08920031 -0.009071464 0.05608228 -0.003585159 0.054662142 -0.016336616 -0.08664719 -0.079580255 0.09183871 0.0005842511 -0.013651341 0.1431597 0.020428846 0.100585066 0.058860723 0.043903135
1300 0.09337618 -0.026017983 0.026578857 -0.024632819 0.05331658 -0.036364116 -0.06476703 -0.042455662 0.034727696 -0.023517366 -0.0708283 0.12563595 0.029686876 0.08219654 0.051786732 0.03254092
340 0.32715943 0.04389084 0.053683236 -0.07173291 0.19271818 -0.0973354 -0.25131243 -0.12158693 0.22850136 -0.09682358 -0.111523695 0.45953745 0.020583674 0.23241557 0.27445382 0.08633322
956 0.12684633 0.009274814 -0.0032823514 0.00039839945 0.068769954 -0.012130002 -0.07302289 -0.054958273 0.09597172 -0.0012304944 -0.02076947 0.14393897 -0.017097453 0.093585424 0.051943824 -0.005980931
30 0.29928187 0.027948052 0.05741496 -0.067006096 0.10226949 -0.05038194 -0.21050397 -0.17882541 0.18461603 -0.042587895 -0.165379 0.42592677 -0.0054163462 0.19000542 0.24815078 0.08078835
314 0.061668262 -0.014930369 0.045377105 0.0071965214 0.07089817 0.022811284 -0.01005354 -0.045806922 0.046752382 -0.028604994 -0.07611237 0.102969125 -0.0081032 0.09603219 0.113514125 3.7797057e-05
355 0.06647614 0.025117291 0.013081243 -0.011802303 0.029695043 -0.053614005 -0.079051524 -0.097164474 0.06608681 0.016321292 -0.034334768 0.16822061 -0.012648877 0.06864089 0.047174454 0.041634616
93 0.092843294 0.053360503 0.04701506 -0.025437271 0.04222615 -0.020462545 -0.08374786 -0.03312898 0.046559304 0.016647493 -0.042558644 0.1466298 0.029404989 0.10916894 0.049935125 -0.008571515
342 0.2895278 0.03290465 0.04326871 -0.0586061 0.15946804 -0.108030885 -0.19495274 -0.15798634 0.20103732 -0.08292426 -0.15702172 0.330414 -0.002088752 0.22828694 0.2289425 0.07370913
954 0.14224933 -0.00515459 0.058033615 0.0035822538 0.049415983 -0.028285611 -0.10531299 -0.06525495 0.09962264 -0.025771607 -0.02433559 0.142573 -0.017126614 0.060765088 0.095175944 0.045592804
285 0.073119424 -0.037220825 0.009259874 0.014126991 0.049785677 -0.013569654 -0.03948335 -0.027994031 0.061586566 -0.033560783 0.0017703812 0.093542814 -0.0074107237 0.036474895 0.044810496 -0.0019021095
602 0.34696886 0.03180292 0.08380579 -0.046695057 0.15549442 -0.13556582 -0.27215075 -0.19127317 0.22176857 -0.0664472 -0.13242841 0.4344714 0.013665719 0.21817625 0.2463223 0.079515345
1263 0.042618033 0.05109044 0.031270765 -0.04658956 0.03752944 -0.039543614 -0.0524635 -0.061959215 0.052814353 -0.010499363 -0.07392954 0.11664098 -0.0026248114 0.093530975 0.04416275 0.020639716
346 0.06529778 -0.023155857 0.043533444 -0.02784379 0.05324401 -0.036129482 -0.057062175 -0.04811466 0.03997137 -0.021073217 -0.056813713 0.11357923 0.008601238 0.035244353 0.09191111 -0.010765698
1228 0.09631199 -0.011059844 0.063977994 -0.023250557 0.039364852 -0.05737594 -0.032467756 -0.101235986 0.07820487 0.015180857 -0.0498858 0.09496632 0.024104193 0.06717801 0.008415825 0.04543541
974 0.30413014 0.08162177 0.10363993 -0.076993465 0.18568072 -0.13831386 -0.27327055 -0.18611534 0.23935497 -0.07438465 -0.14749017 0.41285685 0.029656231 0.23169155 0.21824647 0.10150179
92 0.07450913 0.02195389 0.032669473 -0.018974304 0.009258125 -0.006467127 -0.055229492 -0.07203486 0.047673233 -0.024403632 -0.008658182 0.10260315 -0.020465912 0.062894545 0.06852003 0.008772655
1378 0.04739136 -0.0066295443 0.014129126 -0.029597236 0.020956427 -0.037225123 -0.067115724 -0.027272785 0.031225754 -0.020795327 -0.0045078676 0.088334024 -0.009532882 0.02656764 0.01025446 0.0054456624
970 0.2954834 0.07295633 0.09004523 -0.0897155 0.14081226 -0.08933091 -0.18204759 -0.14157799 0.16930613 -0.037739787 -0.12266016 0.34868532 -0.0037301823 0.20515473 0.20135078 0.05165777
1834 0.053107157 -0.01090588 0.01585617 -0.031969838 -0.0075916313 0.009532594 -0.039317325 -0.010247773 0.0495668 0.011403014 -0.044251207 0.06998706 0.037995823 0.021650244 0.04042392 0.011186745
600 0.10142294 0.033223487 0.021977384 -0.014383189 0.03321027 -0.00031634115 -0.09088538 -0.0008916757 0.04241948 -0.012661763 -0.043319393 0.12851448 -0.005798111 0.055426028 0.09836512 0.01310704
343 0.10487571 -0.0097281365 0.009436234 -0.015493293 0.04967777 -0.011075062 -0.0978209 -0.052619103 0.081623375 -0.009555873 -0.005257898 0.12844715 0.009447665 0.026758939 0.045176607 -0.0014979155
959 0.08994379 0.014673787 0.017549265 -0.041646358 0.026575306 -0.03817628 -0.08033833 -0.05213335 0.07499429 0.010687162 -0.035656944 0.077428944 -0.008386079 0.054237768 0.017308656 0.03597392
1303 0.031046618 -0.01269686 0.027122227 0.0025442075 0.02918856 -0.013590535 -0.063517965 -0.0043344004 0.015516221 -0.023863176 -0.025052406 0.046336 0.011945822 0.043476332 0.024733525 0.0017711887
1831 0.2559404 -0.0029870307 0.058202818 -0.070391655 0.0629313 -0.072917774 -0.12819672 -0.062389005 0.15743527 -0.04543215 -0.06984435 0.34670892 0.004553874 0.1215827 0.19056943 0.033663403
235 0.3224296 -0.0068636644 0.050816894 -0.04823029 0.13923146 -0.030668193 -0.22241354 -0.14791301 0.24013282 -0.0693413 -0.13347486 0.38631722 -0.003805053 0.2066138 0.24979031 0.030895827
388 0.07286336 -0.0030348694 0.024574628 -0.061730355 0.06478665 -0.02967957 -0.067839675 -0.057135943 0.07890804 -0.020807955 -0.06624464 0.1430546 0.02291274 0.06667515 0.026377613 0.03882525
1231 0.104421176 0.004017861 0.031395976 -0.014648554 0.025358142 -0.02444453 -0.05454131 -0.033369604 0.06144418 0.00038168815 -0.044976346 0.13271387 -0.011236453 0.04612985 0.05796107 0.037479073
347 0.09162116 -0.0007653842 0.036189504 -0.012795842 0.026065083 0.0074047423 -0.008705877 -0.0024884255 0.07977909 0.007667885 -0.054066632 0.11007868 0.0335572 0.031444807 0.042731754 -0.006523405
249 0.5955148 0.08510533 0.07840825 -0.17707321 0.32655248 -0.11773369 -0.44489306 -0.25774294 0.35127568 -0.17073956 -0.17420784 0.7816908 -0.010926707 0.34315503 0.49906486 0.11065339
958 0.089629054 0.023777066 -0.00012443063 -0.035099685 0.081733026 -0.05191354 -0.08222024 -0.08526239 0.04732943 -0.024328887 -0.06655904 0.08228463 0.02529824 0.07679096 0.066915445 0.016854435
352 0.24560934 0.0140719265 0.09056773 -0.045259234 0.14545596 -0.068703294 -0.1709946 -0.15021682 0.2019143 -0.029996479 -0.14495857 0.36468792 0.02837379 0.21260579 0.1606079 0.076280184
97 0.092793465 -0.016353851 -0.00030934904 -0.012841427 0.020367265 -0.03358633 -0.057546988 -0.0025333108 0.024116281 -0.015726829 -0.050335295 0.08818335 0.006157488 0.06371236 0.02661032 0.03057348
598 0.06292224 -0.020245733 -0.011709796 -0.028596463 0.032176547 -0.031917848 -0.031646114 -0.0072736647 0.01071924 0.00087357365 0.0088948645 0.03950301 -0.025392491 0.00055403286 0.02830454 -0.005069778
1264 0.0007001006 0.029775446 0.026254827 0.010818787 0.013779389 0.005908205 -0.0076885833 -0.008733399 0.022941262 -0.030554857 -0.036530856 0.023366502 -0.003907056 0.035340115 0.055727337 0.008118633
287 0.036049914 -0.01965768 0.014111531 0.0017452068 0.01510211 0.005326598 -0.014369349 -0.012322498 0.026129518 -0.012248241 -0.007916863 0.05265805 0.02474376 0.014184014 0.027682416 -0.0028638288
1234 0.3889162 0.021976197 0.11611701 -0.07732848 0.10786855 -0.1091542 -0.31249115 -0.24552351 0.30821985 -0.053765483 -0.2928555 0.50787807 -0.096960574 0.18599881 0.24848177 0.09247124
596 0.07007276 -0.005489125 0.003976091 -0.017564151 0.009049487 -0.021831907 -0.025585964 -0.0527149 0.0631396 -0.0033758031 -0.054825187 0.086657315 -0.011403411 0.07571354 0.060280576 0.021119477
283 0.052625645 0.026218014 0.025128124 -0.047735598 0.045095976 -0.010202051 -0.03031268 -0.050567918 0.023025481 -0.024864038 -0.02378176 0.06537592 0.038185198 0.060166515 0.03424088 0.003294654
678 0.076603554 0.0063824914 0.00010915415 0.0047164103 0.04015808 -0.04475199 -0.06655996 -0.054432712 0.08000152 -0.027057344 -0.040336873 0.13334924 0.008815778 0.04759667 0.0688788 0.011671789
281 0.020519702 -0.011815277 -0.014643702 -0.02065267 0.050644945 -0.029660357 -0.054454353 -0.011763304 0.021453721 -0.032199197 -0.017715776 0.039334673 0.018120438 0.0022407672 0.054642625 0.009080852
972 0.25792357 0.05025482 0.048695117 -0.03492157 0.13167453 -0.090482265 -0.2008619 -0.17407288 0.19823147 -0.044026215 -0.17323968 0.37349132 0.06404084 0.2000564 0.1911389 0.08545917
671 0.044052597 0.026944946 -0.0017300263 -0.030126192 0.03764311 -0.031405054 -0.058804918 -0.006737518 0.013162899 0.001794978 -0.040540773 0.061849616 0.00081201695 0.03111951 -0.0037455247 -0.012482112
595 0.05388083 -0.020590344 0.038206562 -0.03806031 0.0010989073 0.008516411 -0.026650682 -0.049198456 0.054385845 -0.0024037922 -0.005008578 0.0308144 -0.028480118 0.034462184 0.0073637394 -0.0056033973
28 0.030469894 -0.03273415 -0.0026052333 0.025973251 0.03411926 -0.0073308465 -0.029229235 -0.0004325793 0.021860126 -0.044100884 -0.061216094 0.04978816 -0.014627494 0.059609395 0.060792528 -0.0064971773
973 0.2822509 0.03703169 0.0836181 -0.051423296 0.113340184 -0.069818966 -0.1870629 -0.13215743 0.21052171 -0.1115394 -0.091541395 0.4003645 -0.0019515239 0.17424488 0.2223808 0.06381028
284 0.055425193 0.0064751753 0.05690324 -0.0016985044 0.002628446 -0.039674427 -0.047442533 -0.069009386 0.046735566 -0.036288343 -0.061081763 0.09093797 0.022972707 0.06016756 0.036081195 -0.0015105071
356 0.2519386 0.062368102 0.074386895 -0.007225658 0.09317125 -0.06500337 -0.15901014 -0.12192618 0.17228457 -0.0866584 -0.1281922 0.33012468 -0.008287819 0.15938522 0.17064631 0.046650354
601 0.105679385 -0.00080927374 0.012070918 -0.016079053 0.03595277 -0.021746017 -0.0422314 -0.05928497 0.07083629 -0.02928133 -0.030766943 0.11657994 0.0026203475 0.02321342 0.08841311 0.0026314415
350 0.22723493 0.071827605 0.048238534 -0.07109358 0.13578516 -0.058728185 -0.23043665 -0.16324794 0.13485037 -0.07370301 -0.08745425 0.31405985 0.015137721 0.14629549 0.18683264 0.067885414
1833 0.04915075 0.030537661 0.016749306 0.0070451177 0.012689983 -0.045099095 -0.043299403 -0.078153126 0.056632146 -0.020353198 -0.026353208 0.08867523 -0.02039047 0.033170436 0.017900415 -0.007933866
955 0.43303993 0.07780635 0.118630975 -0.11490331 0.21555144 -0.12089619 -0.29864383 -0.19978118 0.30941588 -0.11426599 -0.192757 0.54758215 0.042955104 0.28391963 0.28220603 0.08142035
233 0.24857308 0.018974192 0.10046458 -0.047652114 0.093805045 -0.056802075 -0.13888495 -0.17054062 0.16525917 -0.026275953 -0.15958636 0.27413225 0.014266214 0.21489848 0.17486632 0.07611399
341 0.23065661 9.949959e-05 0.036207937 -0.09115207 0.08985959 -0.05073348 -0.18427484 -0.13770029 0.16874525 -0.055869382 -0.11439976 0.30680087 -0.022290753 0.1523055 0.18539144 0.030572806
141 0.066085584 -0.01462592 0.027753701 -0.0052675675 0.0188269 0.02337194 0.0068347184 0.004315745 0.03298503 -0.011999499 -0.0021951275 0.023829725 0.0018123537 0.041903667 0.02680511 0.009902112
282 0.05938325 0.039665475 -0.0021774375 -0.006552921 -0.001105106 -0.0022844935 -0.009539956 -0.059016574 0.011192918 -0.0155446995 -0.054354053 0.0851337 -0.009516824 0.030292703 0.032399334 -0.011210059
675 0.04553754 0.013883071 -0.013451546 0.0013139935 0.024523845 -0.030987078 -0.063798636 -0.04814256 0.036130134 -0.019776931 -0.013376055 0.06745503 -0.006468119 0.025142308 0.0672822 0.004094408
351 0.4383723 0.0790293 0.11214401 -0.05765038 0.2129059 -0.09285573 -0.3172536 -0.20644107 0.28215513 -0.13631384 -0.2020638 0.6150445 0.037875853 0.33083972 0.32946897 0.09687898
353 0.028806891 -0.011308851 0.03835666 -0.00871307 0.01799391 -0.025699034 -0.025095336 -0.01945682 0.056958385 -0.01854341 -0.017627776 0.07795044 -0.020906227 0.035506897 0.051034212 -0.028202709
35 0.28110564 -0.013600779 0.10013966 -0.04217392 0.038761362 -0.034183186 -0.2816767 -0.18559612 0.20169275 -0.026373798 -0.25007126 0.3646516 -0.12207427 0.10346312 0.17623425 0.06674943
1227 0.38761652 -0.0074900337 0.16854812 -0.057568066 0.09557565 -0.084560566 -0.3462125 -0.2675547 0.34948716 -0.031364653 -0.29854003 0.52608824 -0.059138536 0.2220346 0.30897778 0.117535464
292 0.1693307 -0.012964247 0.056506425 -0.03232476 0.08244388 -0.0307872 -0.15317637 -0.06774795 0.1505505 -0.042608112 -0.06598191 0.2741544 0.006826923 0.13745123 0.18176527 0.0048225136
286 -0.0030491967 -0.006671937 0.029884368 0.028060067 -0.00039258134 -0.031371877 -0.008233994 0.011904841 0.004538516 -0.030197656 -0.016870901 -0.0061707958 0.0068292855 -0.012001224 0.02381489 0.0077973357
1835 0.003443982 0.014597812 0.019314185 0.01055096 -0.009140485 -0.024851117 -0.034901656 0.0057066754 0.031023659 0.0006205809 -0.0070875264 0.006267302 0.009331413 -0.013403209 0.01303497 -0.020966925
677 0.46143696 0.06108272 0.14200187 -0.08876088 0.23190221 -0.122066155 -0.32981026 -0.23382725 0.30240673 -0.109685175 -0.22351356 0.57221913 0.029494952 0.29964685 0.29201627 0.09602824
76 0.2938142 0.017256007 0.050813075 -0.07008597 0.13132067 -0.06726742 -0.20514454 -0.1376932 0.1649487 -0.099824786 -0.08957696 0.40772578 -0.024198743 0.19627734 0.24117981 0.05483473
288 0.013981271 -0.0030351318 0.045172736 -0.023129944 0.04194692 -0.020278579 -0.012192966 0.02193829 0.0490264 -0.012765833 -0.003914084 0.043427356 0.025160233 -0.0004095092 0.04558976 -0.0033858884
81 0.039584313 0.019500567 0.031063559 -0.02385505 0.00731794 -0.025356062 -0.008754049 -0.05726535 0.0027425112 -0.020756995 -0.0450417 0.049353108 -0.020128269 0.035268378 6.471251e-05 -0.016600493
1305 0.020427309 0.0097659 -0.016964797 0.007510385 0.010515443 -0.033235453 -0.033114918 0.0025516816 -0.0015911583 -0.02357037 -0.03598663 0.017874753 0.015808541 0.033553053 0.014710082 -0.021816606
344 0.27208778 0.0064671547 0.07346975 -0.0642678 0.07829563 -0.065554425 -0.18102975 -0.09918223 0.14896983 -0.06311475 -0.11451644 0.3402937 -0.019527873 0.16220897 0.19642873 0.03806545
75 0.040387634 -0.018439338 0.028454468 -0.005443407 0.022581177 0.019197378 -0.040559646 -0.0022379141 0.007851319 -0.02226088 0.019878158 0.056837972 0.019070866 0.039380785 0.008977234 0.013183757
599 0.030351698 -0.020089446 0.016401282 0.0049879192 -0.013809054 -0.0007112075 0.013703843 0.023648856 -0.014143001 0.01634338 0.025987487 0.0077565713 0.010397706 0.004833461 0.033572096 -0.028508622
957 -0.014658649 -0.011916934 -0.004307936 -0.006668948 -0.0027908348 -0.006414483 0.012252518 -0.019974547 0.0053260745 -0.0042548715 0.014711723 0.023192598 -0.0026360317 -0.005166785 0.005536329 -0.021594122
290 0.18081793 0.0038451974 0.067755714 -0.1199621 0.06920938 -0.04289178 -0.11610729 -0.103478074 0.15213874 -0.003896022 -0.1044133 0.25119123 -0.027770488 0.1389654 0.17135577 0.011518867
1829 6.169826e-05 -0.028043507 0.01197296 0.012631946 -0.0005850446 0.011787862 -0.026249258 0.009927129 -0.006725488 -0.033807326 0.023697108 0.039710548 -0.021818772 0.00015855517 0.050634336 -0.023721071
952 0.02484424 0.0037702573 -0.008880982 -0.0008524748 -0.0026267748 -0.035583764 -0.020209597 -0.037641406 0.049183153 -0.04249886 -0.023148684 0.04180119 -0.021184651 -0.0047554495 0.010800891 0.003750972
597 0.054033555 0.03072662 0.0117919985 -0.03553648 0.019077785 -0.013062388 -0.008287256 -0.050446574 0.018396655 0.042433996 -0.027669571 0.054569814 0.032993913 0.06951091 0.028467637 0.008237163
80 0.046763897 0.027183244 0.0026833639 -0.025886096 0.008664703 -0.04315926 -0.049862243 0.0047579855 0.010201639 0.013186264 -0.048872676 0.02552016 -0.0123386085 0.021700215 -0.0008187676 0.021170603
74 0.17316166 0.007735887 0.050930485 -0.061769865 0.077114895 -0.054973308 -0.19437405 -0.13339642 0.13566795 -0.027923094 -0.12570879 0.28260136 0.012108284 0.15044615 0.1909973 0.03821642
79 0.033293765 -0.0004959656 0.03228922 -0.012700462 0.027030006 -0.019058194 -0.010066285 -0.020701865 0.030920446 -0.026912367 -0.026862979 0.018610524 0.002020898 0.037652813 0.055053722 -0.00143426
1304 0.003385058 0.028167764 0.028040674 0.005296281 0.011855343 0.020155873 -0.021257201 -0.014310515 0.031627417 -0.012992167 -0.034280017 0.0011807319 0.0029149624 0.0028875757 0.010061188 0.03486733
1301 0.025571521 0.016006246 -0.006654157 -0.01603874 -0.007523484 -0.01268738 -0.03002848 0.023958098 0.028240703 0.002198832 0.024327375 0.044582717 0.004502756 -0.008109564 0.016000401 0.018425556
1977 0.018058995 0.019012379 -0.024368148 0.0032376277 0.027663201 0.0052380967 -0.018597636 0.019144805 0.0024789085 -0.01979074 -0.028689027 -0.008099663 -0.003402029 -0.0053855944 0.015352242 0.0012813776
1787 -0.0001621171 0.025066 -0.018247532 -0.011660748 0.013561084 0.027278062 0.02562778 -0.019187104 0.0034185278 0.008495733 -0.0025900246 0.020233966 -0.016186113 0.013872357 -0.028024644 0.014282306
1188 0.0044640014 -0.030026397 -0.027431719 0.018436277 -0.009604121 0.025742212 0.014094503 0.026338013 -0.018584045 0.02631812 0.000830296 0.008110559 0.01603332 0.02704895 0.00018852971 -0.01660082
155 0.015354204 0.029400965 -0.007460487 -0.012315736 -0.010140063 -0.021753628 -0.029493446 -0.0038698097 -0.025651133 0.011029713 0.021004396 -0.02913519 -0.02448179 -0.014071703 -0.012580236 -0.022641268
1470 -0.00597757 -0.020420806 -0.003844227 -0.015364734 0.02100808 -0.0050146165 8.8441964e-05 0.01944411 -0.0064083477 0.023539059 -0.029099202 0.013346408 -0.02958398 0.012066107 0.004036808 -0.020210953
1342 -0.030873217 -0.011342451 0.0021829675 -0.014119862 0.028739866 0.00775004 -0.021494005 -0.018543186 0.02389109 0.020831374 0.009419523 -0.026580075 0.019980509 -0.011555444 0.008945316 0.004605556
1059 -0.022998922 0.018255882 -0.01536556 0.0103353225 -0.020314937 0.009205449 0.0035575752 0.0038252103 0.004976544 0.023742098 -0.020722345 -0.016786253 -0.017689036 -0.011323355 0.004181347 0.018111315
1724 0.021982502 0.017594768 0.021214128 0.029583381 0.024378814 -0.016093105 -0.013820465 0.008158452 0.010345685 0.022008767 -0.020249799 -0.029465435 -0.019023035 -0.012215272 0.017919052 -0.0106502175
1360 -0.020428669 0.027088527 0.0036542772 -0.01658266 -0.018816652 0.01789489 -0.011298486 0.027549816 0.011586085 -0.026847566 0.015773319 0.0076268045 -0.005332963 0.0074139154 -0.024800176 -0.007639449
729 0.0004292661 -0.008130187 -0.0072116265 0.016545488 0.030313063 -0.01924095 0.006998053 -0.0028519093 0.009968226 -0.017648596 -0.00023261299 0.003951011 -0.029119944 -0.01823938 -0.0040543554 -0.00043485741
864 0.01885157 0.014899776 -0.00049270614 -0.010064812 -0.026994307 0.017042385 -0.027983217 0.014123609 -0.027947025 -0.020226164 -0.025267685 0.016536644 -0.028010417 -0.02981812 -0.018298317 0.026242824
1520 -0.022458376 -0.01185243 0.01550663 -0.026184129 0.009019212 -0.016164925 0.002385522 -0.00402014 -0.0019028168 -0.01940542 0.022718675 -0.030154616 -0.021029348 0.020142272 0.0013776142 0.011531504
1810 -0.020758659 0.004867076 0.0032101483 0.010762612 -0.019682296 0.021238357 -0.012416208 0.0072941957 0.030555079 -0.0059711086 0.019951236 -0.0048879343 -0.010016029 0.011561806 0.0134461345 0.018557059
364 -0.0221493 0.00059882854 0.010847072 0.01836169 -0.022674909 -0.01681159 -0.0068124565 -0.010727193 -0.031080434 -0.014668173 0.016888686 -0.0010848317 0.003439962 0.0023239509 -0.018047895 0.00019425804
1847 0.023432449 -0.007934147 0.0129526695 0.017592784 -0.02317836 0.014762003 0.026828894 0.027399976 0.023213055 0.010255845 0.022853402 0.030260917 0.0142949205 -0.012292292 -0.006735953 -0.023520986
163 0.004236012 0.027635392 0.012973372 0.0076193474 -0.013138177 -0.007620494 0.020817734 0.016254023 -0.005610479 -0.0016686855 0.014238599 0.024620438 -0.027805893 -0.017985106 0.018040657 -0.019106394
145 0.0012382001 -0.01629798 0.03087878 -0.025894381 0.02498259 -0.011779854 -0.01656521 -0.010091946 0.0256931 0.0063207233 0.019541893 -0.024482489 -0.025825448 0.0063288417 0.011882401 -0.015132374
538 0.024432184 -0.006181452 0.012649967 0.024086878 -0.011765327 0.0040206895 -0.023279263 0.003137852 -0.004993123 0.011326471 -0.004911845 0.023390258 0.027544558 0.010413035 -0.027607657 -0.018929379
1133 0.013172499 -0.029750125 -0.0025517738 0.023108182 -0.02755412 0.0035810252 -0.0061559123 0.026744375 0.010281324 -0.0044617895 -0.022870539 -0.017777625 -0.0063181953 -0.0006084265 -0.028342932 -0.013462387
1816 0.016744493 0.014368282 -0.0073865503 -0.020373033 0.025914105 -0.016498052 0.026368694 0.00542627 0.0187055 -0.0013717471 0.018699262 0.019655326 -0.0068700337 0.030109588 0.009440805 0.0159267
1706 0.0030474986 -0.017118927 -0.0040657236 -0.025903016 -0.006236928 -0.018341308 -0.020532567 0.016073173 -0.02730669 0.014267315 -0.026804678 0.009403868 -0.027132962 -0.0243096 -0.0013811386 -0.022466403
45 0.005013192 0.017106347 0.019542336 0.009024513 -0.030242555 -0.012756106 -0.0077763144 -0.015171224 -0.030281078 -0.0035365303 0.027354343 -0.030328788 -0.015621257 0.011976422 -0.030503033 -0.015812963
579 -0.025889711 0.0072783185 0.023712704 -0.02683855 -0.009000901 -0.028055754 0.004758303 0.0053102253 0.009146458 0.030661007 -0.028837632 0.013379081 0.01368966 -0.013871014 0.0036889694 -0.024825364
1417 -0.026762249 -0.02706143 0.012599626 -0.02350194 -0.024679195 0.027928572 -0.017886393 0.00643277 0.013929592 -0.022997107 -0.014151763 -0.011949464 0.021002807 0.0018924879 0.006671578 -0.02390906
1320 0.03065748 0.0054072505 -0.014699203 0.021466153 -0.024640594 0.015624018 0.022463553 0.015143567 0.023071716 -0.022115104 -0.021164818 -0.024526287 0.009725131 -0.023403142 -0.0016377819 0.008284853
1085 0.027064793 0.005749689 0.027157612 0.011736475 -0.02360822 -0.02321239 -0.005754066 0.03032657 0.007595136 -0.013232918 -0.020902297 -0.03019854 -0.02771683 0.027681706 -0.023427475 0.021917308
1952 -0.009821237 0.007082265 -0.013360924 0.020203013 -0.027876299 0.02224936 0.0016306285 -0.01467831 -0.029416235 0.009539988 -0.009246653 -0.030003209 -0.025721328 -0.0246485 -0.01873291 0.013433791
386 0.21394858 0.03703899 0.04534849 -0.03951652 0.064021975 -0.06275271 -0.14133132 -0.06893184 0.11167761 -0.031772215 -0.12797311 0.30237302 0.044664834 0.18298195 0.10777097 0.062419772
185 0.20432363 0.07461754 0.05023254 -0.007778117 0.11712902 -0.05421099 -0.17013338 -0.015796343 0.14244197 -0.06873336 -0.076905325 0.25345457 0.05354107 0.14752331 0.1723664 0.030003857
1431 -0.011449028 -0.00010311477 0.020987295 0.025150364 0.018265106 0.013252664 -0.0023431533 0.0043243086 -0.017721437 0.014232615 -0.011554502 -0.030269906 0.018089194 -0.0022538132 -0.031102708 -0.006234889
1881 0.019669589 -0.011394407 0.021103645 -0.027683428 -0.0004610425 -0.026492607 0.030982193 0.0149558615 -0.003921466 0.00022865123 -0.021475025 0.027132649 0.00302732 -0.014466409 0.022563692 0.022175774
1985 0.010294572 -0.010928504 0.011846018 0.010527703 -0.011945249 -0.023259714 -0.020006057 -0.007212749 -0.008599535 0.003383492 -0.022482304 -0.0014482647 -0.009266123 0.00777846 0.0071257544 -0.02963594
1632 -0.028861575 -0.028685702 -0.030657286 0.027682463 0.021106048 -0.008963137 -0.025465392 -0.014758264 -0.011242297 -0.029098505 -0.016760524 0.022845691 -0.01690049 -0.0023557462 0.0044996706 0.009912475
720 0.0020273256 -0.008138618 0.022391403 -0.012711556 0.028489312 0.01826125 -0.027746366 -0.016352419 0.022665031 0.01157494 0.0095011 0.002914041 -0.0251693 0.004830428 0.0066060284 -0.014087799
1429 -0.02884025 -0.017446332 -0.023568314 -0.024078786 0.018531019 -0.0039871917 -0.024657104 0.0033774842 -0.0027503592 -0.016346283 0.002670299 -0.024686757 -0.008900046 0.018736951 -0.016635565 0.006166075
552 -0.020470286 -0.0026650194 -0.029388795 0.009502251 -0.02323302 0.010843928 0.010996817 0.030859133 3.6690475e-05 0.019674268 -0.01830668 -0.029663874 -0.027343659 -0.0018675625 0.0038666101 0.018441984
1598 -0.015713798 -0.008410687 -0.004914006 0.00621607 -0.014165036 -0.02011952 -0.010751213 0.0038248298 -0.0012591323 0.008713421 0.0162275 0.0050137388 0.018073304 -0.008917142 -0.025549924 -0.0109477285
2125 0.029798955 -0.020600395 -0.0015682424 -0.017925525 -0.021982888 -0.006339535 0.008864206 0.023810541 -0.021269994 0.019039288 -0.005103512 0.025959328 0.0038617495 -0.022739537 -0.0013959794 0.009797035
57 0.010545692 -0.020958336 0.027895844 0.015902942 -0.008699477 -0.020570641 -0.020371169 -0.0006071245 -0.019102912 0.0058732107 -0.020470094 0.013013242 0.014555496 0.016940316 0.0041108537 0.023090309
487 -0.012467684 0.02906583 -0.02803428 0.013216397 -0.011169518 -0.008345973 0.00017259641 -0.0018871197 0.020075902 0.02029366 -0.029752813 -0.013356157 -0.013418562 0.0055838567 0.0044128513 -0.0046008024
2003 -0.02779682 -0.021383407 -0.026175216 -0.019298172 -0.008701606 -0.021883002 0.013740495 -0.01260992 -0.0069637983 0.011572589 -0.0053104325 0.0035455222 -0.0072501134 -0.00075312314 -0.01688785 -0.012627801
2044 -0.027919276 0.0006483131 0.021689983 0.0048757317 0.018331528 0.028719768 0.0010409971 0.0033730266 0.03084415 0.004172414 0.027592137 0.0023414332 0.014300206 -0.00051726773 -0.030880949 0.011090423
1456 0.015831461 -0.025872968 0.027789813 -0.024967702 0.02928183 0.020082483 -0.009603063 0.015217256 -0.026525714 -0.027962338 -0.00073806336 0.017964901 0.0031945151 0.02720779 -0.013922197 0.0061198566
65 -0.028605895 -0.005070295 -0.018563876 0.011558066 0.028114984 0.01544484 0.003979049 -0.009948718 -0.018789597 -0.0040301583 0.017143419 -0.012900058 0.016787235 0.027324857 0.02148156 -0.017245451
1482 0.030391702 0.019224916 0.0046438472 0.01991869 -0.013459066 -0.026509598 0.022920499 -0.0058295443 0.024054257 -0.0022702261 0.027160168 -0.00011308353 -0.0011888761 0.02330423 -0.0025369013 0.0013817585
1484 0.19742532 -0.008419864 0.027961386 -0.035887342 0.08128963 -0.042090267 -0.108649686 -0.08763017 0.1519341 -0.03042694 -0.07782552 0.31098557 0.022789728 0.13135546 0.16055861 0.028565662
717 -0.02363941 -0.023044674 -0.0120076705 -0.009425963 0.028367111 0.030381778 0.02785776 -0.02754707 -0.003842902 0.0007465446 0.0020344297 0.003110345 0.004550912 0.028585713 -0.015256288 0.019305926
561 -0.012117828 -0.018907363 0.020132141 0.020681525 -0.0036322684 0.004361149 0.022884976 -0.014279783 0.030502679 -0.0030768227 -0.02878677 0.02202879 0.0290141 0.0071422667 -0.008662054 -0.028336696
528 -0.018035462 -0.009221961 0.025372922 -0.012611884 -0.028796723 0.008884691 -0.029430188 -8.963388e-05 -0.004400717 0.020495856 -0.004156159 -0.026286265 0.025893297 -0.029225165 -0.01878155 0.014943112
131 -0.016049312 -0.002395239 0.014981907 0.024370147 0.0055326656 -0.026603807 -0.025683604 -0.02878763 0.01369579 -0.013216321 0.0040731723 0.013503153 -0.013104112 -0.015108367 0.030413773 -0.0045676436
1191 -0.02221481 0.020814843 -0.0037295897 0.0025203128 0.025794897 0.023696698 0.0080452105 -0.022113893 0.0099130655 -0.0072570443 0.008803302 0.028805478 0.023611115 -0.029450914 0.004842225 0.011993996
1146 -0.022109967 0.009139929 0.030525515 0.02785477 0.003707382 0.010954004 -0.030124834 -0.0069103423 -0.0051977066 0.016111383 -0.021297973 -0.0020482577 -0.0102952765 -0.01095683 0.026602479 0.01902322
1882 -0.0049100146 -0.013787029 -0.0039410903 -0.0035349627 -0.0014518606 0.030678693 0.0075426046 -0.0053299605 -0.019629396 -0.031204985 0.0037847762 -0.016046498 0.024047393 -0.020017438 -0.0062634186 0.029337987
562 -0.0022709158 0.013996138 -0.020842427 -0.023852156 0.006256202 -0.023345355 0.008758623 0.014067714 0.02737327 0.0024977387 -0.009685354 -0.008113123 -0.008718485 -0.0059457948 -0.0031486996 0.014661688
2017 0.007154755 0.0017608228 -0.005348636 -0.026030999 -0.015515172 -0.030597277 -0.027000012 -0.018021673 0.01821492 -0.022497723 0.02160089 0.0032124117 -0.028635498 -0.014856343 0.029851109 -0.019068463
1925 -0.024538698 -0.009978937 0.029224873 0.0115635 0.014550785 0.0004899192 -0.0276535 0.028243048 -0.013553605 -0.024997309 -0.025059402 -0.012248897 -0.007877326 0.029866125 0.017576093 0.01883137
147 -0.0036393418 -0.014859277 0.0156462 0.010502708 0.011544938 -0.028931148 -0.0028919165 0.020561874 -0.00021440395 0.015143819 0.013243274 -0.014495735 0.009746495 0.030742059 0.02419832 -0.00063714373
1179 -0.008223285 0.007347329 -0.024769984 0.022471776 0.009174868 -0.028837025 0.0016890095 0.019760996 0.020443901 0.0009667795 0.005189063 0.008050722 -0.021362722 -0.0034140318 0.027199797 -0.025740108
1291 0.024486173 -0.01133732 -0.009831572 0.016101327 -0.004984339 0.019383123 0.0029852637 -0.0063159857 -0.028957902 0.002107137 -0.023898706 -0.02597927 0.025449742 0.02795837 -0.005846527 0.008344146
783 -0.021394137 -0.013249639 0.028397571 0.019350845 0.028463528 -0.014038999 -0.026075168 -0.02033214 -0.008300765 0.00830636 -0.012570028 -0.008600797 0.012597247 0.0164936 -0.010838669 -0.011840382
737 -0.007863086 0.013845483 -0.018129868 -0.0064647635 -0.010853794 -0.0006690758 -0.015311511 0.023755023 -0.008342574 0.025070414 -0.021566775 0.01159905 0.005631393 -0.0054949354 0.009313565 0.02113714
1624 -0.016913204 0.0090505555 0.0019546726 0.028188337 0.0036041313 -0.0229681 0.027006561 0.0011316722 -0.022210905 -0.004467404 -0.0002545737 -0.021831412 0.0057457173 0.018494278 -0.02244443 -0.027579987
166 0.0173913 -0.006878799 0.018773733 -0.02304647 0.014405169 -0.022604158 4.5020613e-05 -0.0043913885 -0.013187848 -0.02875571 -0.004031251 0.010158854 0.018777316 0.0020721266 0.023891201 0.013835435
868 -0.02304764 -0.0010755114 0.021981182 -0.011170753 -0.024363225 -0.021392893 0.027917854 0.009941197 0.0019896303 -0.027672552 0.020264858 -0.0106136715 0.008434429 -0.008965652 0.02784398 0.012032789
1174 0.024824671 0.009393853 0.030153818 -0.00050231064 -0.018517783 0.0058140424 0.008079877 0.021375792 0.028071737 -0.021710109 0.02598116 -0.026512481 0.026313234 0.026437415 0.010550355 -0.0055009853
1764 0.023847077 -0.011015144 -0.017919866 -0.015481749 -0.018888399 -0.020351548 0.0150074335 -0.008341795 -0.016599085 0.009353843 0.019638231 0.003029727 -0.0106124 0.018213699 -0.008192726 -0.01381053
893 -0.0047526076 0.02313375 0.030380122 -0.02066563 -0.006926185 0.022435393 -0.0008490874 0.015618239 0.007952521 0.02588144 0.029632997 -0.002050207 0.0150061315 0.017502146 -0.0025839068 0.0029824728
1202 0.016078897 0.0034080653 -0.016989654 -0.002309151 0.0065355804 0.025829462 0.0044274256 -0.00044985223 -0.028086137 -0.019258799 -0.02458221 -0.009316512 -0.016492913 -0.0016246416 -0.022041911 -0.0053304355
1333 -0.0042246603 -0.014221649 0.013477212 0.027416255 -0.024560798 0.0008691316 0.0025672205 -0.0026606263 -0.031131312 -0.002772973 0.007941567 0.013223099 0.018846411 -0.009871327 0.010026783 -0.020228628
980 0.030970445 0.012498052 0.015753796 0.0025888328 -0.014919423 -0.030124778 -0.02233772 -0.0299726 0.023012243 0.0056753675 0.022239555 0.012450441 -0.016486587 -0.0020937237 -0.0063284715 -0.01756521
1963 -0.018197566 -0.0059066275 0.025400285 -0.0043598996 -0.015967568 0.005198928 0.02930173 0.02939539 0.029717281 -0.009279032 -0.026166026 -0.0037510074 0.027386254 -0.016806228 0.0017530085 -0.020030748
981 0.22999181 0.087504126 0.050796647 -0.09589236 0.18201844 -0.05590315 -0.27591777 -0.23177886 0.21955872 -0.052749988 -0.18212037 0.4464084 0.050827418 0.22302783 0.20249943 0.095418826
772 0.027181145 -0.011940411 0.0037126371 0.008847094 0.007918198 -0.020591756 -0.026907872 -0.019124543 -0.016891211 0.018420074 -0.026585432 0.0033189822 -0.016108518 0.030710151 -0.028008202 0.0140950745
792 -0.0032649615 0.00095523533 0.010742471 -0.0031766302 0.005605264 0.006230319 -0.007300762 -0.020883666 0.0028445977 -0.00974145 -0.019109586 0.010075298 0.023380574 0.0054143243 0.0039451467 -0.023324795
132 0.025636159 -0.018706989 0.028123742 0.024716409 0.025000047 -0.026146824 -0.021392398 0.013897318 -0.02339177 -0.017134804 -0.016456878 -0.020863676 0.0062893075 0.009999017 0.024812879 -0.015138797
832 -0.007718166 0.0023835187 -0.006615752 0.030819723 0.00939729 -0.018578043 0.021296812 -0.025580263 -0.014204618 0.0030558207 -0.0061906534 -0.0121262 -0.025575422 -0.01807941 -0.026500873 0.01548562
1178 -0.023467286 0.012472561 -0.01530781 0.030922925 -0.0077412846 0.026526699 -0.0013374827 0.01748625 0.0074803494 0.005794723 0.0077459104 -0.00797929 0.0241178 -0.030004278 -0.015490654 -0.025507942
1167 -0.001093854 -0.0025702924 0.021953939 0.0024777218 -0.028080767 0.03008099 -0.013735373 0.0006689578 -0.006535657 0.009941833 0.01757496 -0.021138284 -0.006747197 -0.029969692 -0.00045479008 -0.0044795093
454 -0.00600652 -0.015628824 0.0267892 0.02553214 0.0023639183 0.026443101 -0.020930605 -0.015084407 -0.02735462 0.022101527 0.01362692 0.019054461 -0.010766226 -0.0276494 -0.00626701 -0.012853272
263 0.004379535 -0.01321033 0.025335258 0.0014101923 0.013453794 -0.0036493985 -0.0002028164 -0.009392387 -0.02935383 0.030286971 -0.0041333563 -0.014602713 0.0006187544 -0.029786814 -0.0169216 0.0054965047
613 0.013326204 0.0102725765 0.0041099438 -0.019823873 0.01934798 -0.0069989054 0.0019919458 -0.024806932 -0.01234111 -0.025319612 -0.016993228 -0.019402185 0.004635093 0.014095031 0.025607241 -0.001188951
764 0.029242331 -0.006258436 0.0052151554 -0.022412745 0.0018785452 0.0017481463 -0.011961995 0.005146432 0.010759097 -0.024232276 0.017299943 -0.026927104 -0.017120384 -0.023602165 0.013709694 0.030517662
1394 0.003213464 0.015347847 0.011281717 0.016427416 -0.02254301 -0.012892932 -0.0027394388 -0.01651917 -0.002530204 0.009949329 0.016634062 0.029255258 0.02008052 -0.018706748 -0.0055880644 0.030488798
