2142 32
324 2.6492798 -0.33617926 -1.413116 -0.67326576 3.4657142 -0.30718306 -5.6176343 -0.19686131 0.50936997 -3.1728811 0.83069116 4.9980984 -1.7564557 0.7963096 6.0399647 -0.24585457 1.7553773 0.12484052 -0.4954879 1.3437265 -1.207486 5.5767107 2.197824 -1.217186 1.2642202 1.4587115 3.2747724 -0.39408472 2.9995666 -1.3256999 -0.71587306 -0.9697796
325 2.560844 -0.44498587 -1.451583 -0.78533983 3.3179297 -0.2901386 -5.4790206 -0.18662861 0.52379763 -3.0956876 0.9064993 5.0085363 -1.7290486 0.76497763 6.020508 -0.2480131 1.7969404 0.12120634 -0.5263253 1.4169126 -1.180547 5.4055843 2.1258316 -1.1955551 1.2252322 1.4665372 3.2366023 -0.5067139 2.9766614 -1.3428857 -0.6564098 -1.0644633
4 1.3458931 1.1770376 -0.26980022 -2.517973 0.65377575 -1.9597132 -3.097038 -5.0597057 1.9171488 2.4121964 -2.1271482 3.7296107 0.65476227 4.327306 -0.14610761 0.9708236 5.033367 -4.357542 -0.7021094 1.8429726 -1.247779 2.1105072 -0.9197778 1.7011945 -1.2121022 -0.47106585 1.0659248 -1.65206 -1.6573203 2.010498 0.36090952 1.9500673
1013 1.3209155 1.1458178 -0.23880848 -2.46869 0.67503965 -1.9325786 -3.0881574 -5.0475945 1.8717437 2.3737254 -2.1241558 3.693085 0.6406423 4.319551 -0.107646964 0.9735203 5.0680695 -4.3655987 -0.65459675 1.8440312 -1.2708969 2.1172516 -0.958982 1.7273738 -1.2282776 -0.39542058 1.0421681 -1.5681555 -1.6230519 2.0204153 0.34088266 1.8926101
1258 0.79851705 -2.7261698 -0.6638312 -2.7182114 0.275235 -1.1598377 -1.4904959 -4.329562 1.594117 -0.34397873 0.30488577 2.795305 -1.6230935 1.9874498 3.8081827 0.56826985 4.844526 -2.8166988 -0.1099239 3.0550606 -0.55057806 1.8505956 -2.0793805 1.0539441 -1.8916433 3.4221926 1.5840466 -0.7492322 1.0484358 1.7221454 1.2908434 -1.7636535
1257 0.8580383 -2.4652991 -0.5976753 -2.5159156 0.39116126 -1.1270283 -1.6508828 -4.1332827 1.4952258 -0.44947767 0.25338492 2.708275 -1.555633 1.9917005 3.7360542 0.5564223 4.636861 -2.7146866 -0.06919898 2.881348 -0.52070606 1.9927311 -1.9273268 1.0076271 -1.7434955 3.2947907 1.6074901 -0.5911842 1.0567088 1.6692985 1.127324 -1.6283687
1250 2.2836585 0.13902652 -0.5789552 -2.0463626 0.019147264 -0.8572266 -0.91146034 -0.15699992 0.70889497 1.2746389 -1.5339512 6.153651 2.4854026 3.0903268 0.74666464 0.64240026 3.595216 0.35625836 2.2752438 2.7637765 -2.9203064 2.838951 0.018469466 1.2577794 -0.5337564 -0.76816714 3.0263257 -0.62998444 -0.28521243 -0.42635468 -2.5256963 -3.5306423
1251 2.3206608 0.12043274 -0.55409455 -2.0342433 0.07522553 -0.85757136 -0.98640054 -0.22308348 0.7465029 1.2101251 -1.5271097 6.158888 2.4351003 3.1463113 0.8550847 0.6539348 3.6520655 0.31938535 2.2977233 2.7976885 -2.9153354 2.9439132 -0.013518767 1.2488062 -0.5518561 -0.642729 3.059732 -0.5771694 -0.24826391 -0.38698575 -2.5331419 -3.551001
843 3.9066231 2.5400722 1.4386656 0.65809304 1.4664928 -2.6402576 -3.9833426 -2.6007376 -0.25108033 -1.4778956 -0.8106666 1.1968216 0.45751616 3.4353797 1.9443532 0.39442942 3.0906425 -2.0876386 0.61757576 0.74085474 -0.9249332 5.0470066 -1.7266635 -0.32811058 -0.34881485 1.3034369 3.5891366 2.254455 0.22959633 1.1446584 -1.446229 0.8699798
842 3.8777447 2.4840648 1.4816712 0.7281923 1.4535687 -2.5786252 -3.892028 -2.430447 -0.3054873 -1.5720404 -0.74674207 1.0932772 0.4418564 3.295635 1.973557 0.34177238 2.9062378 -1.9104825 0.66704947 0.68538535 -0.8889441 4.983363 -1.711806 -0.4023435 -0.33408684 1.3282183 3.563508 2.312959 0.32277727 1.0692779 -1.4519824 0.78114784
24 1.3653861 -0.99825555 0.5891111 -0.7114924 0.45792112 -0.25258532 -2.533315 -1.4052223 1.4022641 -0.20305239 -1.9048449 3.8389423 -0.6047703 1.1650375 2.364212 1.0307795 2.7555737 -0.75807095 2.6011171 1.7135735 -0.77313405 2.935763 -0.13357364 1.4702451 -1.0603298 2.7696173 1.3395803 1.3814847 1.0824835 1.5951504 -1.7945707 -2.4087884
323 0.6192209 -0.03813619 0.005536227 -0.36668986 0.6406257 -0.37052384 -1.193566 -0.7938107 0.41962093 -0.13141109 -0.6267215 1.3808106 0.112152755 1.0631806 1.041128 0.31689608 1.2711189 -0.46089447 0.60920495 0.70647776 -0.6263661 1.5060369 -0.003998097 0.55501586 -0.1786066 0.52531433 0.7083762 0.32764384 0.14452244 0.5231193 -0.4919943 -0.43634686
845 0.6302172 0.34723803 0.07492606 -0.48901874 0.87684935 -0.5126159 -1.7152073 -1.1060226 0.41666105 -0.40732446 -0.65371025 2.127909 0.31466028 1.2061417 1.2317665 0.5293728 1.4928277 -1.0466151 0.92968434 0.6571462 -0.4290046 1.9701972 -0.25368425 0.95635736 -0.6129392 1.0671695 0.6425657 1.2044826 0.24380119 1.0367258 -1.1435798 -0.7915887
25 1.2475197 -0.96652406 0.56357336 -0.6482815 0.42865795 -0.22570567 -2.343277 -1.3532504 1.2935234 -0.19359662 -1.7765954 3.4830909 -0.574803 1.0880786 2.2021577 0.94478476 2.577351 -0.7268297 2.3978045 1.5808878 -0.686682 2.7134714 -0.16412573 1.3901895 -0.98093295 2.6035616 1.2231734 1.2783163 0.98142576 1.5205218 -1.6308452 -2.1940432
1127 0.6779492 0.10240428 0.081832886 -0.3562036 0.4458358 -0.43879563 -1.087117 -0.77606755 0.34100577 -0.09864796 -0.50438845 1.3022 0.10874903 0.9663461 0.7712452 0.28648457 1.1358593 -0.6151951 0.5115462 0.5610513 -0.44364536 1.2347372 -0.16316463 0.42234808 -0.22497697 0.4360003 0.73914385 0.27233014 0.10466926 0.51453084 -0.50579333 -0.34388286
365 0.5636575 -0.048199046 0.12338746 -0.6218031 0.44163984 -0.45902157 -1.1043867 -0.9562383 0.4343638 -0.013671282 -0.71477765 1.3979834 0.0713513 1.0341369 0.90991986 0.3525814 1.376322 -0.6975405 0.58137244 0.7615888 -0.524456 1.2950765 -0.22377495 0.5504167 -0.39268276 0.57211155 0.8475544 0.27381384 0.061330102 0.6284623 -0.42528623 -0.5201542
332 0.51933104 -0.7060056 0.11005647 -0.33034527 1.7151319 -0.41267914 -2.284949 -2.0432355 1.0536122 -0.21344854 -2.67976 1.4644696 0.16587588 3.0729706 2.3641908 0.85489595 2.7857914 -0.65877193 2.1447608 1.6731426 -1.8216176 3.3917277 0.49447137 2.3455238 -0.123376004 1.3265225 0.6655131 0.94339293 -0.33483276 2.0946074 -1.0506333 -0.82559115
916 0.7367211 0.364323 0.09135473 -0.6396949 0.92445695 -0.6252113 -1.9178774 -1.389907 0.4646512 -0.46696538 -0.71950495 2.4824018 0.31573057 1.3554915 1.4200817 0.6133495 1.7229804 -1.3019539 1.1667863 0.8724372 -0.5404822 2.2483447 -0.37808567 1.1429812 -0.7174129 1.2454882 0.70893294 1.466104 0.23884802 1.2682099 -1.2709916 -0.9553249
153 0.50953543 -0.5567425 0.091327935 -0.2676804 1.5464376 -0.38495287 -2.0804868 -1.7381308 0.9489768 -0.19206971 -2.3614366 1.4150621 0.2381869 2.6923077 2.127066 0.7856133 2.439602 -0.53144205 1.9053135 1.4656729 -1.638504 3.0365489 0.4583533 2.0322914 -0.08697659 1.1298358 0.6193134 0.82635707 -0.22229151 1.8097398 -0.99940205 -0.79919994
21 0.6306163 0.11592859 0.26679924 -0.59742445 0.6200198 -0.55144805 -1.2889462 -1.1903008 0.46002796 0.20388138 -0.8021692 1.5884453 0.2666285 1.3054703 0.7983088 0.4064057 1.4554936 -0.8965096 0.48144376 0.78215635 -0.6735732 1.3896512 -0.09672126 0.6801498 -0.42369744 0.479696 0.851354 0.24456128 0.019106992 0.75751793 -0.5581243 -0.33686292
152 0.40739107 -0.7104735 0.08862208 -0.29283032 1.6251616 -0.3320938 -2.2105346 -1.9612356 0.99721354 -0.22905627 -2.5754728 1.3113766 0.1267704 2.8715053 2.2589457 0.86204785 2.5769036 -0.6081176 1.997969 1.5728061 -1.6683537 3.2068477 0.48292917 2.243979 -0.10741377 1.3186829 0.5321557 0.9254193 -0.26298052 2.0262704 -0.9358281 -0.76750034
151 0.47094443 -0.52693087 0.07548922 -0.25567895 1.493443 -0.3502062 -1.978735 -1.6488378 0.89506394 -0.18161586 -2.2182527 1.3297755 0.22287427 2.5545135 2.0294757 0.7614653 2.3355076 -0.53701603 1.7811315 1.3974639 -1.5655242 2.8789272 0.44084215 1.9387602 -0.0862035 1.0753776 0.57206976 0.75126874 -0.22886176 1.7082007 -0.9406842 -0.7294295
1222 0.84248865 -0.7035016 0.4143925 -0.48639682 0.26327652 -0.15765464 -1.6502926 -0.96530664 0.9417154 -0.088471964 -1.3068644 2.4963167 -0.45901123 0.69726354 1.5223789 0.7257714 1.7991183 -0.513514 1.7521069 1.1274146 -0.45558497 1.8739915 -0.10604056 1.0276595 -0.72830987 1.8931355 0.86415786 0.9096589 0.7199976 1.0777714 -1.1795571 -1.6175588
1221 0.85496956 -0.5511379 0.4143236 -0.4156295 0.30755776 -0.19254507 -1.6437697 -0.96337146 0.8417758 -0.1308495 -1.196693 2.315801 -0.41598052 0.7231215 1.4590684 0.66601706 1.7334211 -0.5419585 1.5876042 1.043455 -0.43165615 1.8415174 -0.1204603 0.9313843 -0.67974234 1.7558396 0.8447921 0.90684336 0.653182 1.0149028 -1.121264 -1.4112469
366 0.5856371 -0.037189003 0.10884476 -0.5538739 0.47826838 -0.42971158 -1.1165235 -0.93336487 0.4010327 -0.06641161 -0.64813817 1.3488559 0.028532743 0.9836098 0.92606896 0.34529242 1.2919632 -0.68254715 0.541435 0.7001754 -0.496376 1.2951937 -0.18558142 0.49319667 -0.37037522 0.6116965 0.82693624 0.29316166 0.10972608 0.60574967 -0.41639295 -0.45488185
1098 0.9221338 -0.60676736 0.44654197 -0.3854959 0.30412948 -0.18081325 -1.7219489 -0.8898143 0.90415454 -0.20058624 -1.2034185 2.4076774 -0.446899 0.6509959 1.4987766 0.6804944 1.726086 -0.5488563 1.7013501 1.0189278 -0.42236724 1.8901249 -0.100485325 0.9070675 -0.692613 1.8614488 0.84437275 0.9782502 0.7596128 1.0711378 -1.2165536 -1.4481883
917 0.83081263 0.5537755 0.12365628 -0.7116244 1.128132 -0.76111734 -2.2436943 -1.675842 0.52281487 -0.516657 -0.82585484 2.758092 0.38619825 1.6325179 1.5531638 0.74863285 2.0288346 -1.6925392 1.2243787 0.9491416 -0.5652881 2.578113 -0.5019393 1.2742344 -0.81950253 1.3614782 0.8456452 1.6211011 0.16868818 1.4946755 -1.4231933 -0.9226312
915 0.8344901 0.5135915 0.11631767 -0.7039397 1.12156 -0.74422413 -2.2312841 -1.6764759 0.50681293 -0.53455454 -0.83268964 2.7575183 0.40886042 1.6330535 1.5678195 0.73506975 2.0138185 -1.6464918 1.2547505 0.9666087 -0.60660136 2.584458 -0.5170835 1.2842913 -0.815505 1.3678586 0.8831887 1.6174086 0.19463317 1.5070555 -1.4449881 -0.9857897
914 0.6319436 0.26742372 0.07309517 -0.5572095 0.79033494 -0.5224786 -1.6493324 -1.2411687 0.4522061 -0.3371676 -0.64154965 2.0599315 0.22983943 1.1729156 1.2075735 0.541785 1.5091553 -1.1304443 0.9229401 0.7681303 -0.4686174 1.8734282 -0.31199047 0.97528577 -0.61693436 1.038716 0.5929581 1.1411228 0.20443812 1.1003444 -0.9900156 -0.73960066
22 0.59876764 0.12668617 0.24381013 -0.46884006 0.5621886 -0.4724747 -1.1780639 -1.0269144 0.400784 0.10002445 -0.66341716 1.3037487 0.20170297 1.1468433 0.71317023 0.32025772 1.2683586 -0.7487075 0.41257027 0.63274866 -0.5544512 1.2400866 -0.09469351 0.54006404 -0.34327993 0.4193238 0.72967744 0.26935127 0.040555675 0.6311317 -0.48851824 -0.25529948
912 0.7016563 0.5824941 0.14894342 -0.4999681 0.9871078 -0.63825315 -1.9702646 -1.3693578 0.38057947 -0.53465 -0.7030871 2.2253394 0.35151052 1.3401326 1.315366 0.596689 1.579583 -1.3607514 1.0182343 0.6674293 -0.45454362 2.2586858 -0.43028098 1.0462086 -0.68445045 1.1704304 0.676055 1.5333511 0.15109016 1.2876459 -1.2582796 -0.71780425
1096 0.85474855 -0.55526465 0.3993279 -0.39772484 0.3192207 -0.19123036 -1.690252 -0.8798734 0.8844154 -0.16399989 -1.2211754 2.3425968 -0.38608617 0.7126352 1.4067916 0.6416877 1.703021 -0.53133357 1.6489133 1.0016395 -0.4447495 1.8607937 -0.046228353 0.92141664 -0.672146 1.716824 0.81054676 0.93482393 0.68342197 1.0679845 -1.1933868 -1.3704135
1097 0.5685195 -0.30852717 0.26424444 -0.21136622 0.2794093 -0.12771668 -1.0907024 -0.5850293 0.48316544 -0.14201537 -0.77056086 1.3936777 -0.23549391 0.5095752 0.9249986 0.37882325 1.034251 -0.3560003 0.9518022 0.6117969 -0.32739747 1.2455373 -0.029252395 0.553213 -0.37144944 1.0332712 0.54619753 0.56129414 0.38681644 0.65892994 -0.69959706 -0.80659854
910 0.8736334 0.4362143 0.08408796 -0.62416583 0.9895812 -0.6983688 -2.012906 -1.4227363 0.47460008 -0.4253074 -0.80117875 2.4431777 0.3428414 1.5564517 1.4177845 0.6052543 1.8999581 -1.3549864 1.0077798 0.9007865 -0.64227134 2.371917 -0.38254207 0.98149943 -0.6089146 1.0508119 0.95664674 1.1594936 0.18348025 1.152263 -1.1616975 -0.7738927
144 0.5692554 -0.03353709 -0.03331561 -0.38107604 0.40978447 -0.31812513 -0.98691106 -0.7344037 0.35364866 -0.08622377 -0.42971045 1.2224355 0.042103548 0.77866215 0.8351272 0.21812259 1.1027179 -0.52714384 0.37663698 0.6021428 -0.4222976 1.1435184 -0.08997552 0.35298532 -0.20651092 0.5054713 0.62752897 0.1573668 0.19568746 0.42623278 -0.37196293 -0.37769705
614 0.90802807 -0.8809518 -0.08302329 -1.401441 0.18952227 -0.82753676 -1.3387631 0.051066 0.73166186 -0.13394788 -0.8130845 2.8349884 0.9013231 1.5267986 1.0292581 -0.4938208 2.5414631 -0.66730374 1.3548843 1.567784 -0.9955265 1.7344447 0.28230056 0.86393297 -1.1611545 0.50030726 0.8504118 0.12251536 0.44090828 -0.081602335 -0.6639117 -0.8096059
913 0.6101943 0.41760382 0.09634 -0.5582328 0.8592874 -0.5808602 -1.7195749 -1.2765398 0.40932655 -0.40042663 -0.69641876 2.1451454 0.33776972 1.2761974 1.1882004 0.5854999 1.5924482 -1.2715497 0.99961686 0.71072006 -0.45385608 2.0247087 -0.37521604 1.0146617 -0.6552336 1.0852172 0.62341976 1.2856956 0.14100128 1.1825948 -1.1364217 -0.74598694
911 0.7390522 0.3419253 0.04510279 -0.62156165 0.9354874 -0.61168504 -1.9310551 -1.3773665 0.50193834 -0.40871963 -0.7258287 2.3699327 0.27493456 1.4022576 1.3761858 0.56646544 1.7770962 -1.3295652 0.9577679 0.86442214 -0.5563113 2.2020133 -0.34479824 1.0108601 -0.6421982 1.1103835 0.8086589 1.1774468 0.21375023 1.1625558 -1.0919877 -0.7847761
150 0.30175525 -0.5177966 0.07843147 -0.13831246 1.2376612 -0.22246547 -1.6008066 -1.3301331 0.732416 -0.22226486 -1.8500975 0.9865111 0.08719402 2.0341096 1.742165 0.5973033 1.8216282 -0.334568 1.5214567 1.1350768 -1.2529384 2.365705 0.3890283 1.6200957 -0.02271604 0.93961746 0.4202979 0.6961151 -0.17310993 1.4231753 -0.72619736 -0.62041897
839 0.47309926 -0.33099815 0.24393575 -0.19188713 0.1737992 -0.07997984 -0.88127047 -0.42579266 0.4553979 -0.083844 -0.66514087 1.2721047 -0.19657578 0.36163786 0.7751879 0.36116424 0.8894003 -0.21215785 0.93772066 0.54159874 -0.24173658 0.98611283 -0.026435297 0.49071243 -0.35320312 0.9190048 0.4416057 0.4934713 0.38511136 0.55857104 -0.66141087 -0.8043649
60 0.60756993 -0.51871055 0.30539307 -0.32623357 0.2162801 -0.08394582 -1.1855288 -0.6963064 0.68966943 -0.10063546 -0.98544705 1.8425211 -0.28131184 0.5511728 1.1513263 0.48961487 1.3477111 -0.33861622 1.3102814 0.8446088 -0.39219972 1.3976649 -0.08148411 0.7536261 -0.5248417 1.3819983 0.6230091 0.6988716 0.52027893 0.7897299 -0.8857671 -1.1991377
316 0.33709309 -0.40827876 0.09297279 -0.09193632 1.2081313 -0.22239292 -1.5515501 -1.2544154 0.69311786 -0.18478963 -1.8555186 0.9331738 0.18318987 2.0423372 1.6008373 0.58475745 1.7521874 -0.3061061 1.4883294 1.0789899 -1.2588178 2.3117929 0.40325674 1.5596101 -0.02733601 0.82455057 0.42380792 0.700168 -0.19811401 1.3753262 -0.79013336 -0.5444077
1545 0.39624685 0.20613046 0.105700836 -0.3562394 0.521027 -0.3279566 -1.0502696 -0.7695861 0.26723164 -0.23075818 -0.44493303 1.3938231 0.2265956 0.7370989 0.7554406 0.38703194 0.899924 -0.71993077 0.7119963 0.46972138 -0.31471816 1.2856162 -0.24190532 0.70554847 -0.45689064 0.73526704 0.33141667 0.9068226 0.082700506 0.74860483 -0.80250275 -0.5427891
841 0.60741776 -0.35613382 0.2585241 -0.2985226 0.26324552 -0.15458877 -1.1540097 -0.68425107 0.61083883 -0.10017523 -0.8220403 1.6373897 -0.21878234 0.58817697 1.0136244 0.4513015 1.2419163 -0.41098237 1.1048068 0.7178877 -0.32147333 1.3037847 -0.07493566 0.6430785 -0.49378404 1.1607112 0.5985139 0.5950262 0.42845085 0.7381314 -0.79196477 -0.93530035
318 0.43314427 -0.21424563 0.06381275 -0.20762835 0.84358144 -0.28197876 -1.2490131 -1.037442 0.5119784 -0.16758741 -1.1626064 1.0474188 0.1266124 1.4846435 1.2509241 0.43593004 1.4659661 -0.4345458 0.9926182 0.8463958 -0.87969106 1.7842801 0.13953045 1.0077616 -0.11048803 0.6659796 0.51873195 0.47931126 -0.033128455 0.9230696 -0.58391064 -0.48772004
1053 0.40743 -0.00021504828 -0.0033537033 -0.26768005 0.3216599 -0.23031853 -0.73896796 -0.5056734 0.24823126 -0.079130664 -0.33420545 0.94282883 0.073857255 0.5942893 0.5808502 0.19859593 0.809561 -0.35699514 0.36518767 0.43590996 -0.32974827 0.8418379 -0.032775342 0.3053006 -0.15699387 0.35960346 0.4821698 0.1761137 0.15019113 0.31708953 -0.31351325 -0.33711785
149 0.3027458 -0.4153131 0.077372774 -0.14983009 1.0993547 -0.25160074 -1.4414177 -1.2300016 0.67230624 -0.13674085 -1.6720532 0.9163643 0.116943836 1.8649802 1.4889615 0.55840963 1.6913395 -0.35611796 1.3160893 1.0105473 -1.1481292 2.1061747 0.3384571 1.4454292 -0.036369473 0.7742002 0.3843606 0.5668941 -0.2028193 1.2531891 -0.6280528 -0.49518657
840 0.42674977 -0.33486414 0.21860355 -0.22649819 0.12729365 -0.08228678 -0.8163748 -0.44768786 0.4732178 -0.009255202 -0.67926615 1.2477232 -0.1593834 0.3626036 0.70799446 0.34250918 0.90626353 -0.24642074 0.8966077 0.5437147 -0.22598124 0.90969825 -0.03888607 0.50974286 -0.37885416 0.89783025 0.37758648 0.45850497 0.3409648 0.5780184 -0.60879135 -0.75606704
59 0.5791406 -0.43523732 0.2892458 -0.25612342 0.16906184 -0.08733568 -1.0624341 -0.6006946 0.5657425 -0.11177593 -0.83920676 1.583677 -0.27560258 0.4323052 1.0100777 0.44151834 1.1417992 -0.3015868 1.1406457 0.6923655 -0.30713066 1.2217864 -0.09048399 0.63566995 -0.47800303 1.2481875 0.5428686 0.6232789 0.4570064 0.6990364 -0.78153056 -1.0413336
1544 0.38928306 0.18860367 0.087419786 -0.35099196 0.48953694 -0.30718687 -0.9955969 -0.7059184 0.2192584 -0.25163674 -0.3888812 1.3233159 0.16955608 0.6654634 0.76336014 0.34866357 0.8438825 -0.68103 0.63625216 0.46542463 -0.28815505 1.2246482 -0.22164567 0.61972344 -0.40426055 0.70962524 0.33787754 0.8263615 0.114245825 0.6641905 -0.70739406 -0.51779646
62 0.6791127 -0.6049868 0.39418557 -0.23236221 0.19688085 -0.037863087 -1.2721454 -0.64772946 0.69056934 -0.21626815 -1.0748973 1.8997028 -0.40981853 0.4428845 1.2662406 0.537158 1.3144885 -0.29346487 1.5117099 0.85173714 -0.35827497 1.528062 -0.06528122 0.7925716 -0.5446777 1.6097581 0.6769109 0.8623403 0.63281 0.8767446 -1.0217867 -1.367438
427 0.43111295 0.026752478 0.00045271678 -0.2804973 0.3363628 -0.22461663 -0.7354781 -0.49210608 0.2209802 -0.07255369 -0.3613427 0.8885492 0.06153648 0.64106447 0.5797904 0.16170165 0.8234717 -0.3274081 0.32465777 0.42865786 -0.31033742 0.881161 -0.058739807 0.31490776 -0.1687484 0.33963144 0.51186246 0.20469551 0.120375104 0.31729904 -0.3206002 -0.30566424
1542 0.3444819 0.12374568 0.045408677 -0.28096774 0.40424892 -0.25913265 -0.8453689 -0.56718016 0.23189117 -0.1675887 -0.32427636 1.0478556 0.09836948 0.6096517 0.6247203 0.2619443 0.76879 -0.5278059 0.43042123 0.370472 -0.22964649 0.97540504 -0.1499809 0.4185155 -0.28807873 0.5315301 0.35114998 0.5342839 0.10880688 0.48709202 -0.51205397 -0.3874351
934 0.62808126 0.23515864 0.0613223 -0.4503827 0.69542795 -0.4789022 -1.4195755 -1.0333838 0.38048458 -0.25762072 -0.574906 1.7847414 0.19679138 1.0774783 1.0069724 0.4300952 1.3708997 -0.9341979 0.7455318 0.65422106 -0.45955867 1.6431097 -0.22859602 0.71298075 -0.45192575 0.809191 0.6651998 0.82488656 0.13973436 0.8161176 -0.85478896 -0.5950973
320 0.15006436 -0.17633356 0.032780036 -0.081887566 0.44179362 -0.09261662 -0.6160964 -0.513883 0.27118284 -0.06772216 -0.7061181 0.43709487 0.06330993 0.78084743 0.62019366 0.25279197 0.7040314 -0.16366075 0.5764711 0.43124756 -0.4723072 0.8908383 0.11426961 0.6140922 -0.04335905 0.35854593 0.16541888 0.24808057 -0.06388237 0.549183 -0.30694506 -0.24000843
319 0.27607492 -0.22634852 0.038652234 -0.2359122 0.6297315 -0.18931577 -0.9301976 -0.8058742 0.44442528 -0.07619993 -0.9521174 0.85995275 0.07173704 1.1444398 0.9237583 0.33755347 1.1634517 -0.31988183 0.7661612 0.69025403 -0.6747472 1.3409079 0.07786327 0.8248795 -0.12913315 0.5635376 0.40429583 0.323212 -0.028408354 0.7613932 -0.44336313 -0.39743945
63 0.5956876 -0.40687472 0.2686603 -0.29872745 0.2102906 -0.09594905 -1.094567 -0.6298344 0.60729367 -0.0746514 -0.8355599 1.6620173 -0.25273207 0.4884705 1.0205462 0.46169913 1.2031184 -0.36319533 1.0994703 0.72223175 -0.31387034 1.229095 -0.08480312 0.64613974 -0.45863566 1.216132 0.57484174 0.58791244 0.46544743 0.7147109 -0.77421665 -1.007897
838 0.33971545 -0.30402935 0.15840462 -0.19918545 0.10337755 -0.052088257 -0.6688293 -0.35113016 0.38618872 -0.026440797 -0.53295255 1.028319 -0.15017238 0.27008957 0.60218674 0.27697927 0.7299772 -0.19402157 0.7022622 0.45027485 -0.20124483 0.7333535 -0.022433067 0.40822995 -0.31408116 0.714629 0.3230223 0.3415269 0.28517777 0.4572079 -0.5050822 -0.6323451
1684 0.7214908 0.2762843 0.105036184 -0.3296284 0.5540155 -0.35677418 -1.2778146 -1.1927843 0.45528576 0.21403798 -0.74666995 1.6938293 0.35045013 1.3900146 0.55508006 0.45937088 1.4434216 -1.0232447 0.34110233 0.7747404 -0.65266806 1.2837483 0.10591889 0.6588886 -0.49375856 0.24419174 0.91072935 -0.09245701 0.029436743 0.58801216 -0.7380052 -0.34536332
61 0.6308297 -0.4345003 0.36214244 -0.23197947 0.18775047 -0.09323829 -1.1896181 -0.61940676 0.6194526 -0.1393152 -0.95709705 1.6712297 -0.32811594 0.44544113 1.0167801 0.5000982 1.2058198 -0.32819155 1.2810005 0.73077744 -0.29122233 1.3381165 -0.07204522 0.6759953 -0.4957519 1.3558078 0.5840434 0.7319914 0.5045142 0.77558345 -0.8876222 -1.0790015
1242 0.32657808 -0.050807122 -0.0020095014 -0.20669319 0.25785103 -0.19015883 -0.5793889 -0.43416268 0.22820245 -0.06738314 -0.25396532 0.7392098 -0.0061934087 0.44994295 0.5194897 0.15439183 0.6722723 -0.33293703 0.27486566 0.36351252 -0.24719957 0.6952506 -0.089072645 0.2357466 -0.17725979 0.39007208 0.39510468 0.13920213 0.13900442 0.29311156 -0.2607449 -0.2750391
889 0.7185986 -0.8148361 -0.06199085 -1.1205379 0.1489369 -0.67039603 -1.0421187 0.06952196 0.5421029 -0.14156654 -0.65174687 2.1879041 0.7078143 1.2259867 0.83145297 -0.43186375 2.0668712 -0.53498304 1.1138703 1.3028125 -0.80471843 1.3671368 0.16846463 0.7120762 -1.0049342 0.45443106 0.614103 0.22035263 0.37167415 -0.060507756 -0.5468054 -0.67439
1859 0.28140244 0.009831665 0.05385322 -0.16370286 0.18376693 -0.17158051 -0.4758579 -0.35365328 0.17693517 -0.017167095 -0.2519283 0.58490413 0.030468138 0.40825266 0.36573243 0.113327 0.53318465 -0.24221823 0.22632155 0.26309237 -0.20994942 0.56987786 -0.070098005 0.22977453 -0.13517174 0.25432944 0.30477172 0.14257628 0.06450733 0.2406057 -0.2222797 -0.16720709
317 0.254776 -0.37337142 0.040295243 -0.12518476 0.92726517 -0.16295965 -1.18097 -0.9571267 0.531505 -0.16548951 -1.3695035 0.8248291 0.0879587 1.5135357 1.3048894 0.44114748 1.3971149 -0.24842879 1.1292596 0.86484 -0.95878696 1.7756525 0.27969277 1.17672 -0.03181644 0.68451244 0.34987184 0.4973729 -0.09474302 1.0287268 -0.5896904 -0.49792123
532 0.33687297 -0.004172715 -0.0064483956 -0.24109857 0.28962544 -0.20457406 -0.6597503 -0.45896804 0.20613286 -0.084376775 -0.3117416 0.8013542 0.029399237 0.56668866 0.56162417 0.18835731 0.7379695 -0.36187685 0.31658992 0.38199925 -0.25710157 0.7801787 -0.09202906 0.2713735 -0.16891 0.3704412 0.39645866 0.18449913 0.119843245 0.31173313 -0.27323717 -0.26477593
1638 0.74814785 0.19604132 0.12243824 -0.30033368 0.58684283 -0.34975466 -1.2921383 -1.0715723 0.418986 0.09679352 -0.7349527 1.6759262 0.32534793 1.3257537 0.6623904 0.438546 1.4070756 -0.9019643 0.4082152 0.7509905 -0.63767326 1.3823876 0.101221055 0.6438495 -0.43794328 0.31562984 0.93680143 0.035111688 0.117864065 0.56400925 -0.767523 -0.45793948
1543 0.27352002 0.14189634 0.053651974 -0.2500399 0.3402443 -0.22770102 -0.7479406 -0.5539832 0.18696319 -0.17503768 -0.26836053 0.87442493 0.08762331 0.5167321 0.55277133 0.21466652 0.6755131 -0.5225384 0.3773338 0.32593644 -0.16764088 0.82516134 -0.15461616 0.3929946 -0.27747807 0.45324814 0.2757559 0.4694612 0.078132905 0.44692644 -0.42975193 -0.2941512
1639 0.6009928 0.14628927 0.094411224 -0.31864148 0.52670944 -0.28517446 -1.1437622 -0.99622285 0.3935184 0.114375055 -0.62199205 1.4904431 0.26069033 1.1633271 0.5950549 0.40348116 1.2627769 -0.84703 0.31392035 0.68667036 -0.5418283 1.1806823 0.09610375 0.57302654 -0.38543996 0.29016337 0.7699628 -0.00499955 0.08951043 0.5293642 -0.636655 -0.3779467
64 0.45544592 -0.36307323 0.20576084 -0.2805791 0.16463262 -0.09719246 -0.8611826 -0.55968946 0.48321286 -0.054568827 -0.6475748 1.3273785 -0.20239721 0.3947875 0.82915497 0.37906408 1.0032375 -0.30965614 0.87306476 0.6148213 -0.24130157 0.9853534 -0.0793293 0.5185032 -0.39416084 0.99495083 0.42995876 0.4642785 0.37052932 0.5776978 -0.5956425 -0.8192742
888 0.31785658 -0.27454677 0.0049073617 -0.40751228 0.08967385 -0.27386063 -0.43728337 -0.06129491 0.21675055 -0.04266238 -0.30170333 0.91237086 0.25773618 0.53587914 0.36358285 -0.112281576 0.8421191 -0.24526048 0.4296451 0.5134227 -0.32973266 0.59396213 0.037602518 0.2974186 -0.3609611 0.187184 0.2847989 0.11268013 0.1234298 0.031940375 -0.2380115 -0.26854074
1642 0.6615154 0.19620718 0.07129594 -0.33859017 0.5217044 -0.32193077 -1.1955149 -1.0669016 0.4368015 0.2357816 -0.71131283 1.6418977 0.35034204 1.2684855 0.5517794 0.46168444 1.3667575 -0.94507223 0.335622 0.7496545 -0.6173532 1.1821381 0.1282277 0.6600411 -0.46518373 0.23560143 0.86357623 -0.09895859 0.029365236 0.534395 -0.68318284 -0.39320785
933 0.46733838 0.14467818 0.033466253 -0.36276108 0.53101414 -0.3697202 -1.0872608 -0.8333469 0.3064377 -0.19859794 -0.4476347 1.3443011 0.15087971 0.8453611 0.79788905 0.34374577 1.0830549 -0.74540174 0.57940173 0.52199256 -0.33893 1.2453772 -0.20475467 0.5811157 -0.34881845 0.63482374 0.48277435 0.59740674 0.10348502 0.6676327 -0.61170757 -0.4463331
1640 0.31750363 0.08030932 0.037788466 -0.15703976 0.25963855 -0.14052193 -0.57562345 -0.4625044 0.21376814 0.034390457 -0.29460913 0.7383722 0.09322351 0.5302343 0.3250247 0.20991047 0.6226989 -0.40644643 0.16665502 0.3509517 -0.26456702 0.5679316 0.06114266 0.27649167 -0.19875091 0.1610849 0.3960498 -0.009958774 0.059791148 0.26614323 -0.31781286 -0.20358512
296 0.26764387 -0.029411733 -0.18059586 -0.05382176 0.4050965 0.020333912 -0.6154642 0.07565716 0.043724503 -0.40161783 0.16635102 0.53270537 -0.2440293 0.0027645247 0.706837 -0.049453236 0.0997789 0.08917464 -0.11182029 0.11363951 -0.08775677 0.5890912 0.32104057 -0.19663326 0.20425943 0.1372601 0.34988558 -0.058109667 0.3705978 -0.21346205 -0.043019354 -0.08600463
297 0.27796474 -0.08666588 -0.20731717 -0.014308303 0.4338921 0.065828435 -0.6289008 0.15863544 0.029594032 -0.49282455 0.22421099 0.5284312 -0.30866697 -0.087962516 0.78162473 -0.07585948 0.03161477 0.16673882 -0.10728048 0.085904524 -0.09557872 0.60985804 0.3772065 -0.255218 0.23536885 0.15727752 0.3684486 -0.086679004 0.4478232 -0.2847291 -0.051734228 -0.11748249
581 0.30513954 -0.17304313 0.030844878 -0.29738483 0.4201839 -0.21326344 -0.7605799 -0.6662081 0.34262583 -0.036054164 -0.5742989 0.93208814 0.06625047 0.80727553 0.7377408 0.25842336 0.9675552 -0.35563946 0.52347016 0.5606463 -0.4245574 1.003584 -0.038505863 0.53454614 -0.17166923 0.49356422 0.44277447 0.20903507 0.068674244 0.48709375 -0.3696406 -0.37944868
229 0.2019509 -0.03723106 0.012263635 -0.17919579 0.15276745 -0.13904957 -0.36803436 -0.34013906 0.14851512 -0.01764488 -0.22395037 0.5356632 0.028037466 0.37176305 0.3167645 0.12391658 0.49400425 -0.21385743 0.19077761 0.24251653 -0.20072052 0.47083202 -0.04279762 0.21046075 -0.10621149 0.19012575 0.24777007 0.09717118 0.028227543 0.18719049 -0.15614924 -0.19342725
662 0.59509474 -0.00053389714 -0.09875821 -0.3827281 0.40389016 -0.3141109 -0.9614721 -0.50427306 0.26988328 -0.049640514 -0.43868414 1.5101886 0.07427388 0.8885262 0.78524584 0.28518155 1.055318 -0.42110744 0.5431182 0.551756 -0.56862247 1.172461 0.0082173515 0.3672732 -0.14944106 0.37811577 0.73906434 0.2171612 0.15805398 0.35265157 -0.5433711 -0.49732107
960 0.18034923 0.01825959 0.0013889205 -0.17784329 0.22155751 -0.15972577 -0.46835297 -0.36271632 0.13372937 -0.051474202 -0.22213098 0.57571465 0.04072103 0.3762345 0.3683656 0.13170739 0.47930828 -0.32247224 0.22847845 0.26115242 -0.15885551 0.54952794 -0.057869885 0.22935584 -0.13314344 0.2731061 0.23964436 0.21499397 0.052602176 0.28465214 -0.23950295 -0.20405872
1643 0.6133901 0.20115691 0.117077604 -0.27981 0.48859802 -0.296216 -1.0900248 -0.9533626 0.37053806 0.11025874 -0.61462235 1.3913579 0.271729 1.116043 0.526495 0.3789523 1.1990371 -0.8158295 0.2982296 0.63141954 -0.5103262 1.0987197 0.07582068 0.5588961 -0.41270828 0.27073887 0.7656399 -0.025335059 0.058819976 0.50859755 -0.6185942 -0.3312471
963 0.206068 0.024982877 -0.0028023915 -0.12904428 0.1927074 -0.12423546 -0.4306837 -0.273409 0.111585684 -0.10336946 -0.16640963 0.5321024 0.051944375 0.31252772 0.33793262 0.099608414 0.42391142 -0.26453805 0.21341649 0.21442412 -0.1590997 0.5102835 -0.072032236 0.17381236 -0.1316608 0.23586355 0.23177052 0.21783051 0.080200136 0.23199673 -0.2397803 -0.20512335
1641 0.28425038 0.08098996 0.054868367 -0.1491634 0.21013147 -0.14637955 -0.5225855 -0.43943012 0.18254885 0.06259022 -0.2998746 0.6425392 0.12787701 0.50425977 0.2561157 0.17853339 0.5761043 -0.35716015 0.15656401 0.29790965 -0.23079869 0.51183504 0.03439622 0.25476503 -0.18660076 0.1493388 0.35140213 -0.0058472846 0.026585672 0.23866707 -0.2681856 -0.16580364
920 0.28819653 0.060980078 0.03359437 -0.2156581 0.34400544 -0.19344634 -0.6954699 -0.48655033 0.19521374 -0.13948339 -0.27573156 0.8313046 0.05170165 0.48774546 0.5295138 0.20625822 0.6673531 -0.4287745 0.3453763 0.3063789 -0.2210359 0.8040715 -0.08304728 0.33307025 -0.19342753 0.39175296 0.35101274 0.3436778 0.10128634 0.37292552 -0.37183255 -0.28493318
177 0.18367143 -0.024906948 0.016866963 -0.15237452 0.102193385 -0.12669753 -0.31108212 -0.2796669 0.14229946 0.015135338 -0.20524707 0.41901588 0.06878756 0.35097086 0.26318818 0.10979386 0.44696003 -0.18969318 0.20764524 0.2326799 -0.17417598 0.39668813 -0.09907827 0.20854358 -0.10363569 0.19383913 0.2373989 0.10948864 0.019945705 0.20421804 -0.18433948 -0.15698531
965 0.4563657 0.06888919 0.023093896 -0.30385166 0.40427285 -0.30796745 -0.92771375 -0.6724941 0.2787057 -0.13661358 -0.40764296 1.1157223 0.08566046 0.7468673 0.6848745 0.23247288 0.94481313 -0.5515816 0.41809878 0.476062 -0.3290316 1.0755122 -0.1471968 0.4175506 -0.2534105 0.49363035 0.5108376 0.36539072 0.12909827 0.45626542 -0.44423124 -0.3496713
919 0.35062167 0.072590135 0.011247128 -0.24008854 0.3492646 -0.25765333 -0.7177694 -0.5314764 0.22367747 -0.1286638 -0.301195 0.94426644 0.09807411 0.58007115 0.5401538 0.22304043 0.7614818 -0.44870007 0.36997765 0.38021448 -0.28504333 0.84324425 -0.12508039 0.36732048 -0.22748244 0.39578557 0.40692982 0.34257907 0.07893895 0.40219355 -0.40597063 -0.32255393
962 0.21633747 0.032191522 0.013667605 -0.15424415 0.20412597 -0.1378419 -0.44848445 -0.30505973 0.11408174 -0.08686907 -0.18260507 0.5276251 0.022925638 0.33081675 0.34945926 0.11472763 0.43952724 -0.2713377 0.22159275 0.23714828 -0.14181882 0.51737386 -0.053643838 0.1867872 -0.12758195 0.26781508 0.25524014 0.19007647 0.07180798 0.2468391 -0.2185938 -0.21136622
922 0.31243533 0.16908614 0.06499551 -0.28475162 0.43062234 -0.27891517 -0.8788371 -0.66105306 0.21023966 -0.19603415 -0.34874192 1.0478439 0.13279124 0.64553916 0.6245672 0.28879577 0.78893906 -0.63836014 0.46444777 0.37315112 -0.23056665 1.0041093 -0.1775516 0.48656583 -0.33321732 0.54875284 0.3356215 0.6008001 0.076604 0.58173734 -0.5558492 -0.37238908
964 0.2019407 0.05674071 0.006916498 -0.14028372 0.19702831 -0.14616674 -0.42549467 -0.2780355 0.103765935 -0.0822078 -0.15990396 0.4967546 0.029618079 0.310564 0.3107702 0.103903085 0.38481694 -0.2621487 0.20504217 0.19140714 -0.14118835 0.50368774 -0.04566604 0.15874258 -0.09617873 0.21967483 0.2211953 0.17913912 0.056036543 0.19573236 -0.21591927 -0.14976649
554 0.19454665 -0.018057378 0.03180523 -0.13468832 0.15250668 -0.1273248 -0.32548743 -0.25733498 0.12773396 -0.017626487 -0.16467923 0.45322564 0.044397213 0.31859332 0.28607485 0.08499357 0.41077983 -0.16877122 0.1900877 0.21129312 -0.15068848 0.41317174 -0.027651653 0.15939285 -0.10183153 0.18824464 0.24223657 0.10398104 0.035938647 0.17188373 -0.15380356 -0.15122308
56 0.33016658 -0.017063236 0.033683192 -0.20096011 0.27095446 -0.19831777 -0.5924119 -0.42168722 0.21042372 -0.06568999 -0.28346857 0.7730661 0.044090513 0.5242485 0.48747426 0.15420662 0.67756253 -0.27541694 0.28564122 0.33889505 -0.26206198 0.7299114 -0.06341524 0.2569187 -0.16910319 0.29589438 0.39242038 0.1652699 0.09651818 0.2511373 -0.25882468 -0.2673905
961 0.42017588 0.063554004 0.019315086 -0.23879716 0.3927133 -0.26716426 -0.80202943 -0.5356258 0.20934518 -0.17163824 -0.3202067 0.9703172 0.04232175 0.6458586 0.6547428 0.19596641 0.80498695 -0.44925237 0.38437632 0.42511395 -0.28861463 0.9690112 -0.09316817 0.34944952 -0.19809419 0.46194515 0.49399677 0.33435392 0.14932086 0.38708493 -0.3976918 -0.35266587
1644 0.5064789 0.14652078 0.096865326 -0.24351248 0.4282655 -0.24765395 -0.9149626 -0.8392323 0.3335824 0.11475403 -0.53107005 1.2284893 0.25478518 0.98896354 0.4434886 0.35702026 1.0673317 -0.69376713 0.25886604 0.5762348 -0.4734137 0.9402389 0.051187452 0.4862072 -0.3620938 0.23247515 0.66960096 -0.033807263 0.05852883 0.42702138 -0.5211793 -0.2995684
921 0.273802 0.15150769 0.05937197 -0.2412395 0.39441374 -0.2344317 -0.7538833 -0.56393284 0.18735829 -0.17992587 -0.27169433 0.91647303 0.10430207 0.5527357 0.560818 0.2617105 0.6791141 -0.54101235 0.40953133 0.31546772 -0.19932 0.8673417 -0.18529674 0.43756765 -0.29810882 0.49917525 0.29151523 0.5735254 0.08586383 0.5116458 -0.48922527 -0.31944454
250 0.17760961 -0.011694471 0.024819912 -0.08838456 0.13925445 -0.10576808 -0.30163357 -0.2019566 0.0981037 -0.028030578 -0.16197537 0.3948385 0.038717847 0.26141754 0.25709072 0.062683694 0.31862408 -0.11535911 0.19696492 0.17654522 -0.13483712 0.3623546 -0.002055304 0.16170253 -0.08954322 0.16376524 0.19769897 0.11292008 0.043197952 0.14167383 -0.15693411 -0.16810326
985 0.28234872 0.1266468 0.033204973 -0.23235516 0.36176497 -0.23820569 -0.7392111 -0.51366305 0.20459144 -0.14498593 -0.28665006 0.91537905 0.09280047 0.5306238 0.5319764 0.23852178 0.6677212 -0.49892893 0.40062428 0.3417578 -0.2035981 0.82354236 -0.12108888 0.38845655 -0.25357485 0.43268102 0.3040859 0.44764096 0.09035485 0.43628708 -0.4464791 -0.33039245
294 0.25543568 -0.04602116 -0.13957252 -0.06270773 0.3381677 0.008773372 -0.56434757 0.010925562 0.042054344 -0.3172381 0.08346949 0.52261615 -0.18564968 0.041430585 0.64166963 -0.032204136 0.162603 0.042823035 -0.033564344 0.134297 -0.11741856 0.5370741 0.2259963 -0.12259716 0.14563839 0.16045639 0.3158073 -0.018607046 0.3097614 -0.1513402 -0.076728776 -0.131862
1 0.5138028 0.05691898 -0.018436557 -0.2623689 0.4277286 -0.26260492 -0.8953769 -0.5147091 0.23376858 -0.1601124 -0.2946938 1.0057757 0.017254936 0.6735214 0.73059225 0.16635783 0.85401326 -0.39605668 0.28077984 0.43415052 -0.3335761 1.0148937 -0.0055136927 0.24701776 -0.12825263 0.369873 0.5446323 0.18034749 0.16406716 0.28810856 -0.34840918 -0.23289719
70 0.20224491 -0.009496341 0.032748148 -0.15079823 0.13694951 -0.13355069 -0.35983482 -0.2558952 0.117933035 -0.016266065 -0.18536532 0.4630046 0.018529601 0.31293124 0.28069997 0.07928341 0.41332448 -0.19655561 0.16345689 0.19957738 -0.15516318 0.43244207 -0.03697445 0.14826268 -0.1152493 0.18309058 0.215984 0.09195901 0.05625717 0.17051315 -0.1430782 -0.14195825
1038 0.5122052 -0.22722654 0.13886556 -0.30836007 0.19390248 -0.1531695 -0.8898064 -0.59300345 0.45497322 -0.027714929 -0.5933629 1.2407569 -0.13991722 0.51806206 0.7125302 0.3305853 0.9746705 -0.37339893 0.7171358 0.558071 -0.30096987 1.0292534 -0.069658875 0.47006226 -0.29735196 0.76068324 0.47451928 0.38751003 0.28640407 0.4990031 -0.5155319 -0.6395321
925 0.2655831 0.20307702 0.055826914 -0.25914 0.39210504 -0.26181433 -0.7587173 -0.60557044 0.17734273 -0.16741517 -0.31113052 0.932986 0.14133431 0.5956662 0.51454556 0.24986836 0.7136216 -0.5956069 0.4038862 0.30104473 -0.19176427 0.8754371 -0.15207727 0.4531651 -0.28966767 0.45441863 0.28091812 0.5386015 0.04573173 0.52429885 -0.4762835 -0.29489535
515 0.17677064 -0.0040047155 0.013066044 -0.09673274 0.14577451 -0.088906944 -0.31398305 -0.17665145 0.11033668 -0.028051613 -0.17721966 0.3806787 0.028137019 0.2620894 0.22405304 0.07347212 0.31051567 -0.11755903 0.17198406 0.17916347 -0.14819822 0.36961144 -0.016928297 0.12640281 -0.05676306 0.14234331 0.20184751 0.12005871 0.035513528 0.12880364 -0.17567676 -0.11374797
295 0.2592307 -0.015533507 -0.10675972 -0.059758443 0.33858573 -0.032972474 -0.53534544 -0.06287813 0.040446736 -0.29382962 0.064601935 0.4564447 -0.17804591 0.098134786 0.5709048 -0.0063202986 0.20374724 -0.020419821 -0.033977706 0.1458288 -0.12307886 0.5446625 0.17133829 -0.10559313 0.108020596 0.15988386 0.32279712 0.0023489979 0.28341433 -0.09827018 -0.07884703 -0.092886515
1034 0.5273525 -0.24592821 0.12356668 -0.27769408 0.26278752 -0.17384861 -0.92089474 -0.5486696 0.4411454 -0.032455914 -0.6372124 1.4448787 -0.09165823 0.5962272 0.8526422 0.33496422 1.042394 -0.331856 0.8066816 0.63860434 -0.36823428 1.1283718 -0.04623856 0.53389865 -0.30518293 0.78804296 0.5841246 0.3627693 0.3162738 0.5144953 -0.59735394 -0.71334773
918 0.27452314 0.07759671 0.026482733 -0.19405279 0.302143 -0.19871622 -0.6093178 -0.44899777 0.18040562 -0.10440405 -0.27862188 0.78192776 0.094637245 0.49996355 0.43488994 0.19829276 0.61756593 -0.36938143 0.33913684 0.32535225 -0.23272218 0.71170944 -0.08359662 0.3026562 -0.18537565 0.3209219 0.32553685 0.29217467 0.062198956 0.33505964 -0.34766337 -0.26532817
66 0.34463903 -0.030021554 0.005514793 -0.2726261 0.2585243 -0.213629 -0.6086539 -0.4831766 0.21741152 -0.05553929 -0.30151942 0.81281394 0.011065428 0.52034587 0.51361895 0.1494324 0.74554586 -0.35819036 0.3071271 0.3931923 -0.26144573 0.74115014 -0.06309467 0.26455835 -0.15878855 0.33512637 0.37472072 0.13489123 0.09936159 0.28727072 -0.2614492 -0.25359613
330 0.2640919 -0.12945002 -0.0104728425 -0.26117718 0.41398853 -0.1758945 -0.7129171 -0.6188371 0.3282973 -0.009591895 -0.59404814 0.8694836 0.08117307 0.794189 0.61741704 0.24767937 0.8912751 -0.338496 0.4942991 0.53631383 -0.42485583 0.9394571 0.02856131 0.5201137 -0.16690873 0.397348 0.395318 0.16178569 0.039030187 0.48639846 -0.33638936 -0.32810032
924 0.26882207 0.16017178 0.028023727 -0.27403376 0.3824292 -0.25830978 -0.76770896 -0.6043998 0.18868259 -0.17458494 -0.29970485 0.98967093 0.122192755 0.56906337 0.56824726 0.2690581 0.7415222 -0.5644256 0.42236352 0.33464167 -0.19937696 0.889629 -0.19123565 0.47146544 -0.29696423 0.49794212 0.29486006 0.57322764 0.055320054 0.5336708 -0.48642486 -0.3666107
657 0.53559345 0.0047135325 -0.065609686 -0.31187254 0.33168128 -0.27684173 -0.84000224 -0.4204028 0.22419667 -0.040068846 -0.35973686 1.2282608 0.055423502 0.73381853 0.6293351 0.23802133 0.86530507 -0.35552803 0.44087446 0.43717557 -0.4341648 0.98921067 -0.009362695 0.28581247 -0.11346981 0.32394823 0.62641203 0.18698093 0.10689468 0.28183687 -0.47298107 -0.39734092
55 0.15958905 -0.013902325 0.021550193 -0.098280676 0.14522338 -0.09911306 -0.32168525 -0.19201455 0.09113608 -0.05297559 -0.14235765 0.38875544 0.021185592 0.2574235 0.2921072 0.08043573 0.33993214 -0.13600862 0.16839777 0.17079712 -0.13879132 0.3885976 -0.033023514 0.11770704 -0.09109152 0.1790494 0.20322321 0.10708313 0.08569809 0.1283225 -0.13312675 -0.15991202
329 0.09399618 -0.061437808 -0.0065213223 -0.10707189 0.18869883 -0.069958225 -0.31345874 -0.25721303 0.13208757 -0.018084966 -0.27064 0.3417961 0.015744155 0.35132784 0.29493588 0.091395214 0.39394152 -0.13453534 0.22881441 0.23357984 -0.1885198 0.42021227 0.005904916 0.2501542 -0.057366468 0.16963845 0.14868322 0.08291392 0.010590934 0.23086804 -0.15486826 -0.14482674
1247 0.39635006 0.0024284637 0.02372603 -0.22298113 0.24301364 -0.24359645 -0.67530894 -0.51873827 0.237673 -0.06540325 -0.2805422 0.7541346 0.020881537 0.54314804 0.5202134 0.15645474 0.726518 -0.42369714 0.23743081 0.36096132 -0.22006044 0.70779264 -0.119839124 0.22109908 -0.18288954 0.35159212 0.42525342 0.14006482 0.10140197 0.28796363 -0.2285975 -0.23772667
67 0.2606098 0.011008311 0.043947738 -0.17240779 0.20175746 -0.15060838 -0.45985064 -0.37058693 0.15984187 -0.021139158 -0.2244626 0.55116886 0.031239217 0.37536135 0.34026283 0.1372008 0.52800775 -0.2646828 0.25750467 0.28744298 -0.18919122 0.5407123 -0.08891642 0.21212378 -0.12457155 0.2705536 0.29262614 0.12531853 0.072601564 0.23809952 -0.21852288 -0.20122401
410 0.4498575 -0.0024490913 0.037886128 -0.46630186 0.4074326 -0.35608253 -0.9046811 -0.7956607 0.35370547 0.03193781 -0.47636732 1.1290807 0.05515485 0.8035714 0.68577737 0.24996224 1.0854119 -0.5854679 0.37194538 0.58205074 -0.41581595 0.9988756 -0.10494886 0.42463094 -0.2742896 0.40253448 0.5744359 0.120249406 0.058812454 0.44813737 -0.32094437 -0.32838938
331 0.07726027 -0.11630289 0.012846641 -0.07974423 0.19874437 -0.060527112 -0.30128923 -0.2637796 0.15280801 -0.028603492 -0.30175805 0.30897203 0.021868918 0.35946673 0.3398907 0.11478843 0.39394456 -0.1057591 0.27799106 0.23717986 -0.22248799 0.4444236 0.05685225 0.2876558 -0.034729198 0.19420125 0.123060755 0.100011654 0.0089133475 0.2668267 -0.1433486 -0.16751401
201 0.38050362 -0.0022160455 0.0047625136 -0.21944608 0.3103075 -0.2131646 -0.65626526 -0.4344805 0.20953551 -0.104939684 -0.28226033 0.7845881 0.008226963 0.55262226 0.5740377 0.14203763 0.71924996 -0.28446004 0.30506587 0.37525636 -0.30047622 0.7821784 -0.041141782 0.26631507 -0.14209914 0.34586927 0.42573032 0.1819931 0.12087446 0.27451637 -0.27399367 -0.28201213
930 0.32017267 -0.071742035 -0.010446936 -0.2721407 0.2832262 -0.15624647 -0.57095885 -0.42859873 0.21126372 -0.06190614 -0.30766955 0.8314017 0.009657143 0.5118606 0.49701732 0.15575473 0.67856413 -0.2481737 0.27634686 0.40621963 -0.2560361 0.7182508 -0.0053848308 0.2767966 -0.10467424 0.29898068 0.39649642 0.08440597 0.13035268 0.23706841 -0.2880775 -0.28233638
327 0.10241047 -0.028358037 0.005010717 -0.0700525 0.16630594 -0.06390313 -0.31054327 -0.26757088 0.1315929 0.0060098465 -0.2913619 0.31101194 0.06001578 0.33825022 0.23255818 0.09421715 0.34973553 -0.14862613 0.23356509 0.21031658 -0.17326829 0.38210282 0.0048704655 0.24733512 -0.066291384 0.16059907 0.14336838 0.0899636 0.0029660412 0.23643154 -0.14833109 -0.11722826
923 0.31685942 0.088582024 0.014287086 -0.1953831 0.3162479 -0.22408703 -0.6571203 -0.44588822 0.15929498 -0.13768879 -0.2789669 0.7836115 0.08363802 0.51423764 0.48213202 0.18794963 0.6427536 -0.38660824 0.3205352 0.30723903 -0.23216285 0.77356726 -0.095852435 0.28566054 -0.18231544 0.33399516 0.35169134 0.3068429 0.08775333 0.33374074 -0.34092924 -0.22390075
175 0.14421847 -0.012228777 -0.0060401275 -0.11886777 0.10507203 -0.110103205 -0.2603909 -0.20330591 0.11488622 0.010354169 -0.16508904 0.3958651 0.04961981 0.28075626 0.22113748 0.076170586 0.35077208 -0.14730084 0.18194501 0.21567573 -0.13091417 0.33031136 -0.05162501 0.15844907 -0.07902248 0.14565006 0.18391542 0.064881906 0.036614917 0.15617828 -0.16036303 -0.15837277
1279 0.19229294 -0.0019705684 0.022867257 -0.12645902 0.12990992 -0.11239905 -0.3023877 -0.2068711 0.10552539 -0.025226813 -0.16678287 0.40526083 0.033476558 0.26983553 0.2731597 0.08093593 0.3534146 -0.15917784 0.16276 0.19249882 -0.15162596 0.36975524 -0.0484127 0.13840014 -0.098882064 0.17615364 0.20966715 0.103782125 0.049301524 0.13804862 -0.17136805 -0.16717863
72 0.2835345 -0.004313778 0.023452988 -0.16716439 0.21193126 -0.17417912 -0.5194433 -0.33110714 0.16509534 -0.061807152 -0.23206258 0.63972616 0.0028876003 0.38676414 0.4490557 0.10348235 0.5343096 -0.2236168 0.21673463 0.29171944 -0.21518986 0.6092644 -0.003092161 0.171669 -0.13012075 0.24130246 0.31383172 0.1328231 0.12366534 0.1753682 -0.23334011 -0.2368923
174 0.1656193 -0.0027217565 0.009633204 -0.10451248 0.079529576 -0.088975556 -0.2551508 -0.21201332 0.10611295 -0.01547919 -0.13957278 0.35685983 0.057034012 0.26433432 0.19462413 0.0854 0.32360843 -0.12368283 0.16610204 0.16395879 -0.14174 0.3043073 -0.066016465 0.15030001 -0.068536684 0.13804533 0.18319796 0.0659555 0.039642867 0.12643024 -0.12883808 -0.1432508
1226 0.14836414 -0.006350132 -0.0065765427 -0.08601981 0.10004079 -0.079780795 -0.24124122 -0.1873364 0.10013373 -0.013673886 -0.14665113 0.35568157 0.014517967 0.21384619 0.22308971 0.066249214 0.30302092 -0.14083615 0.15791534 0.18349466 -0.12589808 0.31087306 -0.00577446 0.11831357 -0.078542985 0.13061512 0.1758129 0.07617033 0.051504962 0.13674761 -0.13679883 -0.14415042
1022 0.1408755 -0.01451593 0.02595159 -0.08862688 0.11144243 -0.094935015 -0.26979247 -0.1830166 0.09355788 -0.049102057 -0.11043353 0.3310664 -0.0022041523 0.19561706 0.24695466 0.05203513 0.27273232 -0.13214523 0.13084124 0.14100842 -0.10185816 0.33573917 -0.008830477 0.08785096 -0.05283172 0.16350752 0.16911733 0.09915678 0.067424014 0.11520223 -0.13019988 -0.1088747
1024 0.20663403 0.07758435 0.04380345 -0.098478 0.116873056 -0.13928558 -0.33389667 -0.29433912 0.10287084 -0.0020933598 -0.16669817 0.40626702 0.05633934 0.32081336 0.20117985 0.078778826 0.3917234 -0.22135936 0.15311831 0.17111856 -0.11719339 0.40105703 -0.093459226 0.16406606 -0.13210033 0.16007894 0.23124854 0.12502079 0.003164795 0.17342381 -0.1602001 -0.09638694
942 0.2998336 0.11619573 0.014184934 -0.24277698 0.3256462 -0.22368012 -0.71994793 -0.510007 0.19667403 -0.15152743 -0.2943572 0.8878124 0.10543912 0.5422029 0.5257834 0.21400875 0.67148477 -0.45468435 0.3821592 0.32150525 -0.22612189 0.8084373 -0.118975095 0.35222575 -0.21603936 0.4230084 0.33912584 0.4000755 0.090569414 0.4083803 -0.41461682 -0.3120784
1472 0.10532134 0.019818543 0.020178264 -0.084363386 0.07566614 -0.065087356 -0.22555679 -0.15560283 0.08784368 -0.009779783 -0.14382686 0.26942664 0.032551166 0.20619592 0.14848934 0.050891638 0.2552967 -0.11325233 0.11227998 0.12226971 -0.106444 0.261238 -0.02551005 0.11690321 -0.07226114 0.0957272 0.12930387 0.078999855 0.010580421 0.10996008 -0.113024116 -0.09445314
148 0.11246356 0.004638192 0.014942641 -0.091046534 0.09316862 -0.069451556 -0.21043424 -0.120199494 0.08571501 -0.019934077 -0.09291456 0.28953192 0.0134401675 0.17850514 0.18520902 0.059706066 0.22144893 -0.07877297 0.110499 0.11620742 -0.09015069 0.25299236 -0.0022525645 0.08938156 -0.060413923 0.11034854 0.15409699 0.07598069 0.046724316 0.08564851 -0.12481345 -0.09411303
1621 0.10589537 -0.024443675 0.028458895 -0.1042184 0.074859 -0.0860036 -0.22464138 -0.1961422 0.10354992 0.005018136 -0.124371916 0.27594522 0.020404486 0.19760561 0.18522637 0.07577748 0.26026228 -0.12476558 0.12905577 0.15949321 -0.116023704 0.26824155 -0.055869028 0.11955395 -0.067176975 0.11914253 0.13059579 0.07106698 0.03284796 0.13148573 -0.103890754 -0.112422824
1225 0.13867044 -0.012663151 -0.002801518 -0.11091244 0.105413504 -0.07927059 -0.24988514 -0.19436207 0.0995886 0.0054243137 -0.15828642 0.40119705 0.030544285 0.2532176 0.21070677 0.07572525 0.341312 -0.1466537 0.16417982 0.1924092 -0.12435178 0.31171572 -0.002709736 0.15367146 -0.0667539 0.13083096 0.17161296 0.04552207 0.012542987 0.14108156 -0.13788399 -0.12259993
1246 0.18476036 -0.02393522 0.0036836802 -0.10900336 0.116065994 -0.13799149 -0.33562693 -0.27367884 0.117048085 -0.041090675 -0.1501904 0.38982853 0.021661235 0.2845774 0.26453272 0.075232476 0.38174295 -0.20030308 0.13304207 0.19227728 -0.13905072 0.35485107 -0.08494743 0.12294205 -0.09668124 0.18973732 0.22589624 0.10453921 0.060199615 0.17441161 -0.10289623 -0.10402987
656 0.29763687 -0.030426096 -0.018557154 -0.20810881 0.19888279 -0.13973641 -0.47166973 -0.27630737 0.16149552 -0.04176214 -0.21063574 0.70643735 0.013852377 0.40727875 0.3953593 0.11944499 0.5050591 -0.19211519 0.24490792 0.29643035 -0.23722208 0.56006885 -0.009353564 0.18750331 -0.0814642 0.20559748 0.3360865 0.11023998 0.08512531 0.1542119 -0.2531723 -0.24606065
1280 0.139839 0.00035516685 0.018204048 -0.12040063 0.09880639 -0.07273561 -0.23825996 -0.19995955 0.113501675 0.008586688 -0.1507574 0.33180177 0.050619427 0.2292683 0.19061492 0.08821166 0.30608884 -0.13583171 0.13892202 0.18007755 -0.113409325 0.2997774 -0.030741075 0.13306005 -0.06823939 0.13005458 0.16131227 0.05204531 0.008319813 0.13661033 -0.11389129 -0.128877
213 0.2830894 -0.027350882 -0.08500755 -0.0665156 0.3012816 -0.055435356 -0.5554171 -0.06941272 0.054694526 -0.26715496 0.011441804 0.51147294 -0.11708833 0.13159208 0.5670167 0.014214372 0.23818502 -0.026948107 0.027075227 0.161998 -0.13395208 0.55879015 0.15236786 -0.054212485 0.06569741 0.18370597 0.33712643 0.03635348 0.24330382 -0.053281583 -0.11981414 -0.14266151
212 0.2677885 -0.006966903 0.012482268 -0.17429948 0.16529259 -0.1329709 -0.40747952 -0.28565845 0.12026336 -0.018860113 -0.1954588 0.5190878 0.0319679 0.38429418 0.3242665 0.09277849 0.47451812 -0.2011074 0.18963653 0.2731482 -0.19954665 0.50438875 -0.05282646 0.19356754 -0.10070654 0.23061064 0.30648854 0.0836995 0.059427273 0.20447665 -0.19219248 -0.17769173
200 0.3554056 0.0074332063 -0.012640647 -0.15477943 0.2764229 -0.18577102 -0.58419037 -0.36287203 0.16258624 -0.1286027 -0.212335 0.658509 -0.029883692 0.44107503 0.5487265 0.123529114 0.60057694 -0.24665947 0.21864732 0.31300497 -0.23999539 0.7174754 -0.046866156 0.19558069 -0.09051344 0.33282015 0.40037173 0.17201419 0.15199442 0.23412627 -0.21554242 -0.2059972
1383 0.2955406 -0.023314321 0.03813096 -0.17933105 0.21340357 -0.1600904 -0.49619162 -0.3670035 0.15744995 -0.08753193 -0.23816612 0.5833178 0.007983818 0.38897377 0.4060866 0.09624676 0.52024466 -0.25554425 0.21980727 0.29609132 -0.20461556 0.58914435 -0.04827087 0.17796496 -0.114204004 0.29284117 0.30757987 0.13487378 0.07734824 0.23634608 -0.20571382 -0.19134746
1031 0.13923717 0.00200249 0.005439933 -0.10435806 0.09717742 -0.10637137 -0.27717242 -0.21109554 0.09775292 -0.036431625 -0.10828696 0.3107386 0.0041743987 0.21905714 0.22241403 0.076774225 0.30469742 -0.18355738 0.12714711 0.13725741 -0.08837211 0.30688757 -0.055264596 0.10785364 -0.08375643 0.16750547 0.14230588 0.0777769 0.051613234 0.132394 -0.08914833 -0.09510587
938 0.3349689 0.11072957 0.00071788684 -0.26996163 0.3402273 -0.22522758 -0.7089251 -0.505973 0.22529717 -0.08354575 -0.3407499 0.9490194 0.121177986 0.58481556 0.5098589 0.23124757 0.7207682 -0.44850218 0.38944972 0.38426235 -0.27642295 0.8369994 -0.12083359 0.38500035 -0.23233107 0.36071876 0.35821941 0.37151852 0.061117932 0.42576477 -0.42665324 -0.33863416
2 0.32220042 0.012804507 -0.0050101075 -0.19228801 0.27932286 -0.1849696 -0.5943924 -0.37607357 0.18939982 -0.06752154 -0.21822776 0.70788366 0.004646478 0.45492697 0.48935887 0.11415746 0.58849484 -0.2800945 0.21912655 0.33418465 -0.24190693 0.6869547 -0.04561475 0.18581295 -0.11794893 0.28591308 0.34994295 0.111423686 0.12005547 0.22503933 -0.23682217 -0.20992737
339 0.3554551 0.009604879 0.022020794 -0.16318075 0.26300642 -0.19767377 -0.5979912 -0.364276 0.17285928 -0.10194489 -0.2617099 0.7403712 0.03326723 0.4652589 0.50622886 0.14951618 0.60655344 -0.25533602 0.29913723 0.33138636 -0.2485136 0.7301827 -0.04455639 0.21653542 -0.13902065 0.32265097 0.42053744 0.16861242 0.12292445 0.23247045 -0.29558706 -0.26425704
208 0.14773038 -0.0077071995 0.005768208 -0.099518195 0.097469255 -0.080593675 -0.26383352 -0.16907713 0.06917181 -0.04446328 -0.111817166 0.29840067 0.0074378215 0.21347813 0.21560664 0.065607935 0.26255432 -0.1139817 0.11755539 0.1571312 -0.10067258 0.30737415 -0.016195387 0.10773699 -0.05381039 0.14976302 0.16410244 0.06659152 0.043085795 0.10923641 -0.10587911 -0.10482807
328 0.049880095 -0.09153579 0.010716922 -0.06656469 0.17125899 -0.041108217 -0.2447261 -0.2184217 0.12598951 -0.01944508 -0.2548691 0.22919933 0.024068633 0.30229798 0.2553863 0.1032141 0.31434563 -0.088958085 0.20374292 0.19836599 -0.1567895 0.34898138 0.03566848 0.23316254 -0.04323357 0.16505504 0.0832928 0.060970876 0.004397562 0.20336072 -0.11355777 -0.10850087
68 0.21366087 -0.02136411 0.03141985 -0.17162786 0.1852161 -0.11761062 -0.40505016 -0.30960155 0.16502286 -0.045259964 -0.19027652 0.5224684 0.035291582 0.33253977 0.34601855 0.10059997 0.46686575 -0.19567516 0.2544819 0.24835925 -0.19771783 0.50461 -0.046107233 0.17406455 -0.11938765 0.24060002 0.25110513 0.11010262 0.0620362 0.19731584 -0.18267477 -0.22967833
322 0.06987002 -0.051248625 -0.002071576 -0.06167334 0.11769586 -0.067050084 -0.19362368 -0.22918336 0.10518725 0.01773652 -0.17985012 0.21258566 0.020990543 0.25006288 0.19651543 0.070122726 0.276401 -0.13344485 0.14321902 0.15864818 -0.13637424 0.25858197 0.002799078 0.168166 -0.057233628 0.10909855 0.088032074 0.058713585 -0.02742984 0.17224962 -0.07933734 -0.07245349
1050 0.14155737 -0.011512009 0.014359652 -0.1089021 0.11415313 -0.08074571 -0.26251876 -0.16970865 0.10985125 -0.02489288 -0.13588686 0.3597903 0.017419785 0.22845443 0.20778583 0.07436762 0.30128518 -0.13312058 0.16393088 0.1554505 -0.12814505 0.3060598 -0.028914269 0.1390299 -0.08255006 0.13238703 0.17942975 0.089348406 0.04215893 0.13844565 -0.15360892 -0.15988576
217 0.11467787 -0.0072820527 0.027743002 -0.08295103 0.09276208 -0.099773 -0.25853994 -0.21750276 0.074697174 0.0003658543 -0.12291645 0.26736858 0.009847295 0.20733014 0.19984956 0.06554476 0.28745186 -0.16962609 0.11576944 0.14992525 -0.101613514 0.26115027 -0.028148659 0.101192035 -0.068995945 0.124534905 0.13555226 0.055315055 0.017282564 0.11854891 -0.08745525 -0.07823094
941 0.13755484 -0.0025485638 0.007853993 -0.079910964 0.07733803 -0.080844216 -0.23095109 -0.22238171 0.091804974 0.004206836 -0.112962484 0.28878072 0.0152022 0.22550678 0.16535462 0.06290677 0.30308932 -0.13926232 0.13693503 0.15232001 -0.10908638 0.27570656 -0.06615915 0.108628854 -0.07448962 0.13090667 0.13796155 0.07762825 0.03933778 0.15203848 -0.108862355 -0.09943604
444 0.3821992 -0.020699978 -0.042937115 -0.17299606 0.355679 -0.17223504 -0.6788482 -0.36143178 0.17696169 -0.18743962 -0.18442091 0.7440492 -0.06487018 0.43541443 0.65714705 0.1201515 0.5987188 -0.21820371 0.1804563 0.3245382 -0.22832952 0.7885351 0.027926713 0.1455492 -0.06769024 0.341614 0.4321736 0.10798917 0.21961075 0.15797172 -0.22405653 -0.23854604
1423 0.35548308 -0.0139951855 0.028412202 -0.20644727 0.24297224 -0.18381263 -0.5502388 -0.36508873 0.19605736 -0.05157239 -0.28560016 0.7430674 0.077680044 0.5172688 0.46938378 0.15504153 0.65488905 -0.25028792 0.33109197 0.35232875 -0.26416084 0.6977291 -0.058974516 0.2564752 -0.15394434 0.31439337 0.37545744 0.18355748 0.07629087 0.24559204 -0.2905843 -0.30364114
321 0.11905144 0.004256731 0.03972368 -0.06872662 0.0965666 -0.077555515 -0.21058998 -0.18469475 0.07197164 -0.0077932645 -0.16413148 0.2643657 0.018203683 0.20966373 0.15820384 0.07714695 0.25261584 -0.11472951 0.15449205 0.15053241 -0.1207597 0.27701262 -0.040249597 0.13299441 -0.084185496 0.14230242 0.10846038 0.09876182 -0.0033122848 0.1408642 -0.10756642 -0.07959508
852 0.14878827 -0.056726605 0.066195875 -0.05977432 0.053584736 -0.047008958 -0.26804653 -0.15782258 0.11272311 -0.029514229 -0.19966102 0.34416538 -0.049065217 0.12285503 0.19306555 0.08442102 0.25417548 -0.08207414 0.25355053 0.1599092 -0.04933462 0.28437907 -0.025193598 0.1350495 -0.099248104 0.27269083 0.114203915 0.14826374 0.08497576 0.17181142 -0.17723283 -0.19116516
855 0.121516086 -0.109102674 0.0693966 -0.08385625 0.04982139 -0.03137106 -0.24556075 -0.14632906 0.13117473 -0.02379477 -0.17396465 0.37714446 -0.05367816 0.10485014 0.2410837 0.09768086 0.27609655 -0.0803957 0.26642838 0.18037303 -0.07798544 0.28207326 -0.020077337 0.1459487 -0.095184304 0.28253487 0.14459448 0.14862902 0.122822054 0.17170267 -0.16774851 -0.21756642
1437 0.26047418 -0.083402924 -0.020874918 -0.20147613 0.23626621 -0.14939412 -0.49231404 -0.42537665 0.18456328 -0.075700775 -0.21487777 0.6481518 -0.025695639 0.39188886 0.50868356 0.11197918 0.61374116 -0.3067369 0.2250426 0.34694126 -0.22262417 0.60577136 -0.09006756 0.21575135 -0.15293874 0.35600376 0.3406981 0.115053795 0.12620215 0.24857157 -0.17704451 -0.26344073
215 0.25301573 0.01576521 0.004998198 -0.12104091 0.16574991 -0.1322186 -0.3722516 -0.25237018 0.095242836 -0.02784695 -0.17186299 0.4454577 0.050513506 0.33868468 0.31465688 0.10880921 0.40635973 -0.18090627 0.16976996 0.20808104 -0.18555823 0.4767843 -0.06502852 0.15799944 -0.07699503 0.21107565 0.263609 0.0993515 0.042077545 0.1649221 -0.1939121 -0.1617106
540 0.38330424 -0.1476396 0.12763013 -0.24497858 0.17969424 -0.12081247 -0.67597693 -0.46910575 0.34842026 -0.047142785 -0.41868737 0.896622 -0.12201772 0.3905149 0.5350312 0.22033 0.76604545 -0.31430072 0.5173256 0.39992383 -0.2280666 0.7505912 -0.05923868 0.32894215 -0.22388305 0.5969056 0.34988517 0.2747562 0.17944387 0.37896726 -0.36424136 -0.44414783
214 0.14172356 -0.04084095 0.018150512 -0.10597885 0.092419915 -0.07421759 -0.25749397 -0.18570226 0.097823754 -0.030048693 -0.124570355 0.30384 0.0030408858 0.22076315 0.22622357 0.076545335 0.30482322 -0.13530906 0.13298944 0.15095684 -0.117444 0.29903752 -0.026469713 0.122264005 -0.07800052 0.15477595 0.15706643 0.056616858 0.03367168 0.14172587 -0.08589991 -0.10132257
1287 0.085479565 -0.0024197479 0.0076955482 -0.0682823 0.06678177 -0.06078301 -0.17191091 -0.15201163 0.07472943 -0.0016985901 -0.1295046 0.22590852 0.010580594 0.18391737 0.14816739 0.064855166 0.24008498 -0.10320836 0.10468225 0.1259341 -0.07549189 0.19129719 -0.037817497 0.10863493 -0.07253299 0.13161524 0.09916593 0.06708115 0.018837038 0.10619002 -0.076419055 -0.09411565
218 0.1639669 0.008333127 0.027677411 -0.06282122 0.10108639 -0.079713985 -0.26235825 -0.1957982 0.07345628 -0.028819207 -0.14288408 0.29718253 0.019751746 0.20873152 0.21230306 0.056748893 0.28593528 -0.13907185 0.14544016 0.15588392 -0.11351907 0.30105972 -0.020035135 0.10696069 -0.06775889 0.12486729 0.15706313 0.08016447 0.027968243 0.122921936 -0.12981044 -0.111087084
853 0.14269656 -0.046708167 0.053591534 -0.08957044 0.04639942 -0.058766853 -0.23763083 -0.16801728 0.10867847 -0.02148226 -0.16613631 0.32504955 -0.038792465 0.16637056 0.2027054 0.08427089 0.265953 -0.114973806 0.22673312 0.14773655 -0.07855749 0.27736118 -0.01671255 0.14278606 -0.10649369 0.23763491 0.118556924 0.10785611 0.060789555 0.17735043 -0.1591029 -0.18445048
392 0.29959378 -0.0007501868 0.029533282 -0.15810174 0.21954049 -0.18890882 -0.49035096 -0.36849734 0.17569056 -0.058771633 -0.24000826 0.58431756 0.047629993 0.44215167 0.40558636 0.13922212 0.5636731 -0.28180638 0.26410356 0.27879447 -0.22490829 0.60196495 -0.083236635 0.20913115 -0.110255055 0.25620598 0.32679954 0.17117125 0.04826044 0.24744488 -0.2208516 -0.20637302
1037 0.42757988 -0.1723083 0.09419629 -0.20910609 0.19949856 -0.13391355 -0.7199807 -0.40095103 0.35991767 -0.032124255 -0.47696596 1.1302766 -0.0323983 0.4585533 0.66740096 0.24261434 0.82084733 -0.25567856 0.60598725 0.5145102 -0.2920145 0.8809332 -0.0361129 0.41354397 -0.23138571 0.6031385 0.4646201 0.25336346 0.24633907 0.39286265 -0.44957125 -0.5644884
231 0.11994332 -0.028090041 0.037799906 -0.06768614 0.07443369 -0.07785802 -0.20653401 -0.16207808 0.063574806 -0.017657846 -0.13929538 0.24251418 0.025631452 0.19001043 0.16246536 0.05643077 0.27264762 -0.13162911 0.13282974 0.15321791 -0.07949776 0.24381927 -0.04164401 0.122939035 -0.08210922 0.14092135 0.11668087 0.10383907 0.01255981 0.13034718 -0.11151464 -0.10124138
856 0.21398892 -0.1231555 0.08570058 -0.12758063 0.104875386 -0.048728544 -0.39296487 -0.24287638 0.2082599 -0.03060176 -0.30651656 0.5648027 -0.06862896 0.22427447 0.36269683 0.1555081 0.44627595 -0.16392125 0.3553456 0.2520585 -0.11420719 0.44315216 -0.028673206 0.22484422 -0.1728505 0.3994493 0.21441615 0.21122377 0.15239264 0.27297425 -0.26500225 -0.31013718
986 0.21783301 0.10294018 0.037400667 -0.12353367 0.23915266 -0.14310758 -0.4712731 -0.32886156 0.096409895 -0.10277492 -0.17608722 0.5547921 0.087443255 0.35573077 0.3405462 0.13018556 0.42058152 -0.3203373 0.2510208 0.20336638 -0.1503311 0.55660284 -0.07917981 0.2450188 -0.1370947 0.2761933 0.20503177 0.31732735 0.03562418 0.28795394 -0.3037201 -0.17669196
940 0.2946495 0.0639699 0.026429873 -0.2462102 0.27285144 -0.21918167 -0.6199383 -0.49447712 0.19676207 -0.060186885 -0.30371177 0.8261985 0.07590025 0.5259908 0.48135266 0.20570393 0.69434965 -0.435936 0.34490514 0.3421678 -0.22533642 0.7292105 -0.11318201 0.35935456 -0.21733895 0.37720838 0.31111786 0.2977483 0.06649076 0.37612838 -0.36734208 -0.29350287
1052 0.25697473 0.008825843 0.037525013 -0.12581615 0.16216241 -0.1446784 -0.39018148 -0.28649202 0.1267948 -0.048350573 -0.19284843 0.53557354 0.046439297 0.3563961 0.3195662 0.111913174 0.44528025 -0.204251 0.24135467 0.23928024 -0.18230124 0.47595084 -0.07191518 0.17238122 -0.124430865 0.22754043 0.28786388 0.14510219 0.06598741 0.20302941 -0.21140319 -0.19314012
205 0.21390186 -0.0053855996 0.036904387 -0.1398534 0.1287116 -0.11093997 -0.347504 -0.28391102 0.14024888 -0.030427827 -0.19970682 0.4359096 0.0085621225 0.33175513 0.2739272 0.09831869 0.40664363 -0.18242304 0.19191937 0.236755 -0.13223943 0.42915055 -0.05697441 0.17426692 -0.09938246 0.19835548 0.2103352 0.10500075 0.033730064 0.18609963 -0.17707172 -0.1649285
176 0.09118075 -0.014568195 -0.01438695 -0.102140695 0.07844694 -0.050689045 -0.19285585 -0.14353171 0.0664294 -0.0047849817 -0.09805955 0.28583667 0.010185462 0.1627088 0.16259618 0.06563112 0.23576601 -0.08775461 0.11485075 0.15287171 -0.10111716 0.2420296 0.0005089006 0.096687734 -0.043314315 0.1036966 0.1291126 0.038933594 0.021543488 0.09471385 -0.09696964 -0.10923882
246 0.12444554 -0.021254472 0.023677042 -0.088013 0.09763176 -0.0673798 -0.22312458 -0.17483431 0.078625254 -0.0059032585 -0.11229819 0.28049338 0.0281571 0.2054608 0.17880242 0.057191633 0.27798536 -0.12381189 0.1031654 0.14656416 -0.083031766 0.25127414 -0.04459472 0.123964615 -0.06819842 0.12326423 0.14260331 0.05155734 0.0131668085 0.11998418 -0.10052965 -0.077835344
204 0.17154494 -0.020736558 -0.00674446 -0.09459999 0.16017242 -0.09768767 -0.32721415 -0.2252591 0.12887612 -0.038672592 -0.16991611 0.3827975 -0.010125494 0.27279988 0.31893823 0.08043318 0.35408437 -0.15930294 0.17145884 0.20002653 -0.15251748 0.40795544 -0.0041669826 0.1485058 -0.06768279 0.18171494 0.20166934 0.086523965 0.07941717 0.16652718 -0.13719453 -0.1505973
226 0.11442354 0.0067382227 0.010460617 -0.07980432 0.09454382 -0.07699734 -0.23780955 -0.20296049 0.08936955 -0.0129756285 -0.121017255 0.29596066 0.0035033575 0.21970269 0.17270738 0.0738115 0.26642752 -0.14149794 0.12931693 0.15634227 -0.10495164 0.27553272 -0.032838125 0.11835075 -0.07504934 0.12001038 0.13386635 0.060077336 0.032486 0.13825305 -0.0915744 -0.089807354
207 0.19858545 -0.010684348 0.02665654 -0.15643297 0.14760298 -0.13681802 -0.3840693 -0.30849165 0.12932676 -0.07334836 -0.15655221 0.44691467 -0.009768557 0.31678537 0.3251632 0.108599216 0.43867058 -0.20341265 0.17658056 0.23500921 -0.13149053 0.43255025 -0.06897243 0.13732596 -0.1035238 0.21425842 0.23218569 0.107209526 0.05218137 0.18459362 -0.1477808 -0.1628155
541 0.2578589 -0.17891537 0.10381125 -0.16088516 0.12356245 -0.050006192 -0.53190297 -0.312881 0.29663086 -0.04764027 -0.3842303 0.76151735 -0.11631769 0.23589407 0.467875 0.21475326 0.56374794 -0.16968466 0.47992182 0.32899076 -0.15870637 0.5979385 -0.013241689 0.2984301 -0.20127067 0.52336717 0.2480909 0.24048834 0.19128042 0.3239818 -0.34189498 -0.42625645
369 0.18469307 0.014320531 0.07751114 -0.1722656 0.15503046 -0.1409013 -0.33620796 -0.30958533 0.13480641 0.01890693 -0.23316729 0.45664245 0.064839035 0.33886206 0.26705548 0.12759091 0.40761682 -0.21682815 0.17160386 0.2153461 -0.1821225 0.39607155 -0.042540796 0.18692069 -0.1403562 0.16277015 0.26240104 0.07935314 0.03282999 0.2159753 -0.1740612 -0.16258483
203 0.18173885 0.034800444 0.017484512 -0.11427379 0.18228576 -0.10323928 -0.36202735 -0.2723328 0.12781273 -0.032262947 -0.20655924 0.39223328 0.030369787 0.33233908 0.29682517 0.096005164 0.38036057 -0.17971589 0.17677544 0.17549565 -0.16488253 0.4403437 -0.0059871436 0.16844696 -0.08591027 0.15482536 0.22409962 0.12377562 0.029058468 0.16670418 -0.15312758 -0.13826689
171 0.13458247 -0.0012688772 0.033504847 -0.080289155 0.07402033 -0.067200884 -0.20339137 -0.1326035 0.084262885 -0.027712248 -0.09934773 0.30073282 0.03210749 0.20275477 0.20154439 0.06081491 0.2650197 -0.09375981 0.16640685 0.1346293 -0.10145886 0.2693707 -0.041588053 0.111380905 -0.06746982 0.15711506 0.1597682 0.10204162 0.045685586 0.10886094 -0.14665404 -0.13715772
1025 0.099368826 -0.017086888 0.011536082 -0.07604933 0.079373084 -0.072506405 -0.1989004 -0.14766479 0.06874414 -0.027913874 -0.11870661 0.26710072 0.023465319 0.1797632 0.16107918 0.048601948 0.23102373 -0.11492962 0.13473305 0.12121076 -0.09657911 0.2375247 -0.030451996 0.12038652 -0.066527456 0.13851021 0.12705578 0.107101396 0.03378553 0.11309003 -0.10976069 -0.11993515
1051 0.20414537 0.014348395 0.023850191 -0.10898875 0.16753222 -0.13837716 -0.40510315 -0.32351983 0.13213784 -0.030601112 -0.1919178 0.4393999 0.012081263 0.33253762 0.2905276 0.100526966 0.44213018 -0.23163596 0.1738184 0.21577987 -0.14021598 0.44900566 -0.073617175 0.15016344 -0.1080799 0.19433074 0.24522947 0.111170635 0.04919099 0.19446078 -0.14682181 -0.121005066
71 0.1121356 -0.020861618 0.0026332946 -0.07862202 0.08553319 -0.078590505 -0.20986821 -0.121187605 0.058656372 -0.039312802 -0.09894122 0.2636316 0.005097965 0.17250341 0.1743084 0.058750253 0.21306854 -0.078530304 0.13766536 0.11823646 -0.10793005 0.25047004 -0.025980266 0.084575005 -0.048296914 0.12647255 0.13876575 0.08941212 0.043223906 0.07483506 -0.10296988 -0.12050527
1018 0.23132674 -0.03565929 0.0022557313 -0.19910291 0.18344566 -0.14235193 -0.43143985 -0.37011328 0.18488285 -0.0049732523 -0.23479822 0.58444875 0.012667307 0.39190352 0.3494208 0.12199418 0.538403 -0.27456135 0.2515872 0.28692317 -0.21692634 0.5316877 -0.052536324 0.22482327 -0.14099449 0.24629667 0.27770412 0.095326476 0.06686531 0.24395011 -0.20733178 -0.21646883
1019 0.23288374 -0.021322317 0.01775294 -0.15746099 0.16585466 -0.15901536 -0.3972113 -0.2968717 0.1389367 -0.047725458 -0.19772977 0.5052608 0.021467948 0.3504362 0.3331999 0.10293139 0.46182904 -0.20904647 0.20666167 0.24327908 -0.16647762 0.5015918 -0.08568946 0.18830484 -0.10951945 0.24782757 0.25811186 0.11865593 0.08075335 0.20693476 -0.2016588 -0.17953004
210 0.18481028 0.013553946 0.025714792 -0.07544769 0.14729136 -0.11190173 -0.3002809 -0.22620696 0.07727294 -0.044537302 -0.17552824 0.3367691 0.019901326 0.300526 0.26178977 0.065964065 0.31965715 -0.15514776 0.16502522 0.1586067 -0.167005 0.41056675 -0.013110852 0.14797468 -0.056206856 0.14313143 0.19237709 0.12345693 0.02952389 0.14890756 -0.17158519 -0.12197482
1030 0.17719895 0.0128928395 0.032148495 -0.068190016 0.099486455 -0.11397099 -0.2428505 -0.22075832 0.07783539 -0.020762501 -0.14453885 0.35420012 0.032862026 0.25994676 0.1808574 0.08031256 0.31666693 -0.1352806 0.1523829 0.14559889 -0.110590406 0.3261869 -0.059201363 0.15114714 -0.11122483 0.15361822 0.16760999 0.12020477 0.023097554 0.16950062 -0.16683945 -0.118890755
1439 0.15327252 -0.054204147 0.015680617 -0.11458338 0.14166823 -0.08790442 -0.33614308 -0.25287798 0.12658274 -0.032920133 -0.15900698 0.38773787 0.0040268986 0.24889186 0.29788283 0.077033415 0.3586714 -0.17942668 0.15760852 0.1940464 -0.12060717 0.35147962 -0.057640176 0.1322042 -0.102730855 0.22327645 0.20401151 0.08538299 0.052495968 0.17668618 -0.13004978 -0.11190737
244 0.38015327 0.019926786 0.0052332873 -0.24310865 0.3005876 -0.21303828 -0.6528107 -0.4562809 0.21786039 -0.102876686 -0.23078774 0.74673414 -0.018730171 0.5144946 0.54886997 0.11605474 0.6899585 -0.32734573 0.205504 0.34921592 -0.26417288 0.7447792 -0.045821417 0.1994061 -0.14651501 0.29645514 0.43179116 0.12615629 0.11549255 0.23213051 -0.239028 -0.19444454
679 0.22962938 -0.005028536 0.029047314 -0.13292553 0.1774399 -0.13453741 -0.40656286 -0.28372505 0.15592855 -0.031061599 -0.2033334 0.52455616 0.049305886 0.3499311 0.33936504 0.10078884 0.44002584 -0.17278399 0.2071934 0.26323918 -0.17484859 0.48796645 -0.054850955 0.17942946 -0.10365651 0.21134552 0.27866182 0.10852365 0.0704024 0.18084747 -0.22353414 -0.22157301
173 0.10481604 -0.007193702 0.0128086135 -0.06439636 0.047957107 -0.061410286 -0.1680892 -0.13696362 0.054885115 0.007988227 -0.10860754 0.2228243 0.035551574 0.16748941 0.12591752 0.04738314 0.20896615 -0.083967306 0.1180528 0.11361507 -0.0964655 0.22485894 -0.054703988 0.101806864 -0.06808819 0.09460985 0.12281356 0.0785806 0.021721747 0.09350491 -0.10508864 -0.096835494
659 0.119419344 0.028164353 -0.014703704 -0.07275135 0.07734499 -0.07284293 -0.19019476 -0.124220625 0.07237144 0.038117792 -0.13082734 0.3003462 0.04442182 0.21150333 0.10140822 0.06275973 0.23829877 -0.10899449 0.10868086 0.10523602 -0.118487805 0.22505489 -0.006782756 0.09494606 -0.035027865 0.05915823 0.12555063 0.04873388 -0.000652707 0.09902342 -0.09770098 -0.07327561
1223 0.18762434 0.013295041 0.017794345 -0.10426089 0.14495355 -0.104769886 -0.33379272 -0.23588064 0.10148933 -0.009474395 -0.19354099 0.4158521 0.030115096 0.3101305 0.2538459 0.086347654 0.38624644 -0.16758077 0.15280554 0.18924706 -0.14425844 0.40675443 -0.04388376 0.16981442 -0.09813275 0.17282078 0.19044445 0.09573898 0.044321973 0.17849183 -0.17104511 -0.13668203
1021 0.14012487 0.008517415 0.038650703 -0.07699756 0.099309005 -0.097639315 -0.24951522 -0.17816146 0.10211016 -0.012567185 -0.1130096 0.31948578 0.0135095315 0.21766259 0.18888319 0.069349565 0.27818134 -0.13600343 0.13465586 0.15238303 -0.084065154 0.28972083 -0.03947796 0.12582637 -0.10587624 0.13627894 0.18517168 0.09677158 0.049095966 0.14919735 -0.12908575 -0.12286368
413 0.32970175 0.004002813 0.01533382 -0.31877849 0.25727555 -0.25283462 -0.60869485 -0.5361486 0.24239373 0.03292627 -0.32784003 0.81831354 0.03554764 0.56735134 0.4784754 0.17636222 0.7634231 -0.4053682 0.24123691 0.41397336 -0.2787913 0.6722563 -0.08316086 0.29669464 -0.193956 0.2623088 0.3941197 0.07132467 0.06388807 0.2967817 -0.2042852 -0.22557946
1245 0.31941345 -0.0014207951 0.008335051 -0.15560879 0.1987798 -0.18551691 -0.49736404 -0.40409726 0.18054344 -0.07221966 -0.20640232 0.58344734 0.021468982 0.3913261 0.41746485 0.11703923 0.52884406 -0.294116 0.16243345 0.26139745 -0.17885937 0.54740465 -0.111261696 0.15366669 -0.130328 0.25083658 0.3630153 0.12520541 0.10995044 0.20776367 -0.16557385 -0.17451043
1233 0.26906404 -0.13050981 0.059697375 -0.20695691 0.13640158 -0.092107825 -0.5092313 -0.363632 0.2476838 -0.006586856 -0.32373124 0.7658047 -0.05311504 0.3452504 0.45024356 0.1646199 0.6026708 -0.24807973 0.36748746 0.3684468 -0.2152256 0.5941631 -0.038590252 0.2981174 -0.20464998 0.43295217 0.26519403 0.16056666 0.13766344 0.2830091 -0.2823368 -0.357303
37 0.20708832 -0.08257595 0.023473721 -0.2148703 0.16910861 -0.12662289 -0.46292105 -0.34141487 0.21464343 0.01787705 -0.28263664 0.67270184 -0.008072424 0.3428299 0.36515734 0.1345819 0.5206983 -0.22681436 0.2782482 0.31890246 -0.20694481 0.5107976 0.0003222308 0.23495954 -0.1305296 0.3039401 0.23695378 0.101208314 0.08133981 0.24522483 -0.2090146 -0.2693525
1036 0.20275557 -0.14505278 0.11669334 -0.093348674 0.056392666 -0.038372416 -0.3824185 -0.1836553 0.20699093 -0.022693137 -0.28777677 0.5879079 -0.064678065 0.17383584 0.31977898 0.14389047 0.40676466 -0.10241423 0.39864638 0.25700292 -0.09932571 0.44468087 -0.014420843 0.20255476 -0.16336149 0.41562855 0.20840602 0.22129767 0.16731773 0.23869386 -0.28159538 -0.3568672
1288 0.093115814 -0.02249187 0.0048535266 -0.050387736 0.050023455 -0.06474913 -0.14579742 -0.12071611 0.06638652 -0.011011483 -0.09075398 0.17695312 -0.005628237 0.15416422 0.12488063 0.053757247 0.17584032 -0.08730217 0.10040101 0.096132904 -0.054123078 0.1811219 -0.023063308 0.07321621 -0.054783043 0.09548338 0.092061095 0.062234115 0.01227968 0.10012409 -0.08283776 -0.07151141
1028 0.14522594 0.016587371 0.031976316 -0.08035822 0.10929448 -0.076134086 -0.2454289 -0.19956449 0.067119665 -0.038679685 -0.089142725 0.25734675 -0.013730368 0.18462774 0.18810512 0.06838276 0.25159124 -0.16118348 0.10255755 0.11610618 -0.056544967 0.29101002 -0.06051281 0.108554654 -0.09050552 0.15030181 0.14652094 0.09284778 0.03709023 0.12343812 -0.08120995 -0.060456265
1425 0.1961341 0.018150609 0.016126249 -0.120284475 0.12914868 -0.12028462 -0.33700582 -0.24702162 0.12421132 -0.037245736 -0.18725155 0.41778114 0.056995295 0.29299116 0.27573517 0.08025221 0.38467 -0.15620098 0.1697936 0.19560951 -0.16554664 0.4210747 -0.016206859 0.1517684 -0.08581391 0.16226715 0.2267088 0.0971923 0.032175303 0.16390105 -0.18493783 -0.1580345
206 0.20221703 -0.02654029 -0.05937897 -0.06748498 0.22972755 -0.038499147 -0.4035184 -0.06800453 0.067649424 -0.18341644 -0.013470528 0.41108933 -0.06263548 0.13650218 0.41792193 0.012494248 0.20165102 -0.020582972 0.034091897 0.1273642 -0.12920977 0.4399672 0.1027823 -0.005814337 0.025314394 0.14892611 0.2495793 0.02548247 0.16376494 -0.018189013 -0.11130944 -0.11355494
248 0.11983903 -0.029321574 -0.0045316797 -0.08852126 0.07296987 -0.06711024 -0.182862 -0.14905646 0.0792422 -0.018263591 -0.099238984 0.26426348 0.005838555 0.16598956 0.18731348 0.054451782 0.22797361 -0.10557357 0.10063067 0.14061214 -0.08539811 0.25126898 -0.034843683 0.08528371 -0.05338633 0.128455 0.136531 0.06874281 0.044430003 0.11765189 -0.08673468 -0.086088635
209 0.2872241 0.0045525795 -0.007325552 -0.1636354 0.24048002 -0.1691809 -0.511411 -0.38368306 0.17082869 -0.06910355 -0.2350545 0.6241071 -0.006018333 0.44892025 0.46446222 0.14141245 0.577848 -0.26633486 0.24211788 0.29329285 -0.2091944 0.63702005 -0.044029873 0.21620414 -0.11055631 0.28783756 0.34892926 0.13642026 0.098566 0.22114418 -0.21075802 -0.19230548
1023 0.11753148 -0.0016881396 0.015507301 -0.06372814 0.08105445 -0.064217634 -0.20602529 -0.16360143 0.0807396 -0.019294117 -0.10674518 0.25581363 0.0069864006 0.18812814 0.1834951 0.0530792 0.23865518 -0.11153516 0.14455427 0.12854953 -0.08144515 0.2594444 -0.035011232 0.11516128 -0.056873903 0.123140946 0.12038829 0.08800528 0.045829352 0.11373214 -0.12127209 -0.11145209
984 0.20575882 0.07120488 0.041519735 -0.17054816 0.21797122 -0.16361067 -0.4705566 -0.37503386 0.14068644 -0.09112375 -0.19609891 0.6282611 0.06139735 0.36135498 0.3567588 0.15486425 0.48537803 -0.32106152 0.25792992 0.23574042 -0.1491178 0.5707196 -0.09130788 0.25324836 -0.18655474 0.30962774 0.22776833 0.31396762 0.042538382 0.2884256 -0.29058197 -0.22387138
242 0.106567256 -0.010597547 0.0031871055 -0.084564954 0.06920314 -0.07605071 -0.20019725 -0.16855681 0.06323214 -0.00666989 -0.10871958 0.24180257 0.005393179 0.19025871 0.1598126 0.05435188 0.22851405 -0.11049359 0.08112402 0.12769699 -0.101376064 0.2293993 -0.021576991 0.085369125 -0.07223026 0.11105724 0.12990876 0.06321433 0.012103775 0.09513014 -0.07897751 -0.07886195
407 0.09523079 0.018297283 0.02487216 -0.045617692 0.07905673 -0.06685582 -0.1761622 -0.10674108 0.036040876 -0.037786502 -0.07706071 0.18901585 0.012419812 0.13331436 0.14574988 0.04590933 0.15615365 -0.086055785 0.057293843 0.09816986 -0.05182536 0.20677225 -0.0042182608 0.06874959 -0.04548457 0.082970664 0.11616902 0.046733174 0.035908513 0.0684464 -0.08752016 -0.04491508
945 0.22348516 0.11430084 0.012626884 -0.18150961 0.26679793 -0.17067179 -0.545128 -0.39829317 0.14368416 -0.08479153 -0.24467346 0.7058809 0.10136075 0.44186822 0.3853042 0.17948301 0.53524965 -0.37687364 0.30108702 0.26329246 -0.20715858 0.64065933 -0.07304847 0.29881975 -0.18514971 0.28734308 0.24787742 0.3235514 0.052178912 0.3345992 -0.35563236 -0.21303159
939 0.081196025 -0.0048109638 0.010909459 -0.05726247 0.05288686 -0.064584486 -0.1477317 -0.13195495 0.071435995 0.002897419 -0.0979449 0.22498934 0.031408012 0.15597327 0.10009139 0.06375119 0.1997999 -0.08287846 0.08803818 0.10865471 -0.09434904 0.1886805 -0.011701266 0.09121806 -0.052977964 0.08012161 0.1061609 0.042080842 0.006746413 0.085928045 -0.08234571 -0.080342606
929 0.24049918 -0.06984796 -0.029484114 -0.23258805 0.19826274 -0.1404309 -0.43712208 -0.3442865 0.18477288 -0.009575163 -0.27497053 0.6735174 0.01762027 0.3986689 0.36842012 0.111052364 0.5300197 -0.22051921 0.23185624 0.32873744 -0.21240996 0.5360058 0.010280787 0.22431187 -0.08225934 0.22603895 0.31788108 0.040895447 0.093992636 0.19682744 -0.22990969 -0.23506129
1851 0.17757624 -0.008047363 0.0076352395 -0.119546704 0.12966001 -0.09525336 -0.32504708 -0.2199419 0.122809984 -0.027579697 -0.17112239 0.43458417 0.020789059 0.28580084 0.27161247 0.08862953 0.3686154 -0.1442817 0.19369888 0.19876675 -0.16480888 0.38970417 -0.0072792177 0.16228697 -0.084310256 0.18246332 0.19697982 0.09614145 0.039072577 0.15720084 -0.16483597 -0.1813294
243 0.24087803 0.031645723 -0.011870422 -0.1213935 0.18911134 -0.1094248 -0.41416764 -0.24211715 0.102600776 -0.069699176 -0.13364133 0.4678586 0.005115833 0.30330986 0.34503114 0.07969987 0.39245307 -0.16512969 0.12333427 0.2021666 -0.15575662 0.4628107 -0.022238059 0.10403904 -0.05725709 0.18639019 0.2754944 0.08800006 0.083001785 0.12041203 -0.15790185 -0.117122464
1027 0.2380784 -0.023840122 0.019633094 -0.121429935 0.1912207 -0.14572272 -0.41676998 -0.30741924 0.13927776 -0.081057884 -0.16644973 0.49106237 -0.012456215 0.34481716 0.36227053 0.099675395 0.4364707 -0.20797816 0.18736841 0.23306488 -0.15858981 0.5054948 -0.063876234 0.16540655 -0.10443369 0.24534445 0.26819173 0.1192878 0.093491256 0.1842237 -0.17648794 -0.18918444
1040 0.20907667 -0.014517232 0.008760153 -0.18801302 0.19908248 -0.12983572 -0.4400164 -0.33440405 0.14810002 -0.041883856 -0.20283933 0.5413174 0.010309696 0.36077055 0.3431734 0.09933661 0.49404135 -0.23248553 0.24368092 0.27294204 -0.20463125 0.49472135 -0.03273062 0.21245503 -0.11628871 0.25138858 0.25556776 0.11438247 0.06190912 0.19326267 -0.18786871 -0.20678419
1029 0.064116865 -0.03921125 0.015460356 -0.06382664 0.05708612 -0.029560817 -0.14205784 -0.09622122 0.044250615 -0.038533926 -0.065891005 0.2004069 -0.012118533 0.11508383 0.13605145 0.031322245 0.1891625 -0.0655013 0.09519963 0.10770318 -0.05720288 0.18639418 -0.010560187 0.07392914 -0.04955892 0.12182398 0.09907671 0.04911071 0.047504466 0.09495325 -0.055788204 -0.08316431
116 0.08152113 -0.006935363 0.015438134 -0.04734967 0.069756255 -0.054689176 -0.13864487 -0.13580544 0.06335519 0.0052036257 -0.084586956 0.16465537 0.011385923 0.1478964 0.09705755 0.035868816 0.17963345 -0.08048727 0.07215321 0.07448725 -0.051883828 0.1718253 -0.020710964 0.07127886 -0.04184414 0.06079364 0.07175335 0.044863403 -0.010446908 0.08584466 -0.07365305 -0.04732788
338 0.22468454 -0.0009948352 0.003814347 -0.17316899 0.16915196 -0.119885765 -0.42359304 -0.29580694 0.15538868 -0.027758371 -0.23030917 0.5423665 0.02798239 0.37084043 0.33930767 0.111143745 0.48539132 -0.23307033 0.22608694 0.252803 -0.17679319 0.50231516 -0.02902924 0.1975455 -0.11922099 0.19366033 0.2562012 0.107415915 0.036304865 0.20122159 -0.19150846 -0.15706827
223 0.22466303 -0.0077230604 0.015358305 -0.15336871 0.19390325 -0.111302316 -0.39848647 -0.29179087 0.1306823 -0.06948905 -0.15254271 0.47816193 -0.008622305 0.3085965 0.3506999 0.08831064 0.42944434 -0.18199225 0.15673062 0.21491113 -0.17429486 0.47391385 -0.032506894 0.12933254 -0.09323837 0.20193353 0.23556644 0.10285893 0.06698897 0.17288662 -0.14346322 -0.15887424
241 0.23272884 -0.0034587157 -0.006093843 -0.12028372 0.18997684 -0.10125447 -0.39923182 -0.21427695 0.11952571 -0.08876833 -0.1473799 0.4502311 -0.030878555 0.27498057 0.37478545 0.0641643 0.37296215 -0.13617422 0.18430325 0.22722356 -0.14464228 0.48811072 0.0006085536 0.11382284 -0.060661286 0.22302166 0.25880277 0.12582566 0.09995053 0.14685282 -0.17828946 -0.16524334
249 0.31010154 0.022530677 -0.011777202 -0.20570469 0.2542599 -0.17446779 -0.5401182 -0.40673298 0.15944596 -0.06784318 -0.18895864 0.61180526 -0.00989786 0.4209922 0.4535098 0.11158182 0.57403374 -0.28908405 0.1586551 0.29537997 -0.20890155 0.6077846 -0.06372956 0.17151693 -0.12595037 0.24572672 0.3314287 0.08887263 0.103963666 0.22779226 -0.159074 -0.14545502
279 0.2008053 0.026824847 0.009564617 -0.1226922 0.16404265 -0.1190992 -0.37887493 -0.24868746 0.13473284 -0.03889175 -0.18724282 0.46892935 0.0228521 0.31715 0.2747276 0.08238858 0.41007134 -0.19244674 0.18908215 0.19456504 -0.14829065 0.45502135 -0.037682995 0.16776805 -0.09439716 0.17084278 0.21671836 0.11329324 0.065107346 0.16512668 -0.1696503 -0.15885633
1725 0.07633503 -0.019378072 0.033407096 -0.05603119 0.03982166 -0.04299594 -0.10722125 -0.15269138 0.065601856 0.013965505 -0.09336454 0.15355225 0.024234232 0.14980431 0.09459869 0.05611818 0.18474674 -0.11540939 0.07483682 0.10049945 -0.056022573 0.14653346 -0.045467984 0.09381845 -0.051253777 0.09322759 0.07121802 0.043219175 -0.0065472624 0.095860556 -0.050016206 -0.035776865
172 0.08819404 -0.02127208 0.00077563414 -0.06190587 0.065039456 -0.05890657 -0.13499309 -0.121131144 0.05210398 -0.012914517 -0.098888904 0.19721797 0.014648198 0.13207166 0.12844546 0.05299722 0.20036693 -0.06955997 0.08928662 0.11806772 -0.0693363 0.16930795 -0.022958891 0.07802458 -0.052666042 0.08531198 0.08195103 0.063660905 0.03224554 0.08175915 -0.07150239 -0.0818152
270 0.077696286 0.0042802393 0.0023912634 -0.0373867 0.045396328 -0.070194446 -0.15066583 -0.10041402 0.060585234 0.0030936436 -0.114504695 0.19347468 0.024362894 0.14354777 0.08216884 0.05361558 0.18071635 -0.070186846 0.1028818 0.07469906 -0.08413518 0.16303226 -0.031441875 0.076929495 -0.034835227 0.07751449 0.0922872 0.05803325 0.005418796 0.091039136 -0.09024157 -0.06202593
854 0.10418714 -0.04982655 0.0584967 -0.05338183 0.0246158 -0.017552504 -0.19130643 -0.10867458 0.082036085 -0.0076642903 -0.1324413 0.2698297 -0.03957595 0.079433054 0.1511376 0.06540884 0.21359095 -0.050644834 0.20355591 0.13056903 -0.04309552 0.2063157 -0.024811804 0.105773166 -0.08481993 0.22106257 0.082794674 0.12583081 0.06945003 0.1383443 -0.12976961 -0.15259983
928 0.0772591 -0.028365374 -0.012536195 -0.06294893 0.06567337 -0.043002453 -0.14858289 -0.1267379 0.07979537 -0.016871411 -0.09675635 0.24663231 -0.007886397 0.13347423 0.13427249 0.05019186 0.2038541 -0.08012878 0.091603726 0.12558174 -0.087250136 0.19774947 0.0024804783 0.09137386 -0.024284396 0.08960163 0.1027318 0.018174373 0.021745414 0.08007897 -0.090806924 -0.09123878
1906 0.078549184 -0.006497835 0.006817985 -0.040849324 0.023023294 -0.05275562 -0.088856906 -0.08296256 0.052073307 0.0056620273 -0.06495664 0.13291578 0.0070293257 0.10925938 0.09953035 0.049797576 0.15755436 -0.071445525 0.0686165 0.09144155 -0.044677235 0.14883046 -0.022346513 0.049666833 -0.033017933 0.070916645 0.079926096 0.054207563 0.014897759 0.079947874 -0.04784786 -0.061316993
1042 0.09641914 -0.047847405 -0.0041076844 -0.116189666 0.094688244 -0.058919717 -0.18270078 -0.16265453 0.079366304 0.0048948117 -0.107724436 0.29657248 0.014092147 0.17461684 0.18497902 0.04433196 0.25820822 -0.12900439 0.11554385 0.16152388 -0.105158985 0.23099145 -0.01947334 0.12709332 -0.07087359 0.11950977 0.124338225 0.038389478 0.048274003 0.107668966 -0.08128141 -0.11567792
944 0.2057468 0.07163701 0.024137797 -0.15501837 0.23652127 -0.16578163 -0.498751 -0.32941377 0.12866901 -0.106248125 -0.20380187 0.59335816 0.061517607 0.36834112 0.37086073 0.15121602 0.468827 -0.2897856 0.26232636 0.22537996 -0.16301163 0.591079 -0.08771156 0.25621343 -0.15158866 0.29695824 0.21151707 0.2815223 0.07878642 0.29050058 -0.30252397 -0.23615648
211 0.14675947 0.020750651 0.001357527 -0.09327348 0.14357063 -0.09445595 -0.27019036 -0.23147972 0.082507916 -0.035713006 -0.13779923 0.32542476 0.023779333 0.26735833 0.24534492 0.07262149 0.3270304 -0.15740648 0.12785684 0.17654747 -0.13505885 0.32103738 -0.039831523 0.13373493 -0.06873422 0.13286008 0.17437437 0.06933657 0.019945236 0.12824917 -0.11888929 -0.09364372
1020 0.09866703 0.011594284 0.018464332 -0.07204555 0.059228513 -0.07807398 -0.18501987 -0.12527049 0.0675817 -0.033051655 -0.10402262 0.20369291 0.0035609053 0.14508264 0.1396243 0.050862752 0.20464322 -0.08454765 0.10211849 0.116023116 -0.06885516 0.22506994 -0.036729053 0.07542224 -0.043816447 0.11148989 0.10561462 0.050013177 0.009818498 0.10916137 -0.09523668 -0.059354946
1026 0.23747142 0.0042194654 0.03329558 -0.13672352 0.1741252 -0.13179208 -0.394561 -0.26407465 0.13261864 -0.02909283 -0.18407173 0.5054119 0.025041109 0.3022236 0.3139473 0.08456001 0.44575214 -0.21417719 0.2131139 0.22977413 -0.17035417 0.45557487 -0.03731116 0.1488431 -0.09441954 0.23296775 0.2657789 0.12262155 0.09022501 0.16580677 -0.16390865 -0.17754512
943 0.17707081 0.02039313 0.0044152015 -0.18092702 0.19749694 -0.13498227 -0.44397676 -0.34299174 0.1477953 -0.082538515 -0.18474008 0.5927259 0.06324242 0.33901668 0.3568509 0.14577974 0.451732 -0.29649007 0.24260762 0.24523899 -0.16221401 0.5230597 -0.08202354 0.25718746 -0.14622945 0.28889552 0.20811021 0.25096485 0.06324486 0.2562246 -0.2738043 -0.23119931
587 0.078550175 0.009912571 0.031070001 -0.055431344 0.048301723 -0.06561609 -0.1450268 -0.102134295 0.054681044 -0.00043664844 -0.07244006 0.18724178 0.008526088 0.14424393 0.10435852 0.030435497 0.1844783 -0.07407008 0.07676569 0.09396329 -0.07268818 0.17899042 -0.01703509 0.08284308 -0.043565076 0.077425055 0.10608069 0.051641766 0.02518989 0.081692636 -0.09489542 -0.0863707
225 0.083522946 0.010832563 0.03397188 -0.06207343 0.060243584 -0.0853956 -0.17151633 -0.15130912 0.06514061 -0.019978348 -0.11158255 0.17849372 0.00046567063 0.1685851 0.12829252 0.038853932 0.19652276 -0.1244261 0.08960979 0.09408738 -0.06844062 0.20357019 -0.047475606 0.086582795 -0.047570217 0.114077896 0.11010652 0.05991284 0.027713608 0.11202179 -0.070044436 -0.054203138
950 0.19915935 0.043915167 0.002840541 -0.15670046 0.1910318 -0.13177769 -0.4282326 -0.30576184 0.1488367 -0.036207285 -0.20932041 0.527013 0.03910902 0.3460624 0.3005295 0.13977228 0.45945066 -0.27591902 0.21353215 0.21590896 -0.17930388 0.506161 -0.047384564 0.20010774 -0.119303316 0.2290749 0.22828405 0.16285916 0.041353244 0.23907411 -0.22681257 -0.15582648
908 0.067119196 -0.013443503 -0.0046074893 -0.037810672 0.06310975 -0.050536036 -0.12168568 -0.09827428 0.05427784 -0.037980355 -0.06606524 0.17566644 -0.008118571 0.08546686 0.12376228 0.039689492 0.14785154 -0.066124044 0.08295876 0.07776534 -0.058582105 0.15011394 -0.00610278 0.05559337 -0.022845408 0.08708783 0.085592896 0.05349436 0.044692148 0.047519997 -0.07758527 -0.08370075
411 0.19924647 0.009543179 0.048401125 -0.22278681 0.19170706 -0.14783236 -0.41749537 -0.39956886 0.16038932 0.016920146 -0.22710724 0.5009494 0.022718381 0.3714478 0.30845702 0.12092221 0.48903418 -0.27576664 0.14542015 0.27078182 -0.19433199 0.45246214 -0.062008597 0.20102026 -0.13087684 0.20766051 0.27316305 0.08157395 0.022228641 0.24646091 -0.14924157 -0.12868854
230 0.059601646 -0.026235627 0.0071164183 -0.030249823 0.03762077 -0.040516958 -0.09229171 -0.07100588 0.044543076 -0.03069821 -0.06031632 0.14266968 0.010944164 0.086295605 0.09126579 0.043049943 0.14048532 -0.057209797 0.06511024 0.07606225 -0.049129717 0.12083805 -0.0330264 0.04940624 -0.049023498 0.08671434 0.07455044 0.045064855 0.012034186 0.056753162 -0.06463817 -0.07514609
706 0.082226865 0.009809205 8.893158e-05 -0.061604857 0.03600645 -0.04285991 -0.14497522 -0.11092439 0.04820894 -0.006506294 -0.0977898 0.15865277 0.020820454 0.13843395 0.09909988 0.046381015 0.16200677 -0.0880259 0.08994168 0.097790256 -0.058121856 0.15812959 -0.03431518 0.07597787 -0.033789087 0.058108136 0.085234396 0.049367096 0.0151811 0.077031024 -0.05830091 -0.066570714
412 0.2327178 0.018070357 0.046849452 -0.21576759 0.18400055 -0.1883222 -0.4443818 -0.37417775 0.16687344 0.041597042 -0.25535986 0.5470299 0.031531706 0.41061017 0.30352232 0.15228653 0.5145316 -0.27510405 0.20534553 0.2682805 -0.19664028 0.49476248 -0.04512821 0.23137493 -0.15016791 0.21829686 0.30247533 0.10667115 0.016491506 0.26031733 -0.16927096 -0.13849305
367 0.15905689 -0.00022833075 0.05966211 -0.15454435 0.14899446 -0.1007397 -0.31001648 -0.2442393 0.114486076 0.010342947 -0.20162046 0.38420764 0.019064352 0.2644053 0.23409387 0.09836565 0.33408248 -0.19393514 0.15137705 0.1928787 -0.15123448 0.328177 -0.030144136 0.15338649 -0.09262695 0.15168563 0.23150574 0.057335764 0.01932011 0.15067251 -0.12979454 -0.13985106
35 0.19455643 -0.11187107 0.087334074 -0.08347431 0.087593265 -0.030502485 -0.40593666 -0.21765523 0.17184623 -0.044537775 -0.29028735 0.519679 -0.090018086 0.18759651 0.3324764 0.13153604 0.38846344 -0.12093842 0.36071095 0.22841078 -0.113063626 0.45205194 -0.024952885 0.20349024 -0.13539366 0.38811576 0.18366222 0.21724874 0.13571292 0.25047436 -0.26564264 -0.30050972
927 0.07697815 -0.027716005 -0.005002011 -0.05524465 0.04934352 -0.029284444 -0.13448158 -0.08592718 0.03593826 -0.019340713 -0.09223815 0.21973199 0.0071317614 0.12200436 0.11200001 0.041293554 0.13973701 -0.038649112 0.08049487 0.08755138 -0.088748164 0.16634302 -0.008429407 0.08177632 -0.03428244 0.07111639 0.10010936 0.040348794 0.04189892 0.045567162 -0.098731525 -0.087821394
40 0.2509163 -0.1093012 0.06517532 -0.16378577 0.17117105 -0.12123756 -0.4752435 -0.31108257 0.20029846 -0.048506785 -0.29112956 0.65872645 -0.03419871 0.3213249 0.43219733 0.14287153 0.53059685 -0.18778658 0.3552991 0.30861962 -0.17964584 0.5782888 -0.021217536 0.25115624 -0.150626 0.40886256 0.27348706 0.1895029 0.1397439 0.25936002 -0.26344568 -0.3313022
968 0.18098183 0.009666333 0.03283793 -0.1137724 0.16687512 -0.14013328 -0.3538084 -0.28181207 0.112096325 -0.053932626 -0.17467187 0.43988833 0.030473374 0.30392748 0.28059068 0.0895726 0.40445992 -0.21422707 0.16821854 0.19923744 -0.13326754 0.4203761 -0.045684356 0.17329313 -0.10306488 0.19158661 0.19629283 0.12903023 0.051238496 0.20534098 -0.16307878 -0.15208507
115 0.058606714 -0.020164747 0.017844658 -0.043495994 0.0510423 -0.031550128 -0.088659905 -0.09272475 0.040805858 0.0063915234 -0.08126544 0.13612582 -0.0021108626 0.09436212 0.08762201 0.024795009 0.1326131 -0.058926675 0.08428709 0.063569315 -0.05849306 0.12080128 -0.020852681 0.059479043 -0.054544576 0.081409164 0.07143496 0.042893637 0.0109431045 0.07112851 -0.06370825 -0.06734294
221 0.10508 0.020041896 0.007623814 -0.060955778 0.070627004 -0.059323642 -0.16789559 -0.14076905 0.04916537 -0.01672569 -0.100385375 0.21011703 0.01941404 0.14252833 0.13254513 0.040454563 0.20152399 -0.10560296 0.08927101 0.0984781 -0.083591476 0.20684925 -0.022004364 0.07478084 -0.057818335 0.10623568 0.11245241 0.056216024 0.022357676 0.0846509 -0.07985451 -0.07459899
278 0.19773917 0.013515801 0.0016503526 -0.118374184 0.14800149 -0.09910729 -0.32759753 -0.2400622 0.12172803 -0.019147696 -0.15428634 0.45511138 0.039866544 0.2806978 0.25809902 0.075017825 0.3830965 -0.15994877 0.16098458 0.19946858 -0.1636579 0.41777426 -0.014029887 0.14050785 -0.0926602 0.16533338 0.23138084 0.10322541 0.055174578 0.15003829 -0.17986614 -0.15367499
202 0.29369593 0.0058654128 -0.011400706 -0.15709744 0.24337018 -0.15988752 -0.49498793 -0.32239836 0.15089002 -0.11420493 -0.19758238 0.556888 0.011519619 0.40058994 0.42115265 0.11897638 0.4929658 -0.1994515 0.19643442 0.26337013 -0.21905173 0.5811295 -0.03398486 0.1520283 -0.0900178 0.24655256 0.3263895 0.13800542 0.08871358 0.19009635 -0.18861757 -0.18185802
309 0.07901162 -0.03573115 0.007041119 -0.03686644 0.14484502 -0.07210736 -0.22262488 -0.19997755 0.07952025 -0.022267224 -0.20167695 0.19483489 0.019800179 0.2725582 0.22305402 0.07007055 0.2641173 -0.087164834 0.17586336 0.15188701 -0.16003989 0.322507 -0.007612853 0.18164815 -0.035515785 0.14366324 0.12214824 0.117820255 0.016240511 0.16805165 -0.11084967 -0.09766834
370 0.16582443 -0.0015246812 0.05892359 -0.15084787 0.13087584 -0.12639827 -0.32551357 -0.26909202 0.09729139 0.0063571706 -0.17457633 0.37906858 0.034877807 0.27218527 0.22025168 0.098616496 0.35040778 -0.20542084 0.13881303 0.1875086 -0.130823 0.35159722 -0.057201292 0.14321253 -0.088758074 0.15147561 0.22606345 0.08805954 0.015848605 0.17544097 -0.12756051 -0.111357816
1726 0.05644977 -0.022399394 0.007684585 -0.038475003 0.057326607 -0.01646054 -0.08920701 -0.08395163 0.046097644 -0.0017860639 -0.047841735 0.14199701 -0.008671157 0.078961425 0.10537589 0.031222511 0.11286108 -0.03211795 0.0738446 0.072773956 -0.048556108 0.14058004 0.003208749 0.0477232 -0.031779233 0.072846554 0.0665889 0.040842514 0.03548922 0.061384507 -0.062055297 -0.07936416
269 0.041960612 -0.023959816 0.020665573 -0.042059302 0.050654564 -0.032033954 -0.09476548 -0.09238704 0.029791275 -0.015399888 -0.047828365 0.13858576 0.011160501 0.082418896 0.08181284 0.049140096 0.13208 -0.0652391 0.06293938 0.07095677 -0.05267115 0.13682042 -0.027075645 0.06509176 -0.026547462 0.06384863 0.049588516 0.02728515 0.003085148 0.07134284 -0.044111256 -0.04138632
307 0.08926848 -0.03482745 0.0123989135 -0.05449658 0.1342459 -0.047746383 -0.17998876 -0.1977645 0.09678512 -0.0010539049 -0.18905027 0.17330578 0.0018312128 0.25051 0.18435691 0.058020327 0.26791242 -0.10296072 0.1351208 0.13044256 -0.11723997 0.2624508 -0.015556074 0.15150182 -0.04604767 0.11402934 0.08512468 0.07652892 0.002211403 0.1522563 -0.092710905 -0.07288231
311 0.12309414 -0.029401127 -0.001958637 -0.09219917 0.15819366 -0.076643035 -0.275153 -0.23393719 0.13627005 -0.027249776 -0.21969253 0.32684788 0.02298326 0.30082968 0.2525353 0.09607495 0.33191353 -0.12068225 0.18229116 0.19329105 -0.16929582 0.35791862 0.02944317 0.20194936 -0.050383616 0.15934727 0.14404938 0.09247214 0.0020010485 0.19910969 -0.12475585 -0.11026097
972 0.18569618 -0.004082084 -0.00607653 -0.10257848 0.16826518 -0.12606373 -0.3660729 -0.2621946 0.11811949 -0.068468854 -0.16255644 0.44383565 0.0309654 0.2755952 0.3160847 0.105495304 0.38458014 -0.19852713 0.16363725 0.19397378 -0.13589261 0.44038916 -0.04308545 0.14623815 -0.110000625 0.21365541 0.21768872 0.15609343 0.079216816 0.17024665 -0.16728412 -0.16202122
1376 0.23008403 -0.026231688 0.02490876 -0.14480183 0.16058928 -0.108905174 -0.3752372 -0.29638267 0.13373798 -0.058161862 -0.182346 0.47819716 -0.0074671027 0.31795165 0.34272778 0.07811905 0.42140388 -0.2029864 0.17488241 0.22427821 -0.15866856 0.4455908 -0.055511408 0.16506669 -0.09654352 0.22237507 0.2331826 0.08926916 0.08823253 0.17969161 -0.14108351 -0.18643682
983 0.15673761 0.040543053 0.01916369 -0.11684996 0.17753449 -0.122561626 -0.3705509 -0.2850313 0.094328724 -0.07368732 -0.14978744 0.4618341 0.028674204 0.27221617 0.29214224 0.11041329 0.34620997 -0.23695964 0.16401035 0.17503083 -0.10486132 0.42642465 -0.065532565 0.19934252 -0.11070142 0.23183188 0.15705593 0.2262678 0.050784253 0.20107594 -0.20799646 -0.15866098
408 0.06520607 -0.015722979 -0.0033058685 -0.030662796 0.047308777 -0.022881964 -0.096955046 -0.08911153 0.057560973 -0.0068282536 -0.049829923 0.13063467 -0.0034885767 0.08401921 0.0915959 0.04001588 0.13318878 -0.060157377 0.065713815 0.07249448 -0.05842811 0.1442359 -0.014810118 0.07388939 -0.031406514 0.07133362 0.07600893 0.047448855 0.027015494 0.053479973 -0.04928966 -0.049996328
1041 0.072658405 0.009295039 -0.0074374517 -0.057044808 0.07490121 -0.067519546 -0.15355904 -0.09175405 0.049056683 -0.00052422984 -0.06846318 0.18912217 0.030340184 0.12261175 0.11777036 0.030225093 0.1537083 -0.08501137 0.06289964 0.06922304 -0.059746295 0.15990224 0.0020287067 0.046040222 -0.045924805 0.056675173 0.08738834 0.040074784 0.020422513 0.06829192 -0.08035173 -0.052986234
314 0.03797126 -0.035824098 0.0131346965 -0.021961816 0.08931627 -0.014535339 -0.10912101 -0.10637438 0.039359972 -0.010126581 -0.11557535 0.13103989 0.0020278515 0.15529071 0.15237537 0.031259127 0.1469 -0.020409057 0.101164855 0.10353983 -0.09010114 0.17574184 0.0021301988 0.10865058 -0.005255625 0.08667632 0.047321834 0.06422781 0.015110236 0.08706216 -0.049845938 -0.06352168
591 0.06325022 0.008196293 0.018827567 -0.05253834 0.05199955 -0.048783626 -0.12915148 -0.09515969 0.047878537 -0.018418305 -0.07624311 0.1427617 0.006901477 0.094780795 0.10835562 0.024305878 0.13450135 -0.091010265 0.084681995 0.08226726 -0.061666854 0.16416383 -0.035745658 0.05304343 -0.042138845 0.09219265 0.07666509 0.056957074 0.0073954877 0.06965495 -0.07123225 -0.061865754
589 0.070278935 0.013462909 0.024516543 -0.025389224 0.04530648 -0.05319583 -0.12758316 -0.065901525 0.04322808 -0.0071183788 -0.07120522 0.13824257 0.026311884 0.10845906 0.087107025 0.022473136 0.13574947 -0.053637963 0.06969746 0.06865612 -0.041585546 0.13876745 -0.027797356 0.05570584 -0.04355942 0.06203535 0.068036176 0.045002386 0.012851773 0.054745156 -0.054065987 -0.03957082
224 0.12556583 -0.007175632 0.022178791 -0.09932485 0.089825645 -0.102295555 -0.21021286 -0.21757306 0.11197485 0.019617576 -0.1461846 0.33667442 0.033152822 0.25908315 0.16136187 0.068970665 0.32473573 -0.16857031 0.12946677 0.16577397 -0.106195934 0.26483375 -0.06956828 0.14009744 -0.095485926 0.119119376 0.16862264 0.078964256 0.028184613 0.12611268 -0.1288075 -0.1360995
1426 0.16898282 0.019964622 0.014816607 -0.07746261 0.09909768 -0.10441518 -0.2388029 -0.19901706 0.092084266 -0.034979023 -0.132754 0.29322025 0.021895869 0.21646263 0.19657557 0.055323306 0.30386716 -0.1378072 0.15677522 0.13625535 -0.116930485 0.33487588 -0.032615498 0.11101048 -0.0757351 0.15606277 0.16009173 0.107865535 0.03474177 0.12653163 -0.14051563 -0.11535198
442 0.2068796 0.010391595 -0.0110308295 -0.11959776 0.13538378 -0.107322685 -0.30813837 -0.20817937 0.11919544 -0.01734711 -0.16653287 0.4036704 0.056197844 0.28401527 0.24045531 0.08426665 0.35069576 -0.15648979 0.1423921 0.19287981 -0.14885296 0.39191604 -0.007839918 0.1414048 -0.078780405 0.15347905 0.22861779 0.066525705 0.042550717 0.13411614 -0.14655352 -0.1338941
1035 0.18664378 -0.13122605 0.09349859 -0.1043545 0.089591905 -0.038600232 -0.3840547 -0.21339159 0.21306722 -0.020018648 -0.2950532 0.5667491 -0.051505916 0.18373075 0.33918345 0.15452957 0.40298462 -0.11267199 0.37643626 0.26378614 -0.11683642 0.4352401 -0.008360667 0.23892921 -0.15073484 0.3712772 0.20519261 0.19337857 0.15363728 0.2491618 -0.26973695 -0.334267
978 0.20845047 0.03240841 0.0067703393 -0.14736032 0.20138803 -0.13393283 -0.42388296 -0.3319285 0.11651002 -0.08475854 -0.1846748 0.5347296 0.034292668 0.32648242 0.34034082 0.12397836 0.43376198 -0.27780658 0.20598516 0.23702474 -0.14635691 0.5131708 -0.07657022 0.19248 -0.14717025 0.25458455 0.24429463 0.1925074 0.05055871 0.2477851 -0.22433838 -0.18447644
590 0.09545293 0.0098128645 0.028944815 -0.047946986 0.06267274 -0.05780293 -0.14613284 -0.122519486 0.040990178 0.00586682 -0.085868716 0.16202864 0.031766806 0.15124919 0.093645126 0.039749473 0.17593622 -0.10824359 0.08368376 0.08314368 -0.06843525 0.1829244 -0.033342134 0.084661126 -0.049421877 0.062120732 0.09811077 0.08312299 -0.011509047 0.09942448 -0.09425401 -0.06870563
36 0.14690523 -0.11889957 0.07337964 -0.07773931 0.08948219 -0.030750556 -0.32115257 -0.18899964 0.14116327 -0.058966648 -0.21452104 0.41409364 -0.07929946 0.12314991 0.3094181 0.1141638 0.33238825 -0.08651663 0.31252262 0.18889993 -0.096825026 0.37053117 -0.02293153 0.15404671 -0.12826802 0.35414037 0.16659264 0.18458174 0.15442178 0.20562395 -0.2030908 -0.28394008
245 0.19869076 0.006626736 0.0006696032 -0.11068733 0.17370448 -0.08667417 -0.35215387 -0.20452729 0.103626624 -0.05484552 -0.13530034 0.39369994 -0.0043162405 0.24800853 0.2889953 0.07909422 0.3285807 -0.12060141 0.12771186 0.18466099 -0.14552006 0.4102577 0.026767561 0.11208528 -0.022806987 0.13563569 0.22726217 0.06054993 0.054012943 0.09678282 -0.12636681 -0.11170866
305 0.115562454 -0.09412432 0.020716878 -0.096424185 0.26453602 -0.09615887 -0.37539864 -0.33423212 0.18758985 -0.0530121 -0.3582427 0.36361042 0.029561969 0.42984393 0.39541918 0.15031761 0.45852113 -0.14997181 0.30964917 0.27605414 -0.23805507 0.53560704 0.023459917 0.33943427 -0.073251344 0.2427986 0.15437065 0.15662111 0.01902145 0.31102443 -0.1800036 -0.17483777
