1854 16
AAXD -6.9405046 -7.345393 -2.9315732 2.5824342 0.21220018 2.442291 -7.6617537 -9.804329 -2.6935267 5.1681876 -5.1085277 4.199138 2.3196192 3.256898 -1.036623 4.266828
AAFY -0.8341477 -7.626992 -2.3701284 -3.9832757 0.50227636 -6.4540286 -2.376815 -3.85326 6.0634027 -5.8957477 -0.81282717 -2.814172 -3.5933645 -0.09074646 -7.3338943 2.3806763
ABFK -3.701991 3.2738795 -4.4396524 -1.2039769 -6.671039 6.1519217 -3.6038997 -4.1763825 4.6814036 3.2888772 4.6824803 7.4786143 4.3633533 -1.8074204 -2.9392357 11.388459
AARN -9.259406 -1.5927943 4.0879436 4.2375574 -1.8921279 -5.1373634 -11.067354 -4.567912 5.3322024 -0.38634893 -3.5373354 0.97229195 -0.77967876 6.5491405 -3.831108 4.218472
AAIJ -5.629164 -7.9184833 -6.36602 -0.44947165 -6.2662835 -2.409657 -0.6345103 -4.4973316 3.9426286 -4.678965 -2.102872 3.9127443 -0.09085867 -5.8898005 -1.1197071 2.8073738
AAAM -3.5582607 2.0352325 1.9024049 1.5525949 5.2092986 -1.5995728 -7.2178254 -8.15116 -4.9325438 4.0880537 4.5642724 5.072664 4.6109076 -3.1413128 4.652691 2.4751813
AAQG 4.8916554 5.6361394 -4.6652865 0.6058985 -8.859883 -4.6380258 -5.990987 -3.5239015 -1.4449269 4.0620236 -0.6009479 11.244215 0.615024 -1.898134 -0.7303515 4.611071
AADL -7.298611 0.84648526 3.429155 5.700826 -1.3258251 -0.9192132 -0.963407 -11.020634 8.484185 3.8985636 0.645281 5.2356534 -4.4453797 0.1587226 0.025890417 5.805549
AASX -5.659469 9.552231 1.4011552 -3.8921082 2.3276594 -4.9026513 -6.7801223 -4.832509 1.3127376 0.13278268 -5.370805 5.717035 -2.5992312 -3.6944613 -4.6427646 2.2774749
AABR -5.6254063 0.99848545 -4.585055 -3.4947944 1.2673383 2.7102425 -14.167229 -0.05037726 1.7143703 5.5952554 -0.05045298 6.403293 -0.09365723 -0.23700827 -2.3020556 4.9186416
ABEP -4.03447 8.838637 3.7382596 4.4289875 -5.1436343 3.1641617 -6.525251 -6.2108445 2.8610106 5.843645 -5.8304706 -5.32651 2.9859354 1.5106547 -8.198619 3.2693522
AAAY 2.1119552 -1.3850952 -3.837944 5.4160795 -6.1115246 -0.023591 -9.378452 -10.343724 2.7464664 -6.4766893 -0.7242435 -2.8577547 -0.936843 -5.045589 -1.6436987 1.5891815
ABWF -2.8183615 -0.18695915 6.6549654 1.2984225 -4.845248 2.9755485 -0.7824163 -6.1488423 3.6411374 -0.11983203 -4.898817 6.6907635 2.9907513 -6.932465 -2.245436 9.369593
AAQH -6.0149255 4.7986436 0.66791314 -6.931671 4.0160685 4.457179 -6.052724 -7.173452 5.0284743 2.8740838 3.7836118 -1.7099284 2.65276 -1.4707134 -3.9445198 7.6305437
ABWR 0.33781207 3.482833 -5.7972894 4.800226 1.2040104 -6.506571 -10.000428 -0.5330316 4.6890483 4.974756 2.0896761 4.9275627 6.6722507 4.0538454 -2.742536 7.3693633
ABRZ 4.381889 6.4850717 -2.268994 3.6918383 -0.7994178 -2.0241208 -4.143253 -8.672308 8.537058 3.0085628 7.5163717 7.2577095 3.3760135 -2.441514 -2.595108 2.0641751
ABME -3.4020438 3.9921374 3.8659427 3.5464067 -6.4903173 -1.4302105 -3.1445725 -5.6959486 7.132753 -4.6082964 1.3449283 3.040497 0.38211995 -2.4208353 -8.520378 -1.631736
ABVW 0.6459357 5.99681 -6.062401 3.4795904 -7.6364927 -1.0123347 0.41423547 -3.847272 9.753874 3.3018231 -6.7868166 2.8492453 0.75474066 3.0509903 -5.6046243 7.259382
ABJU -0.8427053 -4.1700225 -6.8179474 3.4444518 -1.6847433 -0.33624354 -8.855706 -5.274346 -3.0246985 1.4541502 3.6805003 7.0360746 -4.4134026 -0.4204668 -11.583793 0.44802007
ACAA -4.668247 1.578373 -4.9472427 1.5845605 -2.544785 -1.2154953 -4.392467 -12.399261 -0.8480629 2.9262235 8.959821 -2.864391 -1.8718283 1.1626649 -1.5640094 5.760109
ABMB -1.7551816 -2.9297867 0.80731446 0.11165882 5.437758 -6.95733 -11.164874 -5.267983 -5.6909165 0.12166578 -2.4687147 -6.6605053 1.7290025 -1.7506509 -6.246008 8.096487
AARH 0.7886355 5.4487243 8.262921 3.424662 0.40864706 -2.0178053 -9.370075 -4.777277 0.93362963 8.408785 -4.7591295 6.0175743 1.9495058 5.9846334 -0.08083329 5.2292128
ABYE 7.9463787 0.18908171 2.552638 1.9251949 6.681416 3.9216247 -8.408589 -9.317957 3.2134056 3.5910914 -2.8129084 9.0249 1.1300509 -1.1979345 -1.9280545 2.734699
AAAF -0.7420719 -4.450728 -1.7226794 3.1324706 -7.084102 -1.080788 -6.1697125 -5.3033504 4.4858384 -2.5156183 3.4862764 -1.9163551 3.9784427 4.944038 -2.2535803 11.9248905
ACGT -3.7178884 1.0691977 -2.009739 4.0653334 0.0904787 -0.080882974 -3.364572 -3.5193067 -5.583781 6.2178774 -1.7776332 6.1644435 -1.6357136 -0.43652034 -1.5670307 14.973985
ABNF 0.4187716 -1.0135381 -1.8909928 3.7399497 2.0402086 -3.745494 4.442684 -10.6731205 2.8109148 5.0709705 -2.0489013 6.546161 3.3587656 -3.659117 -0.1402767 9.5877
ABOE 5.6852875 3.5456831 -0.87722915 -5.207952 4.03169 -1.930465 -9.441039 -10.605936 4.412857 -3.152823 -1.0131985 0.514552 1.0865285 -3.6924365 -7.64264 -3.3989224
AAZW -7.6774316 3.9663537 0.21340327 6.3651648 -3.9175546 -2.366562 -5.0927377 -4.6341376 -5.0278306 -2.8492653 3.2705781 1.0703262 5.512541 -1.2196375 -4.7995524 5.9770947
ABQO 2.8886576 6.076797 3.3617768 0.53773504 3.7350338 0.13695122 -7.799035 -12.4632635 3.9796839 -3.556734 1.2281656 -4.4987626 -0.75563014 1.9615831 -0.23337704 6.964474
ABBT 0.9498089 -2.5856872 0.9049377 -0.1382459 5.405904 -3.6496565 -2.6147478 -11.777001 -4.350918 4.196511 6.650714 4.667534 2.5297558 0.45663673 -1.140014 -0.6298605
AABO -5.07861 4.9004974 -0.8527796 -6.2935867 -2.3174996 -2.9508564 0.48731765 -9.909101 -1.5567583 3.6709685 -3.4786737 -3.5981717 6.7937274 4.491199 -6.3496437 6.014216
ABPB 6.5140095 4.1602592 -3.8940122 -1.9887286 -0.05190595 2.507895 -1.959123 -9.863105 6.6799607 -3.2755256 -7.171008 4.1991825 2.7630677 -7.275173 1.7841066 7.3148293
AASB 4.076282 -1.3958734 -6.141835 -0.44358566 -0.23315363 -1.3912066 -0.6591839 -14.03662 2.0233927 4.08449 -10.173863 0.6872611 0.287335 5.3587747 1.4722414 3.5989661
ABNH 1.50211 -1.7761991 -1.7772337 -6.564567 1.7637902 -8.22851 -3.9971004 -7.7815256 5.064164 4.4848557 2.1002448 4.9004574 1.8379786 2.5775352 5.273054 7.431789
ABKJ 3.6101017 -5.618143 0.05470981 -2.7357843 -5.166163 -4.1966133 -13.249181 -5.6045933 2.0468268 -2.396037 -6.2271905 -0.9309155 2.9174757 4.9531884 -0.8479282 3.598378
ABPY -1.9708189 1.0709832 -1.8374759 -5.1689005 1.3322382 -9.398076 0.047333818 -10.208824 9.711558 1.8938215 -0.9382468 7.872152 -0.62067276 -2.2533207 -4.715754 -2.898915
AACA 4.0991626 2.4545844 -2.5612378 -4.6842184 0.42119762 -0.6364381 -1.7406285 -8.8900585 -1.9082528 7.067833 1.597687 -1.4434289 4.699909 -7.7364125 0.8254849 10.014646
ABCT -2.939084 -3.611811 -2.478012 3.526073 -3.0307486 -0.0580331 -1.2221308 -9.416653 3.1837332 3.1289 -10.919983 2.4154112 -5.2244596 -6.800074 0.924665 -1.8186307
ACGK -4.049664 2.1894546 4.5287714 -3.946859 3.9112587 -1.577966 -3.0294328 -8.871503 5.7574944 4.3267703 -8.221184 -0.9854497 -0.37472346 2.0652318 1.8067464 8.9988
AAAI 2.865742 0.72594345 -6.8553715 -5.4721994 -8.062571 1.6764492 -4.7991 -9.406566 0.3234597 7.563319 -0.48335156 1.2675213 -2.5499132 2.459653 0.42894655 4.3165083
ABAI -0.79945177 5.8874083 2.8473878 3.9682744 0.9721417 0.589877 -3.6416783 -7.133921 -6.178922 -0.3114503 5.2757745 0.70778775 5.735017 0.5586478 -7.6245704 6.6524906
AAGY 8.102705 -5.3301835 -0.4677838 2.3125844 -5.4691515 -5.786708 -2.74672 -3.9585598 0.35270125 4.680374 4.739198 0.91743153 2.422557 0.9696899 -7.425392 2.3559914
AARF -1.5946578 -0.41938224 2.1330407 2.5389786 -4.0997953 -7.555564 -9.270546 -7.682717 -1.3288414 6.0982175 4.1907783 3.995487 -5.036087 -3.9309816 -0.8876751 -1.5712887
AABA 4.0353265 -0.95561653 5.3990564 -1.6201048 2.1839497 -0.31735542 -5.3604455 -6.2797394 6.9213886 2.8063943 1.3764979 0.9729348 7.4185424 -8.36801 -6.130483 3.6547723
ACIF -2.5917845 3.591345 2.2778637 0.941865 -5.9042864 3.2431505 -3.6835866 -4.4119644 3.138396 -2.8142395 5.329899 1.8000932 -0.389897 -7.1799836 -9.766728 0.5241176
ABZF 3.0707004 -2.0669727 3.5239236 5.1920843 1.5388592 0.60079575 -5.158448 -2.2899702 3.1175144 1.7163876 -6.160643 -3.9185984 -2.924782 1.6368321 -4.9674063 9.734425
ABEH 0.028267208 -1.5103538 3.7824764 -2.4881387 -11.379399 -6.0032496 5.288056 -5.207099 -2.484455 1.2746004 -3.9549081 0.70340264 0.4364897 -5.589139 -4.788508 0.56468856
ABZT 0.9589125 -0.2981852 4.7608137 -2.7170794 0.6273588 -0.73925984 -10.082132 -5.9010587 6.0756845 0.0829987 3.2292044 5.1661835 -6.8674245 -5.4862714 2.545259 7.8887615
AATO -0.3989332 7.836616 2.9903197 -4.081653 -5.9720984 -7.2843223 -7.8288236 -7.7861986 -1.579384 -3.750813 1.101186 3.3142004 1.9100151 3.5958493 1.6519669 4.2288113
ABOO -3.326715 1.6823993 -1.7812818 5.8011594 -1.6098169 -9.818552 -2.7853925 -7.1928267 2.0064743 -3.0863366 0.3959985 10.531533 6.8060493 -3.847913 -0.20242533 2.6283274
ABMD -1.7928818 0.04843139 1.3387362 -5.216189 3.3868885 1.0741392 -9.807414 -6.1121674 -2.0184276 -5.055057 -3.989621 1.0479412 2.1922245 -8.611376 0.82986724 10.384646
ABDH -2.2059796 8.999099 -7.404906 -1.6402949 -4.5698085 -0.6068684 -4.064604 -8.804638 -5.4614663 0.750302 -3.597757 -2.7374423 -0.35103676 -4.2585564 -1.1993353 3.916784
ABVX 4.000243 2.6928408 -6.7324853 1.8853632 -3.565564 -1.7494566 -9.86693 -2.0915942 -4.2313337 -1.6338884 -7.4086804 1.195175 1.1839831 1.1348482 -1.0067053 11.154155
ABPL 2.3795772 -0.94295657 -8.876555 1.480773 -3.2313914 4.9332356 -6.5348473 -6.984794 1.0439246 4.9405837 -4.745441 1.8832879 9.1215515 -2.5160794 -0.26869065 3.995578
AARA -6.04563 4.9130344 -4.887336 -1.0619841 -5.7375054 -6.78278 -5.7317505 1.0847689 5.298168 1.569083 -5.3410916 5.105571 -1.915919 -1.0636965 0.7287222 10.932363
ACBO -1.8986517 3.8865497 -10.85736 0.2453865 3.1652336 -6.2970285 -10.350755 -7.145739 1.313188 2.4152875 -2.1323667 2.3785102 -0.6333396 -3.7045214 -0.039367054 -2.3347378
ABAA -8.205432 -0.70026726 -2.0278418 1.089686 -8.186114 -5.9298835 0.5095295 -6.578116 3.5873652 2.85202 -4.993844 -6.622859 -1.6526407 -1.3564769 2.9109368 7.410419
ABWI 0.5535154 6.3266945 3.4488664 -1.8467602 0.1346323 -6.744825 -2.4349122 -4.727953 6.2617993 10.834616 0.51242715 2.396999 -4.193669 -3.8297236 -1.7488683 5.3613896
AAEF 4.8409915 1.8655021 -2.7808928 -5.065796 -4.129856 -4.8556824 -6.1305676 -7.1830926 4.8834243 1.6099995 -5.924779 -8.194115 3.2117352 -5.862983 0.056971584 1.2140591
AABC -1.7204934 -2.1834626 -0.9259235 -5.0316973 1.871423 2.6697574 -5.731964 -6.541046 -3.2045622 6.303225 -6.0483007 -1.6612377 3.4432576 -6.6910295 -4.7818 -3.2297819
ACCP 2.6211145 0.57415074 -3.34591 0.52584153 1.3282626 -9.854085 -2.8422422 -0.9905924 -2.046308 2.5516953 -6.583493 3.6048064 1.4434508 -8.009556 -4.302512 7.1038146
AASL 2.6364744 -0.023749815 0.7966534 0.7617342 -2.883019 1.5226126 -2.4690847 -7.2316136 -3.3875349 0.53961325 -5.026541 5.34245 3.1647284 8.955871 -5.9396276 7.730578
AAGE -3.7422416 -8.425379 -6.1998887 -1.1646831 -1.3120106 -3.0494604 -2.6422462 -1.6348981 3.6735177 -8.73708 -2.6814096 4.2434545 -2.146748 -6.3388357 -3.3833294 2.050677
ABAN 3.3433747 8.822155 0.48476192 0.91929245 -0.0651184 -0.038862735 -4.776503 -5.199457 -4.352596 6.765595 -3.5443494 1.5791651 -7.2549343 0.81955475 -7.251427 4.8378572
AAEM 0.6844304 0.52423865 2.838792 -10.079727 -1.5965966 -6.7316327 -5.611634 2.330797 1.0004195 1.3785933 -3.1079297 -0.9117 0.26538274 2.8488188 -7.9146075 3.602667
AADM 2.7854521 2.7494462 1.1415789 -9.579461 1.0836868 -4.205118 -8.43006 -0.25168884 -0.8100172 2.203179 -0.06152332 -0.45843595 5.2395124 1.7062014 -5.9340725 3.8929965
AASN -1.0585405 3.9273436 -1.5792884 -3.5006118 -3.8257878 -3.2733638 -6.629721 -7.678009 -5.2713847 -4.701627 -2.6075225 1.4624552 1.1865909 2.6502903 -12.468165 -0.8519977
AADZ -2.3003519 1.6636186 1.748535 0.85371333 -0.601799 0.5651498 -6.212025 -10.661596 5.2947135 1.5328218 1.698932 -4.1593857 -10.416934 -4.173087 -6.5127883 0.5243875
ABNO 0.81056386 7.903151 -0.28091165 1.647299 0.76933426 -4.0940084 -11.72638 -2.174739 0.8421949 6.9909678 0.7389309 5.330728 1.0898539 -0.8893097 -9.461564 -3.1618655
ACCW -1.5772129 1.264863 -1.7740375 -5.02682 -4.871333 1.3661773 -5.3964224 -13.411811 2.552302 -3.449123 -4.2251134 0.5860002 8.012227 0.59011555 2.6968136 0.94601196
ABSO 1.1622604 1.3563329 -4.9391756 -4.1510572 6.7729654 -2.691327 -7.1068087 -7.307853 3.7952132 9.407924 3.2700238 -1.2614367 -2.9711554 1.7238823 -7.4490595 0.5550771
ABNJ 2.274977 0.735484 3.9782157 -1.1305476 -7.499973 -8.37592 -7.6836886 -0.5080316 0.80969995 3.534141 3.68468 0.9409877 2.815884 -4.9170046 -0.26914516 10.086814
AABQ 4.844337 4.557127 1.2192677 -1.7797197 -1.2692904 0.4696477 -3.169847 -1.1668537 0.27080733 4.8689904 -4.1531563 8.883625 6.814957 -2.2224112 -9.829869 7.037566
ABIN 6.7827578 8.375438 -1.0166286 7.606943 0.8706128 -3.9702666 -7.013214 -9.082987 -1.5043086 -1.1098545 -4.4808817 2.8980901 3.2061195 0.7133325 -1.2698305 0.9659342
AABZ 1.8389832 4.794358 -6.2111583 5.8041525 -2.23708 -0.91989523 -13.032987 -3.5462232 1.2822782 2.8714492 3.1348982 0.45363247 -6.8865466 1.7287116 -0.38927805 5.726937
ABXR 1.3963746 -5.912722 -4.0458193 4.3726163 5.169299 1.1562469 -3.857296 -5.2704406 10.272399 2.2865245 1.7107855 4.3072357 -0.7536991 -3.0448604 -7.8931975 7.686905
AAZX 4.1916203 -3.5925663 3.3824968 1.684361 -8.248203 5.3944364 -7.738521 -8.106571 2.1107845 0.9717212 -4.1854353 4.122561 3.0566432 -1.2679385 -6.7632957 -0.5358329
ABVU 2.1520226 -5.3998723 -2.4985232 -3.3367987 -4.419957 -4.461644 -12.850561 -2.1467896 8.5241375 1.9537804 1.9108049 2.3952808 0.9544138 -5.801851 -1.0137411 0.70577115
AATG -0.21525198 0.9358219 7.2943172 1.6201653 1.4083358 -5.8335056 -9.557109 -10.088863 1.9109411 3.683314 -5.990474 -5.4065676 -1.319157 -0.2952629 -3.2349288 -1.8401393
AADF 1.0795695 2.3984272 -9.274019 -4.2596254 4.5052514 1.9750469 -7.068175 -7.4266944 2.8305812 -2.701541 0.9062248 1.5310378 -3.1020246 0.22285232 1.1592474 11.00702
AAAQ 1.7714869 -0.71080995 6.462595 -10.773929 -0.07279385 -5.6573744 -4.45314 -2.5029664 -0.50090903 1.6736485 1.1759423 0.9218175 -3.0821068 4.7378964 -6.2757635 3.3808515
AAJC -6.180698 4.8266315 -3.1607683 -2.0487494 2.7308426 -7.186894 -7.6205897 -2.240104 -1.0829108 -1.1459019 3.5486302 -0.74817544 -4.4789095 1.0734551 -7.6702375 9.905288
ABZG 2.7866652 -7.081737 3.87605 0.41400453 1.4018648 0.34455097 -3.1205475 -4.7866673 1.6185755 8.155414 -3.650427 -4.7649465 -3.2525344 -1.3504426 -6.909947 6.2994437
AABK 1.1565356 -4.126702 -1.152034 -6.7685785 2.4536588 3.9527082 -7.9590034 -7.6076374 -4.220211 4.7882013 -2.5943775 1.3761798 -1.6395407 -4.963435 -2.987106 -2.4976273
AABM 0.017599314 -1.2861509 -0.15450104 -4.8500004 1.6963605 8.089891 -6.0466156 -9.234925 -2.9263864 5.594608 -4.2596784 -0.7513037 -1.3118569 -4.889652 -3.0414605 0.89202076
AAHA 1.0129973 -4.5250254 -4.683407 6.1838803 1.6679196 -0.43908948 -7.4292626 -6.870202 5.5849056 -1.1381524 -3.4007354 5.9722323 2.3544664 1.3298466 4.77838 8.316498
AAHT 3.745035 -4.897092 3.4645517 -3.9808016 0.3370576 -10.380749 -1.1523553 -2.621855 1.7519737 -1.1435163 1.0202938 -0.39185637 -4.8564205 6.057318 -7.2123446 1.3077041
ABBC 0.1570337 4.1591244 -0.58089125 -5.353528 0.8433632 2.128873 -6.629034 -8.88668 -3.3833423 9.532103 -4.256958 1.394199 4.3006735 -2.3592756 -1.6834631 -4.837379
AASC -4.5548344 5.6048675 -4.693508 6.6246223 -2.3365028 -7.31726 -2.775106 -4.460258 -1.7407651 -3.3077075 -7.931341 2.0162177 -2.7366056 1.5430471 -7.7025 5.768918
AAUE 2.4714258 3.062874 -1.5088156 -4.4627514 -5.6097417 1.1914661 -7.401347 -0.16194388 2.344321 4.2520466 -8.532804 2.2057397 -1.1147331 -9.630016 -2.4586933 6.004505
AAFL -3.0637577 0.47060135 -4.586204 -0.0441463 -2.904047 -6.2904854 -7.423251 -6.9996834 -5.484091 7.094477 1.5662391 4.814522 6.1946 5.2966366 -5.314182 -0.12906861
AATA -6.5513124 -3.1810846 -4.374205 -3.4586418 -2.5052269 -4.344131 -4.755552 -5.7471356 2.6953795 6.4351997 5.1147385 0.36255533 9.200677 -3.931928 -1.8940475 5.30966
ABQF 3.0789661 -1.9120181 -9.532114 0.8057169 -0.63184446 -0.54502773 0.019011214 -8.505538 3.4272196 6.2830515 -1.0957105 0.18625888 -7.2339916 -6.145117 -3.6762724 6.7118564
ABLK -3.532183 0.43283454 0.98618364 1.4725548 -0.7497637 3.10522 -5.569097 -2.8640444 2.8400307 12.488743 -5.03802 0.887552 5.19227 -4.896436 -0.0137703745 8.55225
ABAU -2.9264507 -0.7274644 -3.4062707 3.6471393 -6.7984557 6.1462836 0.07957973 -11.702428 6.406439 4.99739 -1.2578472 -1.978016 0.67115456 -2.016952 -4.077499 3.4752784
ABOU 3.7033527 -3.9976993 -8.344828 -5.5902057 -2.4402525 -2.4168372 -3.3174438 -4.001242 3.9647515 3.3562315 -4.3635907 6.4032593 3.2397246 2.5906012 -9.414211 -0.12071031
ABTO -4.8789515 0.22585095 -1.759983 -1.1963186 -6.2949557 -3.1245668 -3.9272676 -5.4244475 7.5377345 5.6627417 2.8519714 -0.8236115 2.2220616 6.301864 -9.1939335 0.6884837
AAIX 3.0838091 2.6010942 0.7296483 7.215235 -7.65386 -4.8255982 -2.7989357 -6.5112104 4.5962806 -3.083418 -3.632049 3.6899683 -4.4330974 -0.15727547 0.74478716 9.303144
AARD 3.2423704 5.12016 -5.2726774 3.081084 4.151982 -4.1310654 -2.8672736 -6.3011804 2.602403 2.5644326 -6.060099 7.2376847 -5.8102674 0.43689144 0.07483692 6.40062
AAQR -2.1339788 6.6662326 1.9744697 5.3693533 -0.7526686 -1.4793721 -6.8240495 -5.0147214 2.7555401 1.3684596 -7.6131516 -0.7648676 -0.29707044 -7.249376 2.6853523 6.194105
ABLI -1.6834099 -1.4103276 -4.33086 5.1524143 1.1531577 -5.2521486 -6.9265027 -2.5674746 2.8389366 7.2013206 2.0006864 -4.168502 -0.55885583 -5.997911 -1.6647618 9.858611
AAHF -3.7945275 0.34900212 4.7244453 -0.861293 4.7585998 -1.238392 -3.9989243 -8.904307 -4.8633347 2.3931644 6.09837 7.0377707 4.5743465 -2.2698214 2.1041343 -0.4469892
ACGZ -1.5080398 6.217496 -4.0086436 2.2773213 3.5941737 0.40065864 0.75848967 -9.530728 4.127153 -0.50446975 -0.8556002 0.03343699 -1.2154858 1.5987222 -9.89519 4.2402124
AAJG -3.9194236 -1.6462282 -2.1022136 -0.42244777 2.6215086 5.744852 -2.6060092 -10.368482 3.4426663 -4.4196544 -0.97329545 7.5448117 1.3428913 -1.0812944 -4.8141165 4.459094
ACIN -7.0757856 0.74874735 0.6859285 -4.640763 -7.2459526 1.2692955 -5.4459906 -2.5926442 3.9400418 6.180429 2.0263953 -0.33014485 -3.3783298 -7.7608485 -4.702486 1.50588
AAUU 6.4715075 -0.74840194 -2.053289 0.9002865 0.31577274 -7.299684 -0.30488408 -11.364264 -2.178062 2.555757 -3.6712356 -2.4067383 1.4462032 -2.5500271 -7.433328 -0.8707735
ABHG -2.3657038 3.2900796 3.5114882 -3.0488877 -9.788046 -5.4506626 3.470517 -4.6028523 -2.3639133 3.5799124 -0.6167199 2.7931855 0.11563842 -4.928685 -7.118148 0.54598343
ACGX -0.76033676 3.313054 6.274891 -1.6315042 -6.4364614 1.4566478 -6.061735 -1.1639037 3.6792195 1.3580567 5.0231657 3.483045 -2.0874593 -4.2514386 -8.433307 0.48299736
AAHV 0.98432565 -4.1214128 0.016270163 -0.33486062 0.2566845 -9.186209 -1.3906021 -5.1715035 1.6310326 0.08260654 -0.064041704 3.211383 -6.820592 7.96566 -4.246868 2.207412
ABCB 2.8234675 -1.6821328 -1.9114685 -2.7536724 1.6390309 -1.5443313 -1.9397361 -10.508222 -2.346047 -1.1000861 5.983383 9.824274 -1.7008704 -2.3555973 -0.7374878 1.1958098
ACIH -2.931925 -1.5702596 3.0788324 -1.4844756 -4.842375 0.0669032 -3.9015043 0.607856 4.284098 2.9437895 3.5774932 2.4763253 -2.8347468 -7.219635 -8.917524 3.1109438
ABBJ -0.48853537 -1.4137462 -7.745571 -6.8734064 -3.5511272 0.17854692 -6.2387414 -4.8336473 -6.8748355 1.8872813 0.09752631 5.763183 4.2446394 -4.3777933 -3.277493 7.7720118
ABNT -1.1281886 -4.365258 -5.194129 3.294376 -2.0786908 -9.834426 -6.8617115 -8.396979 -6.7190185 -2.7204292 -3.0113833 2.201616 0.5100765 -1.4911296 -1.6672852 1.565934
AAJN -5.011162 -1.9693636 -3.6432848 3.7058804 6.214099 -6.3997045 -2.596462 -8.532432 2.4250317 0.83233696 2.7108276 -0.7449344 4.5455675 4.027335 -3.0082037 8.394935
AAYS -2.5012274 -2.8126578 -0.44354716 -1.6443299 3.0053694 -5.352594 -9.174223 -3.7935169 4.117586 1.5100024 -9.610702 4.3404055 4.870876 -4.0285807 2.9246688 3.7099175
AADD 2.7534924 2.4968643 -6.9327846 6.4135947 -3.4751458 0.19825166 -0.47361556 -5.6078467 -3.0904038 -0.66624326 -0.41888213 3.5250967 2.8629737 -7.340745 -7.0144806 8.487229
ABKS 0.06152589 -0.073390745 -2.0086818 5.4305806 -0.7776937 -8.942858 -3.6710925 -6.2691865 7.267962 0.9384138 -8.134587 -0.046191283 4.862782 3.4565876 -2.2234142 2.413331
ABLA 0.16344701 -0.026839932 -4.48466 -3.1568708 -7.8388104 -8.021978 -3.3999248 -4.467788 5.4540896 1.5436959 3.8089702 2.8852313 -7.2340417 -1.621557 -2.9335642 4.5545297
ABRH -2.140402 4.4383497 -3.7296274 -3.0375564 0.8582165 1.5056125 -8.328802 -2.8904774 9.175067 -0.06448027 -6.6380982 -0.17876256 2.598811 -1.4521316 -3.5998204 0.5070376
AACX 0.25061196 1.5679369 -2.872896 3.6708176 -5.802026 -4.0833206 -6.374909 -6.0120983 0.37020198 8.28342 -4.03751 -2.3186448 3.8592188 5.4221287 2.4536626 5.412241
ACLK -1.8276258 -0.51650053 5.888777 2.953367 6.8718963 -4.9962964 -5.6349034 -4.3094935 0.17483568 -0.19694375 -4.2302103 6.6951714 -0.50850964 -2.2110512 -5.3398104 6.938357
ABCW 0.55948 -3.0370488 3.6305466 0.47296435 -10.647989 -5.318758 6.040251 -4.448957 -2.3699265 4.4112906 -6.5933957 0.20268056 -2.8354182 -2.2056694 -2.987211 1.9285532
ABGB -6.1718545 2.1284945 -2.4880686 7.1879096 3.5583699 1.126677 -7.7576737 -5.07207 -2.2869267 -5.7566767 2.2075248 1.2581187 3.0954137 -2.646722 -5.3211703 3.4799955
AADT 7.395584 -3.5062623 2.4141214 1.0411898 -1.1237468 -5.708036 -3.447201 -1.6419235 2.0457475 1.7552261 5.0133986 2.3418117 -0.9371281 4.5339584 -7.909618 2.4904342
AAHB -0.45247558 -3.1213255 -3.5304596 3.0406377 -1.5476822 -0.23998511 -5.7104278 -1.4287627 3.6858776 -5.298558 -2.097838 7.293486 -1.9121287 -8.303055 -3.7816255 1.6001625
ACNE 4.3872714 3.9690843 3.2446697 4.72705 -0.066044636 -7.81696 -0.90423447 -4.4572477 1.9772986 6.283484 -1.0783137 -1.2678642 6.1590734 -0.034100913 -6.990377 6.3669643
AACO -4.688413 2.3067741 -8.753226 0.62403816 -0.5415471 -5.334659 -1.4646053 -2.8412948 6.7646575 1.347719 3.9704883 4.065563 0.96818864 -5.1779385 -7.0271864 5.770025
ABYC -0.5610493 0.95464045 -3.2244458 8.95141 -7.157947 -2.4953296 -9.355774 -3.090425 -1.5293863 2.7648048 -4.222742 2.7133713 2.6998634 -2.066118 -4.114963 0.42257652
ABXQ 1.1413862 5.1313996 -1.6210188 -6.00669 3.0214458 -8.185093 -1.463984 -7.892429 1.8209051 -3.6940093 2.3036237 1.5341986 1.305798 -5.9157434 -2.7128432 6.2940807
ABPW -3.3433628 3.3854492 4.664631 -4.194465 -1.2856029 0.97590256 -2.2745306 -11.483453 1.7788848 -3.294977 -7.2933083 -1.0482459 -0.47124442 -4.716172 -5.145079 1.3256252
ABWG -1.514641 5.8539305 2.1449456 -0.29844335 -1.0283756 -3.4298375 -1.4016047 -7.212357 6.0891232 -3.2003858 5.611278 3.0457642 0.018084962 2.0600023 -3.2371838 10.996215
AAUK 1.4911247 3.8548033 0.6777952 -2.2291067 -2.4597974 2.5158103 0.7901166 -7.753511 3.8234205 8.490749 -7.874145 8.632962 -2.12682 -0.8933633 -1.7254362 4.219651
ABKU 3.0030231 1.3670563 3.5944285 -3.7628675 -2.0195065 -3.9150603 -3.2519064 -6.554084 5.6361017 -1.8359145 -8.0077 8.5212965 5.028028 2.4060233 -2.1541142 2.1930735
ABZN 5.0462847 -0.17584342 1.0404395 0.3623116 -3.1665847 -0.9176128 -4.164218 -9.582588 8.284961 8.715993 -1.1630535 0.47781038 1.667895 -0.43643498 -2.9236586 -2.3529866
ABLE -5.1832175 1.905216 -2.8157883 -0.7467547 -2.738832 -0.36347798 -13.535653 -7.037919 3.2108107 1.953682 -0.032462433 -4.886182 1.8094838 0.2926222 1.6455446 0.3252962
AAWR 0.71252036 -1.4968842 6.601952 3.924598 -1.0996565 -0.33850235 -5.8318195 -8.991855 -2.27114 -3.4183617 1.4578903 5.7963853 -3.968513 2.5778062 -3.6839752 7.174469
AAFG 0.7899469 -2.971844 0.54176795 -2.5146108 -0.75468457 2.9354773 -9.126393 -4.8481736 4.048846 2.2299204 -7.005551 5.030349 -5.5718455 5.8309126 -4.363107 4.628625
AAJA 10.031945 -0.93676734 -3.6705017 -2.5501165 -3.336575 3.1726182 -7.627023 -2.9370897 6.855352 1.6537747 -2.192824 0.6211444 -1.448847 -0.036179088 -3.9899828 7.449378
AADV 0.6588487 0.82056296 -2.0181234 0.10368903 1.1574426 -0.11275575 -8.437902 -6.5243187 11.68262 2.8540542 0.39509293 0.6697682 -2.7462807 4.5677266 0.10414894 4.0606413
ACLC -4.381694 -3.8992486 1.9849093 -2.7648628 -3.379783 3.7908192 -10.038789 -5.0752654 -1.2465029 1.4461474 1.0677032 -2.2709877 4.372479 -0.4718563 -6.0181794 5.2474613
AADR 3.088673 2.5669265 5.336842 2.3188603 -7.692184 -1.6172113 -5.327744 -8.745935 1.8785776 5.753569 -0.8333508 -2.0061603 -2.1956713 -1.6896068 3.4393914 4.121605
AAHX 2.9409754 -6.8105645 1.8082595 -2.970779 1.4646109 -9.2761755 -1.7981849 -3.136671 3.7972689 -3.5620432 0.4950379 -2.2110384 -5.3470335 0.35905856 -3.8778403 2.7406337
AAID 3.6345835 -5.1964316 4.049476 1.0787538 -2.1220353 -7.6002316 -3.6852489 -1.954469 0.6751574 2.5150623 -3.0375412 2.0349684 -1.4007374 2.0813246 -10.245748 -1.3366516
ABYF -5.617407 4.477587 1.0271282 -1.6332424 -5.2247286 1.6728798 -7.0944414 -5.2485976 -0.44316593 1.4158602 -1.5331687 -0.32962343 -5.451632 1.6454906 -0.69647634 7.900253
AABI -1.0305746 -1.5913341 6.099981 -1.9626491 -7.633612 -4.2226915 1.264639 -6.297289 -3.2404222 1.9399263 0.3710309 -3.3686168 0.6460319 -4.445886 -4.965216 0.88875276
AAAO -3.4083128 2.885014 -0.47110358 6.683459 4.2183967 0.6066058 -6.355709 -5.7101717 -3.9613788 -1.572464 0.07247818 -0.5964236 0.27293974 -7.5886703 -6.3640556 -0.12476886
AAAB -1.807113 -7.1551795 -3.1036422 -3.7394297 -0.15939435 -2.3832219 0.8953367 -2.7435231 0.29559264 -3.8848238 -1.4584818 0.8493552 -2.889961 -2.3851535 -8.9037695 5.453563
AAVQ -2.2803137 1.8696437 -5.3173294 2.0387218 1.0927825 1.6093341 -7.535754 -1.4243938 4.603991 2.3058941 0.47479415 -4.2489333 5.046016 0.657294 -8.70074 7.154612
ABGH -3.2808483 -3.9571176 -3.5106816 -6.0826974 0.74993676 2.8688557 -2.6433425 -4.981085 8.343547 4.6618633 -3.2118177 3.912151 -1.6002636 -1.9064013 -1.7223018 6.616551
ABLM 2.054047 -7.424452 0.79484725 -4.828807 -2.010928 0.010811048 -6.496537 -2.2084055 1.2174959 3.8180711 -0.6359557 4.8897743 1.9149139 0.097435646 -2.001535 10.029481
AATW -5.5458817 -0.35978281 -2.8386545 -7.29058 -1.4750395 -2.607337 0.09162497 -11.932976 -2.6474476 3.972232 -0.70400083 2.7847137 0.5291861 -3.5822606 0.0382637 1.5315794
AALI -3.3754685 -4.096621 -2.0471406 -2.1259987 2.7557626 -7.528577 -2.624055 -6.2728314 -1.2021699 9.425939 -3.8216696 -0.031167021 -1.964072 1.7556784 -1.8267533 4.4502206
AAKZ -3.7830174 -2.4745996 1.8220677 1.0648576 -2.8093104 -7.077446 -4.718169 -2.3683739 5.117285 8.385037 -2.0644445 7.4979053 3.8218074 -0.24944536 -2.469459 1.5491079
ABCN -3.1521251 -3.9293995 -2.0429704 2.9353657 -5.7976522 0.874324 -2.9924324 -3.8667517 -2.6872303 5.37674 -7.1792583 1.4322394 -7.448607 -5.5901823 -1.3175936 3.4178874
AAHU 5.105694 -4.064733 3.7041054 0.3112014 -0.54990304 -7.844716 -2.587911 -0.78323734 1.5324713 0.9620093 1.6827748 1.7776269 -2.1035337 4.4039626 -6.937699 0.08887879
ABXM 3.460231 2.5420856 5.979634 1.9083529 -3.341089 -2.7080755 -7.2468944 -4.648566 0.23419903 -4.528319 -3.3099003 -1.211128 6.1559772 -1.2583693 -3.6371474 6.7921247
AATZ 2.7159948 0.34811962 -5.2201176 3.4845092 -1.3016447 -4.0006843 -6.415303 -0.0581293 7.015961 5.264633 -3.0695002 -0.4572863 -1.1594651 -3.1587565 -7.8703985 2.2218165
ABCE -5.1643114 -0.75472397 -0.4853333 1.7954333 -10.234934 -2.8825943 3.6190324 -4.681077 -1.1135347 4.929133 -7.0623984 0.31710097 -1.6060557 -2.8318677 2.6349525 3.3715513
ACJW -2.3933227 0.46374932 -3.3179307 -0.60073334 6.56497 -0.6752197 -7.458957 -6.4722486 1.4173088 -2.8907914 -8.545387 -1.8744388 -3.5857894 -0.87278473 -4.772713 3.7477934
AAGQ -0.66332096 -7.935299 -3.4841812 -3.6940358 0.75764894 -3.8835373 -0.7918328 -0.9574256 2.8183026 -7.2242723 -1.6934505 0.140429 -3.968176 -2.235081 -6.852674 2.5160885
ABNK -4.196463 1.7443559 -1.2186924 -1.184577 -4.770503 -0.13998818 -5.02535 -6.420893 1.0226138 2.5202713 -3.989648 8.4538145 -2.383792 2.2226624 -3.2757268 -1.6914623
ABCF -1.7781252 -1.8298415 0.8003337 1.8644226 -8.266571 -2.7796748 3.801013 -3.9218628 -1.7202758 3.7888224 -7.9945307 -1.3122145 -2.6003666 -3.4488275 -0.052589074 1.6203686
AAWO 2.6402242 -0.9216625 -1.1257793 -3.8548963 -1.8650748 2.5702543 -3.0840583 -6.2290983 -1.1127954 0.3419764 0.4269586 4.0472116 4.196315 5.820609 -2.9825034 5.6967115
ACLZ 0.47766438 -1.1135498 -2.7582612 5.907353 0.490489 -0.12426882 -1.1600144 -7.326951 3.4459136 4.730891 -2.3841271 7.06516 1.4785011 2.6376166 -6.544958 0.0043474864
AADN 1.8384529 -3.812927 2.745717 3.542007 1.3842447 -1.1786827 -0.19409464 -10.3681555 5.0818515 -2.9472694 -4.5374074 0.9407582 0.7021064 2.5502167 -4.2212234 4.7826233
ABNQ 2.819285 -2.4788585 -1.3280313 -2.5991762 -0.33860946 -0.30293557 -7.5777936 -10.715841 -3.536033 -1.842218 1.1382229 -1.927418 -3.0310793 4.881598 -3.0488498 3.8137918
AANB -5.210789 4.6064334 2.37346 1.2947254 -0.8428493 -8.038053 -0.16589318 -6.7692657 -1.9856251 2.760412 -3.129976 3.5752957 -0.6277847 1.6024208 1.3497342 7.432273
AAQN -6.2050247 2.817017 -1.643272 -0.033654068 0.92878956 1.190053 -2.3100657 -3.3228848 4.0051365 5.791004 -2.809357 3.9410555 2.5603461 -2.5988126 -9.279104 0.9734591
ABZV 2.7425637 0.05104694 3.6329925 -2.959456 -3.155939 0.41796404 1.9309748 -8.76977 6.076991 2.5265622 0.8526796 2.3438373 -3.686061 0.6305761 -6.3455095 4.7430897
ACAN -2.4047325 0.44201368 -5.0131407 -0.37382975 -3.4802394 -8.57777 -1.5648142 -4.700125 -0.81274813 2.1715403 -0.066738985 -4.883479 -0.8515301 -4.739648 -7.3124948 2.8473084
AAMR -0.11183147 2.9795847 0.8884665 6.5707526 2.8586674 -5.742178 -1.8786579 -6.069781 5.216921 3.2076724 -4.2386975 1.4885863 -3.6572587 -2.8812907 -6.6190567 0.4319441
AAQP 1.5464829 1.2213932 1.8002905 -2.094668 0.57859445 -2.6638541 -6.7179513 -5.534709 4.5116754 7.406538 2.0470383 -5.139949 3.0391967 1.6824163 -0.37841344 5.6060576
AANW -0.25420657 5.348112 -4.034024 -1.7467604 -5.30863 -1.2004206 0.7279433 -9.649177 5.1779943 -0.2719506 -0.30016598 5.779244 -1.8813578 1.1848882 2.4268813 5.275438
ABDS -0.6696406 4.2696853 -6.1323395 3.34412 -3.9406412 -7.4465737 -1.2721342 -9.252031 5.001909 1.1220855 0.81014526 -0.39636567 -0.9845827 1.1023082 -2.172977 -0.15908028
ACKA -4.126992 -2.638323 3.243678 -5.0658894 -5.1103783 -3.4232767 -7.5462265 -7.2570477 0.95544267 4.9982314 -2.825204 2.164373 1.1514169 0.36688548 1.163499 -1.3343472
ABJW -4.252941 2.8993728 -0.9447083 -1.1141022 -1.3984802 -1.9628863 1.8420264 -4.0616446 7.2078543 0.9765001 -4.8786936 -1.5516325 -1.1537893 -6.922851 -4.799732 6.111981
ABEK 2.234977 -2.6105788 4.1262894 1.4267001 -6.3425684 -4.05619 2.9144242 -4.1002355 -3.597019 5.13275 -2.906444 3.4627478 -2.8146899 -0.6825209 -3.252354 3.4235175
AAGM 1.4199106 -0.82685244 4.9020743 -5.420015 1.9086819 -7.3586407 -1.0430527 -2.8326886 -1.071734 -0.333528 0.064690284 0.48842978 -3.025129 3.6616342 -5.237074 1.371742
ABCL -2.7096953 -2.7246258 -0.86670196 2.2845333 -6.1627355 -1.9602863 1.3778317 -4.5843506 -1.3070476 3.1310918 -8.974733 0.5225978 -5.1277523 -4.833783 0.33693048 0.8194542
ACDO 0.20102245 0.70797783 1.2814924 2.797139 1.7143503 -0.08669995 -3.246606 0.72025406 3.123723 2.517092 -7.3424764 -0.2561351 -0.7365808 1.1175325 -5.8196115 8.252527
ACBJ 0.8253339 -1.9960197 -2.935331 4.307247 0.4103947 -0.30835477 -4.9979606 -4.2946014 4.1939917 -0.25588843 -2.149583 3.4397404 1.6124588 0.76525116 2.9456453 5.141493
ABLR 5.674592 -0.41346878 -0.7736514 2.6691566 -0.51504976 -0.56522083 -8.845989 -6.973808 -0.8785008 1.3856333 1.8878243 -0.7580608 3.6710596 -0.7598091 2.0904 6.0028234
AAKQ -1.3280919 -9.212519 -5.7225256 -0.9986326 -4.639766 -3.0387745 -0.26427704 -5.534084 0.5321341 -1.6971524 -0.5432769 3.0919938 -1.3746064 -2.695643 1.9811761 4.392894
ABLY -1.7354456 1.635642 -2.73502 1.9526006 1.9706436 -1.3824909 -0.5627882 -8.94516 3.4579885 3.0702794 -0.540688 -4.305508 5.2149057 -4.1624436 -3.7792854 2.4782465
ACDM 4.2584896 0.2355651 -1.3590896 0.6889528 -1.2002711 -2.796837 -0.42048547 -8.981454 -2.0897186 1.4868215 -2.2895467 -2.7394872 -0.29806015 -2.052617 -4.800734 -0.6848022
AAFB 1.7262607 6.6817527 0.21205153 3.9801438 -3.6554935 -3.6759462 -4.5216966 -4.5315013 0.73861074 -0.13305792 0.8326894 -4.457418 -1.8602042 -2.1344876 -4.0507812 6.7627096
ABNM -3.8794951 1.7593553 -0.73315 -0.60655004 -4.169659 0.11927927 -4.098402 -4.92729 1.7308602 1.9536885 -3.0031009 7.0859513 -1.7460482 2.1278837 -2.7626462 -1.4781625
ABEQ -0.17486538 -0.41278598 4.5642476 -1.3481001 -5.719022 -2.9193027 -1.8229305 -5.4504347 -3.0240397 2.1590345 0.6418936 -3.04736 0.61018085 -2.8316429 -5.0415025 0.73812073
AAAS -1.8000977 3.2387369 -1.1361144 4.2391825 4.1774397 1.6403296 -3.1985338 -6.97522 -3.397152 0.06341474 -4.085636 0.059577055 -0.10686298 -6.371279 -4.586927 0.26374367
ABYJ -3.4555988 2.4196029 1.6696414 -0.6602258 -2.8911994 1.2745471 -5.3200755 -3.78483 -0.6785889 0.40964922 -1.4587753 -1.3116125 -3.1870086 1.8883146 -0.94616705 6.16478
AALY 2.2121444 2.7093036 3.442473 2.2829442 -6.0404525 -0.35573137 -3.610973 -6.20036 1.0504453 4.4891467 -0.80307657 -1.0238125 -0.94658405 -1.1790811 2.272613 3.5428474
ABKK -1.0827304 4.4545436 -3.9444313 -1.9891936 -0.31134686 -0.6426371 -5.8929467 -2.3006952 4.7766128 0.1814605 -5.8607383 -1.0853498 1.600185 0.9829995 -2.0148613 1.498426
ACST 0.66437197 0.16478351 4.9495683 0.64160144 -2.739746 1.3205442 1.2421316 -5.782364 1.1416447 -1.4457929 -2.60429 -0.021948284 3.1452336 -0.80206877 -6.2998457 8.096112
AACV 1.1138413 1.9474155 -1.9487473 1.4986817 -4.34425 -3.4848943 -4.234318 -4.364964 -0.4800469 4.8122883 -2.4586825 -2.3858204 3.7772393 2.643157 1.1235127 3.6404655
AAJI -2.8451269 -1.5611948 -1.6781696 -0.9698761 1.9735658 3.6979017 -1.8584048 -7.0377145 1.538769 -3.0071175 -1.6234921 4.6938 2.6537263 0.020329213 -4.384749 3.5685654
ACIU -0.5106357 2.312436 -2.9415975 2.3085117 1.3486812 0.48128226 0.519225 -6.557936 1.5534415 -0.62982625 -1.316339 -1.3495759 -0.7411258 1.156956 -7.228503 2.9323094
ABCI 2.9852734 3.6053941 -3.7828348 -0.28917673 2.1993349 3.126016 -5.4317927 -2.0295308 -1.6082882 3.6047294 -2.3762023 0.6452838 -0.9900971 -0.08298755 -6.500704 3.9831302
AAHR -4.4501514 3.028878 1.7818421 -2.0309494 4.6845074 0.5153439 -4.0508432 -4.0879564 1.2838748 0.6968526 1.7417182 -1.2229348 0.94870514 -1.8869888 -5.7426615 1.7413435
ABJJ -1.198654 -1.0236034 3.5949514 1.91364 2.834315 -0.77473474 -6.805189 -3.657778 -1.9982327 3.2060847 2.0594218 3.4845786 4.385502 -2.267269 4.051711 4.6736116
AAOI -1.5732386 1.7222438 -0.2181596 4.657818 1.2018237 -0.88220084 -6.135374 -4.8141446 -3.7524583 1.2734405 1.7101493 -0.33086172 -0.3430841 -7.941 -2.9738867 0.8640698
AAQX -1.4199181 4.6849694 2.240641 2.7685275 -1.1806043 -1.872412 -4.0358405 -3.4959238 1.0287914 0.37215537 -4.187784 -0.98401767 0.78708667 -3.7366729 2.4448743 3.8568242
ABVI -4.431395 -1.3712713 -0.4806552 0.9324879 -6.5732346 -2.5966837 2.0140862 -3.540349 0.12979652 3.1879635 -5.016356 -2.8293085 -2.500609 -1.2414464 1.6487713 3.564625
ABJM -5.1450133 1.0882734 1.2653077 0.1773689 3.450608 -2.5226777 -5.766933 -4.436368 -2.638054 2.85993 3.8914278 0.7810047 1.1424025 0.0022895422 2.9211025 4.2900186
AAHC -0.119087614 -2.72571 -2.968305 0.40944752 -0.6511571 -0.74315155 -3.042764 0.124954745 2.591135 -4.702861 -2.011561 4.475818 -1.6451435 -4.1503973 -2.8285592 0.78846693
AACM 2.0761578 3.1821043 -2.0242615 -2.5776787 -3.4925604 -6.0337057 -3.910641 -3.1338687 1.4579221 1.7427508 -0.8276385 -3.1396034 2.362996 -3.7114773 0.11882938 0.14620024
AAGG -1.6329226 -1.0678548 -6.324187 -3.7421193 -2.9920921 -1.1768359 -3.555658 -2.6388533 1.5115092 -5.4257555 0.6476864 2.8668673 0.0076846154 -3.5549865 -2.720856 1.5125487
AAGA 0.38110363 1.0088964 -1.1986371 4.2379103 -0.7220456 0.97791886 -5.097967 -0.84214926 2.015524 -2.0276537 -2.147383 5.4208636 -2.28277 -5.011402 -2.7073333 1.8986175
AAHG -2.905911 0.7853402 4.3471794 -0.7808672 1.7064757 -1.4852582 -2.6903498 -6.2623286 -1.2319905 0.8751348 2.3774035 5.579686 3.3534353 -0.55804235 -1.6681927 -0.12238815
AABG -3.5403883 1.5013927 -1.0252429 5.1999803 3.2839837 0.38585788 -4.6482306 -3.248569 -1.6871753 -2.6015637 1.3897185 0.03440017 1.0769477 -3.8581371 -4.0749006 0.5913024
ABKO 2.3860528 4.4839606 -7.14547 -3.0128984 -3.1511056 -3.3826919 -5.3018703 -2.9369328 3.7795925 -0.7299083 1.3954304 -0.18004484 0.9277658 2.1869235 -3.6897206 2.4850175
AAIL -3.5735826 2.7329607 0.26755768 1.9128624 1.5956163 -2.76057 -4.941434 -7.3686953 -4.5095577 2.8523316 -2.4174614 -0.5909621 6.138995 -2.4481804 3.6346962 1.6842324
AAUS 0.49035716 -1.9825729 -0.92901653 2.5825753 -5.2968326 1.3023612 -6.2780185 -0.20519932 3.2785008 5.744979 -2.4011385 3.6906474 2.414637 2.8015506 -4.1134424 4.8816214
AAYL 0.12909779 0.97461563 -5.917857 -2.7145927 1.3598145 -1.2340486 -1.3627337 -4.2691145 2.7384386 5.3737097 -5.7452083 -3.249621 1.1712809 0.17573366 -4.670077 4.1175914
ABHQ 1.6259453 3.4530168 -2.1291838 -4.8398733 -2.3155239 -1.1584893 -2.8252518 -0.879745 3.3666153 0.08858532 1.2659191 -0.69387275 -0.58155775 -3.1308947 -4.745865 9.355292
ABDZ 0.659521 7.1295986 -3.629784 -0.9506392 1.8016117 0.3110655 -5.139564 -5.997812 -0.036086794 -3.853351 0.2093991 2.4806051 5.1400704 0.48623815 -2.996215 3.7809503
ACNG 0.4360845 -1.69178 -0.4232185 -0.47894534 1.4175305 0.32591197 -6.423811 -5.8952374 5.640386 -1.5354571 2.5720544 1.1215745 5.8067236 3.0870855 -3.7006147 1.3987026
ABIJ -0.7064693 2.2671943 0.47745076 4.633047 0.717052 2.2261543 -3.124561 -9.172946 2.8652549 2.2636974 -1.0749843 0.5549564 6.229259 2.3597589 0.5065255 2.351236
ABDW -0.89336544 -0.44520923 -5.744843 1.0086558 0.5806747 -2.067546 -0.8799443 -6.6893396 -0.4106717 -3.539493 -5.1621995 -0.31390154 5.468297 0.31661916 -3.6275449 4.349136
ABRU -4.826566 0.21120952 2.447682 -4.597807 -1.8796467 -1.0375053 -4.498401 -3.5997481 -0.37841487 2.6801333 -2.5501215 3.6643875 6.4616356 1.5629933 -0.05293126 6.0512514
AANA 0.76259923 -4.1424217 0.111346796 2.0802398 -0.34787855 -1.2227939 -3.4540925 -10.579912 0.86306226 3.1764848 -0.39445767 -1.9968264 -2.280096 -1.1357464 3.3617306 3.408826
AAFR 6.004663 3.5038178 -3.8796618 0.055760905 -3.9331477 0.40885308 -3.3836007 -4.8872404 1.3957317 -1.2588485 -5.03527 -0.026270138 3.3322353 -0.8926536 -6.884181 1.8929967
ABDF 3.3264978 1.1690776 1.2595519 -2.7251914 1.1122258 0.15375458 -3.3276508 -4.0717483 -2.2842622 -1.4474835 2.0369258 5.0232735 -1.3049363 -2.1613362 -4.641234 9.0957575
ABLB 0.15849802 3.2178211 0.8450141 0.92584485 2.8683584 2.2380192 -5.4945865 -2.0290926 3.303947 4.107804 1.8161732 4.9404907 -3.2726932 0.114286125 -4.4263678 7.4197717
ABLS -2.7409325 4.1780725 -2.0889022 -0.9925655 -3.8110955 0.6937763 -4.1669683 -5.774449 4.2564917 2.9486127 -1.0407643 5.5369296 0.67426956 -5.891557 2.6802237 -0.08148996
ACPH 4.6249156 -1.6346524 -1.4774159 -2.5241508 -0.50840676 -1.5100821 0.81221426 -8.255385 1.7522668 -1.049539 0.22844915 -1.1106316 -0.09319838 1.7573787 -3.0430217 8.509123
AAEB 1.9860679 -4.3274713 0.3205646 1.3147725 -0.05972084 1.173639 -2.1662047 -8.904457 -4.563955 -0.37691945 -1.9904784 0.48453766 1.410455 -2.620587 -1.6808126 6.5287642
AAVD 0.23399085 -1.5310282 1.6619772 -4.026998 0.45654655 0.11712232 -0.62695444 -8.496094 3.071699 3.7960033 0.71774745 2.1463528 -2.803361 -7.8585753 -2.478368 2.1950986
AAWH -2.3104136 8.567294 -1.0976784 2.6101336 -0.6522826 -2.132575 -3.7818413 -7.387358 2.4419632 3.8010132 0.7126613 -0.01659123 0.6136294 1.7191181 2.433737 3.0093696
ACHP -0.0773316 0.3709494 -4.4048753 5.153335 3.604479 -2.0389242 -4.752372 -7.6748405 4.2014093 0.4332142 -2.7920957 -3.426133 -1.4497882 -2.9197752 0.66376215 3.7777987
AAWE -1.1246337 0.06683627 -2.8612041 -5.4419103 -2.286533 -0.8103828 -6.8243346 -5.421023 -2.1130052 -0.29034647 2.6532934 1.1934314 -6.1061573 -2.929203 -2.813661 4.3088126
AAFT 1.8552805 2.7063222 -1.7784046 1.6085018 -4.491137 -0.683397 -5.850963 -5.375138 2.2385204 -1.5605372 -4.010785 -1.7387421 -3.8789697 5.1856446 -4.8739457 1.6104897
AAWW 3.9766736 3.1805277 0.81165874 -5.095689 -0.14064817 -1.0436314 -2.3470216 -6.3228936 -4.003302 -0.40071583 -5.867018 -0.1164366 -0.5149219 -0.45952252 -3.2435827 5.5370226
ABGD -2.836077 4.6490936 -3.7678764 -4.0364532 1.039899 -2.6552372 -1.8586131 -8.342674 4.2750974 2.3749754 -1.4348595 -1.3269897 -3.871763 -2.4312518 1.5029315 2.7558422
ABIV 1.6328293 2.7602465 1.4550445 -4.082105 -6.271398 0.829441 -2.7189147 -4.932674 6.614171 -1.8711201 -2.2867622 -1.8754075 -0.2718655 -0.33506632 -2.89149 4.194656
ABGU 2.361484 5.05 1.1614538 -1.6873991 1.0142438 -3.5413435 -1.9222555 -7.8304963 3.220412 2.9145038 -1.0606285 0.9070672 1.1745777 6.234045 -3.687759 1.0219134
AAXL -0.12941796 5.9157166 0.17902885 -3.1299956 -1.4011418 -2.6488924 -4.13059 -2.1225002 4.813763 1.579658 -1.6379507 2.8194566 6.3547907 -2.4086576 0.9379993 5.274047
ABEE -4.0777826 -1.9151336 -0.46594572 -0.68936443 -8.09157 -0.90456647 -0.38115695 -2.5818007 0.45542455 -0.3398643 -2.9724803 4.45248 -1.7395214 2.0973823 -1.8161176 5.6753535
AAAD -5.1750546 -1.841221 -1.0823331 -0.06428761 -8.871456 -0.9399281 0.83326083 -4.034986 -0.097416006 1.4793006 -4.0674 3.2620413 -1.192399 1.8314136 0.34467155 5.2232013
AAIO -4.1268187 3.1949906 0.0661793 0.42415845 0.91589487 -1.2960728 -5.110401 -2.8244634 -2.8209212 4.542226 2.933752 3.714998 2.9017105 -5.500099 1.3118082 0.8850523
AAFX -1.3020014 -4.4634743 -3.3258955 -1.2432113 3.2786038 -3.5060494 -1.9372793 -4.9417815 5.992386 -1.8001275 -0.92188275 -2.665115 -1.3010451 -2.5898423 -2.9017277 0.08408768
AAJZ -1.9944985 2.3215137 0.75962484 -1.0422814 -0.40913257 2.9233165 -6.972751 -7.824218 -1.8435595 4.5138607 3.8579798 2.8912742 2.0965366 0.09991886 5.5025826 2.8891308
ABCU 1.0443418 -0.49519742 0.51729196 1.7513272 -5.719964 -2.1584609 1.5977278 -2.8742888 -1.1863866 2.7964697 -6.1667824 -1.5129308 -0.9388389 -1.1751512 -1.370387 1.9444052
ABEG -1.389451 3.787421 -0.8839149 -3.6007996 -4.998602 -3.200099 0.58081746 -4.0814285 0.0062996154 2.4708195 1.3551602 2.336934 1.5668037 -1.8711716 -4.049342 0.15721191
ABFE 3.3363569 -3.0306947 3.939988 -0.42338216 -2.1379368 -3.5539951 -1.0499699 -4.2522006 -3.2805834 6.4456005 -1.4170339 4.417375 -3.3833091 -1.935878 -1.4800841 4.6962624
ACMT -2.481316 -0.43164453 2.7023728 0.0054154936 -1.5207247 -0.2749346 -8.141517 -4.674643 -1.4663051 -3.2704442 -3.3867934 3.032698 -0.96422404 -1.791439 -2.5472379 0.20983289
AAJW 2.3836923 -2.4948199 3.5063424 0.638781 -3.9676864 -3.3405313 0.89909416 -3.6130056 -2.7689643 5.046841 -2.2399633 3.3649323 -2.515875 -0.84042364 -1.8617561 3.7312498
ABCD -2.8151398 -1.2962395 -0.34861928 1.0437056 -4.7646194 -1.6592157 0.94604 -3.4398143 -1.0393769 2.66042 -5.6288133 0.13413991 -2.6599634 -2.467522 0.95821273 1.106556
ACSY -2.443607 -0.27239725 2.730101 0.05068476 -1.6345685 -0.2620707 -7.9871473 -4.639062 -1.4635885 -3.2093024 -3.0903916 3.0341942 -0.9073044 -1.6353993 -2.6086912 0.5000191
AAAW 3.1203084 2.7819686 0.29268736 2.1785588 -8.2376585 -3.2804258 0.25193924 -3.948486 -1.675016 3.4403439 -8.56048 -1.0398555 1.0474085 -1.4890057 -1.1274544 3.5822315
AAFD 1.4952261 4.908653 0.24332474 2.6909678 -2.7278647 -2.917879 -3.247337 -3.213868 0.32942846 -0.10444599 0.66832316 -3.3082194 -1.5840002 -2.1518605 -3.286074 5.119637
AAKE 3.672209 0.74548584 3.197823 -1.1359977 -5.1546497 -4.0771723 0.13709661 -3.5618563 0.7879187 -0.3445469 -1.8840646 1.8125652 -0.6963415 -6.051461 -3.7197049 -0.2527125
ABLQ 4.367065 -0.39911366 -0.44611737 1.9580411 -0.13514313 -0.4386485 -6.388836 -5.2412267 -1.1557772 1.105948 1.5720999 -0.53629315 2.5843647 -0.60966516 1.5336368 4.5092254
ACLE -2.275583 -1.9766425 1.1340774 -1.3990146 -2.108652 1.9292432 -5.385546 -2.575379 -0.9941551 0.80264515 0.40671936 -1.2791125 2.238274 -0.5958283 -3.2595892 2.9969215
ABQT -1.1306934 1.4164101 -2.0912957 1.5509928 1.5295274 -1.0299275 -0.6478613 -6.788151 2.4647048 2.401178 -0.35854444 -3.0905676 3.965851 -3.1703708 -3.153888 2.0051239
AAMV -2.7392452 2.178892 -1.3904881 -0.7485053 1.11038 -3.3357227 -2.9470792 -1.0199649 -0.018886738 0.34836662 1.7332735 -0.2934798 -1.746281 0.17453857 -3.5865822 4.265118
ACKY -1.3174994 0.31561098 -2.2840762 -0.41163212 3.9584436 -0.37771103 -4.532785 -3.6546423 0.46923795 -1.6683322 -5.3874326 -0.962692 -1.8900754 -0.3911604 -2.6892025 2.473919
ABXL 1.8358991 1.3481654 3.2819197 1.236094 -1.827576 -1.8474939 -4.279117 -2.8024638 0.14584978 -2.6469011 -2.0586078 -0.65144 3.6601346 -0.92204213 -2.1859212 4.0763597
ABCZ -2.8746169 1.6624621 -2.225856 2.2492166 -6.173491 -2.3314714 2.3197737 -4.420593 0.44676504 4.6658025 -3.047106 0.90362686 1.2439859 -2.8980076 1.9941095 2.2559576
ABCY -2.5359027 2.9785666 -2.8127134 2.2733233 -5.7165666 -3.0377882 1.7274575 -5.394115 1.0008796 5.2038245 -2.629037 0.22612987 2.3966339 -3.4851496 1.9577076 2.318553
ABMV 1.2103513 -0.65045357 2.154879 -0.15260518 0.8065807 -1.0204402 -2.4976263 -2.798138 3.2107613 1.2794149 0.3716319 0.5075905 3.519047 -3.0672781 -2.0406492 1.9087993
ABKG -1.8675367 2.3366864 -0.8362123 3.421777 3.152291 0.9726917 -1.8248302 -5.181346 -2.9103324 0.25899073 -3.2200694 0.46159723 0.36182913 -3.90249 -3.2939234 0.20324454
ABNB -2.4441216 3.8574572 -0.10285331 -1.7475767 1.1992973 -2.3473556 -2.328557 -2.5695646 0.23952949 0.37305632 -2.42654 2.6011362 -1.1025842 -1.8055161 -1.3571843 1.3267479
AAVG 1.6094127 0.35773033 -2.834844 1.9681573 -1.0926296 -2.4014966 -3.9357893 -0.7526478 4.1239066 3.27214 -1.8219752 -0.11976687 -0.6531955 -2.0820777 -4.855485 1.3164141
ACOX 0.2148381 -0.03323518 -2.2826796 -1.3605685 -3.7768784 -3.7998934 -1.657675 -2.1366842 2.6116467 0.61336476 1.5094777 1.3825477 -3.6716514 -1.1154133 -1.5002446 2.3579578
ACCC 0.28857562 0.80079526 -0.32820016 -1.2932056 0.6038575 4.1647263 -2.8733706 -5.156361 -0.020281198 2.6493561 -2.0446434 0.13565613 -1.3297567 -0.8827862 -1.0334115 2.1976223
ACCU 1.339918 0.0670307 -1.4211977 -0.045803946 0.43131608 -4.3748674 -1.5123471 -1.1493411 -0.7652683 1.1032577 -2.9759572 1.681641 1.0961355 -2.9594972 -2.2842083 3.2925315
ACLO -1.0440992 -0.32396793 3.2786798 1.1640779 3.471755 -2.6882863 -3.3153577 -2.2573173 0.24040508 -0.22318168 -2.251622 3.615539 0.1233049 -1.4562882 -2.9517658 3.9058585
AAGT -2.4671884 -0.3149635 -4.330135 -1.7991712 0.008013099 -1.7559044 -2.2112145 -2.3600214 0.69116277 -3.6415133 -2.6065648 3.0697448 0.76703817 -1.4720924 -1.2492801 1.7303947
ABQU 0.0778119 -0.4055883 -1.1791987 2.2407136 -0.572813 -4.526771 -1.9156995 -3.358904 3.6919787 0.5521024 -3.4239094 -0.44221467 2.625562 1.3174287 -0.85441816 0.6868945
AAOD -0.7355837 -1.797529 -2.5082529 -0.34763402 -1.4398301 -3.1011202 -2.3579814 -1.145272 4.04169 -2.2481837 -2.2255087 -3.2568839 -2.2342224 0.9047437 -4.68203 1.6600358
ABSS -0.99719405 -0.567468 -1.8677201 2.4792602 0.81192976 -2.4821362 -3.1566453 -1.4657768 1.257229 3.1990995 0.6225504 -2.00299 -0.274853 -3.1136174 -0.6829969 4.495747
AAHQ -4.2084265 2.7502146 1.8686249 -1.2201741 4.301342 0.13917719 -4.1347446 -4.1863403 0.8219586 0.9758083 1.3415886 -0.8909288 0.76429385 -1.8677462 -5.8648996 1.648789
AAHM -2.2842624 0.8774411 -0.21380642 -3.0725672 -2.4069006 1.0565639 -9.043148 -0.55904573 -0.1296179 -0.27091452 -1.2342817 4.878893 2.022455 -0.5239056 0.94246477 3.2824132
ACKO 1.6017119 1.3573344 0.5277811 2.7953951 -3.5729473 -1.7291605 -1.4242768 -2.9052355 2.0217748 -1.4670066 -1.412804 1.9298775 -1.9461116 0.24677451 0.21341027 4.034025
ABSY 1.7246224 2.2651117 0.64787674 0.33820948 1.5514913 -0.15131857 -2.910015 -5.3587265 2.5782678 -1.8826827 -0.14269337 -1.5061716 -0.06864647 0.75644845 0.6480261 3.1502738
ABZH -2.9109209 -3.634127 -1.4286495 1.148836 -0.7737378 0.9679556 -3.5590389 -4.212281 -0.8238182 2.7419822 -0.7323271 1.7469099 0.093382776 2.0773587 -0.11654861 2.0295799
ABKF -2.2077913 2.2039807 -0.9544482 3.1275034 3.2268832 0.32440686 -1.5866385 -5.9858603 -3.1089115 0.9915113 -3.9752638 0.7774826 0.70414144 -3.010066 -3.3746006 0.71387535
ACKT -0.88964474 -0.7876869 2.7976563 1.6674693 2.8887534 -2.4699035 -2.5192475 -2.23463 -0.013765078 0.1602331 -2.1846962 3.503858 -0.28311643 -1.309991 -2.895184 2.8597972
ABWL 0.49382487 2.801234 1.6870704 -0.65544486 -0.06413456 -2.9661882 -1.1970987 -2.0913181 2.7091246 4.3591056 -0.07348408 1.3784773 -1.8764896 -1.5574411 -0.98566103 1.9733877
ABCR -3.2255597 -2.7481754 -0.53968894 2.9071233 -2.8148124 1.6039844 -4.2083726 -2.8261738 -1.9106058 2.239112 -2.344049 0.06914706 -4.2434535 -4.5900474 -1.3994192 3.44022
ABZD -3.3148186 2.313138 0.57343066 -1.2369378 -3.2176442 1.0207965 -3.7612183 -2.7356255 -0.36931548 0.49328008 -0.971402 -0.36434013 -3.0915954 1.0038643 -0.12411557 3.9681249
ABOG 1.6803838 1.7397085 0.07960881 -1.8959875 1.7508723 -0.59220517 -3.603219 -4.340476 1.3613657 -1.7530828 -0.43390262 0.31711552 0.24491611 -1.2904844 -3.20344 -1.2385951
ABEY -1.1156778 -1.3137097 2.9349887 -1.3441373 -3.0967364 -2.3902268 -0.49114305 -5.2541285 -1.3715385 1.4724361 1.1829531 -2.4242046 0.36648515 -2.4978542 -2.8020003 1.4768554
AAWC -1.0834237 0.13731395 0.86794513 1.3520584 -1.9333988 -3.4366078 -3.9029064 -3.3905234 -0.64846694 2.6879704 1.2319653 2.0957756 -1.9859581 -1.7725248 -0.2683573 -0.40101796
ACJN 0.9186286 -0.40569708 -1.4960477 2.368642 -2.4470348 0.39627203 -3.8541493 -4.374294 0.68202853 -1.7651051 -0.74743104 -1.3272977 -0.38293597 -2.2593937 -0.2913229 0.578972
ABDA -2.3155801 1.0382017 -1.6814983 1.5775944 -4.9036384 -1.3765072 1.8628603 -3.4708629 -0.23278017 3.5426838 -2.7545795 1.5426682 0.66314346 -2.1960995 1.5408106 1.6736275
ACNK -0.08969748 0.037394743 3.0131488 0.58717114 -1.4879252 1.3777249 0.9165223 -2.4392574 0.6801883 -0.6935149 -1.5311595 0.5884942 1.6339105 -1.104444 -2.4060552 4.0748596
AAHN -1.627613 0.62054574 -0.3423623 -2.2745771 -1.5510682 0.8709096 -6.467383 0.2639725 -0.17949945 0.017975554 -0.81693584 3.370708 1.1607339 -0.3978266 0.7286817 2.0166638
AALG -3.0237117 0.43134385 1.0884663 2.5367727 -0.040826567 -1.3187159 -0.3907298 -4.771823 3.5548906 1.0712018 0.13491228 1.7894336 -2.6044812 -0.4838112 0.6659809 3.0473886
ABSK 2.4592013 3.204006 -0.74401623 1.3737816 -0.088409446 -0.53869116 -2.9704018 -3.3703582 2.789476 0.80646515 3.2048862 2.1621642 1.4654025 -1.1285833 -1.0132473 1.8101715
ACFZ 0.22581637 0.44702223 -0.9600698 -0.09565004 0.61622727 0.12615415 -4.4087753 -3.270494 6.1406226 1.4939024 0.14674379 0.09083144 -1.5670033 2.4434457 -0.03210045 1.8457843
AAVV 1.5158025 2.871771 -2.7094681 1.1946968 1.1870439 -2.2214618 -1.0431585 -3.1999245 1.6465197 1.0155752 -3.308951 3.0879483 -2.5504754 0.24742283 -0.16570318 3.4834218
ABSH 1.6294675 3.1508648 -1.5202197 1.1237645 0.2169356 0.16563053 -1.8084785 -3.5919096 3.497406 1.388489 2.6098914 2.2742827 1.4657605 -0.23873807 -0.9987256 0.87786007
ABRR -0.20130385 -0.76403725 -0.50146157 1.5652004 1.1159904 -1.7999429 1.9046069 -4.6891627 0.86852264 1.9662226 -0.7612363 2.2599385 1.728974 -1.9765832 -0.4363174 4.1991463
ACPE 0.093159616 -0.3534905 -2.442389 -1.7656673 -4.0830784 -4.1077423 -1.9151943 -2.6397698 2.9583511 0.97196156 1.6306486 1.549403 -3.5693922 -0.81843466 -1.9138727 2.1118855
ABCJ 2.3795393 2.6139305 -3.8833656 -0.28912663 1.9212939 2.7783365 -4.395415 -1.6538287 -0.83475065 2.678473 -1.8454349 0.65376914 -0.23507017 -0.50910056 -5.560633 3.4341338
ABLD -0.92758435 4.068795 -3.7052257 -1.8428842 -0.36974564 -0.56747115 -4.8234525 -1.7106631 3.8874416 0.0842713 -5.101603 -1.0569116 1.3512975 0.8778778 -1.512276 1.1363467
AAEV 1.1434077 1.0666299 -3.3610592 2.9329402 -1.5659232 -0.19513232 -0.5005317 -2.8925464 -1.2376008 -0.05637575 -0.18622698 1.6799371 1.2904079 -3.251146 -3.202951 4.3184013
ABBO -0.4521767 -0.6155751 1.1201768 1.2316406 -1.3504263 -3.4839826 -4.1694717 -3.1450577 -1.0447639 2.5971098 1.3635482 1.1813105 -1.9971675 -1.6358756 -0.40469292 -0.5464986
AATC 0.73011965 0.14129251 -2.3003917 -2.7040377 -3.3567152 0.1786652 -2.246645 -3.8104746 0.041479833 3.6228395 -0.09703737 0.3221113 -1.4691329 0.9024935 -0.05721023 1.5575359
AACN 1.8779464 3.1778867 -2.0472713 -2.1523771 -3.2555134 -5.772303 -3.9858112 -3.147578 1.5105134 1.6705438 -0.77228445 -2.66693 2.2799084 -3.5039659 -0.009229866 0.28140283
AAIF 3.8979568 -0.7406135 0.76060474 0.99050885 0.24118182 -2.1498637 -3.3584807 -1.4789836 2.3422735 0.6968646 2.7573254 1.94527 -0.46046823 2.1211894 -4.8816853 2.9626424
AAQZ -2.298665 1.7447937 -1.4793767 -0.5428613 -1.9978502 -2.6865802 -2.8425164 0.14806099 2.0588093 0.6331626 -2.4314284 2.3151107 -0.6774931 -0.091274574 0.98169696 4.519952
ABAR 1.9383454 2.7282288 -1.7934487 -0.11251058 1.2561396 1.7924191 -2.3924003 -0.7127903 -1.5374873 2.4546518 -1.3906978 0.20155066 -1.7018882 0.17357592 -3.7339892 1.9855407
ABEX 0.4774484 -1.5166849 1.4068937 -3.747275 -4.9171696 -3.1999185 2.1252646 -4.2250605 -1.1313996 2.1283522 -2.8289359 1.6282884 4.9753428 -2.0317714 -2.271197 2.6727226
AAQB -1.0168971 -0.405381 -0.9153652 -0.4748166 0.46972048 -3.688179 -1.6140409 -4.4954734 -0.06365207 -0.42152786 -0.45389557 2.0053594 -3.9275324 4.0012636 -1.4891341 1.8016312
AADA 0.8502798 1.240922 -0.58136827 -2.7713108 1.6091968 -1.2552348 -4.1321964 -0.9293331 -0.1550017 1.455217 0.31642383 -0.6419888 3.2403316 -0.78143847 -2.4452214 2.8961565
AAKO 3.3670108 -1.1351205 -1.0188228 1.1535091 -3.7955492 -0.9294575 -1.7666048 -3.1689112 0.25567842 2.9363902 2.0040028 0.33321616 3.4229052 -0.32868165 -3.4720092 1.862483
ACFA 0.06867602 0.14465898 0.698201 -1.1956018 -0.39416546 3.8538032 -2.4023914 -4.6433406 -0.9059727 1.9436635 -2.0085385 -0.30550754 -1.0593386 -1.8622979 -1.8432868 1.5542716
AAGO 0.4817492 -3.5797665 -1.3994019 -2.4292352 1.2080221 -1.865074 -1.5605451 -3.1172395 4.3385096 -2.822437 -0.9456916 -2.6001096 -1.5692033 0.34581143 -2.4220989 2.9014213
ABKE -2.9161708 2.1133366 -0.90476155 3.007762 3.3383975 -0.19641735 -0.7309145 -5.9400473 -3.3629591 1.4331275 -4.6346602 1.1955552 1.0324328 -2.01339 -3.225883 0.6523783
ABCS -2.4800737 -2.1935256 -0.70235103 2.346648 -2.840635 0.90516806 -2.8608997 -2.4680638 -1.3864337 2.2407475 -2.7088447 0.11838455 -3.6468163 -3.6598127 -1.0187048 2.492697
AAJF 1.9832913 0.93600625 -0.77309394 -2.3971581 0.87877125 -1.7803407 -3.8746824 -1.326245 -0.22540124 1.2405386 -0.88801515 -0.4929261 4.673727 0.93108684 -2.1033943 2.25509
ACGJ -1.6366353 0.5902273 1.454638 -1.6083691 1.5924841 -0.9100227 -1.3033618 -3.5623543 2.332382 1.3617855 -3.4497864 -0.3773046 0.11567351 0.43700176 0.49021873 3.9144304
ACBU -0.83196825 1.1765227 -4.2013297 0.22608624 1.2634121 -2.388435 -3.6349576 -2.6500266 0.63263327 1.0722705 -0.85160154 0.9039066 -0.2703139 -1.0625811 0.19462949 -0.9274493
AASW -2.6609993 3.6244636 1.211322 -1.3998849 0.90539944 -2.170485 -2.8884218 -0.96256393 1.622827 0.24760811 -1.8942819 2.4600792 -0.64436907 -1.8412663 -1.8351436 1.2303468
AAVA -0.83250296 3.4567287 -2.3384883 0.3295915 1.7692887 -0.1644465 -0.4479731 -4.060379 1.8712516 0.5326924 -0.5101167 0.6656552 -0.59014666 0.99130076 -4.326834 2.0921125
ABTZ 0.78493994 -0.65510553 -3.8190036 0.7583134 -1.5185866 1.9583074 -2.64709 -2.9272225 0.4742458 2.1207492 -2.0465813 0.56672776 3.6404176 -0.983563 -0.6778768 1.8435081
AAKU 0.7054075 -3.185591 -2.0212252 -0.59976965 -0.48357144 -3.1105058 -1.8480363 -2.0911973 5.00353 -1.8794328 -1.0199746 -2.295814 -0.5018089 -0.59666777 -4.0787563 0.7049383
AAHS -1.9224054 1.6296302 -0.3109962 0.92365885 1.5676053 -1.5014851 -3.2457347 -3.9795654 -3.3957398 1.8532567 -0.3133542 -0.27095807 3.5957725 -1.6770879 3.227859 0.8261049
AANL -3.1480122 -3.579803 -1.6225295 -0.41537854 -2.7095997 -1.9863604 0.053126253 -4.4100876 1.2795771 -2.2597113 0.0104969125 0.90465796 2.016324 -2.0696387 -0.27567697 1.4606259
AAGB -3.3332531 -3.9111557 -1.2951131 2.1417677 -2.9878356 -1.31523 -1.3019187 -2.9004052 2.2954628 -1.7392195 -0.5871333 1.4758077 1.3888643 -2.2912493 0.06940112 0.7160935
ABEW 0.63120365 -1.3736502 1.2814924 -2.7225647 -4.061995 -2.5878053 1.6182668 -2.8093083 -0.6579898 1.0286565 -2.7249165 1.4564058 3.2729552 -1.9878341 -1.3010511 1.6783352
ABJG -1.418638 3.2340639 0.27448487 -1.2019017 -4.0851817 -2.1994147 1.1574801 -3.201905 -0.6071662 2.3178937 -0.0825382 1.8368865 0.24387841 -1.9031621 -4.1557174 1.0235163
AADS 2.642403 -1.2223755 1.1232339 0.2793341 -0.19648317 -2.9920304 -2.2321045 -1.4465286 1.6792548 0.84427446 1.0657115 1.1865231 -0.875563 1.8134339 -3.7191575 1.4243795
AAGI 0.5242156 -0.06517218 -1.1647847 2.4004376 -0.9931229 0.048899405 -3.6190069 -0.93062985 1.9561903 -1.2783331 -1.2387258 4.3823714 -0.31237656 -4.62036 -1.6813762 1.0374793
AAVL -1.9317828 1.7577593 0.44772848 -2.0422716 1.3352445 2.6228983 -1.9201291 -4.0056357 3.075588 1.9418296 1.8096045 -0.5484001 1.7882786 -0.3814053 -1.333844 3.0489593
ABCM -1.3396206 -1.8177183 -0.46659967 1.285328 -3.2686753 -0.91398394 0.88200074 -2.7199373 -0.15575376 1.6086048 -5.4295 0.2707002 -2.8432496 -3.032614 0.7846975 -0.40917534
ABWC 0.49823684 2.0641427 -2.423671 1.4126612 -3.0757215 -0.16893223 0.18525665 -1.448664 3.4580245 1.0762129 -2.516834 1.3685504 0.77139497 0.9975248 -1.9920001 2.5193374
ACCJ 0.06245097 1.0673903 -1.8443251 1.6250436 0.50438595 -2.3316357 -4.0439525 -0.26176912 1.8194178 1.8532605 1.3430437 2.5162044 2.65733 2.0777678 -1.2471589 2.9706755
ABPU -0.9680597 1.7053345 1.0688828 2.0230248 -3.0605347 -1.073471 -1.3167652 -4.1438684 3.0561063 -2.591466 -0.2043628 1.5099536 1.244546 0.3058464 -2.8807774 -0.5190916
AAJE 2.150126 0.9333045 -0.6464467 -3.1012416 1.1667316 -1.7795732 -4.3311877 -1.2678721 -0.11017417 0.79501545 0.046224892 0.13409688 3.1958387 0.36818123 -2.6024332 2.618898
ABKC -3.7138996 0.9601024 -0.9741457 3.3397672 0.19717531 -0.20296548 -3.0888114 -1.3724355 -1.2817823 -2.8015807 1.8151556 0.4540402 1.9669634 -0.621694 -1.7253252 1.8264278
AAIQ -1.0355432 1.3718497 0.3258304 -0.5563767 0.08067919 1.6960633 -3.9987125 -3.8893478 -1.8399376 2.3139083 2.5127118 1.5104631 1.1576259 -0.33209273 3.92369 1.0680021
AAXB -3.1565795 -3.2684214 -1.1622117 0.56568724 0.7758796 0.2630559 -2.7707736 -3.4095635 -1.4326293 1.9133937 -2.0158422 1.9783819 0.9226917 1.0030913 -0.7704515 1.5552075
ACCR 1.3670752 4.0194626 -2.2468774 1.124474 -0.44291088 -2.2266562 -2.0543103 -1.3896171 2.1251583 -2.9353027 -0.68838406 2.9017758 1.5653075 -0.4597761 -4.0071225 6.1049037
ACCQ 1.2437869 4.3476677 -2.1662579 1.1105173 -0.44094667 -2.2669907 -1.8173811 -1.3457217 2.2770205 -3.1209788 -0.3164137 2.956561 1.5145957 -0.23007503 -3.9397516 6.267556
ACGG 4.134435 -1.9255894 -0.40744922 0.010048947 -3.5104039 -2.7647893 -2.8473833 -5.566178 3.7960503 -0.44300935 -0.6552202 3.4358494 -0.60769033 0.35657385 0.80781394 0.82051075
ACGH 4.1132927 -1.8809859 -0.48044825 0.089519955 -3.5310738 -2.8417006 -2.9687629 -5.6328726 3.7986672 -0.3681992 -0.62547064 3.439641 -0.57693446 0.42531502 0.7099992 0.95939463
ACRF 1.5261607 1.841232 -0.38317826 0.26727268 1.4754721 -3.280344 -2.0017986 -3.4572825 0.33658484 0.76697326 -2.796343 -0.74323326 3.5741289 0.7291701 0.508536 7.5787277
ACRG 1.5432929 1.8253919 -0.41737813 0.30177602 1.5108509 -3.2431638 -1.9370794 -3.4998286 0.41334704 0.71073556 -2.8871896 -0.7538364 3.7009087 0.69533014 0.6353851 7.61815
ABVA -0.2616453 4.13975 -0.14845887 -2.0145168 -2.6206183 3.7829473 -4.2936416 -3.7730174 -0.40981388 0.29568765 -1.6224881 1.2960905 4.1175776 -2.6706946 -2.1290836 2.5078826
ABUZ -0.26954967 4.104917 -0.154466 -1.8458565 -2.6776612 3.7082877 -4.287631 -3.8149276 -0.340187 0.2500276 -1.686917 1.3418715 4.075671 -2.5541813 -2.2713242 2.5515516
ABUH -2.4121144 1.9431814 -4.0026174 -2.0567267 -1.1523917 -2.223607 -2.348953 -1.6017048 -1.1489145 6.2945895 -2.3754764 2.670691 -0.51764333 -2.1854599 -2.1564765 2.4759986
ABUG -2.4316723 1.864202 -3.952978 -2.082693 -1.0608315 -2.2201183 -2.242475 -1.370096 -1.1182609 6.382197 -2.368706 2.7752254 -0.5674662 -2.3295307 -2.2867205 2.5015564
AARM -1.1523798 2.519089 1.4105903 -0.85546887 0.26677907 -1.4965174 -5.9270806 -0.14364798 4.3308873 -2.582336 0.8717042 1.6342734 1.7458503 0.56809944 -5.0590115 3.1920736
AARL -1.1735936 2.533679 1.4678987 -0.7852419 0.20378192 -1.5690619 -5.892239 -0.07231551 4.3618913 -2.5391953 0.908912 1.6465559 1.81871 0.50719935 -5.0483294 3.2133024
AAON -0.18777978 1.7110264 0.85605484 5.114341 1.392685 2.389256 -4.618118 -3.659691 1.5130023 3.9443445 1.6242119 0.357339 1.4262704 -0.7903958 -2.1449225 2.8578892
AAOM -0.22749119 1.7963711 0.7572157 4.7723145 1.2023467 2.049771 -4.6225576 -3.7412984 1.4623998 3.829892 1.4422653 0.50470936 1.1894689 -0.8519881 -2.323806 3.0853
ABCG 0.043372117 0.6336337 -0.7407511 -0.23784164 -0.7119066 -0.90671307 -2.5213683 -2.869219 0.9034158 0.8259812 -0.4722479 0.98373973 0.118194714 -0.27335015 -1.3622273 2.287054
ABCH 0.0640234 0.665067 -0.6911771 -0.24667032 -0.6973712 -0.85277236 -2.4712207 -2.856796 0.8834575 0.82431257 -0.48563188 0.965006 0.10247673 -0.25266778 -1.394288 2.2480702
AAXH 3.9322288 4.216808 -2.3010867 -0.4122437 -2.911266 -2.7040012 1.1090107 -5.5303626 1.2669846 1.6105555 1.0476364 0.6713676 -0.45780337 0.011652192 -2.8275278 4.0042677
AAXG 3.9694784 4.184287 -2.3417556 -0.3549583 -2.8292232 -2.7022696 1.1100583 -5.450594 1.3181039 1.729346 1.1878558 0.6030768 -0.54882264 -0.054250576 -2.8554678 3.916926
AAKI -2.0949383 2.1609287 -1.467099 1.7830338 -1.6258825 0.8697937 -5.4617386 -2.903192 3.133781 -0.40810883 0.63945687 0.7661736 4.614386 -3.796346 -0.9541938 1.3376329
AAKH -2.2599225 2.2185493 -1.4531912 1.9323833 -1.6660552 1.0910884 -5.5568175 -2.7475462 3.2219205 -0.52792513 0.67654586 0.6892454 4.834944 -3.904781 -0.8502639 1.2023478
AAPO -0.8245207 1.3156474 -5.295494 3.2462533 -0.31062016 1.8233259 -2.6283047 -4.338907 0.3048932 2.6785848 -1.0937074 0.49179685 0.13040325 2.7720408 -2.2446077 4.4823465
AAPN -0.75489104 1.3050408 -5.3324833 3.3271308 -0.223144 1.9556078 -2.6012928 -4.208587 0.21969472 2.7908235 -1.033467 0.45054373 0.18344973 2.9311266 -2.1856656 4.4926243
ABXY -0.045942277 0.7073029 -0.65059596 0.07099048 -0.7484125 -0.9721046 -2.738822 -3.3537242 0.9440559 1.0838377 -0.815349 0.9284589 0.337661 -0.57277703 -1.622855 2.5675228
ABXZ -0.03123897 0.6666177 -0.69272643 0.019360317 -0.75036097 -0.9581806 -2.6996934 -3.3671186 0.9220232 1.0553284 -0.8588906 0.9880598 0.30278432 -0.5685474 -1.6175882 2.552217
AAOY 3.1074545 -2.5425673 0.9733135 -2.466046 -0.11648491 -2.9226556 -3.2273529 -4.76211 -2.935575 0.516475 -3.6783493 3.8968434 1.7563574 -0.58007264 -1.5984806 2.143168
AAOX 3.2813308 -2.6994598 0.99678904 -2.3302019 -0.044329323 -2.9673448 -3.116341 -4.5759926 -3.2471495 0.39381605 -3.7345035 3.8322299 1.726403 -0.5465596 -1.5426652 1.9224875
ACME 1.0320737 5.2080903 1.0033643 -0.8979158 -0.49567658 1.5805948 -4.0354123 -3.8905187 -1.1126262 1.1075828 -1.2823771 3.77188 -0.728589 -1.1586769 1.6218396 5.038465
ACMF 0.9718287 5.225687 0.99193925 -0.75847584 -0.35726878 1.6282905 -4.0305824 -3.887371 -1.0022936 0.92777216 -1.3140963 3.7991705 -0.6863896 -1.0413162 1.6145526 4.969762
AAPJ 0.5545129 4.055543 -2.5513134 0.420274 -1.2188029 3.2170737 -5.1912184 -5.261041 1.297091 -0.22994359 -0.085403174 3.5962613 -0.71715605 -0.09430704 -1.1725948 -0.18140115
AAPK 0.5026379 4.065939 -2.5628445 0.4694111 -1.1328571 3.3355796 -5.1310368 -5.126621 1.2469524 -0.307436 -0.027691469 3.5680208 -0.7375321 -0.04548419 -1.1030854 -0.37413007
AAYH 0.006434194 0.5968543 -0.8844323 0.0839471 -0.5168428 -0.7524047 -2.5356202 -3.414662 0.9317947 1.0814883 -0.7567859 0.8440767 0.36143374 -0.57830644 -1.6325805 2.195918
AAYI 0.035601474 0.54982996 -0.895362 0.09604478 -0.49123237 -0.72052246 -2.461917 -3.3037786 0.843131 1.0471601 -0.73593295 0.8687702 0.38000116 -0.58522004 -1.5943618 2.1098714
AAZM 4.206754 4.5763364 -0.25448003 -3.4453382 0.73287064 -1.4270821 -1.9010231 -3.102583 4.0621533 1.2217649 -2.072791 2.4910104 -0.70917267 0.3322746 -3.3079865 3.0266838
AAZL 4.1549664 4.6592793 -0.18055794 -3.3776252 0.6883016 -1.3095515 -2.0737426 -2.9627988 3.9968429 1.1466572 -1.9849778 2.3289342 -0.74418265 0.35618123 -3.322689 2.9922338
ABSP -5.6464005 2.560319 -3.7686434 0.9344257 0.6093077 -0.07268777 -1.7865001 -4.1200275 1.0489124 0.586373 -1.5891715 3.480086 1.371547 -0.07783726 0.6723722 2.9093237
ABSQ -5.579814 2.568996 -3.8940148 0.97831124 0.5979203 0.028279131 -1.8758378 -4.02042 1.0844859 0.58070517 -1.6097305 3.5882442 1.3466567 -0.15149225 0.5431258 3.0629585
ACMQ 0.24678773 2.2252684 -2.3068788 -2.1979022 1.4015286 -0.66434765 -7.076886 -4.199157 0.45992917 -0.01447819 -0.62169677 1.3020723 1.2913651 4.344783 -0.17074396 1.4319155
ACMR 0.07622904 2.216604 -2.6061678 -2.2024748 1.5021029 -0.86213696 -6.9533 -4.133779 0.31966338 -0.27684823 -0.68532825 1.0328166 1.1837517 4.421317 -0.17363176 1.5003576
ABVD 2.6162632 2.3613565 -0.3560763 0.07696433 -1.445088 -3.8412807 -5.1893353 -1.9084266 1.809217 -0.9444213 -3.4834285 -0.30057698 -4.146025 -2.0743513 -2.2495136 1.2935061
ABVC 2.5201738 2.2157507 -0.35912463 0.07337936 -1.3810453 -3.8442373 -5.2318707 -1.7849214 1.6202337 -0.97385484 -3.6402242 -0.22936332 -4.3030686 -2.0326288 -2.234457 1.2319094
AABD -1.1331286 2.040241 -1.7014209 3.6939108 0.8797491 -4.971028 -3.242333 -5.783277 -0.40137285 1.5710683 -0.79950583 -3.628968 -0.9383723 1.4508424 -1.9681561 2.0067363
AABE -1.062078 1.9478977 -1.7551341 3.5229769 0.7186177 -4.9594836 -3.2590983 -5.7121387 -0.52241445 1.5510119 -0.7659041 -3.3978965 -0.9958391 1.2570696 -1.9459264 2.206746
AAZR -0.3983219 -1.8684478 -1.1567252 2.5712535 -1.3631169 0.5779738 -4.435728 -2.8239474 0.79865646 -1.1195629 -4.613735 -2.1475914 3.545461 -1.0255774 -5.036155 2.7787895
AAZQ -0.35476735 -1.8445352 -1.3495669 2.5422177 -1.2538577 0.4742282 -4.28011 -2.8417215 0.7140379 -1.0881258 -4.4566336 -2.08194 3.5561407 -0.8311927 -4.9432507 2.800491
AAOT -0.06949718 0.6564902 -0.6560307 -0.049910106 -0.69278467 -0.9499578 -2.9416423 -3.353179 1.1358702 1.0981244 -0.70799094 0.8478243 0.41488382 -0.62200356 -1.6993719 2.4502563
AAOU -0.057737842 0.6523344 -0.6918566 -0.01186463 -0.686184 -0.920486 -2.9017115 -3.359374 1.1292259 1.0811585 -0.7186953 0.87847704 0.36177847 -0.5863232 -1.6972915 2.4253597
ACRD -0.36510321 0.45584697 -0.82900447 -0.04122678 -0.7857858 -1.0243788 -2.6631079 -3.2645712 0.98055863 1.1854725 -0.6368915 0.98380095 0.61948687 -0.38909176 -1.5540794 2.173346
ACRC -0.3704771 0.4324773 -0.7921616 -0.012818648 -0.78418416 -1.0191232 -2.6576822 -3.180944 0.9743162 1.1795223 -0.6485168 0.9909649 0.60614735 -0.34570512 -1.5410768 2.0728886
AAUP -0.21586972 -5.796839 1.1261889 0.4126273 -0.7252017 -1.6910917 -2.0978138 -4.780602 4.540359 3.0702136 -1.2809677 0.3589815 2.9725296 0.7570562 -1.0062065 2.5985515
AAUQ -0.3346124 -5.4355197 1.1035031 0.47084433 -0.6625869 -1.7038512 -2.1616423 -4.9650235 4.4205503 3.0089955 -1.334882 0.4763324 2.9290833 0.8509997 -1.0412378 2.5636709
AAYY 1.9994828 1.610292 -3.2327003 -1.713066 2.4079983 0.021111539 -3.1322 -2.803863 0.50590414 2.7271628 -2.6667325 3.9570656 3.4435153 1.2020639 -0.20153616 5.552102
AAYZ 1.9731259 1.6370397 -3.2960649 -1.7226946 2.4820352 -0.13673696 -3.0463746 -2.757107 0.49056187 2.7975595 -2.651968 4.0703254 3.4046493 1.0508314 -0.1805885 5.662199
AAXJ -3.5251102 1.5405552 -1.8955624 5.361644 0.27527982 -2.9692197 -3.7298377 -3.6065948 1.8137203 4.325979 -1.3732617 2.5088484 -0.3566191 0.062605046 0.22711715 0.9032913
AAXI -3.5020266 1.4164206 -2.0033214 5.276643 0.16309325 -2.9731212 -3.826007 -3.8876772 1.598566 4.3768477 -1.4049795 2.6210515 -0.34447977 0.10129758 0.13609576 0.85742503
ACJB 3.8371556 2.0674105 0.46085665 0.24007075 -0.93295765 -3.5321896 -3.4996164 -1.7380627 6.2043195 -0.37119877 -1.378738 -0.11419142 1.125189 -0.9658944 -0.7853297 4.8731093
ACJA 3.942454 2.0212185 0.5795982 0.24476959 -0.8440181 -3.5762463 -3.5025215 -1.6270784 6.3876696 -0.44817838 -1.3163886 -0.23887913 1.0625436 -0.9309822 -0.72979516 4.772743
AAZO 3.068271 1.873796 -2.0969598 -1.4589274 2.330631 -1.0220106 -1.7311703 -3.6890657 1.2991475 -0.88662344 -2.2141638 -2.8411746 0.5841774 -3.0244389 -5.0554805 4.9389524
AAZP 2.9832008 1.862387 -2.1730917 -1.3859643 2.3015883 -1.023141 -1.9135376 -3.656136 1.4151365 -0.8637146 -2.2128592 -2.8328211 0.58841383 -2.9830241 -5.0021205 5.0262403
ABKN -0.20321237 0.3750043 -0.48889753 0.012611441 -0.6864332 -0.9253409 -2.8016667 -2.9451246 1.162631 0.85848993 -0.38805053 1.2333713 0.19567354 -0.29452834 -1.7922039 2.4083068
ABKM -0.21065137 0.4129758 -0.47394916 0.024210982 -0.72046864 -0.91039056 -2.8014934 -2.9776886 1.1717733 0.8284771 -0.38143846 1.2435685 0.18118292 -0.2795445 -1.797053 2.472179
ACRV 2.5553164 5.1475058 0.7556168 -0.11510569 0.6527589 -4.223682 -4.6012974 -1.836804 2.3366451 -0.015444326 0.991182 3.6653183 -2.0332134 2.1659296 -2.506836 3.5998037
ACRW 2.5009136 5.0181193 0.71803653 -0.07275553 0.6528185 -4.190577 -4.7033963 -1.9765704 2.3533714 0.017036788 0.86902463 3.4519832 -1.9795109 2.1422927 -2.6472063 3.6295676
AAYN 1.9376509 0.7166806 0.932233 -1.6723343 -0.65280974 -3.0680034 -6.1061344 -2.62225 -3.219931 0.48462385 1.1916401 3.4840543 0.97723365 -3.7519844 -3.9156067 0.7086417
AAYM 2.1278625 0.64523417 1.0283695 -1.7747357 -0.6253094 -3.0364718 -6.0537167 -2.372638 -3.3697462 0.2885603 1.2993675 3.5160546 1.0215298 -3.8669305 -3.8707156 0.6343887
AANZ -1.7018507 -0.32525045 -1.4711972 -0.97613263 -1.4765601 -4.7160363 0.17497429 -1.5262748 1.4485453 -0.9401139 -2.264106 2.3269882 3.1095324 2.672361 -4.2450194 5.747731
AAOA -1.6790094 -0.29030862 -1.479165 -0.98370486 -1.6028336 -4.654049 -0.21602447 -1.8047422 1.5374786 -0.89586276 -2.2875874 2.2999694 2.919546 2.4590678 -4.2004156 5.5812435
AAWK -0.03135405 -0.21534275 1.0159116 -0.26841912 -2.2865114 0.2878192 -1.573474 -4.2483015 4.8121305 1.1931171 -4.301253 -1.9494727 5.107229 0.21008782 -1.3961717 3.8792052
AAWL -0.07301431 -0.16055185 1.0536721 -0.34662968 -2.3531542 0.43001923 -1.4775037 -4.195853 4.8417015 1.1017033 -4.236368 -1.9645593 5.3053746 0.31449473 -1.4270029 3.8088448
AAZF -0.59906155 1.0341598 -3.0694609 -0.07962523 -3.9355457 3.0114956 -5.113105 -1.2617189 1.9423766 -0.28871086 -1.2813833 -0.27310503 -1.3282893 -0.807107 -5.318579 2.9139357
AAZE -0.57370484 1.0809017 -3.049904 -0.12509644 -3.9410672 2.993192 -5.0681834 -1.2171139 1.8797388 -0.3974751 -1.3160914 -0.38728812 -1.4124032 -0.80179983 -5.3418603 2.7597275
AAYD 1.9187368 -0.47762474 0.019369444 -2.0273657 -2.3819993 -1.3352089 -5.1772943 -4.6993275 -0.7572258 0.9009427 -1.1111711 3.6564739 1.7720981 -5.1635695 2.6165802 1.397323
AAYC 1.7866842 -0.4712661 0.044905324 -2.0376616 -2.251601 -1.3079315 -5.1729937 -4.723595 -0.83385193 0.85578454 -1.051494 3.7594461 1.7990905 -5.2440534 2.7971487 1.2400209
ACRS -0.91885495 0.25860777 3.0448768 -1.0092857 0.40691173 -1.3692454 -0.36662832 -3.4253395 3.0027788 3.3578522 1.1974914 2.7355347 3.2237518 3.1042008 -3.0010707 5.290764
ACRR -0.8659619 0.1778545 2.8531232 -0.873197 0.29457083 -1.4322116 -0.59574133 -3.648304 3.084027 3.336067 1.139462 2.799942 3.2211797 2.8789108 -2.9897192 5.3625097
ACLQ -2.7137747 0.7736486 2.4024937 2.249366 -1.06367 -1.4394293 -3.478085 -1.0097076 -3.0744042 3.3721068 -0.43709496 2.828507 0.13426022 -1.3486536 -6.642465 3.244486
ACLR -2.6603959 0.856588 2.3964639 2.236377 -1.1231438 -1.5268592 -3.525846 -1.2059225 -2.8018546 3.3568811 -0.397008 2.7478673 0.108270414 -1.1770791 -6.572875 3.3135033
AAVJ -0.8631723 5.2194905 0.0766959 1.2835335 1.8722801 -2.3905814 -3.935627 -1.7175272 1.6906114 1.4665852 1.9280761 0.9774552 2.3631299 -3.8585646 -1.4765345 5.0299315
AAVK -0.9170614 5.232854 0.05756646 1.2327762 2.0274646 -2.2628279 -4.1059203 -1.7410012 1.6510988 1.6496854 1.8874518 0.9191557 2.3292835 -3.812886 -1.4446932 5.0903344
AACT -0.17568655 0.2883726 0.91388017 4.877111 -2.257414 -1.5983764 0.25650528 -3.5974748 1.4461358 2.554493 2.6249616 1.9335139 -0.9971316 -2.8302708 -5.6968718 3.3504262
AACU -0.12658018 0.35502994 1.031172 4.6494775 -2.314865 -1.7634498 0.13287032 -3.829596 1.3250005 2.6878142 2.3521075 1.8875381 -0.9840797 -2.7345543 -5.5528855 3.397971
ACRZ -2.3864222 4.375197 -3.4681807 2.4497304 -2.7042632 1.0614629 -2.2898283 -2.6954515 1.5031495 4.430783 -2.6993248 0.7340826 -1.2286088 -4.0703115 -2.531485 0.453177
ACSA -2.1775496 4.2203946 -3.4494402 2.4550369 -2.6579378 0.9545888 -2.5424137 -3.1050467 1.6826382 4.311987 -2.6058989 0.9186441 -1.0764223 -3.9883547 -2.542191 0.7642951
AAII -3.1097388 -3.477987 -1.3240361 -0.061742667 -3.3515096 -2.35128 0.38159528 -4.347786 1.9106933 -1.7337211 -0.16750784 1.0354053 1.9658554 -1.0831827 -0.9289447 0.86860967
ACCE 0.6884158 -0.06658265 0.55046004 -1.9787725 -0.035169404 4.070917 -2.4955564 -4.7576437 0.013099266 2.0496695 -1.8342932 0.10873995 -1.3974998 -1.0813209 -1.4151137 2.2364566
ABKD -2.9885676 1.6906133 -0.68434656 2.1430073 2.6068418 -0.9338649 -0.2877524 -5.650797 -2.9571552 2.2179742 -4.856422 1.5086771 1.2703513 -0.9508837 -3.0354724 1.0007678
AAGK -0.29592106 1.0519698 2.6951544 -3.6535368 1.8809168 -5.80385 -1.0190679 -3.9202042 -2.1325371 0.26691577 -0.64803356 1.3573897 -0.8847345 1.7463493 -4.9590397 2.190897
ABCP -2.2280934 -1.9816942 -0.8076999 1.5804539 -3.4350052 -0.29151586 -0.10696293 -1.8313191 -1.3934906 2.212642 -4.413491 -0.1324788 -3.6505299 -2.7001753 0.39776966 1.2311397
ACCH -0.79939187 -2.2192304 -1.064414 1.3230402 -2.0446181 1.0387694 -3.2946181 -1.7903451 -1.5245984 3.588419 -3.2299306 1.5145068 -4.67941 -2.9225907 -1.706741 2.6538842
AAKF 1.3535365 -3.7335935 -0.90617704 -1.5770049 0.08282371 -1.2594274 -1.0804075 -2.7196403 4.6679587 -1.946624 -2.5063474 -2.7941577 -1.8440461 -0.8820274 -2.9216857 1.9269983
ABED -2.3906472 -1.1302583 -0.36641982 -0.72491574 -5.4234734 -0.5507205 -1.7198241 -1.6885636 0.7458782 -1.1402165 -1.6632949 4.025732 -1.5821509 1.5780535 -2.9798708 4.386641
ABHD -2.248597 -0.9181333 -0.28451636 -1.0395586 -5.481461 -0.17616835 -2.6365292 -1.0327477 0.8919748 -2.238168 -1.401701 5.049806 -2.2025244 1.9425322 -4.0565505 4.7528334
AAAK 1.8596829 1.4210166 -0.37470713 -3.7004669 0.57885516 -1.8873867 -4.4093776 -1.7116544 -0.27564588 1.5776768 0.59875494 0.3955983 3.2164946 0.6429719 -2.4766862 1.4643985
AAGR -4.6265316 -3.8799293 -2.2777817 0.38076383 -3.0791786 -1.708307 -1.3688146 -4.0285683 1.014749 -0.87284136 -0.057776015 0.5758927 0.88199365 -1.9689779 -0.00743102 0.5092432
ABEM 0.12286814 0.56968397 1.4194412 2.5031204 1.3418964 -1.2627639 -3.855553 -2.5455525 -0.9000797 -0.6753509 -0.3285849 -0.3080661 -0.091194354 -3.7768 -5.5667367 0.08615982
ABHI -3.6065495 1.6776386 -0.6220963 1.7898943 2.6155717 -1.4599943 -0.11308782 -6.4021387 -2.7829275 2.7115183 -5.522804 2.3066847 1.604676 -0.13622488 -3.3258872 1.4806445
AAOZ -4.1806693 -3.276166 -1.5782491 0.8053126 -3.3192308 -0.2264276 -0.7570559 -2.748869 2.450198 -1.5377096 -0.28931966 1.403557 0.59716266 -3.3943267 -0.10142545 1.6183809
AAGV -0.4064971 0.59617406 3.382926 -5.215519 -0.898054 -0.44319683 -2.7645087 -2.976037 -0.15038384 1.2573708 0.52210826 1.2053216 -1.6575954 1.7640023 -1.9867321 2.300075
AAMO 2.631599 -0.9523202 -1.3138164 1.5445163 -3.753585 -1.0396034 -1.741137 -2.527612 -0.35134766 2.694965 2.463544 0.6766987 2.5915568 -1.1764414 -2.6793709 1.660843
ABDB -4.48427 -0.86406094 -0.88202775 0.32755387 -6.753236 -0.48305985 1.2615703 -3.196668 -0.29918408 1.9839171 -3.5531514 2.0027142 -0.6272533 1.0008111 1.1784906 3.5809991
ABGM 1.3627257 -1.6282982 0.5036531 0.43264827 -5.301515 -2.6208658 2.498445 -3.2980757 0.71913373 1.707167 -3.5747442 -0.19588898 -2.4293964 0.15925978 -4.019015 3.4249039
AALU 0.6723444 -0.48329604 0.8817311 -1.9249996 -4.11915 -3.8995094 0.70983356 -2.7197511 0.15113619 -2.2584996 -1.7342618 1.2783403 1.7121739 -2.6894667 -2.4148362 1.1181893
AAJT -2.107871 -3.2569337 -2.40768 -0.35424295 -3.265444 -0.8734644 -0.38180825 -2.650008 2.223862 -1.4450858 -1.3680079 1.3634063 1.9077688 -3.2958708 0.26497266 1.9669894
AAHO -0.9030334 -4.2489495 -2.1480877 -3.129358 0.36006495 -2.206507 -1.3711993 -3.4439263 1.0872262 -1.4550759 -0.4802941 -2.6722383 -0.93671304 1.5756508 -3.071801 -0.35718858
ABIH -1.5138329 2.9602454 0.30180445 -1.1787318 -3.638714 -2.5904813 0.5836496 -2.9056122 -0.6338091 2.0946858 0.22921187 2.322387 -0.3542125 -1.1483662 -3.7231414 0.7809243
ABEL 0.31092265 0.40701982 2.0532842 2.6104736 2.008186 -1.7867278 -4.9352317 -2.8454673 -0.73281217 -1.3142473 -0.92119795 -0.47989964 0.044920262 -4.594146 -7.561646 0.13810651
AAGD -1.4242289 -0.5437287 -3.7348359 -1.9547951 -1.4895611 -2.0016668 -2.961985 -1.8864433 1.019491 -3.5119293 -2.0872052 3.4814224 -0.47983962 -1.4900948 -1.2982572 1.2157769
AAFF 1.9166689 1.7646594 -0.9311169 -2.5578194 0.68006253 -1.5803248 -4.182303 -1.2624493 -0.6222021 1.4624248 0.21271296 0.031148136 3.245828 0.15032017 -2.387703 1.9504708
ABET -3.735953 -0.6491265 -0.86932766 0.43274617 -6.051017 -0.611922 1.1876383 -2.8481176 -0.14335589 1.78425 -3.3088133 1.7332193 -0.3422366 0.56468475 1.1594065 3.0383985
ACHV -1.0074677 -0.7363802 -1.4818957 1.3415166 0.7612557 0.43815172 -1.8201857 -5.0419674 2.6127105 1.1172556 -3.351116 1.304667 -1.1753981 -2.609146 -0.38054305 -1.2336545
AAHK -2.794698 0.68197787 3.0285044 -0.12565652 1.2381972 -0.6638288 -1.8955213 -4.885592 -1.0621071 1.7494379 0.80676854 3.50163 2.808984 -0.5594107 -1.4236811 0.24158853
ABFB -0.7423842 -1.1256695 -0.0782681 0.7820973 -3.6041706 -1.6684347 0.34915403 -2.7353222 -0.9085875 1.8991598 -4.8637733 -0.018458975 -2.3772087 -2.5706186 -0.43894753 0.72794527
AAIA -1.6048199 -4.094333 -2.569492 -3.991 0.049986348 -2.5563266 -3.1338453 -6.146073 1.562319 -0.26025236 -1.0841584 -3.6864545 -0.14922388 2.007871 -3.8146443 -0.25100455
AAHJ -2.2021616 0.0609182 3.2049284 0.09805052 0.996972 -0.77461183 -2.3630607 -5.1176805 -0.82572156 1.3415745 0.6089682 3.2845287 2.452655 -0.37376374 -0.84814054 0.2670485
AAHP -1.3982261 -4.1803374 -1.8803607 -3.6743996 0.3311448 -2.7360437 -1.9210235 -4.702993 1.0075362 -0.80624264 -0.7054484 -3.0524905 -0.5441266 1.8833581 -3.641771 -0.1418604
AAPD -3.1098247 -3.7578373 -1.6709806 -0.12468514 -1.9700025 -1.294808 -0.09901686 -3.0307102 1.8456511 -2.0408542 -2.0188246 -0.4152416 2.208252 -2.9749057 -0.7473985 2.1079276
ABCV 1.4619327 0.7613286 0.12563524 1.6166968 -5.208229 -1.7149532 0.6452378 -2.183169 -1.1755202 2.3370245 -5.586284 -1.4350326 -0.4515014 -0.98908544 -0.683273 2.024754
AAAU 0.18565446 0.76580596 2.4182158 -3.7303786 2.3057523 -4.9677014 -1.1273532 -4.461779 -1.1452638 -0.9835111 -1.1911795 1.1130087 -1.6930015 1.7964414 -4.6074905 2.0262856
AAVE 0.17833224 -0.7933581 0.80035573 -2.1095607 0.046413276 -0.046086755 -0.5902588 -4.7762165 1.6183369 1.9992185 0.29998457 1.2413163 -1.4433856 -4.1579514 -1.4907 1.4563372
AAFU 0.8565483 1.4697908 -0.9753387 0.85732895 -2.4691074 -0.42126626 -3.3312511 -3.1915464 1.3007576 -0.62925225 -2.0676856 -0.6944956 -1.9927301 2.4966 -2.7270901 1.117617
ACPJ 2.5965545 -0.9181697 -0.7924778 -1.3125995 -0.22067189 -0.8552329 0.3206332 -4.7633257 0.9987023 -0.44003636 0.11881833 -0.7031614 -0.116970085 0.9062418 -1.7769301 4.8194027
ABIX 0.25544545 3.7164037 -1.8993636 -0.45120266 0.95492995 0.16609713 -2.9033334 -3.4271922 0.10713663 -1.8943322 -0.03378893 1.479776 2.610644 0.14984892 -1.5990835 2.3148444
ABDG 1.6590558 0.7232523 0.6617704 -1.3944644 0.5376671 0.12049882 -2.051888 -2.3820949 -1.175481 -0.6127631 1.0232459 2.6764896 -0.6040751 -1.1657656 -2.5765533 5.102857
AAWD -0.5105098 0.0010100898 -1.6662934 -2.9212575 -1.3283166 -0.5185149 -3.7676554 -3.1238785 -1.0697488 -0.027306078 1.3636272 0.7417543 -3.3350947 -1.559047 -1.5907447 2.468096
AAED 1.063518 -2.118455 0.11373561 0.85612583 -0.23521754 0.4514966 -1.3391527 -4.744648 -2.3580902 -0.13341196 -1.0382657 0.14684433 0.797518 -1.3944724 -0.8428109 3.3436134
AAYK 0.0056916373 0.52929443 -3.0321631 -1.4918759 0.7476504 -0.71342945 -0.86014366 -2.4205124 1.4939481 2.8400714 -3.0050647 -1.5740352 0.54422444 -0.008675594 -2.5309312 2.3685899
AAWX 2.1557937 1.6269857 0.4810322 -2.7797718 -0.07843433 -0.6443183 -1.4758061 -3.5620818 -1.9665833 -0.23214555 -3.2662168 0.02441743 -0.309727 -0.32585838 -1.7946637 3.1905391
ABIU 0.783001 1.459304 0.66469413 -2.2246432 -3.4656954 0.26292762 -1.6450655 -3.0739832 3.5982308 -0.90901333 -1.3230973 -0.8314094 -0.08994266 -0.11637305 -1.8160069 2.4963746
ABKP 1.2279274 2.3920465 -3.7511542 -1.5471177 -1.6650711 -1.9683049 -3.0612686 -2.0435789 2.025848 -0.25788572 0.6044907 0.079580076 0.47437772 1.1068518 -2.1667192 1.6776938
ABJB 0.8173898 1.8400296 -1.134886 -2.4548721 -1.3367071 -0.72427714 -1.7124542 -0.8992902 1.910248 0.20970935 0.542882 -0.247449 -0.34740484 -1.6835275 -2.5827284 5.1044164
AAYQ -0.15303485 2.858346 0.03434191 -1.5083781 -0.8197194 -1.4340584 -2.3024335 -1.5005953 2.5571215 0.8816787 -0.8604715 1.4236736 3.258764 -1.2685666 0.31756216 2.901333
AAUR 0.335707 -1.0397905 -0.56787026 1.3391029 -2.895308 0.65877146 -3.653064 -0.55411446 1.9537948 3.1667013 -1.2955749 2.1600208 1.3055372 1.4965441 -2.3111515 2.7856297
ABHV 1.2269378 2.6301322 0.5703722 -0.857987 0.46655393 -1.886981 -1.258468 -4.3792086 1.7634265 1.6534468 -0.55702853 0.6128307 0.5877067 3.2311997 -2.1251287 0.7432436
ACSK 0.04011094 1.7476608 0.52161294 0.43518353 1.3608049 1.1174129 -2.7971017 -1.2497685 1.8453933 2.0758684 0.7494016 2.453151 -1.6325564 0.08513118 -2.3331034 3.9104857
ACHQ -0.13046476 0.25326774 -2.4838238 2.8748739 1.9969318 -1.1669198 -2.7863584 -4.261415 2.3571477 0.2298065 -1.4423913 -1.8304971 -0.72565013 -1.8341649 0.2920257 2.2053347
ACNF 0.144999 -0.78363967 -0.24603453 -0.25334072 0.63420486 -0.017549545 -3.677823 -3.2855685 3.0577526 -0.7414233 1.3501782 0.68358636 3.0362654 1.6692967 -2.253882 0.99980956
ABGE -1.5072666 2.4051936 -2.0322268 -2.1100633 0.4229402 -1.4290473 -1.2563059 -4.6168604 2.1873286 1.3961617 -0.8301392 -0.5426339 -1.9531201 -1.3025433 0.5499418 1.6401002
ACEW -0.45946842 1.1840668 0.10947309 2.3736877 0.30194658 1.021131 -1.841867 -5.0411463 1.5960243 1.2628188 -0.5878536 0.39577603 3.122905 1.1228298 -0.102686115 1.4017073
AAMZ 0.4827931 -2.032617 0.035288323 1.0477732 -0.2139457 -0.69636214 -2.2288103 -5.690591 0.5535619 1.7580968 -0.34357998 -1.0228972 -1.059877 -0.53058004 1.6309434 1.9418986
ABDY -0.43860394 -0.123847716 -2.8858252 0.48271963 0.26167896 -1.1715014 -0.87447274 -3.7371473 -0.16040742 -1.6562356 -2.6265466 -0.019215297 2.6942556 0.01230462 -2.0714893 2.4373329
AAFS 2.7712305 1.7832171 -1.7581495 -0.018266514 -1.814615 0.18601188 -1.8681821 -2.692663 0.73509365 -0.4756618 -2.420682 0.027950807 1.6532383 -0.56118274 -3.3616328 1.0808147
AAZS -1.1653495 4.287743 -0.77636856 1.2508624 -0.38931906 -1.2273296 -2.1944852 -3.9344933 1.3912532 1.9954596 0.18187803 0.23736377 0.35023603 0.82372653 1.0943465 1.6944308
ABRV -2.4948025 0.17312516 1.2948742 -2.4131045 -1.010277 -0.6419517 -2.670703 -2.2068844 -0.027287118 1.5877583 -1.4089295 2.1447194 3.4743123 0.71249956 -0.12705548 3.457069
ABLT -1.3857672 2.1588223 -1.0664154 -0.4826742 -2.007708 0.32845637 -2.4343936 -3.238715 2.256723 1.4961494 -0.61914957 2.752723 0.36639318 -2.9789727 1.1205816 0.22794878
ACSM -1.4285723 2.1850812 -1.0503008 -0.5909088 -2.0399256 0.21747448 -2.4627929 -3.2186804 2.2268317 1.613304 -0.5597871 2.8499794 0.44744354 -3.067268 1.2401708 0.22708939
ACSC -2.364415 0.24380015 1.0476791 -2.2153475 -1.0406824 -0.5834009 -2.3350844 -2.0527427 -0.09191865 1.3575379 -1.3850322 1.8494816 3.02162 0.7129902 -0.27998325 3.123964
ABDX -0.4139563 -0.19800964 -3.19234 0.64136857 0.21958381 -1.0955498 -0.7352451 -3.8100212 -0.1642459 -1.691873 -2.8083122 -0.13730392 2.9294646 0.12588106 -2.054529 2.4624975
AAFQ 3.092005 1.8392501 -2.0093985 -0.0685782 -2.088626 0.1924478 -2.1474814 -3.0450392 0.7715399 -0.61385804 -2.7471826 -0.008534127 1.8691574 -0.5282615 -3.7881522 1.2248788
AAWI -1.1495728 4.4386234 -0.6171787 1.3731412 -0.42256308 -1.2936678 -2.1891615 -3.939274 1.4235885 2.0465672 0.23585637 0.11720576 0.33436164 0.8537404 1.1437359 1.7353373
ABII -0.41903526 1.1697775 0.1547583 2.2995822 0.27726933 0.9549217 -1.9696007 -5.0822253 1.5502192 1.2526298 -0.64980936 0.39979023 3.0766482 1.1167839 0.041359644 1.6363909
ACOA 0.34732977 -2.077761 0.052156545 0.8630334 -0.19977981 -0.6289298 -1.924262 -5.6305275 0.46594504 1.8368695 -0.24857676 -0.8827285 -1.1135645 -0.6078475 1.4806798 1.943125
ACPO 0.23663789 -0.9235592 -0.21664147 -0.26076505 0.59122944 -0.030878091 -3.3650472 -3.2688544 2.7524076 -0.6388504 1.1479437 0.6357367 2.8015082 1.4112836 -2.0144753 0.92991203
ABGF -1.4760028 2.3769567 -2.0742314 -2.0719016 0.41442204 -1.485923 -1.249912 -4.5710726 2.2348342 1.3458794 -0.7878551 -0.53190094 -1.8890463 -1.25484 0.54855376 1.5774515
ABLC 0.19161536 1.8158277 0.41525906 0.5331268 1.5783336 1.2908857 -3.0313582 -1.2747254 1.9444666 2.2744977 0.8340309 2.8219254 -1.846126 0.025926175 -2.562923 4.1727962
ACJD 0.0027418218 0.23182513 -2.2826715 2.698248 1.8277152 -0.99861 -2.5127726 -4.0303545 2.0595517 0.20424655 -1.3436687 -1.6648049 -0.5755643 -1.5132836 0.34757105 2.0649877
AAVM 0.15821165 -0.89624506 -0.4944308 1.2082874 -2.605368 0.4523691 -3.206705 -0.41375402 1.6903028 2.8193076 -1.1554941 1.7939265 1.1010295 1.3506652 -2.1990628 2.537832
ABGT 1.1561933 2.547038 0.5567123 -0.9235847 0.5715726 -1.8304677 -1.2592824 -4.2677402 1.6431041 1.623024 -0.47458366 0.61366075 0.6276889 3.008669 -1.9422987 0.687651
ABHP 0.80070055 1.7005785 -1.0504715 -2.3531191 -1.2750417 -0.5741043 -1.6292616 -0.78779775 1.8210691 0.19893938 0.51374865 -0.2880312 -0.31692207 -1.713136 -2.6007342 4.8848715
AAXK -0.103019044 3.1011987 0.05881978 -1.654939 -0.9197097 -1.5140024 -2.5121078 -1.4124217 2.6321723 0.8995245 -0.99934316 1.644308 3.4352157 -1.2719523 0.39891398 2.9877489
ABKQ 1.169073 2.2676861 -3.5215123 -1.5518109 -1.6714069 -1.7734654 -2.7628756 -1.7647276 1.8883729 -0.31020838 0.6008972 0.027711766 0.5809368 1.0445548 -1.8949435 1.4565641
AAZH 0.028734071 0.5937266 -3.075317 -1.4694128 0.71730226 -0.69982815 -0.805426 -2.4868088 1.4483451 2.8215773 -3.1069734 -1.6619985 0.5838651 0.115023375 -2.4957948 2.2737057
AAWY 1.963963 1.549387 0.376599 -2.5386207 -0.12818009 -0.621464 -1.4986333 -3.5446134 -1.8005135 -0.15344381 -3.0351741 -0.021490632 -0.1651879 -0.38376158 -1.7618337 2.9781165
ABIY 0.5927292 1.42942 0.6462459 -2.0580397 -3.0664375 0.30203307 -1.5593975 -2.4567895 3.1975496 -0.8056091 -1.1229272 -0.8184346 -0.103163555 -0.19423345 -1.491808 2.1725233
AAEC 1.092711 -2.1471624 0.21973135 0.60190785 -0.13029703 0.54487824 -1.282822 -4.889527 -2.3424792 -0.06805071 -1.1155148 0.3221297 0.7496037 -1.3890624 -0.9439666 3.5158076
ACEV -0.52174515 0.12877622 -1.4780678 -2.6797621 -1.1400723 -0.4471769 -3.5270457 -2.8482502 -1.0564468 -0.11656982 1.1588775 0.5611689 -3.0400617 -1.5139134 -1.4844981 2.2628918
ABEA 0.2714782 3.57731 -1.8128794 -0.4840909 0.8267345 0.038268168 -2.7660825 -3.2120895 0.0415802 -1.898824 -0.0024210948 1.3601655 2.5802004 0.21036209 -1.7050393 2.1522202
ACFB 1.6706277 0.6223787 0.638034 -1.4876275 0.49680874 0.03156348 -1.7686328 -2.259801 -1.073817 -0.62620777 0.89696354 2.4700851 -0.5444461 -1.1951132 -2.3303444 4.7301292
ACPI 2.3133512 -0.79667825 -0.77361894 -1.1763251 -0.3072244 -0.754663 0.32720694 -4.175417 0.90840185 -0.4813132 0.10232647 -0.5662403 0.041234635 0.8539769 -1.55008 4.2935987
AAOL 0.9305917 1.3507842 -0.8797035 0.76527154 -2.3280866 -0.3481766 -3.0652575 -2.997084 1.2873782 -0.6182962 -2.0539112 -0.80873185 -1.8903794 2.4834676 -2.4920297 0.98047364
ACQQ 1.0797093 0.107003324 1.33274 -1.1504874 -1.182404 0.07836459 0.3257662 -3.4916801 2.3438675 0.9996233 0.19546588 0.9651904 -1.2868141 0.25014338 -2.605106 2.1083038
ACRT 0.04892607 -0.83845884 0.74019516 -2.0651848 0.067080475 0.045228597 -0.5555969 -4.4765897 1.5622433 1.952286 0.2757162 1.0777607 -1.4635398 -3.9400427 -1.4350569 1.3021781
AAND -1.9019908 1.757576 0.7851762 0.44965208 -0.36906466 -3.066415 -0.4316576 -2.9083679 -0.554832 1.1303718 -1.1706177 1.3291081 -0.27324334 0.44758895 0.25173375 2.9971378
AANX 0.9808966 3.0030358 0.23197718 1.5722568 -1.6692202 -1.7581553 -1.8110648 -1.7378777 0.18370059 -0.2795373 0.43823662 -2.0516224 -1.0155697 -1.2187634 -2.0699658 3.0685358
ACKB -1.4745368 -0.835299 1.1701913 -1.8718625 -2.0812478 -1.4109526 -3.266132 -3.0432868 0.6047867 1.9684373 -1.1892315 0.8885947 0.4072106 0.025209066 0.12810735 -0.12807085
AADO 0.76548344 -1.4190136 0.9949939 1.3416952 0.49201202 -0.593778 -0.4421855 -4.460608 2.1336455 -0.95237577 -1.8085688 0.49809644 0.23195252 0.9545852 -1.9055531 2.138548
ABNR 0.923814 -0.8824344 -0.70052016 -0.9302296 -0.3472164 -0.22300833 -3.2132323 -4.3710804 -1.2673687 -0.40807664 0.26550958 -0.50123215 -1.0696263 1.6228509 -1.3256695 1.7066019
ACMU -1.2647983 -0.09557691 1.3854964 0.06703009 -0.97802407 -0.20394689 -4.540825 -2.7825446 -0.8433187 -1.6488503 -1.8134476 1.7417687 -0.5595044 -1.0521094 -1.4391768 0.23574425
AAZA -2.4316218 1.1366715 -0.624341 -0.018651702 0.2710717 0.44770476 -1.1022097 -1.5777124 1.6004736 2.2858763 -1.1925175 1.5445845 0.9767706 -1.0613643 -3.6086302 0.70069796
ACMB 0.09973645 -0.3603594 -1.0435295 2.084553 0.065997325 -0.18411501 -0.8181229 -3.114717 1.3936431 1.8370737 -0.88699764 2.7084186 0.54933435 0.80270684 -2.6754901 0.38531387
ACQF 0.32744282 -0.75958294 -1.3057903 1.8330016 0.032045126 -0.2296357 -2.4682286 -2.11576 1.868282 0.038021326 -1.0259652 1.4913565 0.71140814 0.32011718 1.0759087 2.2576492
ACRP -0.06238573 1.9883397 -1.5729549 -0.67296344 -2.0154555 -0.5825502 -0.013641435 -3.968668 2.0091405 0.08380951 -0.18525416 2.1991317 -0.69699436 0.3901427 0.7361732 2.180058
ACAO -0.88437045 0.28462884 -1.7760539 -0.18848792 -1.2932693 -3.11682 -0.89422643 -2.054802 -0.11154856 0.95624506 -0.21286939 -1.6121391 -0.269186 -1.7330604 -2.8217409 1.3591319
ABKB -1.4851961 1.1121863 -0.34053937 -0.38264263 -0.6191845 -0.88868695 0.27302757 -2.0752702 2.778067 0.5224841 -1.867798 -0.30078724 -0.3111354 -2.5582695 -1.9670804 2.6033938
AAOO -0.051605567 1.1688443 0.23145811 2.273478 0.93102294 -2.063815 -0.95132405 -2.5398667 1.9949971 1.3224772 -1.5271719 0.6932714 -1.1614457 -1.1813465 -2.463528 0.50804424
ACEL 0.49704123 0.60394543 0.6724056 -0.82156557 0.12482433 -1.155784 -2.8521955 -2.5611386 1.8018397 2.9107697 0.75412244 -1.8944304 1.2344772 0.56549287 -0.35013193 2.4558825
ACRQ -0.011009956 1.2840081 0.16940929 2.4712508 1.0246767 -2.349227 -1.0029492 -2.676252 2.2160456 1.434606 -1.7136328 0.72220165 -1.4020387 -1.0752548 -2.6629262 0.46336228
ACRO -0.21447624 1.8160725 -1.4014283 -0.7484662 -1.9257087 -0.41180372 -0.12877065 -3.8427384 1.9542902 0.0583783 -0.28593004 2.1662343 -0.5512967 0.32980978 0.75710225 2.0802042
ABRB 0.88390046 -0.6471106 -0.5007559 -0.8402327 -0.24820703 -0.20260873 -2.978202 -4.076913 -1.1090212 -0.53445023 0.2185068 -0.6002214 -1.0774304 1.644086 -1.2271007 1.590102
ABHZ -0.2788453 1.6197566 -2.2922504 1.3269984 -1.4764438 -2.8135593 -0.8519466 -3.9030147 1.9243505 0.5888694 0.19589068 -0.16503529 -0.32951337 0.36550805 -1.0802939 0.26470286
AAQQ 0.5383462 0.52224594 0.56289136 -0.7634671 0.09673235 -1.0291126 -2.4738758 -2.1923177 1.6467017 2.6368413 0.7028963 -1.7551211 1.1134949 0.48143807 -0.37961003 2.2079039
ACEY -1.6499041 1.095459 -0.4088909 -0.3991247 -0.75692135 -1.0199834 0.23292442 -1.9933943 2.7969987 0.6439954 -1.9571277 -0.4887628 -0.3326903 -2.622459 -1.9192117 2.648826
ABDR -0.16618824 1.4692616 -2.0818074 1.1157799 -1.4559026 -2.733685 -0.6095537 -3.4749465 1.7872422 0.47543645 0.3028378 -0.1278307 -0.2993486 0.3117035 -0.9180488 0.15397798
AAVR -0.6943515 0.66405314 -1.633199 0.5888967 0.24832083 0.2541198 -2.3994296 -0.74050254 1.4014686 0.78573453 0.03578631 -1.2408342 1.4792986 0.14582965 -2.728859 2.3736405
ACBK -0.8435309 0.25576428 -1.7637614 -0.0940941 -1.2359849 -3.0955572 -0.7666454 -2.0101757 -0.28228042 0.9072482 -0.19682121 -1.5843701 -0.2603279 -1.6889147 -2.7050774 1.1066817
ABRY 0.63381565 0.43721208 0.73284787 -0.86922646 -0.6014885 -1.1427684 -1.3557038 -2.2373857 1.6372485 -0.29611167 -2.041321 2.1955538 1.2058103 0.45857862 -0.7909353 1.0009936
ACMC 0.16526714 -0.31060597 -1.0993136 2.2231076 0.049741 -0.16483817 -0.7814734 -3.0799456 1.389554 1.8985351 -0.9506465 2.7009876 0.57415646 0.8972307 -2.7147336 0.26719305
AAQO -2.1637893 1.1434498 -0.5967179 0.06918635 0.27422827 0.16846736 -1.128692 -1.577969 1.5098157 2.110845 -1.1584355 1.645916 0.9727777 -0.857723 -3.4397814 0.7365048
ABHO -0.19914764 1.5813259 -2.223533 1.2201573 -1.4112201 -2.8000987 -0.6959154 -3.6112957 1.853378 0.6092188 0.12977545 -0.15438285 -0.33877262 0.29659647 -0.9298042 0.18269706
ABGI -0.8659784 -0.9519826 -1.1011518 -1.732974 0.11402653 0.7094923 -0.9770444 -1.8383965 2.5287836 1.4182636 -1.0448188 1.1892314 -0.4131553 -0.5835928 -0.73928577 2.1276605
ABVB 2.4328303 -0.2303363 -0.29122144 1.0870985 -0.17999126 -0.25248194 -3.5320406 -2.687704 -0.48813057 0.5004195 0.8294555 -0.44016686 1.4791237 -0.23200211 0.91837114 2.4288754
ACFE 0.9606509 0.12393231 1.2334241 -1.0683887 -1.1819719 0.061716016 0.41603616 -3.3954945 2.3246157 1.0544362 0.20958783 0.9673326 -1.3283648 0.20083903 -2.4351711 1.853559
AAFC 0.6123099 2.4527397 0.061003096 1.3988026 -1.320687 -1.479792 -1.7998165 -2.0470493 0.3679325 0.07343474 0.2307666 -1.5369582 -0.6857815 -0.760791 -1.6241354 2.684527
ACKC -1.3483986 -0.8095487 1.0046678 -1.7440081 -1.807848 -1.0917857 -2.8141458 -2.7599802 0.47667322 1.6602794 -1.117077 0.75258195 0.4639046 0.041866586 0.14135191 -0.039618462
AALV 0.58712405 -1.2052296 0.91786456 1.1596874 0.4051788 -0.58771765 -0.34959155 -3.6909792 1.7609208 -0.90194446 -1.5093824 0.4353378 0.19072509 0.7342989 -1.608202 1.755206
AANC -1.8142499 1.6601791 0.7961219 0.33270144 -0.26286343 -2.9153593 -0.41562194 -2.7443144 -0.69517416 0.98380107 -1.0870174 1.4356322 -0.10693256 0.46567088 0.20534252 2.9585125
AATX -1.6472623 -0.02597607 -1.0064573 -2.1903486 -0.43508288 -0.890903 -0.29140425 -3.796598 -0.7794428 1.1691417 -0.4275975 0.91593266 0.19293304 -1.1348246 -0.09850901 0.74141514
ACCM -0.8314558 0.19999525 -1.8427997 -0.16412108 -1.265031 -3.2821383 -0.75045514 -1.9995207 -0.09756036 0.91318446 -0.11615736 -1.6624811 -0.33233237 -1.7742326 -2.706459 1.2514986
ACRL 0.57690144 -1.1913023 0.81602603 1.0817866 0.28927824 -0.45857155 -0.2600536 -3.885838 1.7750129 -0.9728881 -1.4938377 0.51623935 0.3549055 0.7306561 -1.5981431 1.753293
ACQC 0.3154743 -0.69544077 -1.2062138 1.7139692 0.093425006 -0.11710329 -2.0951 -1.7642864 1.7125007 -0.03949104 -0.82692885 1.4603372 0.63067013 0.3225333 1.0628605 2.0364769
ABML 0.51642406 0.6215922 0.4657316 -0.7094504 0.0007836988 -1.0730126 -2.5025585 -2.118948 1.6458607 2.500509 0.68850255 -1.6834782 1.0958979 0.521325 -0.35338876 2.08008
ABJV -1.1431088 0.95002705 -0.3768952 -0.3658424 -0.35527012 -0.7015856 0.09292821 -1.6842661 2.324237 0.3169491 -1.5195506 -0.32000795 -0.21369246 -2.1528301 -1.8336821 2.1649952
ACMA 0.066612825 -0.3393707 -0.9180177 1.7993988 -0.014671145 -0.18393989 -0.7223345 -2.6465724 1.1415786 1.6034107 -0.78706014 2.2951403 0.5377805 0.6092925 -2.2518454 0.291924
ABGL -0.8925001 -1.1201022 -1.1348897 -1.6436222 0.10823655 0.67156905 -0.98581165 -1.7764143 2.4155078 1.3346229 -1.0326303 1.1614289 -0.33835128 -0.60510147 -0.70424825 2.078567
ACKD -1.4593698 -0.7633988 1.1656542 -1.8304954 -1.9359096 -1.2332287 -2.992555 -2.8699868 0.52593607 1.8170646 -1.215673 0.7484743 0.29955345 0.093026504 0.15305199 -0.21852455
AANE -1.7370833 1.6152756 0.8361863 0.47115773 -0.3810802 -2.7920866 -0.23647436 -2.475405 -0.5063012 0.970357 -1.1389416 1.2387462 -0.22694436 0.4615108 0.28234217 2.712709
ACQL 1.7550218 -0.027174268 -0.61696947 0.4838547 -0.51342994 -1.0136703 -0.19013904 -3.7253451 -0.823513 0.68135655 -0.92959505 -1.0304058 -0.22021487 -0.8081205 -1.8075197 -0.2937599
AAPW -1.0080178 -1.0575088 -0.7906617 -0.6777044 0.74379367 -2.465083 -0.9458141 -2.1445982 -0.26604667 2.9526846 -1.2111666 0.123611845 -0.5210613 0.43948168 -0.7102325 1.6053257
ABLZ -0.7626336 0.7226224 -1.1653203 0.80947125 0.672771 -0.6001143 -0.40833208 -3.6696115 1.3971338 1.2982315 -0.26796013 -1.5175945 2.0076706 -1.5522798 -1.5937905 1.0639483
ABQS -0.58883053 0.82655215 -1.0928888 0.9485098 0.9122825 -0.5486452 -0.30385557 -3.8411655 1.4510195 1.4037164 -0.16230534 -1.9187112 2.4014947 -1.9032006 -1.8116722 1.0712732
ACSZ -1.3052132 -0.22229236 1.5337865 0.03025133 -0.9047607 -0.08695955 -4.5389104 -2.4679568 -0.81247205 -1.9296614 -1.9976954 1.7928551 -0.56934375 -0.824807 -1.5427476 0.24930091
ABUV -0.68036306 0.5750123 -1.056218 0.7625461 0.67398006 -0.6759859 -0.38214356 -3.3411036 1.3001391 1.1751446 -0.2542618 -1.4146851 1.8501996 -1.5400441 -1.4013032 1.0098562
AARY -2.0797195 0.94428617 -0.5429221 0.030501664 0.2639928 0.25667453 -1.0331264 -1.3910326 1.4565457 2.0004265 -0.9834974 1.4676523 0.92487067 -0.92303735 -3.2903962 0.6463339
AAMQ -0.022678236 1.0400891 0.17609777 2.126147 0.82085127 -1.8904989 -0.9998611 -2.2983935 1.7485782 1.1619624 -1.3354033 0.5803758 -0.9990146 -1.0373309 -2.3444626 0.47322804
AAMW -1.9602706 1.4967908 -0.9288607 -0.6944437 0.84286666 -2.3217957 -1.7989963 -0.18865772 -0.08268281 0.054519545 1.3909425 -0.3261384 -1.3864644 0.3152969 -2.344318 2.6175714
ACPD 0.6988705 -2.1697564 0.19624321 -1.3176377 -0.61441714 -0.021257406 -2.0194378 -0.8511356 0.43936926 1.1740583 -0.31300604 1.5189395 0.5592074 0.00068781205 -0.7282856 3.077523
ABTL 0.7013689 -2.0524583 0.24259943 -1.4323586 -0.57881194 -0.11368284 -1.9493836 -0.8756409 0.41363767 1.119786 -0.27725595 1.385327 0.5608661 -0.17606005 -0.66851133 2.9934914
ABZW 0.9175718 0.07676743 1.2394726 -1.0319208 -1.1492463 0.10026082 0.3206213 -3.320434 2.2548273 0.9723167 0.19695024 0.8956575 -1.2460209 0.12962724 -2.3863811 1.7737968
ACQR -0.31542644 1.4948536 0.4459634 -0.11739789 -0.40401506 -1.0142813 -0.70130783 -2.1532419 1.6074629 -0.60979563 1.2865407 0.83824205 -0.016990904 0.42619833 -1.1680163 2.9095573
AALH -0.9172842 -1.0136425 -0.73358333 -0.57264555 0.64175296 -2.2160513 -0.8740285 -1.9240845 -0.16675913 2.6253982 -1.0764545 0.1158883 -0.40923622 0.3727524 -0.64594156 1.4584019
ACSQ -1.5814192 -1.3640308 0.8610546 -0.9311711 -1.3744189 1.4298325 -3.3759072 -1.4383442 -0.90300983 0.37463346 0.38263476 -0.9636419 1.535644 -0.31641987 -2.1141768 1.8346065
AALC -1.1470731 -0.55190575 0.5163265 0.33484444 -0.8287424 -2.2240381 -1.6599145 -1.1084495 1.6396214 2.4945774 -0.70299655 2.310484 1.1662313 -0.17156757 -0.86654866 0.7160102
AANV -0.13099512 1.7785579 -1.3426031 -0.67214507 -1.7649801 -0.4219742 -0.02866821 -3.5271194 1.7816178 -0.0008174937 -0.23049 1.9136336 -0.6333911 0.31598938 0.7769437 1.9248755
ABNX 2.4976661 -0.3247129 -0.20129137 1.1144074 -0.019825999 -0.14344479 -3.6222603 -2.972721 -0.72008145 0.70351547 0.8923667 -0.27455014 1.4256014 -0.3472918 0.9287485 2.493225
ABYB -0.250876 0.30787125 -0.8393964 2.0964775 -1.8107074 -0.75032127 -2.604316 -1.2568221 -0.15894881 0.8382963 -1.2022338 0.75833964 0.6302776 -0.52842104 -1.1563663 0.48190024
ABWH -0.46270356 1.4963337 0.5475599 -0.059783287 -0.3073822 -0.99658996 -0.6855694 -2.2760866 1.6755508 -0.6624393 1.3455013 0.85541373 0.004554077 0.42024198 -1.0908034 3.0370946
AAUC -1.6964204 -0.015562329 -0.9654968 -2.2331448 -0.43620956 -0.9645788 -0.23065038 -3.769304 -0.7528908 1.090692 -0.42078304 0.95421886 0.08725928 -1.1333125 -0.11555082 0.6129096
AAKY -1.1200389 1.0322658 -0.84097594 -0.42738587 0.39432377 -1.5204568 -1.7753019 -0.96435916 -0.04251999 -0.034851257 0.5034414 0.00249141 -0.7597873 0.13146271 -1.6806351 2.3161492
ACTF 0.24538448 1.282146 -0.44983488 -1.2938958 0.6117658 -2.1620078 -0.6852033 -2.343846 0.48931623 -0.7334368 0.5571422 0.4662906 0.43266004 -1.4445447 -0.8197935 1.8333149
ABLF -1.3782902 0.53789705 -0.84651107 -0.15229969 -0.8329446 -0.38029978 -3.9792356 -2.3843021 1.0461333 0.6824152 -0.29077935 -1.1518413 0.49915504 0.05281735 0.15438832 0.5972466
AAPH -1.0941268 -0.643426 0.52157086 0.29264674 -0.7887274 -2.07222 -1.5261889 -0.9906933 1.4269484 2.3358614 -0.6565256 2.1763093 1.0085906 -0.18430951 -0.8291722 0.67736703
ACFQ -0.51340693 0.43912333 -1.6701468 0.5348234 0.15378323 0.3158342 -2.440981 -0.70893586 1.5034684 0.8374444 0.01761692 -1.0574782 1.4482324 0.06672149 -2.6981986 2.419875
ACPS 0.114036135 0.09577531 0.6472699 -0.43329266 -0.053748213 -0.3027767 -2.1661973 -1.6873137 1.189674 0.13901612 0.33078396 1.0973766 -1.0698354 -0.9836439 0.1477439 1.779776
