1854 128
AAXD 0.889112 0.65538555 -3.8179004 -1.0139112 2.4585295 -1.6445829 -1.0809889 0.8169787 -0.1403303 1.2924459 -0.9638359 0.8894306 0.40310094 -1.1377515 -1.3879378 0.9033158 0.98461515 -2.1710646 2.7223792 1.6305025 -1.2593113 -1.6087751 -1.0780011 0.44354463 -1.1579624 -0.81132996 0.11932812 0.9041148 -1.1628317 0.11971449 -0.50256664 -0.13080682 -2.137625 -0.605086 -1.0014124 -0.79530865 -1.2691525 -2.6973355 -1.3529798 1.5813066 2.0307434 -1.270501 0.9319669 1.1875569 -0.32461962 -2.575169 1.7148485 0.17217232 1.510627 2.1546948 0.820774 -2.910913 1.4708294 0.55056334 -1.922668 -0.9865859 0.025577106 -2.1145012 0.06228752 0.017227834 -0.38391232 -1.411144 1.4462872 -0.4706393 0.98012483 -1.2451802 -0.7407146 -0.11192807 -0.7128209 -1.5244642 -0.90446776 -0.017170912 -0.018444577 -1.7016621 -1.5831164 1.6947867 1.2788554 1.3679279 2.143179 1.1029184 1.9312205 -1.5845795 0.7885409 -0.81785893 2.6567128 1.595264 -0.25295377 1.3957227 -0.36140057 -1.6373943 1.2964569 0.5162251 2.0440984 1.1387755 -0.30909598 0.5161054 -1.6720682 1.3292092 -0.28106296 -1.0706972 0.85275584 -1.4590745 -0.40285522 -1.6713793 1.1668196 0.1807705 -1.9289976 0.00827246 0.6996651 0.7315483 2.648579 -1.8821318 -1.3504387 -0.27719745 1.6625599 2.1610484 -2.1593513 -1.2903124 0.5688489 -1.1704236 -0.978809 -2.5736725 -1.1062717 -1.7797632 2.3469448 3.273853 0.35159406 -1.559137
ABFK -0.901216 -3.3483603 -1.6457748 -0.52006567 -1.8335669 -1.588487 1.291696 -0.19765548 -0.5123178 -0.6244059 1.2220018 2.7733736 -1.4682479 0.32273203 -0.35020548 -0.14207642 2.2923996 0.19756572 2.8423767 -1.061624 0.4340765 0.923394 0.21584073 0.23919521 -2.46916 1.205969 0.17259686 -0.70098287 1.937936 -0.16524933 -1.4073856 -1.0631963 -1.8220801 -0.70606595 -1.7411648 1.1304793 -0.4330259 0.79270583 -1.5233767 -0.24305066 -1.2082696 -0.75367945 -0.57940143 1.9320565 -0.6214893 -2.9090626 4.25028 -2.2096457 -3.1932843 0.25634465 0.79607403 -3.4679039 -0.48898032 -1.586315 0.4431972 2.3808367 -0.67463243 2.3202603 -0.53201467 1.7703975 1.3099054 -1.2751968 3.1216226 1.7063482 1.8882234 2.5770154 0.8849421 -0.8406645 1.2622623 -0.6139616 -1.3387754 -1.3174145 1.4016685 0.48987767 -1.56383 -0.74881065 -0.23727907 -0.46009782 -2.475688 1.9015706 -0.8881691 1.4816196 -0.9915881 0.9095648 0.076669596 2.3930824 -0.31734812 1.6163517 0.76079816 0.20336047 -0.68344843 1.039875 2.3647997 -0.31789762 -0.24503705 -0.9636064 -1.0090588 2.194078 -0.780814 0.49043083 2.0466423 -2.2350602 1.4990711 -1.5961688 -1.9200443 2.5631313 -1.5826089 0.19400832 -1.4361922 -2.0642943 2.061232 0.81040275 0.029433941 0.3764908 -1.077593 1.2821985 0.76504993 1.5388438 -1.4788454 -0.111640565 -0.60406387 -1.9825202 -2.1728945 -0.6758386 -1.7235205 2.7354937 -2.667846 -0.71783316
AARN 2.0211577 0.049449373 -2.1555655 0.9076216 0.30479532 -1.6713039 2.276839 2.027412 0.023249716 -1.8432658 2.0945725 -0.113147326 -2.331618 1.3055439 -0.16927238 -0.9114841 0.9749537 -4.2495923 0.7083981 2.1721354 3.4317117 -4.1047792 -0.32257792 -0.83112115 0.50209826 0.57120943 1.0101781 -0.79113024 -1.7672187 0.63788867 1.1769524 0.60319793 -0.6952408 0.37094 -0.34734613 0.48939157 0.9324183 -0.9570181 0.3775438 1.4558907 0.62774724 1.978837 0.5882369 -0.80905116 -1.9233516 -1.820171 3.125624 -2.6200721 -1.8220023 -0.32683465 -0.3201256 -1.3350505 1.6718212 -2.8329284 1.3490462 -1.0158901 -0.9564495 -0.56406343 -1.0520607 0.76590097 -1.207633 -2.074414 -0.4355058 0.1483331 1.0384291 0.20383725 0.8974891 -1.3602861 -0.07800412 -2.134877 -1.2749 1.1730272 0.15854184 -1.564493 -0.5657522 -0.92456484 1.1251205 2.021492 -3.0584416 2.100353 -1.3785247 -3.0703888 -1.7717568 0.5298181 1.835627 2.0136824 -0.5572251 -0.38991287 0.3836404 -0.6364237 2.2018495 -1.9811847 1.7036226 -1.03193 -2.3847544 -1.5602537 -0.64778477 1.0269991 -1.6951202 -0.6884666 1.7754632 -1.0337957 1.6241373 -0.5325872 0.7804524 0.5207301 -1.2959723 -1.8204354 -0.71556693 -1.3704573 0.43925658 -0.5845406 -0.7534378 -0.35342932 1.0032178 0.34733206 -0.90753967 -2.5113814 -1.5623988 0.067053966 -1.7472305 -1.670169 0.26876524 -0.57155836 -1.3907874 1.0492816 2.678649 0.6741263
AAFY 0.8901524 1.3434294 -3.4877121 -1.5433185 -1.3531867 0.5646332 -2.5828786 1.5741016 2.4215457 0.08059819 1.8872418 3.9130526 -1.1292273 -1.8481507 0.8753059 -0.9634462 -1.5746136 -0.098551676 0.6814857 0.69256234 -0.7417372 -0.492944 0.2760925 0.13811246 0.25021696 3.3384066 1.6630738 -3.519696 -0.1283756 1.9156301 -0.5840212 2.8252892 -2.1389437 -1.8404591 -0.1297514 -1.0839345 2.567868 0.5905197 -0.42668658 0.4557981 -1.6318846 -0.33025888 0.65744025 -2.3152773 -1.0062 -1.526115 1.0514892 -0.7728427 0.08667519 1.111366 1.7412463 1.3542285 -1.5739338 -1.5454658 -0.956735 -1.0409335 0.5803282 -0.27638543 -3.3073442 2.340139 -1.7370057 -1.0025007 0.98693466 0.9150558 -0.8227615 1.1265833 -2.209063 1.2361702 -1.9063729 1.0595636 -1.1188966 -0.71851224 -1.1401582 -0.81440043 -1.2668233 -1.5755644 -2.1230319 2.2845023 2.170055 1.2261019 0.18373834 -1.9111685 -0.9304691 -0.11895545 -0.54255146 -0.580786 0.37981772 1.596028 -0.8949842 1.9599621 -0.03377139 1.3047023 -0.7161547 -0.9426405 -0.121172376 0.75893027 0.6753062 1.209346 -2.2136354 1.541052 -0.9435801 -2.2632282 -1.0434408 2.0271895 -1.6709375 1.3895549 -1.244348 0.2057129 1.4430768 1.2052436 0.35032913 0.08921872 -2.2279096 1.1241373 0.9409968 -0.55696946 1.3239917 -0.098994195 0.29242393 -1.0775756 -1.0817078 1.4899238 0.26505503 -1.9812394 -0.63969547 -0.5940401 1.5738901 0.07843293
AAIJ -0.9553422 -0.32071954 -2.1953857 -0.95735204 -0.09080867 2.491699 -0.6360298 0.53172064 1.609404 -0.9227652 -0.32512173 0.34186772 -2.2836587 0.84917545 1.1829655 -0.60951346 1.235727 -0.9308585 1.9554968 -2.0545762 2.1472924 -0.46634233 -2.13572 -2.415754 1.6294713 1.6226 1.0135214 -2.1312547 -1.9899493 0.48053962 -1.2637917 1.1477376 -1.8884313 1.8735836 -0.3567181 0.7696448 0.8558192 -0.7172058 -1.6956415 0.6634722 -1.4059212 0.8209195 -0.8986189 -1.2237281 -0.443908 -0.87422067 1.7394596 -2.8527486 -0.6903451 0.18523856 1.4123846 -0.9884337 0.81599903 -0.4501017 0.64189035 0.26477963 -0.52461386 -1.3949077 -2.0041046 -0.78818333 0.1519471 -0.26092905 2.129544 -0.35668042 1.1316738 1.9082981 -0.72301215 -1.2274398 -1.0423977 -2.346521 1.8214228 0.6484825 1.366634 -0.58858997 -0.6533512 0.5169113 -0.76290315 2.2585654 1.0838904 1.4331083 1.031388 2.6649733 -0.177267 -0.52378523 -0.5771335 2.0605428 -1.071887 0.42706174 -0.011792372 1.0818164 1.9599737 1.2532597 0.32993606 0.81932485 0.05041448 1.0175254 1.152344 2.9902375 -0.49328968 2.5657282 -1.2398821 -0.26672655 -0.084146306 0.7045857 -2.2121208 -0.015236068 -0.59536743 2.3385077 0.077453785 -1.7265341 -0.6254687 -0.465282 -0.0952477 -1.1814629 0.43205065 -1.4848268 1.4039102 -1.1143142 0.66435117 -0.23733298 -1.0709695 -0.8225326 -2.1467829 0.123790696 2.1076834 2.0317538 1.242959 0.11984045
AAAM -1.6834266 0.7580584 0.65166533 -0.6020419 0.8577197 -1.9458858 -1.0299665 2.9564602 0.25804058 -2.5837286 -0.41816226 0.012223071 -2.1029732 0.6820045 1.1978896 -1.1895314 0.6077148 -0.41782656 1.5906214 -1.6365292 1.1026698 -2.3820078 0.6589977 -0.2641041 0.8164931 -0.6305184 -0.89134675 -2.3863053 0.8607144 -1.7248312 0.45812604 -0.3824796 -1.7085923 -2.2902794 1.369765 0.024886547 -2.532769 3.4164672 -2.4262397 -0.9305659 -0.9977903 1.1286657 2.0604174 -0.6987348 0.044979367 3.1590762 -0.30439067 3.5728343 -0.40405792 -0.7388341 3.3603218 -1.93713 0.23363172 -0.47305748 -0.5027686 -0.31784227 0.13014045 -1.3980105 -1.8985131 1.0340981 -0.07354902 -0.38774192 -2.2255826 0.4376574 -0.2061711 2.8990216 -0.5630379 -1.187142 2.6640475 -1.1294942 -2.9926822 1.0885096 -0.9298 0.23950237 -0.737876 -1.2810892 -0.4573776 2.1314428 -0.58127904 0.030748326 -0.6114845 -3.027036 0.11338875 -0.94053525 0.13822085 1.018675 0.62102294 1.8690463 1.2652564 -2.7270095 2.6067178 -0.33477485 1.4552362 -0.63395065 0.009626133 0.8362992 0.95269316 -0.24586949 -0.09425846 -1.377089 -1.0810583 -0.6563116 -1.6535423 -0.9722414 -3.0847087 -0.56293565 -0.481974 1.3586785 1.3190646 0.5790706 0.3281528 -2.6445847 1.6964444 -0.4247503 1.7110811 0.66786414 -1.8466007 -0.50534034 0.46832526 0.3986229 -2.8432105 0.18238097 -1.0925295 0.32302338 0.18882261 0.04348397 -0.5057583 -2.052821
AAQG -1.3300909 -1.2113326 -1.3320795 -0.5461832 -0.5383678 -1.6813139 0.34252173 0.08158969 -2.5327609 -1.0913125 -1.2382077 1.2474642 1.1069607 -1.3769531 1.3018897 -1.2056363 2.0364785 -2.6483312 3.2475936 -0.22257723 0.30635008 -1.5101994 1.150696 -0.84999126 -2.5747793 0.115389936 -0.6107646 -0.08678257 1.8349526 0.6958459 2.0738356 2.293503 -2.0195553 -1.1873527 -0.9610307 -0.2797693 1.997564 1.1441396 -1.9235623 1.1091479 0.26635602 0.62114835 0.48177215 0.33599845 0.61564577 -0.1682705 0.33299768 -1.0894169 1.37654 0.71069664 -0.69584775 -2.4542332 1.9958811 0.6378612 -1.246012 2.8968344 0.032219976 0.23170377 -1.8404173 -1.0281194 -0.74359673 -0.11748365 -2.1177928 0.15310065 1.9932585 0.8690918 1.2954309 -0.6256725 1.4908214 1.3726046 -0.21072018 -1.0622348 1.2796063 -0.11327748 -0.6421882 0.460389 0.11730347 1.4953288 0.537018 -1.4842637 3.9324794 -1.1863034 -1.5159045 -0.8149603 -0.41134137 0.7522847 -2.0349443 1.3268763 -1.4312005 -0.40469828 1.6594735 -0.21492796 1.6934515 1.0797361 -1.1323291 0.9492689 -0.12675995 2.1143663 0.5020131 -0.21381488 -0.5426518 0.18262093 -1.178107 0.69466025 0.41968748 1.2690277 -1.6521829 -0.8678673 -1.9461906 -1.2114292 1.7683426 -1.7275443 -0.15741487 -0.91541374 2.0450432 0.5507876 -2.4097486 0.7662321 -0.8244854 -1.3823944 -3.461727 -1.0099862 -1.6151552 -2.5897887 -0.28197798 1.3250883 -1.2670814 -0.046704866
AADL 0.99223137 0.31640682 -2.1112826 -1.5921918 0.16958131 -3.28447 -0.5811123 0.8739169 2.0979633 1.3341881 -1.2432009 -0.18402965 -0.7711519 1.3222791 -0.26005295 -2.8555033 -1.0268419 0.21276788 0.7163048 1.4650558 2.659486 -3.2613473 -0.53403485 -0.40020308 -3.1358542 -0.79810363 3.179849 0.6401421 -1.3287859 -1.4410588 -2.2264395 0.014248444 0.68467987 -1.3665535 -0.14730148 -2.3796322 -0.3576198 0.19891006 0.46919984 0.58915424 1.040805 -1.336526 1.7957126 0.115844265 1.3473419 1.2399123 2.5184815 -0.18748793 0.6131996 2.1904962 -0.28226495 -2.4248319 -0.9431783 -0.86074317 1.6755321 1.5597256 -0.46359405 -0.75607115 -1.7972689 0.3347349 -0.5605619 -2.3939881 -0.42932248 0.51593906 -0.75658 3.810951 -2.7711933 -0.8793008 0.54584724 -1.7020416 -1.5538666 -1.7821146 1.0307637 0.9983285 -0.019654874 -2.0361059 0.38008404 -0.4378209 -1.8502883 1.7940817 -1.3660111 0.20477371 0.89233387 -1.3436034 1.080915 1.49598 -2.6104617 2.981637 0.7670699 0.33170974 0.50672334 0.73117334 2.3011005 -0.5821467 -1.3810041 0.052301373 -0.78486186 2.4417858 -1.2549096 -2.3046515 -0.386706 -3.3957071 -0.7498141 -0.09986199 0.562776 3.0676877 -0.46772525 -0.8491743 -2.361313 0.74244225 0.90961653 -0.21020852 1.9678679 0.9738113 -0.854211 -1.3587915 0.46602914 -0.60544956 -1.1827706 -0.020443542 -0.63094443 -0.9781739 -2.5808995 -0.26584786 -0.13682403 2.358143 0.29629457 -0.8959758
AASX -1.8964305 -0.24070823 -1.2925447 -2.6006482 0.05635307 -3.0121732 -0.6830127 0.20445007 0.117770314 -0.7718701 -1.4358397 0.7584008 -0.8974646 -1.3350401 -1.2734994 0.40853974 0.725651 1.7106215 1.1488436 0.96499527 1.2203435 0.43761903 -0.1246388 1.1369358 -3.948002 1.5716058 0.7384985 -0.84874344 0.08751627 0.23084322 -1.537443 1.9550687 -0.45810428 -0.09884912 -0.69684184 -0.81356806 -0.21912974 -3.2900558 0.290709 -2.0459936 1.2897464 1.0301532 0.91343904 -1.5263637 -0.260568 -1.2192849 -0.13232893 -0.45474836 -2.8130248 0.11325832 -1.3319434 -3.0235794 0.4918691 -1.498604 -0.6949934 0.8345492 0.32920557 -0.38200632 -1.1256784 0.6871097 -0.6160036 -0.68885684 0.27368596 1.7173371 1.0555549 1.5603122 0.48047966 -0.43651026 0.5871587 -0.86917937 -0.34190792 1.359803 -0.4906298 -1.5751113 0.9315079 2.2896276 -0.21027932 1.8208625 0.5820019 1.6299297 0.25265494 -0.90182304 -1.4482591 0.394782 0.8615039 1.5301926 -1.1735635 2.5895863 0.15281072 -2.2650216 0.30240548 0.4482577 3.9893522 0.15129326 -1.1588131 -1.4007313 -0.96284777 0.9269023 -0.96385777 -4.435534 1.8455371 -1.4226909 -1.679988 -0.27671623 1.5041814 0.75178844 -0.35406667 -0.0039216466 -0.8082357 -0.116271295 2.2220633 0.75827247 1.0852628 0.9378357 -0.3278067 0.1514093 0.017221745 -1.6631827 -0.933788 0.82525325 -2.544956 -1.4283549 -1.6165767 0.60966957 0.39182675 -0.6426656 -0.6392055 1.3097178
AABR 0.6914759 1.8381338 0.012609387 0.60685897 -0.010461725 -0.78306526 -1.5120438 0.5550615 -0.5130546 1.739272 -1.6018118 -0.59318364 -1.2309849 0.29733488 0.8712541 0.14681734 -0.08204929 -1.4199861 0.044008333 1.1928905 3.4874604 0.021115314 -2.4700322 -1.1496606 -2.213828 2.0799813 1.7895111 0.2305426 1.6380843 1.1795844 0.8404863 0.8440735 -1.7423513 -1.843716 -1.6168808 -0.42659757 -1.1464229 -2.101227 -1.0951302 0.42783546 -1.7006599 0.83130604 0.4758933 -0.73512244 1.3149637 -2.8657303 2.8267715 0.6056892 -0.770398 -0.6890859 0.81943035 -0.58253664 1.5974139 -1.855846 -1.4816067 1.9104695 0.045180682 -1.5417793 -3.1726005 1.2059022 -1.1195167 -1.5487661 0.29195315 -0.81316835 0.29923126 3.5807025 0.68843794 0.85159487 0.55533135 -0.4736345 0.74137855 1.0529653 1.5770591 -0.9624802 1.8599863 -0.74046355 0.9764099 -1.131848 -1.9745014 2.1057975 -1.880353 -2.1334991 1.0272357 2.5030909 -0.70569605 1.8206495 1.4953045 0.4957038 0.7040429 0.87653667 0.06219157 -1.2216862 1.1394414 -0.30595222 1.1779196 0.7610157 -0.64289623 2.650439 -1.1243076 -0.6896429 1.7773825 -2.2629936 1.5713062 -0.9414269 0.7205238 1.2858039 -1.0297887 -0.927155 -2.0575042 2.193815 0.7792158 1.0236048 0.69168466 -0.15129647 0.97029036 0.6339742 -0.30108505 -1.1284606 -0.7812205 0.74002105 -2.1730645 -2.576693 -1.3757166 1.5203084 -0.34119296 0.31673867 -1.1625062 -2.2569041
ABEP -1.0635451 -1.3640964 -2.8913116 0.4749206 -0.9694236 -2.4974663 -1.6460006 -0.09148178 0.38159025 1.034975 -1.9892589 1.2612541 -1.1301419 -1.6037216 0.9840419 -0.7045913 1.4694756 -2.133943 2.7069285 0.11617295 0.36972368 -1.1823382 -0.047848113 -0.6178778 0.35161465 -1.8129025 1.5467093 0.60327184 -2.3259785 1.6997385 0.26985988 0.4203522 -1.14799 1.3197119 0.9064409 1.375276 0.8830548 -0.45375544 1.5734931 0.82276374 0.50519156 1.1495668 2.6773646 2.2698357 -1.3840303 0.048815828 -0.7300612 2.0423179 -2.427909 0.9286866 -0.46650067 -0.47997364 -0.61812174 -1.3140409 0.18203597 -0.0117777595 -1.2973208 1.6619585 -2.440299 0.39945453 0.7337668 -1.1194289 -1.3405496 1.0982056 -0.52911496 -0.27091855 -0.0025308167 0.009713507 0.89339894 0.6985389 0.17347611 -2.1986828 0.39298946 -1.6684895 -0.7115685 0.8369572 2.708577 0.32886592 0.5826926 0.6995453 0.1968884 -1.2250279 -1.7220123 0.7838807 1.5914531 -0.27612478 -2.073896 3.1588068 -0.45701087 -1.1807563 2.5842283 -1.6801007 1.2722642 0.16042313 -0.7271612 -1.9017621 -2.0375302 3.2545757 1.3300679 -1.3720121 -0.82910156 -0.8620828 -0.41135755 -0.6190806 -1.3116851 1.9411188 -0.9870213 -0.5035718 -1.1551127 1.1057295 0.13588874 -0.82190573 0.37395248 0.56653935 2.6325042 0.5392069 -2.2630677 -1.1101892 -3.3212798 -2.344098 -0.96438724 -1.3003777 0.15466574 -1.78235 0.5928624 2.4255657 -1.0079212 2.025299
AAAY -0.68835735 -1.1740416 -2.6206846 -2.6757145 -2.4025972 0.1890237 -0.35048342 2.1815605 -1.6656736 0.25029647 0.45084015 2.064226 -1.2208141 0.6364943 -0.65181005 -2.3444061 1.2997806 -1.0980545 1.2612364 -0.39837742 -0.048691478 -1.7960181 0.50378823 0.25844344 0.3914684 -0.97934455 -1.3153607 1.0910683 -1.7951059 1.0878128 -1.5698568 2.005388 -1.1644406 -2.7782624 0.5825368 0.6483512 -2.3099558 0.9402517 0.30745253 0.40674105 -1.5866209 1.0175941 0.31279784 0.22281185 -0.7220528 -0.085785076 -0.40920728 0.9784816 2.4713743 -0.65650487 0.64139473 -3.1698966 1.0704073 0.0066974103 -0.26493004 2.680322 -1.9045638 0.06381056 -2.2188714 -1.2091346 2.2038167 -0.4869895 -0.4946545 -0.3756798 1.5084577 1.5868707 -1.2864581 -1.1107887 1.0363694 0.11381243 1.3912629 0.7477358 3.0913036 -1.2644712 -1.1995274 -0.7370046 2.813944 -0.8182476 -2.2352545 1.0977376 -0.17057377 0.05276539 -1.6548508 0.20730425 0.76614624 1.5520782 0.0784183 1.039497 0.34854302 -0.50244594 3.0933516 -0.27459863 -0.25780717 0.9834355 -2.332753 -1.1532034 -2.728779 -0.13885698 -3.270266 -1.1158006 -0.24960198 -2.2194674 0.39581284 -1.8248432 0.940262 1.5856137 -1.6332021 -0.6854566 -2.0823896 0.3841292 1.946742 1.2610189 0.12954111 -0.40542585 0.63538957 -1.1252563 0.89418185 1.1362593 -0.41101152 0.01079239 -1.3732421 -0.41731274 -1.1701229 -3.1974864 -0.12035501 0.4507145 -0.24659695 0.045730323
ABWF 1.0442001 -1.6039914 -2.022209 1.0028507 -1.1825861 -1.8655252 -0.24242197 2.5035963 -0.6959359 -0.6997538 -0.836407 0.3217733 -0.57141054 0.70697427 0.8463462 -0.07055099 1.0587757 -2.1637518 -0.522873 0.5368151 -1.1156932 -0.05962558 -1.4536648 -1.2737187 -2.550732 0.4293436 0.59564584 -1.5497247 1.9647024 2.0689073 0.0807308 1.331062 -4.1073747 -1.6373941 -1.4421698 0.5517699 0.87135065 -2.0491133 0.19992723 1.6125736 1.1593598 0.10687584 2.009037 3.041833 -2.505808 -1.4374721 0.9494017 1.4645532 -0.8810129 1.7068988 -0.004379099 -3.0911977 -1.9732311 -3.113594 -1.7530504 2.7223456 0.50834364 -1.3097306 0.019794662 0.06720704 -2.2588556 0.8653944 -0.2743609 -0.38098976 1.2759345 1.1601619 -2.2358704 1.8597021 2.1757174 -1.2413585 0.89007086 0.9351616 0.8499369 -1.5826198 1.6512865 -0.62765056 2.8776402 1.38122 0.7821995 -0.22764449 1.4198649 0.9805246 -0.23841915 1.2600691 -0.44793752 0.59895015 0.31410918 0.24736279 -0.65582466 -1.2211796 1.273604 -1.2263367 0.7396425 -0.24608208 -0.74174213 -1.2328827 0.31649297 0.48894402 1.5816598 1.2869354 0.1917742 0.8765233 0.915722 -3.5393481 0.35954124 0.116071254 -1.4449075 -3.2363489 -0.82870305 -0.0023185555 0.12831745 -1.0368093 -0.6225872 0.9301531 -0.6146482 -0.20256104 0.18677486 0.5844865 -1.6236457 -2.2966118 -3.4809737 0.2793602 1.4565309 -0.8468535 0.6201914 1.9250594 0.57395583 0.5830984
AAQH -0.009542824 -0.8274119 -0.8140643 0.67233706 -1.9781941 -1.5505973 0.3152515 1.2578566 0.06238104 0.58463407 0.43602774 -0.20021203 0.47438565 0.8863653 -0.3497278 -1.0757246 1.2227601 -0.77939343 3.0530536 1.0581032 1.8813162 -1.6777406 -0.18496084 0.7688238 -2.48731 0.15462442 1.9136717 -1.6795436 1.6778802 -0.22033718 0.89602816 -0.055783436 -1.6619079 -1.3799708 0.18804452 -1.1628451 2.6859493 -1.8378026 -0.3000189 -1.1093289 1.0496626 0.7155166 2.7107806 -0.58470654 -1.0627944 1.1134442 2.3521461 1.2618561 1.6124976 -0.6245096 -0.99490887 -1.0062056 0.01832027 1.8326406 -1.5420107 0.99631584 -1.2352172 2.5831912 -0.36026207 -0.5458031 -1.733667 -0.084080674 -0.7765397 -1.9061443 0.1969286 -0.09667629 -0.28481483 -1.8408271 -0.026381262 -2.0251067 -2.3045561 1.5473162 1.7384373 -0.5767827 1.3784401 -0.18332875 1.650657 1.2982043 -2.1157172 -1.5901746 3.163381 -1.423814 2.14448 1.2398514 0.8595761 -0.21273588 -1.5379585 1.1565555 0.42621523 -2.4464536 0.3473959 0.66078264 2.035522 -2.6520398 -1.5068086 0.10148657 -1.4669485 -0.022006001 -0.6246455 0.4613422 -1.971845 -0.8673711 0.33023992 -1.0407109 1.056113 -1.7969375 -0.62970924 -0.4147467 -3.4351604 1.7665045 0.7687477 -1.8415128 2.052132 -0.65397894 -0.2991424 0.6034003 -2.9843538 -1.8764167 0.10794127 0.79605705 -2.7749555 -2.6474426 -0.44806433 0.61707765 -0.1699139 2.0003242 -0.76038814 -1.3416785
ABWR -0.51632726 -0.45051455 -0.15041164 -0.89474124 1.9450569 -0.7809923 -0.3551084 0.084827885 -2.6003416 -1.7576566 0.0011918732 0.80387574 0.72430164 1.4170003 0.029588647 -0.9271774 0.50236744 -1.0044854 1.554442 0.28410387 -0.030104635 -2.6261742 0.58855444 0.50024986 -0.1949332 -0.1501666 -0.4276945 -0.06616404 -0.75209093 0.971537 -1.3156509 -0.37014833 -0.49654943 -1.9318064 1.4293032 0.08876654 -1.4993715 0.56962204 -1.3686644 -0.77456415 0.505754 2.4620578 2.424721 -1.4894514 -2.5707045 -2.5847158 1.8099915 0.23100919 0.24628063 0.40473932 0.5362803 -0.7769867 2.1305997 -1.700961 0.25408632 1.8809997 -2.044133 -0.97914135 -2.8580751 2.010044 -1.1784652 0.5107442 -1.3769732 2.5130942 1.2998312 -1.4891583 -0.6784216 1.1555676 -0.599039 -1.1646216 -0.6755688 -0.31579578 0.11385786 -0.5244608 -0.5502728 1.834745 -0.8437851 -0.30046752 -2.397662 2.8934195 2.77519 -0.26375875 -1.3354214 -1.9952859 0.4780038 -0.47861257 -1.8403659 2.4406576 -1.0886989 -2.0957048 -0.5913029 -0.45356134 2.0493562 -0.44235623 0.7873301 -0.6334515 -1.6808357 0.21235412 1.2952061 -1.1560718 0.6868179 -0.99610823 -1.195637 0.3560279 0.2104162 -1.124399 -0.47852042 -2.2896714 -1.9957603 -0.057386518 -1.4158406 -0.8345523 -0.8275295 -0.08065304 2.3912008 0.2096403 -2.160437 -1.0356284 -1.9386219 -0.20276874 -0.013592999 -0.8269362 -2.012025 -0.9613463 1.4833069 2.423988 -1.8489592 -0.74849993
ABRZ -1.5109824 -1.0724022 -0.86153054 1.9574773 0.8894135 -2.7164917 -2.095867 2.2335224 0.59379405 -0.89376605 1.5737661 3.4986157 1.4051558 2.0950413 -0.68051887 -1.8063655 2.0851197 -1.937348 -0.067512445 1.7425569 -0.33869037 -2.0107977 -1.1165057 -0.24364941 -2.3722978 0.46938223 1.4384112 -0.21391729 0.80899507 -0.7303718 0.29230514 1.7322128 -0.7062943 1.5502006 -1.2686518 -0.35160872 1.1197519 -1.0909054 -0.9041458 0.780922 -0.73766196 -0.16950823 2.7481399 0.18427147 -1.5704702 -1.3139455 2.641276 0.5887412 -3.4154415 1.0049485 -0.6072431 -2.1023307 -0.9671376 -1.1820189 -0.061168604 1.8854729 -1.4546643 -2.3961499 0.6935967 -0.18837008 0.044696644 0.61189884 -1.1364173 -2.0182073 -1.1182538 0.5720094 1.3071547 0.26871327 -0.4565346 -2.3864405 -1.9977673 1.4102459 0.96958345 -1.70919 -1.3279787 2.5708778 -0.38331163 0.9294513 -0.6325477 -0.7845159 0.61806256 -1.8684311 -0.81416386 1.114182 0.99701685 -0.5129468 -1.6004872 3.1726701 -0.69552857 0.3501212 2.1745272 -1.2702922 1.2136936 2.2228541 -1.6979464 -0.35642537 -1.6562685 0.3176741 0.7889165 -1.9193476 -3.0637603 -1.2789165 -1.6093622 0.3540477 0.11814199 0.3920621 -0.9332622 -0.08607096 -1.6339381 -0.42663255 1.2917658 -0.98836774 0.099819876 -0.7366022 0.41136318 0.82318336 0.65581566 0.40734792 -0.7514145 -0.28694186 -0.08293295 -2.044607 -2.3227696 1.4793532 1.1826569 1.2135108 0.077542655 -1.1423553
ABME -0.09507751 -1.4158956 -0.22400369 0.32242057 -0.55364287 0.7077594 0.5374546 0.44245532 0.24987897 -1.1610831 -2.358934 0.82770836 -0.9223277 0.24668084 0.6465643 -1.5318 -1.543643 -0.18817075 0.6312726 0.87588054 0.023807542 -0.044261135 0.17918646 -0.8930171 -0.10693148 -0.0019277765 0.12958327 1.4405029 -0.915645 -1.4048053 1.7807848 1.5222474 0.4871089 -1.9712033 -0.77619654 0.060248278 0.85573834 1.5838715 -2.4394317 0.93833923 1.4202387 1.3110769 0.53155607 -0.43266362 0.08041566 -1.9931393 1.9608966 -0.84181017 -0.9850687 -0.76838124 3.2535446 -3.1291502 -0.35279515 -1.548969 -1.7201775 0.8859186 -2.9642978 -0.49182367 -2.8318465 0.017098807 0.20049813 1.2380213 -2.9758499 2.0405629 -2.2487288 1.788561 0.8308806 -1.5415978 0.5323529 -0.41126123 1.9576526 0.6530824 -2.6855996 0.32589078 1.0096972 0.27632183 -1.0249015 -0.20343143 0.8790789 -0.857341 0.23894934 -0.91217124 1.5790371 3.5358708 1.8684744 2.2079127 -1.115704 2.1467495 0.510699 -0.056861077 0.5414824 -0.49112195 2.1529803 -0.9235114 1.2366585 0.4520384 -2.0848906 0.7944561 -0.8824141 2.7301478 -1.2853783 -0.9127443 0.3561429 1.2278173 -0.82443714 0.36420158 0.95470303 -1.6828526 -1.6628661 0.030624082 0.28184825 -0.8402799 -0.4300972 1.1750703 0.78719217 -1.4508474 -0.888264 0.31916896 -2.5026507 -0.22761098 0.23018867 -2.6917405 1.2528383 -0.078424826 1.8828064 -0.7621528 -0.8693887 -0.003909006
AAZW -0.078876294 0.37615132 -1.2944506 -1.5652682 1.5631634 -2.4944522 -3.5268178 0.9722507 -1.6845264 0.43622243 -2.0293047 1.2750162 -1.3109068 -1.983599 -1.1175246 0.9060605 -1.3333412 1.9669994 0.012170577 -1.5741094 -0.72390944 -2.7309992 2.0734172 -0.0046969713 1.3185848 0.7604556 -0.3060076 -0.208338 1.3537155 0.5079435 0.992889 0.48762837 -0.64816856 -0.0023871607 0.5888085 1.7895122 -2.0096705 -1.0386068 -1.0262408 0.61499476 -1.0805756 0.8514452 -0.2466187 -0.8082144 -3.1090863 -0.39529607 -1.338478 -0.14583844 0.14985897 0.57591975 0.2234952 0.28540382 -0.22287083 -1.0104734 0.7036643 1.4968019 -0.6671838 -1.5796918 -0.46266472 0.8302558 -2.2904806 -2.1062934 0.23964576 1.1132823 1.1954173 2.102157 -1.8814507 0.27411065 -1.5083498 -1.2885519 0.06361018 -1.4790009 -0.5651552 -2.385694 -0.5259212 2.4037385 0.18607801 1.4346783 1.0132136 -0.8495641 -1.951004 2.0327504 0.52651846 -1.1418339 0.37498787 1.7492373 -1.076989 0.7077002 -1.4849967 -0.27401215 -0.13018338 -1.0519192 -1.4796969 0.48182765 -1.2432083 0.66998714 -1.1051967 -0.31035918 -1.314364 -0.44262224 2.2348707 -1.7993845 1.3154808 0.29378194 -1.9784997 3.9607754 0.07249088 -2.4907799 -0.85692334 -2.7955394 0.8822575 0.5264142 0.8205662 0.4603541 -0.02302885 0.8653986 1.301755 -2.282279 -1.3060145 1.0813195 0.06462812 0.6209684 -2.2477574 -1.0457045 0.5593267 2.7926197 -0.88849616 0.7602209
ACGT -1.7655894 -0.8155119 -1.664661 -1.6331686 0.42415515 0.9541363 1.5443349 1.2581383 1.1158559 0.3389949 1.3790807 0.9829663 -0.89624405 1.9511696 -0.77177554 -1.3793702 3.1190898 -0.02246978 1.2039872 2.7806542 2.5129356 -1.1906188 -0.17149007 1.9458624 -0.79858696 -1.0971892 1.4451581 0.6699188 -1.2679625 -2.3060372 -1.0103115 3.7350292 0.7144064 -2.2973266 -2.4744437 0.5664036 1.1691709 -0.6803293 -3.0723834 -2.5645633 1.6125342 -1.4742517 2.2471619 -0.084650055 0.58366036 -0.1522258 0.32181418 -1.661287 -2.3285832 2.4626584 1.8385427 -2.7537618 0.21948019 -1.2039763 -1.496537 0.15415056 -2.147933 1.851325 -0.25991738 0.9719583 -1.554797 -2.9254794 -0.7894206 -0.26087177 0.6539065 3.4837368 0.28131342 -1.320151 -1.5532593 0.28627226 -0.7346839 -2.2666051 0.10620042 -0.08366694 -1.5028621 1.1925353 -0.2689674 1.3348192 -1.5205326 1.9306887 1.594209 -1.129756 -1.2127275 1.3788197 0.7173757 -0.46410328 -0.9743227 0.6438698 -0.17973328 -1.9266534 1.1456684 -1.4111906 2.1025412 0.84385437 2.7803771 0.3630055 -0.21448448 3.439613 -2.017451 -2.1306791 -1.5552491 -1.396026 -1.2809453 0.450601 2.1032524 -0.69813275 0.49166793 -2.442841 -1.0536941 0.36487633 1.0624217 -2.6382418 0.32679865 0.21734431 0.6509793 -0.12946817 -1.2678788 0.746074 -1.6731818 1.7664893 -3.4346707 -0.8779232 0.5498714 -0.04819566 1.2587861 0.40493554 0.72099787 -0.8352364
AARH 1.9978956 0.6293487 -2.3994355 -2.27419 0.76564544 -1.3006989 0.9589332 2.9730632 -0.6194712 -0.46753326 -0.49650115 1.8952872 -0.61744714 0.6995682 0.4332929 0.8012745 1.4343308 -2.0904696 1.490278 0.30825442 0.14065234 -0.8329716 1.0682081 -0.45507637 -1.1452703 2.3724763 -1.1839354 -3.2898674 0.9738863 0.64304775 -0.81931907 1.3295841 -1.1530398 -1.0901484 0.77469987 1.0267409 -0.20151877 -0.7082354 0.3578192 0.674662 -0.29279515 2.4151495 1.614157 -2.5564346 -1.3672531 -0.9853564 2.5169027 1.2590777 1.7919254 -0.754315 -1.3125412 -1.1686416 -1.1160884 1.4082624 -0.18968427 -1.9214169 -1.4079952 -0.3553492 -1.2357044 0.46560037 -0.8517927 -0.18216653 0.124706864 0.5407786 0.41074196 -0.27809063 -0.5314127 -0.28549278 0.8603906 1.8855851 -0.3013925 0.63691425 -1.7885172 -1.8690349 0.971134 0.7784073 0.52469456 -0.5529046 -2.6067522 -0.8068312 1.3094848 -1.924977 1.3847322 0.98838323 1.8780936 0.9638397 -0.3415402 3.4505858 -0.026453482 -0.12613519 -3.0878856 -1.2247347 -0.25331762 0.2035496 -2.2203767 0.2912685 -4.1313963 -1.0154332 -1.9605342 -0.52984446 0.75895804 0.9392544 0.1513275 0.25761107 1.8485024 -1.1778107 -3.1596816 1.4676704 -1.5646352 -2.0617564 1.0524999 -0.9394267 1.1484579 -0.48264802 0.66641104 0.39580458 -1.222684 1.0508949 -0.08827553 -1.1027848 -0.6928957 -3.6869385 -0.17070104 -2.7551324 0.57014275 3.0326881 -3.0787892 0.56097364
ABJU 0.082915 -0.32343978 0.44702247 -1.5766363 -1.4124284 -1.4121056 -2.5742285 0.14642094 -0.5628609 -0.33536503 0.5214924 1.9278234 0.28770998 0.3249766 -1.9195598 -2.2419853 0.2604214 -0.10687629 1.0393072 -0.5341295 2.2963789 -0.5958544 -0.77800095 0.93605137 -1.5814056 -0.344968 1.4915991 -1.919102 -0.5781389 0.8548018 -0.23452237 3.0512815 -0.33298117 0.95460534 -1.100436 1.1604602 -2.5895572 -0.5965556 -1.6449735 0.59676796 0.5320328 -1.2278687 0.5671068 -0.62255985 -1.4700499 -1.7079179 -1.4867443 -0.69706404 -0.14993875 0.3965975 0.5024794 -3.4036987 0.7503157 -0.18360235 -0.88193053 2.3860636 -1.0527699 -0.38319126 -3.0486758 -1.1622655 -1.0473295 -2.689169 -2.2180567 -0.91086483 0.4138955 2.291243 -3.091507 0.16293374 2.2558196 -1.4277953 2.7405949 -0.7038218 3.549108 -1.0707687 -0.7471654 2.2908134 3.1376991 0.9222226 -2.3941994 -0.4786883 -0.57636315 -1.0235935 -0.9953958 2.5407178 0.17537288 -0.57564956 0.060818408 1.9374583 0.6947275 0.07013224 0.7248033 1.8963795 1.5195361 1.1260287 0.30340025 -1.6280372 0.34976128 -0.4346018 1.0465378 -1.7432666 -1.2746507 -1.0093485 -1.183147 -1.1180823 -0.44059175 2.8692114 -2.415981 -2.842948 -0.44807026 1.1888341 -1.8031802 -1.779798 0.14720541 -0.030466164 0.9211989 1.308701 -0.016936025 -1.3486384 -0.94676256 -1.4187052 -1.0549185 0.04517607 0.34646973 0.9826383 -3.1628623 1.3899598 -2.078443 -2.145039
ABYE 1.4138303 0.50971276 0.27690694 -1.2526301 -1.6601155 0.61050135 0.9248329 1.2585529 1.1901236 -1.4951224 0.20892002 1.7370344 -1.6521393 -0.37565547 -0.20911743 -2.1452153 0.27049398 0.10387223 0.41183317 -1.6307392 -1.2096369 -1.1374902 1.4850447 1.4070909 0.26896095 0.8489094 1.5821799 0.31289363 2.0967102 -0.22378615 -1.6328834 2.7217772 0.36563143 -3.0344772 -0.108189866 1.042343 0.28031018 0.7220378 -1.7438279 0.9546674 0.8995908 1.5511768 2.1433496 -1.7741132 -2.0359018 0.8520452 3.2034564 0.54382974 1.2116673 0.1017843 -3.092199 -3.1006222 0.33063444 -1.0564436 -0.043488998 0.47335204 -1.2051153 -0.6621743 -1.0227717 1.7782929 -2.7984424 -1.8642517 -1.2619957 -0.5245622 -2.1199195 1.3274566 2.0438054 -1.9338048 0.36459956 -1.9787397 -0.11648162 -1.3749608 3.038651 -0.55007404 -1.042722 1.0570781 1.5442555 0.77213967 -1.9985839 1.4538634 0.78049356 0.5974552 -1.1401875 2.6405058 -0.7612044 -1.0843087 0.6191954 1.3229862 1.4596533 0.35474578 -1.1345226 0.78534955 0.33520535 -0.27210933 -1.983592 0.22854578 -2.603773 0.60047036 -0.14054653 -0.44588277 -0.47365934 -1.158569 -1.9075146 0.019964583 -0.09256046 -0.19681738 -0.9463847 -2.5758781 -2.0781238 -0.43629813 1.5003101 0.964552 0.34784272 -1.3817248 0.19296287 0.3632137 0.16619198 0.7192922 0.06377877 -1.0309412 -1.796117 -0.8636883 -2.6025825 -1.6804708 1.6992178 2.4885433 -2.4946222 -0.7117879
AAAF -0.879049 -0.75181633 -1.9511162 -0.98725396 -1.1156253 -0.6036663 0.28973353 2.6523087 0.38727215 0.48223644 -0.11463433 0.5565916 0.69030887 0.0932166 -0.41922745 0.061582882 2.58591 -1.8632658 -0.6531071 0.7926216 0.4171093 1.3234854 0.13100162 0.66636354 1.1946884 1.8546948 1.5739166 0.022854026 -0.30307168 0.4621312 0.53488094 0.023912294 -0.90372014 -2.322989 1.9179102 0.33944297 -1.3528953 -1.4635773 -1.863017 -0.3907888 -1.8568347 0.43797874 0.13242397 3.089998 -1.4686867 -2.1485586 -0.80411726 0.83302516 -1.0078388 0.07019214 -1.2494289 -0.6557181 -0.7383253 -1.0428421 2.005467 0.24308497 -0.97683156 -2.3993406 -3.98797 2.8068192 0.8923626 -1.4282793 -0.86919385 -0.6834223 1.6943061 1.1142967 -1.7169466 -1.5337583 3.574863 -2.0733676 1.246304 0.1623892 -1.2098787 0.049929876 -1.5256076 2.6240995 1.6642987 0.8088184 -0.17736155 0.15143083 -0.1609332 -0.66844946 0.098966315 0.06318082 0.639853 1.4840487 -0.598809 0.33643246 0.7570556 2.352933 -0.939809 -0.49667594 1.1833079 -0.05731747 -2.3228915 0.28673577 -2.6933103 1.7130377 0.47355527 0.29203203 -0.4870935 -1.5261068 0.98690224 -2.583506 0.35823706 1.4340045 -0.79066026 -1.4963309 -2.2623372 -1.1078761 -0.30053705 0.72785413 -1.617148 0.50047505 0.6211337 3.6210465 0.43106306 0.8056188 -2.0293307 -1.0882105 -1.6054106 -1.6291052 -2.4208941 -2.0882778 -1.1075995 -0.1409595 2.883052 -1.654227
ACAA 0.25293395 -0.89807284 -3.5315921 -1.2206017 0.55038023 -2.6542125 0.8546791 1.7570096 0.5269719 -1.1214536 -0.24431388 -0.13144611 -0.583308 -0.933575 -1.0046425 -2.6153274 -1.1268116 -0.9047793 0.87084144 0.77929854 0.54219943 0.019138917 0.026218709 0.16326508 -1.4211861 3.220106 0.12789318 0.055945095 -0.68168324 -1.4330225 -0.70821893 1.5104728 -1.7234632 -3.402445 0.6640787 -1.9700545 -1.9754453 -0.6626597 1.9972715 -2.5946407 1.1558626 0.20172532 1.30598 0.11271627 1.4764398 -0.36348853 0.3922177 0.24761274 -0.061237607 0.7248074 1.7441164 -3.0249133 -0.39767864 0.27862814 -1.4084584 0.52175426 -1.885414 -0.6386606 -1.263473 1.9015248 -2.9063952 -1.2816004 -0.9221664 0.6818155 2.4415202 1.3695387 0.34408328 0.80571735 3.4096868 -0.3331602 1.2491498 -0.46932188 1.9389496 -0.47897816 -0.685384 1.1962441 2.0421221 1.0150478 -0.25313696 -1.2888395 2.807169 2.2623332 0.1106633 -1.4592028 1.5523783 2.9931543 -0.2024802 2.132308 0.18605086 -1.9817326 0.95692027 -0.54567677 4.076625 0.32166505 2.2797532 -1.2086673 -1.750796 -0.101515755 -2.3652668 2.173752 -0.6904165 -0.86365443 1.3025615 0.24723059 -0.20749426 1.0543919 -2.1305873 -1.1689883 -0.60121226 2.7858481 1.1209921 -1.1985244 2.2289462 1.5404176 -0.88782907 -1.7351485 0.4250978 -0.5893878 -1.1211019 0.6481636 -0.6426785 0.6737914 0.101886496 -3.1268995 -0.15331432 1.5403941 -0.5605463 -0.5352663
ABMB 0.05224457 -1.3696458 -2.4971502 -1.7094353 1.7152876 -2.9256868 -0.11000122 1.3164582 0.9744312 -0.2761479 -1.0895097 -1.2554221 -2.6518006 0.3736885 0.1911068 -0.66641337 -1.7438719 0.18022147 1.5186809 0.87276065 -1.0232598 -0.9752726 -0.27407357 1.233671 0.032822788 -0.058954522 1.6518133 -0.124510795 -2.4038215 0.94344664 -0.34544253 2.0550942 -0.16407734 -0.94446933 -0.20992672 2.1218724 0.45108032 -1.345256 0.42248604 0.57438517 -0.9509951 0.35862985 -0.18700746 0.16447115 -1.9502375 -1.5352043 -0.017639283 -1.0711815 -1.7067623 -1.6100446 0.7014274 -3.2461731 -1.9151269 -0.029966423 -0.6517651 -1.3166163 -0.34394962 -1.3298526 -1.1638995 0.6468359 0.73155737 -1.5381943 0.6775306 2.927685 0.16643955 2.2855043 0.35393816 -0.11959719 0.7027141 1.2164823 -1.7818763 -1.7950424 0.5395238 -0.1171985 -1.5888358 -2.78007 0.47689053 3.1042411 0.64396834 -1.0530405 0.053304065 -1.9096197 -0.80712557 1.1459783 -1.0804065 1.7313329 0.008454602 1.4628131 -1.3525696 -2.89768 0.26750946 -1.4333334 2.7143133 2.450547 -1.1663752 0.91531384 -1.848555 -0.7200386 0.92553896 -0.15092927 1.6888428 -2.4578192 0.96633 -0.5618793 -0.34316197 1.5268514 -0.74886787 1.3825775 -3.0069911 -2.8590999 2.0787456 0.047069013 -0.6250826 -0.7540351 1.5460306 -0.25647986 -0.85192025 0.37396422 1.4175673 -0.8324979 -1.6567035 -2.779659 1.1856453 -0.106196575 2.132731 2.6416833 -0.5908696 0.4671775
ABNF -0.8630411 -1.9243783 -0.7342323 -1.6983215 0.87208587 -3.1488445 -2.019784 1.8453214 -0.21341987 1.3509305 -0.36776307 -0.2358178 -2.2148762 0.7429468 -0.55584764 2.336817 0.9294656 -0.048306815 1.4176178 0.04810799 2.046143 -1.271162 0.96086127 1.3978578 1.2504985 0.6025376 1.2661266 -3.1432934 -1.5469708 0.51701796 -2.087769 1.7141551 -2.0711858 0.33401573 -0.40775955 -0.21263224 -0.9531585 -1.0432879 1.3614545 -0.52940756 1.0026942 0.4478789 0.15600413 -2.1978657 -0.4293451 0.66739655 0.27174008 -0.66033304 1.6097407 -0.88874096 -0.72616696 -1.384668 -0.6254071 -0.16011214 -0.48353994 -0.19610207 -0.7037892 0.8309214 -3.0563636 1.6274271 -0.27970326 -0.42446348 -1.6294479 1.3462183 3.440759 -0.10969791 1.2718353 1.2907164 -1.5111216 -1.8450347 0.5163693 -1.0069902 -0.5954165 -0.33841187 -0.011209934 1.9379253 2.1706917 1.5716736 -0.38921145 0.33267206 4.0532317 0.37147033 0.50970817 -0.4694476 2.128668 1.6924684 -0.65224665 2.2586675 -0.89999324 -1.9468889 0.9927612 -0.11299471 1.9280018 1.1456218 -0.8326824 -0.60785156 -0.1112828 -0.6361155 0.2632722 -0.71227014 1.1092756 -3.0771177 0.3356344 1.0008808 -1.5208663 -0.49006987 -2.5432723 -0.036189444 -0.9479364 -1.1081702 2.429823 1.5971966 1.461966 -1.99842 2.423994 2.198367 -1.0190294 -0.49062723 -3.64488 1.338847 0.5736403 -1.6831983 -2.7533648 -2.5050352 -0.037879493 0.22135714 0.6858194 -0.48385122
ABQO 0.106616445 -0.54829156 0.10168989 -0.98729014 -0.8287403 -0.31779408 -0.07414458 1.5806584 0.32887167 -0.8798402 2.4818432 0.84527874 -0.4215937 0.60709244 -0.30984634 -5.0244117 0.739505 1.1985203 1.6542901 1.8211955 0.9221679 -1.37366 0.5963689 2.0135043 -2.3393912 0.13805592 0.25484705 -0.8108956 -1.9734144 -0.59446114 -0.46676415 1.1452503 -1.0899764 0.8654205 0.9097663 1.1999028 -0.28072923 0.86434716 1.1956491 -0.83516705 -0.6659734 1.6759344 1.7343532 0.32373908 -0.86736345 -1.36041 1.3632029 -0.2307307 0.27479133 1.7680758 -0.2267537 -1.23649 -0.43774185 -2.001942 1.3457811 0.14429423 -1.1564759 0.089684285 0.13289812 0.8550404 1.0865633 -2.009996 -0.9017903 -0.591706 -2.989329 0.5652859 -0.32910928 -3.1972263 -1.9970865 -2.555926 -1.1629218 0.8896072 1.9689965 -2.1192973 0.642466 0.8739273 -0.8778766 1.3050116 -2.2183218 1.0986595 2.6577737 -0.22569738 -2.202438 1.0174423 0.8431984 -0.29438466 -1.2394279 1.219619 1.4846312 -1.2340099 0.89277697 -1.0678711 2.7072742 0.08172172 0.86763823 0.4236106 -0.801159 -0.7606479 0.38715217 0.7172796 -0.11203062 -0.93007785 -1.6740925 0.9145505 0.62223065 0.0747422 -1.557758 -2.2378387 -4.24128 -0.32522318 0.4215213 -0.9320029 0.93459386 1.6906387 0.6961004 1.5595493 -0.31349644 -1.2521665 -0.6250111 1.0553639 -4.014576 -1.6280025 -1.9336345 -1.9009451 -0.08113768 0.3756044 0.67337686 -1.7671146
ABVW 0.5795733 0.49777764 1.9291574 -1.2080772 1.7596388 0.58816147 -1.8429235 0.22898543 0.1532087 0.50368917 -0.48669824 -1.7259226 -2.4501262 1.4582188 -1.0086275 -2.2161388 -1.022123 -1.1436669 0.2991721 0.030026099 1.9375789 -0.40897325 -1.565925 0.89300776 -1.1630253 0.8925399 -0.46160764 -2.6632812 -2.0600114 0.34720904 0.34595585 2.8173609 0.21190654 0.4418327 0.33169013 -0.5291629 -0.8661203 -1.1268624 0.36306942 -0.52548337 1.1164106 -0.064247064 2.4584491 0.1284715 -0.6515255 -0.10109405 0.08632953 -2.834192 0.37329665 -0.27079004 -0.40907806 -0.65659666 1.6304824 -1.2719905 -0.617523 0.6427147 1.3491303 -0.5419705 -2.636502 2.6430838 -0.19019204 -1.7578853 -0.5293225 0.12523417 -0.37676975 1.3511641 -0.032023504 1.2268059 -1.5066822 0.49562508 -2.053851 -0.8076921 -0.073011726 -2.0750766 1.1722206 -0.4900027 1.9541113 2.0125082 -1.4139129 1.6017538 0.9812868 0.37813938 -0.87116414 2.5821896 -0.58393216 0.63637185 -2.7842925 1.2284223 -0.21367037 -0.30501473 -0.60780275 -1.7224528 0.8132579 0.48852333 -0.41182113 -1.5652856 -1.7764971 1.5729806 -1.3461406 -2.1191719 0.39507145 -3.5921397 -2.5916088 0.8669291 0.34747934 -0.6461001 -2.3875022 -3.703637 -1.3869482 0.61264485 1.0033207 -0.27424818 0.37295958 -0.4278066 2.004857 0.65580046 -0.18774432 -1.4537982 -1.8410548 -0.006450924 -1.4348159 -0.26378432 -0.80297416 0.7121314 -0.80517083 -0.08245833 1.2849029 -1.420958
ABOE -1.6243882 0.083063215 -1.8064741 -0.33661932 0.6570333 0.12370421 1.0201279 -0.534414 2.1582108 0.6657805 -3.2189412 0.25175706 -0.9739784 0.92474717 0.31830752 -0.34827092 0.9473501 -2.024469 0.95489657 -0.293306 -0.2598578 -0.9705826 -0.97529054 0.15000981 -1.6593168 -0.01691582 1.9071679 -1.5699172 -0.8323672 1.3759937 -1.3464923 1.788797 1.8135484 -0.7091458 1.3871454 0.7080772 -0.23052695 -1.0018898 -1.2608762 0.10826718 1.2774264 -0.9072375 2.9170303 0.6428407 0.911656 -3.1405857 0.699459 1.4571955 -1.1653471 -0.58161795 -1.0874974 -1.3082832 0.61104655 -2.3805666 -0.87622404 -1.0372126 0.11385782 0.58654684 -2.7151232 1.594353 -0.27215812 1.3018082 -0.3463256 1.7687893 0.4900544 2.4394472 0.24326605 -0.36746278 1.301057 -1.8761816 -3.1682684 -0.8866968 0.97889584 -2.5211987 0.8072077 0.5909221 2.087816 1.496103 -0.41310987 0.3736214 1.88217 0.18027794 -0.9644 -0.41449583 -0.24813938 0.57593066 1.1132475 1.298272 -1.3898047 -0.6522542 0.8691512 1.8423831 2.8287673 0.039107725 -1.9438941 -0.4431391 0.40604126 1.9183947 -0.781583 0.5905555 -0.09664123 -1.7597762 -1.4911677 -0.1884595 -0.85829014 0.89667773 -2.4409156 -3.0467792 -0.2802968 1.189109 1.9026457 -2.8209114 1.0229164 -1.1382463 -0.30455497 -0.4146167 0.90040505 1.2728328 -2.3302135 1.5137901 -2.3962998 -2.0370202 0.24723043 -1.0092748 0.8512905 3.3083797 -1.3020322 -1.3320447
ABAI -1.8187392 -2.570825 -1.8718479 -0.26856875 2.7460575 -0.6622138 -2.3243585 3.0908453 -0.5736927 0.6458236 0.80408955 1.8835118 -1.3725185 -2.8139503 -2.0455081 1.127231 -1.0104007 1.4638155 0.0575458 -1.34206 -0.21231636 -1.9018422 1.9596833 1.8589702 1.3597443 0.39612272 -0.7466505 -0.23341404 2.8935142 -0.878423 0.9473868 -0.4991232 -2.525827 0.41385162 0.47194937 1.7832369 -0.55732346 -0.2343536 -1.9738808 1.2637271 -0.19114588 1.2180451 -1.3058155 1.1531303 -1.9933218 -0.5008399 -2.144636 -1.420311 -0.4802691 1.9587748 0.2831383 -1.2900897 0.4694582 -0.24107277 1.2985222 0.94267434 -1.5435846 0.14254951 -1.0221499 0.03243843 -2.1129458 -3.5003757 1.1353261 -0.2593099 0.84926337 -0.72117436 -0.39204347 -1.5268197 0.49357927 -1.1287813 -0.9814283 0.5371035 2.294602 -0.8231377 -0.3115356 1.0097631 -0.7949404 1.7365594 1.4361303 -1.5583677 -1.2369853 -0.36352932 0.6090433 2.3005435 0.7608309 0.18699008 -0.87422484 0.12948392 -1.7621154 -0.6434765 -0.6520256 -1.5201222 -1.2076719 0.41344088 -0.06201969 0.004144786 -1.9638386 -0.76404166 -1.8532375 -0.34559354 -0.3538336 -1.569654 2.8275232 0.21996708 -0.5476623 1.7357577 -1.5175165 -1.9162827 -0.6810292 -1.279539 1.1927352 0.1825988 0.9307286 -0.34741023 -0.5041552 0.015643053 1.9984984 0.059196863 -0.71867007 -0.6564999 -1.717508 0.32904127 -1.6431092 -0.27192962 -0.9343496 0.82833034 -0.072715655 0.08705543
ABBT -0.81383216 -2.2073302 -1.1869125 0.80162704 1.6604391 -1.1313803 -2.5660095 1.7738787 -0.5760168 -2.4372733 0.69884175 -0.17421347 0.55035514 -0.31632787 0.33551952 -0.60480654 -0.543999 -0.9470963 2.379336 -1.4017256 0.8436565 0.56863403 2.3063502 0.10908646 -0.5523245 3.0416682 -2.3260133 -1.7001084 0.5874132 -0.49349305 0.60595554 -1.1824871 -2.1678476 -1.6208438 0.1428069 0.19966197 -0.8094005 1.8507655 0.8118378 -1.1849139 -0.28098822 1.0709188 1.371207 0.72336537 -0.91137755 0.18988968 0.99003565 1.4011765 0.72867256 -0.6887493 0.83870596 -2.010974 0.9138313 2.0061927 -2.3804088 -1.5984561 -0.41119528 1.7670139 -2.2582097 -0.57447237 1.2640414 -0.89550877 -1.0624881 1.5068476 -0.24171034 2.5950682 -0.543207 2.1829793 1.8151062 -1.0526755 -2.3705094 -0.23947702 -1.3559022 1.2158324 -2.6862812 1.5748445 0.7754451 0.65339524 -2.8982298 -2.1840248 0.011790363 -3.1470683 0.3316736 0.8593224 0.74578196 1.5181416 0.8065615 1.1226004 1.7183176 -1.7530804 0.2571898 -1.5464852 0.7806199 0.1453981 -0.1980205 1.4315397 1.3479502 0.53015596 0.40285873 -2.7337914 0.02168427 -1.2800292 0.3367786 -1.6543679 -0.59212697 1.0433384 0.07577629 1.5727894 0.60772306 0.6689684 -1.4645678 -0.9903163 0.6125158 0.26900396 0.6709333 -0.07475779 -0.30651173 -3.549021 1.0275724 1.9816437 -1.4420775 -1.6408428 -0.5482853 0.7121114 -0.6571581 -0.6003493 0.33996332 -1.4963675
ABNH -0.37396115 -2.5310585 -0.33026683 1.694195 1.947363 0.49006572 -1.2043607 -1.7928982 -0.9450956 0.66516125 1.0196936 0.92635906 -2.347518 2.1368508 -1.4378163 -2.0609186 1.4937553 -0.73191136 -1.0312029 1.5606213 -0.79088825 -1.5609713 -0.9607397 0.23938638 0.30063257 2.08911 0.68639076 0.21374667 2.015824 1.9081329 -0.24737418 0.7502878 -2.619401 -1.3716378 -1.9064481 1.6909735 -2.0442264 -0.88570213 -1.1171116 0.32090536 -1.5049444 1.8999273 -1.1103212 0.39797562 -1.6870102 0.5225491 -2.426595 0.7799947 0.5963748 -1.5237901 1.1669401 -2.6205792 0.085144825 -2.2336812 -0.12371309 3.1747065 0.30134442 1.6996669 -3.0042505 1.2124379 -0.7799667 -2.418391 0.2831976 1.0735182 0.59233296 -0.13662934 -0.38297197 -1.0691485 -0.22151348 -0.71735936 -1.2116635 -2.551146 3.0181956 -0.46779963 -0.3223459 1.4776564 -0.8650695 -0.23392573 -1.4725969 2.382695 1.1779116 -2.3739495 -0.3900203 0.34685686 1.129614 1.6297959 1.8050168 1.6566664 2.0467126 -0.15976517 -0.39939 -0.8640726 3.165295 1.0148095 1.7644922 1.0861768 -2.38057 1.1698115 -0.6336776 -0.76935494 -1.4627769 -0.51974875 0.5144443 -0.33883038 1.8440495 -0.94299406 -1.2378894 -1.7141391 -1.9295337 2.3935552 -0.58327174 0.091928095 2.0976489 -0.023588473 -0.3037105 -0.86851376 -0.004457856 2.749513 -1.9621416 -0.84711266 -1.2546146 -2.9776695 1.1497915 -1.2803019 0.8992337 2.1196241 0.7155653 -2.241403
ABPB -0.38026 -1.6030552 0.17769928 -1.0718479 -1.1490718 -2.6678734 -1.1804819 -1.9043921 -0.6888156 1.6308156 0.46618974 1.8030448 -2.4358103 -1.249781 -0.03919934 0.3318319 0.69508916 0.94471526 1.56085 1.2991133 2.9026644 -2.8875215 0.3665156 0.798283 -3.2646546 -1.5749624 -0.4070085 0.23265985 1.5372064 0.5139439 -1.409176 -0.2972577 -2.3217797 -3.1396115 2.4717233 -1.5144868 1.3051575 0.07910324 -0.59193796 -1.0338557 0.41538134 1.3410876 0.36633766 -0.40659273 -3.331649 -0.8106111 2.215726 -0.65235376 1.0157412 0.54386103 -1.5210059 0.5752751 1.7629108 -1.2313265 0.21630664 -1.4169945 -0.117775075 -1.9367592 -2.4025493 0.9821748 -0.065325335 1.7013098 -0.074766755 0.43586314 0.53441566 -0.22948822 -0.4342968 -1.9162445 1.7317601 -3.1394517 0.098085776 0.8485237 1.3031499 -0.6546711 1.0680472 1.0077393 1.0248778 -1.7423178 0.41199723 0.3080755 -1.0031209 -1.3332222 1.1521319 -0.22117566 1.2333962 1.9878594 -1.908205 2.7304091 0.7441288 -1.5095942 -0.22970732 1.7911514 -0.82203305 -0.19933508 -0.487694 1.2970815 -1.1415241 0.87005705 -1.9703269 -0.9814166 1.9778091 -1.042311 -0.8621277 0.16874917 0.8218384 1.256719 -3.7924814 -0.7121587 -2.0048347 -0.32843772 1.6120656 1.3608936 2.4464977 0.70306116 -1.3012842 -1.5825673 -1.6197561 -1.1047033 -1.7155623 -0.8178419 0.71524847 -0.3818301 -0.8564664 -1.0665169 -3.4984457 1.2334304 -0.22556342 -0.7411194
ABKJ -2.8093722 -1.1734409 -0.83709073 -0.80196905 1.0518516 -1.2455333 0.15761283 0.5056829 1.5278459 -0.7223661 1.4000084 -0.060263246 -1.7149181 -1.3454574 -0.24435489 0.040493194 -2.238067 -3.0094123 2.9495525 0.13212675 -1.9511871 -2.736876 3.2200458 1.6835843 -0.17448662 -0.28861105 2.0078723 -2.9742846 -0.23561575 -0.3911974 -2.161525 2.815957 -1.2510139 1.1776882 0.5060269 1.1979578 1.997795 -1.9970796 -0.96370196 0.82505584 1.0637004 -2.1621857 0.51199 1.1729214 0.078116536 -2.7861645 2.1420264 1.554854 -0.28054327 0.1942197 -1.9713738 -0.36434817 1.481003 -1.4575601 0.935698 1.2934865 -1.6955129 -0.25760517 -1.8418343 0.41444954 -1.6365886 -0.5077799 -0.8962591 -1.5805137 1.4753869 -0.6529373 2.3872085 0.98442554 1.8034837 0.41013038 -1.158584 -1.7793218 1.3763857 -3.386246 0.38034838 -0.14251477 -0.25261468 1.7260181 -1.9135531 -0.31107438 2.4877086 0.2502366 -1.2140675 -1.0573083 1.7923261 2.1944714 -0.07124597 0.7806688 -1.1246464 0.2874929 -0.55051714 0.014201198 3.258406 -0.05443081 -1.0618694 -2.477691 -1.9700756 -0.9700036 -0.22883947 -0.73291445 -1.6062614 -0.5929445 -0.0011455601 0.83952236 1.050475 0.6767969 0.20512928 -0.8544883 0.5307352 1.718092 -1.3467096 1.7892663 2.3801837 1.2597996 -1.7230104 -1.3537648 -2.5210018 -2.6556244 -1.3724343 2.0021412 -1.222971 -0.18885304 -0.5872916 0.58591974 0.91907233 2.4075396 0.51400286 1.5888661
AASB 0.6237291 -2.3404968 -2.0903478 1.8947191 1.251166 -2.6262743 -0.16201425 -0.28487793 -1.8417614 0.9783964 0.5260023 1.3316642 -1.2150102 2.1567748 -1.3194051 1.2356434 0.75854224 1.2646806 2.2429821 0.025110912 -1.7265469 -1.825178 -1.2618797 -1.840681 -1.9569564 0.7974283 2.1266506 0.39846078 -0.88958985 -1.7780693 -2.880359 0.75157416 0.33539146 -0.8402113 -2.384743 2.8070567 -1.2973272 0.3711768 1.7435158 0.75794923 0.18201903 1.419872 2.5386684 -0.3760058 -2.0265975 -1.8057989 0.63717645 1.7013005 2.3215275 1.2044868 2.3278613 -2.6400712 -1.6573114 -1.9354627 -0.08097069 -1.1814969 -1.3971357 -1.2161387 -0.8654583 1.1985675 -2.2415364 1.2214818 0.44383353 1.6796259 -1.0989249 1.5258567 -0.6709854 0.3147059 -2.0643997 -0.5410803 -1.7027897 1.5482078 0.4754071 -0.23688346 -2.1474135 0.2796435 0.06422027 -0.099072814 -0.5795735 1.3785217 0.46726853 1.2153127 -1.3494171 2.2750635 2.823788 2.4887629 0.14850087 0.74776304 -0.11952021 1.7064484 -1.2860419 -2.8801146 -0.02794229 2.354316 0.6206932 -0.66779786 -0.3550729 2.8153424 0.37840554 -0.10719346 -0.08214217 -0.8417555 -0.57297075 0.84759504 -0.829378 -0.2196657 -1.897623 -2.031071 -1.3911662 -0.9188614 2.3604362 -1.54056 -0.49327767 0.40471864 1.1438961 -0.40675104 -1.1203837 -0.40015107 0.9103005 -0.85548073 0.6285896 -1.9756593 -3.9788089 -0.6409598 -0.39265126 1.8873227 -3.1632051 0.9859303
ABPY 0.877222 -2.9492083 0.7061466 0.5741353 0.36468336 -0.43259573 2.0773757 -0.15845345 -0.7637137 1.1197499 -2.380995 1.8910911 -1.9229617 -0.008560084 -0.104656175 1.9119825 -2.219917 -2.4332013 0.18473068 -2.1433387 1.9353386 -0.2142189 -0.9221399 -2.6485364 -0.7730562 2.1428921 -0.6250956 -0.81626165 -0.2005916 1.0345978 -2.0200112 -0.68377507 0.35861447 -2.9309769 -0.5351245 0.35587874 -0.84208125 0.33999774 -0.40916058 -0.9915188 0.44669455 0.15657596 1.1068742 0.5469329 -2.5080407 -0.2762165 0.2680043 -3.9379988 -0.22318749 -0.04909171 1.6316499 -1.9216586 0.928691 -0.89094776 0.6594316 -2.3602865 -1.1280121 -1.4803466 1.1551598 1.4661825 1.4986663 -2.6779137 -1.7571172 1.8825357 1.6941394 0.6341517 -1.8551484 -1.5575086 -0.95145094 -2.163695 0.40028074 -0.2674715 -0.66803926 -2.8369675 0.22825912 -0.7686361 1.5575603 -1.5322332 -1.296882 -1.5818791 0.70145696 -0.82164425 -0.9290179 2.0039942 -1.4327236 2.065844 0.33233878 2.634029 0.5493393 -2.366198 2.1392531 -1.0173354 1.4706177 -0.499001 -1.1172872 -0.058990628 -1.3395913 -1.70427 -0.17803341 -2.3126354 -0.78712887 -3.3060977 -1.4188505 -0.7492652 -1.5847613 -0.43334308 -1.114764 -1.1620207 -1.5091947 0.18398915 -1.2149749 -0.7156192 -0.6797174 -2.7283144 -0.035679445 0.8206682 1.5495613 -1.6065767 -1.7810003 -1.9781593 -1.9401184 -1.7359316 0.14218216 -0.4930831 1.430845 2.4499404 -1.6345001 0.6794323
AACA -1.5386693 2.4468012 -0.5042337 1.0816851 0.32679045 -1.5080419 0.72825664 2.9354343 -2.028392 -0.32342005 -1.3622166 1.1002232 -0.5967394 0.66655433 0.8529822 0.57672197 -0.6073217 -0.82288706 2.0067716 1.9638019 3.4396546 -1.1097931 1.4555631 -0.0377821 0.6132196 0.92500395 -0.2896652 0.3521678 -0.6064913 -1.0284107 1.6265776 0.8501073 -0.9952492 -1.0778664 -0.057611473 -0.5185287 -1.2173166 0.7186265 0.1670427 -1.574506 -1.5070251 -1.0473045 1.5237188 -1.8117552 -0.1577684 0.41457963 1.7061522 -2.388902 0.7580139 1.797053 -1.9754202 1.1203693 -1.1244377 -1.9835114 -1.2505406 1.2100939 1.3564707 -0.39093593 0.32094538 -0.43429637 -2.1923158 0.47606045 -1.3417535 -0.3013505 -1.4470136 -0.7870261 -2.1882942 -1.6407789 -2.161185 -0.6327853 0.025430683 1.1822869 0.2185683 -1.8991624 0.08377654 2.386737 0.7025815 1.8154186 -1.7247083 -0.12534761 0.83676195 -2.1357315 -0.61771077 1.1475827 1.2041416 2.6405988 1.3052717 1.8921049 -1.2781065 1.1961707 -1.0014261 0.43666804 3.4019141 0.045272443 0.9804419 0.4996673 -0.38615623 2.4136384 0.66449475 0.47640696 0.031890273 -0.14604339 -0.47298124 0.84208 -1.3151554 -1.145404 -2.8104956 0.46995267 -1.8569835 -0.64434946 -0.6308135 0.46004197 2.409596 -0.41778132 2.3536189 -0.80707353 -0.03583983 -1.5822068 -2.834073 0.11974627 -0.15264507 -2.1230311 -3.6163619 0.030659564 -1.478348 0.8055969 -1.8919502 -0.97862023
AABO -0.07850088 -0.16484047 -0.1730847 -1.2653813 -0.8995285 -0.813885 -1.6259977 -0.30065945 -0.34853894 1.499653 -0.1875834 -1.6626406 0.3411849 0.21568543 -1.4010502 -1.0407637 0.39539963 -1.8057573 -0.17320879 1.5152628 -1.9864964 -2.1133535 -1.9683709 1.7376051 -0.1716702 1.6886065 -0.092859976 -1.0143747 -0.28059024 -0.723979 -2.0092783 1.8751149 -0.39842758 -1.0381644 0.64801013 1.1845477 1.1758081 -0.3144494 -1.6501784 0.4363066 2.043363 0.24346504 -0.71281034 1.86761 -1.5502746 -0.69626945 1.1433281 -0.50082755 -0.934221 1.430019 -2.0587878 -2.1324587 0.9940935 -1.6276042 -1.1882485 2.2595096 0.6565815 0.15551096 -2.0492144 -1.240758 1.2941267 -2.18011 -2.1846023 1.3936833 1.9663723 -0.87118226 0.8145474 -0.74399114 0.3294716 0.0078184 -1.0252724 -1.016029 -1.0952156 1.2385362 -1.0557226 -0.83532685 1.6283889 0.79971313 -2.1602983 1.5355163 1.3243805 -0.5902193 -0.18690598 0.55495286 2.184482 -0.67155635 -0.24243471 0.29128015 0.38995045 1.776873 1.1527842 2.1049063 1.2917721 0.46894735 0.046121936 -1.2985523 -0.7360821 1.3668537 -2.5436041 -0.67355067 -2.145095 -1.7460651 -1.9414111 0.05277396 1.5328807 1.9089168 1.867031 -0.49993485 -3.2382355 -1.0345997 1.5199958 0.13892354 -1.4811279 -0.7745582 0.029201517 1.3487376 -1.4271398 -1.8015943 -2.4600682 -2.8242059 -2.6909375 -2.9553108 -0.5697162 -0.02494211 -1.0146613 0.3040558 -1.4155746 -1.3994621
AAAI -0.8729731 -1.19312 -1.1732945 -0.7317427 4.3206806 -1.6181643 0.66332704 0.8179344 -0.5932988 -0.31061867 -1.4208151 0.7542257 1.6651647 0.97866267 -0.85392076 -1.0206082 1.3326666 1.1434253 1.2162105 1.7553214 1.5251689 -0.077778146 0.55976444 -0.18720809 -0.28098044 2.1137438 -0.1331603 -0.49279174 -1.7605364 -1.4883 1.1090659 1.2283901 0.5730603 -1.8431963 -1.8106166 -1.2476387 -0.576927 -0.4885088 -1.3869027 1.5536939 0.11011386 0.19068497 0.69919777 2.343339 1.3916065 -2.345572 -0.13701388 0.5876184 -1.8387454 0.9767571 1.7002105 -1.9043305 1.2479111 -3.0045228 0.7546639 2.4233859 -1.5872915 -1.0114243 -2.7973087 1.6993042 1.7662451 -1.0239158 0.49399003 -0.61124617 0.29535928 -0.50204176 0.14980619 -0.41857436 0.9658776 2.3800879 -0.7836015 -0.8209605 0.80280364 0.2446266 -0.7562294 -0.47877872 0.9127978 0.14869143 -0.72926855 1.9577619 -1.3038161 -1.943773 -0.65657574 0.72536606 -0.4289351 1.9742632 0.6377739 1.2972767 -1.3390657 0.5424867 1.6801462 -0.33964896 2.197003 0.6137091 0.42463875 -0.73515546 -2.6039827 2.0538862 -0.7831135 -1.3776568 0.97796345 -2.5131845 -2.2719045 0.4411422 0.15068224 0.09798418 -2.6169116 -0.38481927 -0.5101863 -2.8326507 -0.57841724 -1.5882655 -0.75598454 -0.15077804 0.47566733 -0.012935022 -0.28821853 -0.22730157 -0.9784509 -1.7021208 0.8568353 -0.59475946 -1.9235575 0.5986061 -1.6091392 0.48636368 -1.3897835 -0.98024595
AABA -2.2220042 0.34563902 2.7365768 -0.61469346 0.0065284753 -1.3066968 0.17836033 -0.03595489 0.9108615 3.8566597 -2.7198694 2.7221935 0.6440059 2.1556678 0.6417266 0.22067073 1.8050405 -4.109119 -0.1402283 -0.8010811 2.235268 0.9441079 -0.8096546 -0.99407274 -0.03252052 0.5890052 -0.19285169 0.34105653 1.0519497 0.044203665 1.4617327 -1.1470884 -1.8095039 1.9486738 1.901771 1.2081772 -0.38475463 0.47008285 -1.5791782 -0.3384217 -0.36452562 2.4186864 -1.1759205 0.7761781 0.44193944 0.5588737 2.0370162 -2.238644 -1.1496905 0.93996483 1.3343395 -0.8733187 -0.7757998 -3.263922 0.09066823 1.8979369 -1.0399756 0.036489658 -0.2999303 1.6862713 -2.401982 -1.6265903 -2.1542978 -0.111017115 0.5852799 -2.5315883 -1.60857 3.0317833 -2.312484 -2.4593806 0.24966222 0.24613437 1.5857848 -1.1983804 -1.0031933 3.3611834 0.4546305 0.5739272 -0.9922951 -0.98329675 0.7895983 -2.5756996 2.094742 1.0704874 -0.65368 2.956125 -2.6553059 0.6230086 1.096461 0.533086 -0.30820376 0.37570685 -0.09346893 1.9608971 -1.6463815 -1.3036636 -3.9498923 1.761489 0.9591071 -0.8903024 -0.64976746 -1.5029552 -0.45482108 -2.4859357 1.608356 -0.54523295 -3.150127 -1.8382719 -0.018134443 -2.8271742 -1.6369655 -1.11971 -0.16537945 -0.7368053 0.93455374 1.3484669 -1.6625618 -2.2857118 -0.75920254 -2.0331843 -2.749926 -1.807805 -0.7223531 -2.9952576 1.7325536 -0.6224182 -0.68073875 1.1799322
AARF -0.8491445 -0.08685676 -0.95200634 1.2488915 1.6841776 -1.7962255 -2.4521258 1.3923316 0.6936938 1.2943766 0.009419191 -1.6370168 -1.7135117 1.7248669 0.28741202 -2.203376 0.3022231 0.14713944 2.0339634 0.6583809 0.30514073 -1.8533273 -0.81833863 -0.17682476 -0.9999936 1.1662774 -0.9632878 0.46296513 -1.3776749 1.2322537 0.39212024 1.6423973 -1.7887388 -1.6021179 1.6554382 1.4248122 1.1043358 -1.0921272 0.03343476 0.44655988 -1.4134047 0.5491455 1.0765231 0.058315936 -1.0366607 -1.019932 -1.187103 -1.5747204 -2.709721 -0.81577975 -0.13222383 -1.6241269 0.5767574 -0.60546106 0.69762033 0.80238456 -2.7950377 -0.008403615 -2.0010242 1.6521194 -0.84222746 -0.15100934 0.73010224 -1.0348977 0.026808294 -1.0723847 1.0368258 -0.33982128 0.72111166 -2.3414156 -2.359106 -2.6500428 -0.4869378 -1.388041 -0.63756394 0.8260079 0.19137838 1.2202624 -1.3751938 1.4147699 0.78385437 -1.0169832 1.1664518 -0.29927462 2.88568 0.37815404 -2.228957 2.746225 0.33248714 0.44364473 0.57568055 0.2988797 2.7605305 0.31922078 -2.857963 -0.69630617 -0.9376795 -0.80140877 -1.764087 -0.32739952 0.3556493 -1.8551044 1.5311936 0.021528667 0.79698443 0.17866686 -0.39667985 -0.07240456 -1.4817148 0.8219564 -2.2397716 -0.76729923 -0.775965 -0.9675663 -1.1936698 1.1509961 0.5502364 -0.6417312 -1.4270506 -0.39867783 -0.8889345 -0.7578372 0.6483827 -2.2746894 1.7842853 2.63423 -0.89428115 1.4945395
ACGK 0.99720293 0.42073426 -2.5509617 -1.2309009 1.6841261 -2.8379192 -1.2719445 1.5999388 -0.027026778 -0.6083297 2.0819082 -0.5093611 -1.4298251 -0.052855533 1.84339 -2.9158013 1.0493417 -0.31427076 0.73594326 1.2621273 -0.7348313 -2.5296752 0.7081593 -0.241585 -2.5528226 1.9921428 0.91764504 -1.8097117 0.4502668 0.5531813 0.73081595 2.011057 -2.2685704 -1.3500783 -0.3946915 0.6482487 -1.7060547 -2.8266566 -1.4751009 1.0373294 0.58922637 1.466036 -0.11575685 -0.15316854 -1.792082 0.47940224 2.5549781 0.6009679 -1.4890652 1.1450199 1.7853489 -0.43555477 0.054757778 -1.2864113 0.23060596 1.6265585 -2.3103857 -2.716116 -0.43903574 -0.39737788 1.3637131 -1.3636309 0.09190646 0.7868754 -0.38502538 -0.4375913 -1.794488 -0.042570174 1.8886691 -2.6632721 -0.5536482 -1.3595103 2.7066886 -1.7696222 -1.928476 -0.904818 -0.36462638 0.5896733 1.0106475 -0.76397693 0.9550734 0.022006935 0.36861175 0.030906172 -0.61423236 -0.32079095 0.23847006 -0.5522547 1.0867112 -2.0498126 0.11973147 1.0538586 0.25419453 -0.019509198 -0.13873312 -0.67702 -2.595052 0.3305124 0.47274548 -2.011072 1.2351649 -4.0071588 0.8883902 1.6825023 1.7124337 -2.5407662 1.0975289 -0.63948315 -2.7196293 0.48816672 -2.3268626 1.6874993 2.4499974 1.3317968 1.9741615 -1.6859658 -1.375669 -0.2539812 -1.7782208 -3.1368124 -1.5181156 -1.0006181 -0.24528739 2.2924285 0.19813217 1.1588517 3.0102065 1.5341047
ABCT -0.14696874 0.64717776 -2.3805602 -0.77499634 -0.43534502 0.1579455 -0.7744729 -0.20752992 2.027221 1.6504726 2.31458 -0.03496469 -2.0025303 1.0328121 -2.1051066 1.7387879 -1.56886 1.880273 0.88919735 -0.5375933 -0.7679284 1.6984655 0.8187343 -0.89743394 -0.6435831 2.5127902 -1.223499 -0.82013506 -0.35494292 -1.188964 -1.4758307 2.1484036 -1.23728 -0.46195984 -1.3276978 -0.30413172 -1.7514244 -1.5920938 1.268006 1.0709988 -1.6517304 0.9090059 -0.45633867 0.55272216 -1.2233183 0.5711448 2.21687 0.4809603 -0.22357237 0.66622144 -0.45466983 -0.024724105 -2.1620848 0.30589908 1.4364585 -0.9922887 -2.1397727 0.6803512 0.45567948 -0.17720912 -0.61016357 0.71841985 1.0045635 -0.0076595536 0.777725 1.1776352 1.4511013 1.4976726 -1.9332104 -0.2442969 1.1193761 1.1477854 0.9559663 -0.41466796 1.3689054 -0.6969524 3.132631 0.050119463 -0.22011977 -1.0683334 2.0356956 -0.6614676 0.45448744 3.315656 2.1333992 2.3662448 1.7561299 1.1202753 -1.7596006 1.1386288 -0.725245 3.094847 0.88963306 -0.24140456 -1.331005 -1.360066 -3.629462 1.1828252 2.0505326 -1.5198798 -0.7731639 -1.1439909 1.3342928 0.14179102 1.621348 2.4099061 0.099874526 -1.907994 -2.2269096 -0.5202225 -0.040280383 0.56295645 1.5962893 2.0484238 0.17136544 1.7786947 2.5752716 -1.992567 -0.27677006 -2.155986 0.81448597 -2.2185602 -2.7640374 -0.6813645 1.7392215 3.0721505 1.4391233 -2.688011
ACIF 1.6509999 0.13227957 0.7344351 1.5430213 -2.6575677 1.8055384 -1.0483344 0.6947528 -0.35659048 -1.8136436 -1.7446374 1.7250227 0.60192335 0.34401423 -0.5679963 -0.56166804 -2.135054 -1.3407123 0.40054375 0.74807 0.36421838 0.057269692 -0.27487528 -0.11692784 0.671506 0.26806292 -0.89018226 1.0145875 -0.4089564 -0.2722584 1.1865582 1.5303199 0.4374413 -1.0423042 -0.6095264 -0.04949133 1.0202957 -0.63060284 -1.9877293 0.9926966 0.67980963 2.9384975 0.026636563 0.31849304 -0.11653563 -1.3517121 3.8721735 -0.54069567 -1.1610414 -1.986867 4.2556257 -2.022291 -0.78627676 -2.3675783 -1.5477362 1.2858783 -2.3162901 0.28094187 -2.0624335 -0.035040125 -0.28336018 1.5072808 -3.5867856 0.7519815 -1.8397839 0.9538948 1.3557603 1.1897733 1.1729888 -0.94625443 1.3195516 -0.08099658 -1.1982977 0.048565015 0.17755145 -1.693845 -1.3951738 -0.38870752 1.6760609 -0.39263862 1.0457997 -1.6944566 0.60872555 3.0115912 1.2951224 1.3179027 -0.8652198 1.8389894 0.28028503 -0.47570953 1.321301 0.097454 2.436512 -1.644999 -0.13161221 -0.6549109 -1.6170838 -0.7658632 -2.1197283 2.5066264 -2.4986334 -0.7709479 0.21296394 1.5388192 -0.11007363 -2.0907001 1.3757854 0.5237014 -2.2074194 -1.5488502 0.7839907 -1.1308283 -2.1002693 1.8545473 -0.6201791 -0.14038725 -1.8865378 -0.11745446 -1.5341241 -0.53061885 -0.47337928 -1.4542911 1.3436092 0.8366741 0.7395304 0.095925376 -0.4378832 -0.5734078
ABEH 0.07549302 -1.6925637 -0.29107434 -0.8110497 -3.1184556 1.0416843 -1.0151747 -0.51936156 1.2502557 1.5602092 -1.5172504 1.0462692 0.092356466 -2.7002585 -2.481607 0.14782728 -0.7521461 2.5967317 -1.1325667 1.5823717 1.5911806 -1.161028 -0.20720947 -0.2197954 1.1410178 0.10256489 -0.12638222 -1.227406 0.37710714 1.3013692 0.26424876 -1.2304292 -3.3135922 -0.26741648 -1.2011641 3.4487047 2.3164716 -0.73580384 1.3831596 2.4027805 -2.091168 0.3332465 1.691264 0.68986046 0.82082796 -0.07444455 1.8957114 0.4532274 0.5535158 -0.42624205 -0.64584005 1.0233601 -2.335018 -1.2798086 -4.0190563 1.7582352 -0.47315806 1.2550973 1.2101784 -1.8406923 -3.195807 -0.6802678 1.5938447 0.75596035 -1.2849282 0.43303317 -0.3186138 1.4973183 0.60663134 2.6636317 0.7381171 1.158628 1.9402272 1.8821164 -0.16734135 0.53030777 -1.2300942 0.3765962 -0.17398997 1.9434848 -0.2393191 1.0006328 -2.0545309 -2.297018 4.397066 1.6460922 -0.47221977 -1.2636734 -1.6562456 -1.3742524 -0.23686902 1.2347733 3.0885713 2.5881088 -0.8663555 1.5410326 0.7585276 1.038552 -1.4951166 -0.21511303 -0.37841225 -2.4035583 0.872522 -1.9376316 1.6137949 -4.3248234 -0.082236014 0.24942352 -1.623259 -0.06127863 1.5822057 -0.84958106 1.8638862 0.114307486 1.8714497 0.73066574 -0.058457192 2.167744 -3.3261974 1.837703 -1.4617141 0.23426871 0.97440916 1.7972695 -0.90359527 0.6635113 1.3301735 -0.78339154
AAGY -0.35021085 2.6298776 -2.7172139 -0.97820276 -1.0564551 1.3916366 0.13434759 1.7151327 -0.90910554 0.4502206 -0.5643697 0.5456569 0.82459533 1.4535773 1.7850144 0.32399863 -0.6575998 1.7164571 -1.2265577 1.8280336 0.7843387 -0.66303736 -1.7456352 -0.8874567 -0.04333706 -2.2704375 2.4271653 -2.0891316 1.9185475 0.764948 -0.9681238 0.7465471 -0.72550726 -0.28814098 0.6269652 0.12393813 0.84854937 0.6270066 -0.8206112 0.13667849 0.9391424 -0.664251 0.7413989 1.0900325 -0.63416463 -0.016488092 1.1889486 3.2964935 0.43595156 -0.011040059 -1.4762403 -1.3377959 0.2549891 -1.4022903 -0.124509595 0.37840262 -2.3157609 1.2896776 -1.2951279 -0.6310087 -2.192924 -1.8084427 0.68641686 -0.28228194 1.8816371 1.769037 -0.13841593 -0.17047988 -1.1214547 0.85142326 0.25533998 -0.852565 0.9788664 -0.52403826 -0.033498913 0.49841824 -0.5970455 -1.3047297 -0.8874454 0.6226672 0.004913197 0.5180856 1.8860861 3.1491456 0.724529 1.5852901 -2.6262448 1.1609674 -2.4877915 1.2113768 -0.030170705 -1.8880366 1.6888032 -1.0502033 1.1011347 0.8008501 -1.3082328 -1.9631448 -0.8178603 -0.3874089 -0.09377283 -1.692327 -1.4455783 1.2264441 -1.1730623 -1.8625126 -0.12346671 -2.370532 -1.5277232 -1.5452921 -0.1898447 0.78710836 1.9261314 -1.7658007 0.27501568 1.069621 -1.8389851 -2.25913 -0.20047402 0.47441164 -0.772336 0.3924317 -1.3746074 -0.2148705 1.3626167 -0.23032619 -1.224058 1.1522342
ABZF 1.0506463 -0.2261661 -0.42879927 -0.60142034 0.014242053 -0.96675974 0.53317285 -1.7893122 -0.20548709 0.6066143 -3.3210573 -1.117503 0.27023062 -1.0237708 -0.9346381 -0.60518396 -1.6065006 -1.0971811 0.84886193 0.830184 0.1914598 1.275655 1.0041202 1.3918989 0.8520986 2.0315392 1.7066567 -2.501747 1.4852332 1.2515353 0.5989926 -0.56617904 -0.5194506 -1.5036907 0.6136563 0.5865321 0.23970935 -0.73648477 1.051545 1.5184885 2.6431434 -0.48272863 3.0191603 2.0270405 -0.013258161 -1.3331244 1.8070269 -0.5668812 -0.5720167 2.5545304 0.7269407 -0.48686805 1.9197686 -1.3791825 -0.7686445 0.6452938 0.10693732 -0.5167075 0.21708657 -0.05149074 -0.42704085 -0.61101437 0.88567513 1.4079072 -0.21292394 2.3742514 0.6214231 0.96711266 -1.9318528 -2.1038747 0.9889183 0.27910438 1.6943235 -2.3079004 0.8851238 0.82521486 0.08376731 2.4180882 -2.0190132 0.5770172 -2.0899734 -1.811938 -2.2581844 1.6358081 -0.7090217 -0.027236756 -0.09320706 1.0316226 -1.9267266 0.5634624 1.2851969 1.6754578 -0.54257756 -0.06089407 -0.6954684 -1.5689473 -1.0631473 1.5734328 0.7388698 0.31692854 -0.16337219 1.4085228 0.69544834 -2.482784 -0.32907277 -0.68588597 -0.8068939 -0.4223659 -1.5377774 -1.3613967 2.3672907 -0.5001654 -0.8561314 -0.09694965 -0.46937817 2.918226 -0.15410075 -2.343048 -0.2094866 0.7113452 -0.45333764 -0.5292934 -0.5494034 -0.30564505 -0.2981914 1.9369634 -2.2021875 -1.5446323
AABC -0.4255219 1.7586509 1.5686574 1.7820151 0.20415546 -0.86756784 -0.9813995 -0.42035025 1.2231742 0.45382172 -0.90484506 -0.5067911 -0.721235 -0.2546187 -1.2367436 -0.584489 2.4101412 0.26988754 0.8452564 2.3188143 -0.6332162 -0.9911555 -1.1446432 -1.9643888 1.3860341 0.9110076 -0.9632253 0.33591193 1.7392117 1.0959355 1.6890272 2.8186142 -1.4461884 -0.22238792 -1.1960694 -1.4713801 2.2953975 -0.2843559 0.41837 -2.0174649 -0.943156 -1.6758716 -0.47170168 3.2594862 -2.2333224 -1.5060256 2.7268476 -0.89012843 0.5858609 3.072372 -0.65766263 -2.3905115 0.11643832 -0.60278267 -0.1669763 -0.012145031 -0.23445211 -1.5981835 -1.8431128 -0.49375355 1.6009629 -2.8926127 0.9137427 0.85545194 -0.7802507 1.5209534 0.54535544 -1.8826387 -1.7286434 2.7921886 1.5878146 -2.2242417 -1.0569276 -0.7119702 -2.2856495 -1.2412357 -1.34029 -0.73557335 1.1044638 0.39263865 -0.012672592 -0.152644 1.9099706 2.9515293 -1.8214369 2.472255 -2.4001348 1.6922262 1.6784123 0.27219748 -0.98240316 -0.29222354 -0.7063978 -0.25140235 -2.1027184 0.27268285 -2.1534462 0.71716505 0.17924781 -0.07647056 -1.1159431 1.4843792 -1.1498066 0.64537764 -0.09055496 -0.7805558 -0.86522144 -1.5630921 -0.2828477 0.6093035 3.5359342 1.5738493 1.3195152 -0.5928321 -0.07472249 -3.5768297 1.2560506 0.5994143 -2.4748013 1.0235957 -0.7800707 -0.09701585 -1.540118 -1.8243766 0.46683452 -0.9310147 0.19374171 1.5131766
ABDH 1.549263 -2.4543853 -1.6472068 -2.52331 1.7890553 1.5693313 0.20832112 0.31244367 -0.76075786 1.7765194 -1.1384361 0.9459258 -1.1331189 -2.0056493 -1.7695644 -2.792668 -1.0730011 0.29551625 -0.93500996 0.52309805 0.14681225 -2.1122956 -0.15221359 -0.011786649 0.35149872 1.9906847 -2.5188162 -1.7111673 -0.8938388 1.9513667 -2.4511478 1.0743273 -2.5970318 -2.9564886 0.07382495 0.7155275 0.949547 0.19521226 -0.26500753 0.712191 0.14921297 1.2450188 -0.33019647 -0.3873028 0.52527535 -0.2560662 1.6696934 -0.55435246 -1.271103 -0.6532766 1.4510244 -3.6863666 1.4656773 0.9837799 0.7342789 2.4067066 1.2182524 -0.053431805 -1.0491303 3.070275 1.9838593 -0.053661022 -1.4621991 -0.6778882 1.0988628 0.906921 0.7172297 -1.5947895 0.19444698 -0.92178655 -1.1554946 -0.055772103 1.8988092 -1.4356221 1.4076442 -0.69823086 1.6639578 -0.5156978 1.8655231 -1.3227837 2.7452817 0.5088551 -1.2275729 1.311631 0.442932 0.23449838 0.7759951 0.55689496 1.1338931 1.6139838 -0.2547276 0.4287005 1.0283675 -1.1377021 0.20468576 1.6784818 -2.99623 1.4188013 -1.4354304 -0.6686902 1.0639645 -1.4620178 -2.0474117 0.6134172 0.70386845 0.6260902 -2.6982167 -0.12029246 0.49639672 -0.049939558 -1.6486392 -0.33627358 0.46364027 2.1448715 1.834139 -1.5441804 -2.6767013 -0.75778687 -2.045237 1.0835183 -1.0412533 -1.2371755 -2.608852 0.44048035 -1.905469 1.0568985 0.18917163 -0.7347283
AATO -0.7557307 -0.14633484 -1.5474818 0.06613604 1.0243013 -0.27564594 -1.7809035 1.4433928 -1.09603 1.8534364 0.05455081 1.0248518 0.4084983 0.37515777 -2.294693 0.88644236 0.12966304 -1.2155689 3.6408873 0.7900855 0.64428306 -2.2084217 -0.9741683 1.4131647 0.38467872 2.6446817 1.2639878 1.9142058 -1.9586412 -2.2649305 0.5469355 2.5526042 -0.02003688 -1.6065254 1.321503 0.96996135 0.88082844 -0.8637456 1.6803325 1.4911225 0.91879094 -0.23303291 0.396714 0.43912435 0.082210355 -0.32277894 -0.24040402 -1.6092743 0.6468755 1.802276 -2.2483172 0.6923885 1.5576637 0.63224626 0.75796986 -1.5046914 -0.260399 2.1572793 -3.1907945 -0.8243998 0.19120845 -0.8032009 0.25833684 0.8719445 -1.1972866 3.1342356 0.53432786 -1.5160915 0.48181584 -0.008153887 -0.29732895 -0.06557311 -0.6082767 -2.976132 -2.039607 -0.54826385 -0.27010545 2.6775584 0.13852704 -1.4057232 0.9026046 -3.1099513 0.44768682 -0.48503003 0.86929345 1.8806772 0.80984867 2.4910975 0.7403198 -0.45751062 0.81274956 -1.3588322 3.0669858 1.7866317 -2.105139 -3.72762 -2.8026338 -1.7327561 -1.577173 0.59809196 -0.2676673 -1.6349056 0.56926066 0.048058845 -2.3745525 0.910374 -2.1985266 0.7161464 -0.96168464 0.69204086 1.2088245 -0.10549867 0.5116403 -0.966169 -1.8437847 1.2537885 1.3328786 -0.20909047 -0.36837402 1.2438082 -0.5184489 -2.1914768 -3.0151472 -1.9819455 -0.641045 -0.540801 -0.9875565 -3.1225166
ABZT -0.67504454 1.2688937 -0.042972013 -1.6869584 2.9324937 -0.292063 -1.6256996 -0.13866048 -1.8605604 0.4939904 -2.9761937 0.06944633 -1.2409487 -0.81265795 -1.1624703 1.1826357 1.1457143 0.24582669 1.9447715 0.9350183 -0.42556983 -1.9462954 0.63976294 -0.27200642 -0.96844715 1.5014443 -0.6188576 -1.065323 1.0712755 0.117001556 -0.77195084 2.0943274 -2.0861115 -1.0759469 2.730346 -0.57259387 1.9294275 0.34171742 -1.7400558 -1.3263059 0.98087806 -1.4067968 0.90225995 0.45907205 1.209317 -0.16038425 -2.326531 -1.8825464 0.9697055 -0.15570533 -1.4211863 1.6520435 1.0748643 -0.07221412 0.022492887 -0.39754665 -0.7375408 -1.2686898 -0.99296266 2.599716 -1.4556507 1.5792178 -1.190333 -0.6796508 1.4072603 -0.43626773 -1.570743 1.0357379 -0.6437603 -2.2492893 0.49782798 -1.6805335 0.036881115 -2.9354327 -1.5935558 0.04786368 1.2095312 1.4201484 2.6602523 -2.4096642 1.2860637 -2.142558 1.6576309 0.44220665 -1.4396707 0.9633117 -0.27128783 2.436829 -1.3534856 -0.2544828 0.083628885 0.3901791 0.9498936 -0.96620864 -0.46107742 0.5908114 -1.110559 -1.0146235 -1.5552756 -0.1694194 0.008318024 -1.2572771 -3.7500677 2.0509129 -0.049346793 -1.0040411 -2.0604422 -1.9845009 -1.53525 -1.6206237 -2.2737865 -0.4553123 0.56908864 -0.6824545 0.018924989 -0.048835028 -1.2696947 -1.8326954 -0.5972203 -0.4321942 -4.713502 -2.3299124 1.1783979 -0.3686178 0.5083254 1.5132143 -1.4189577 -2.326816
ABOO 1.8593872 -3.4641597 0.34416217 2.6077528 0.938634 -1.9301392 0.5899776 1.0914816 -0.2963786 -0.009293772 -2.0809038 1.798256 0.83550996 -1.2055163 0.4373714 -1.6870152 -0.3644931 -0.3233892 2.6150897 2.0682251 -0.92761433 -2.802863 -0.7444096 3.3471081 -0.15130788 1.2306089 -0.7351775 -1.6407337 1.1436456 1.1175717 -0.09052999 0.65508366 -3.2514014 -0.55023944 0.6184653 -0.49979728 0.6359985 -0.8437416 -0.03376543 -0.24554494 1.4672767 -1.8833208 -0.7988319 2.0136428 -2.2753754 0.012329609 1.3602089 -2.4004219 -0.91508 0.8086263 -1.6146356 -2.0480883 1.9783075 -0.7630271 -0.71239203 1.4470614 -1.6393561 -1.3125374 -1.1231971 2.7084694 0.7433729 0.17504789 -1.2684085 -1.0822741 1.0166134 0.11655521 -0.13015908 0.58768713 -1.1456088 -0.13039674 -0.44251525 -1.2453352 0.06489054 -1.1970818 0.8125377 0.62321687 -0.5791431 -0.21758217 -1.0026861 0.5565937 2.0161064 -0.23533542 1.0732201 -1.3954237 -0.051124703 0.95263726 -0.91718644 0.8236337 0.042864982 1.0657712 -1.6637024 -3.1410298 2.1046977 2.0171628 -0.9031998 0.16789848 1.5340687 0.8797047 -2.1515465 -0.5791605 -2.5592656 -1.8116273 -1.1651986 -0.31421036 -0.18305427 1.2207881 -0.54853314 -0.33955473 -3.0047557 -3.392102 -0.11642507 -0.25542048 1.3053311 -1.5310832 0.47913414 1.2860752 -0.26923367 -0.8658677 -1.2671785 -1.3360444 1.324468 0.2519639 -1.8121384 -2.3833773 1.4455351 1.7448215 0.9882178 1.4993314
ABVX -0.6135789 -2.6140666 -0.16098839 -1.2909148 1.2435087 -0.19368666 -1.1434547 0.587757 0.35519698 0.24408978 -0.60117286 0.04092846 0.4796387 1.7113516 0.5295581 2.143723 -0.029157778 0.23968315 -0.62917995 2.3040862 0.005888819 -1.2958622 -0.8385012 -0.42359143 -2.301457 1.0682613 2.4116201 -0.914869 -1.4727185 -0.8495999 -2.2533221 -1.0649784 -0.9025918 -0.77806306 0.79673874 0.110014684 -0.34862718 -0.44126335 0.39555016 0.6542959 -0.0711452 1.8141421 0.5944752 -0.82036895 -2.3312833 -1.8149501 0.6995925 -0.7379604 0.8064543 -1.4089899 -1.6554334 -4.185822 0.39207977 -0.75011295 1.0992241 0.9729201 -0.99737626 0.24322113 -2.9256105 0.5375624 1.1309109 1.265812 1.8650404 -1.309584 0.8497789 2.0091817 1.4588614 2.378222 -0.33236477 -1.3665189 -2.2923467 2.0796158 0.15107995 -2.0123684 1.6212794 0.55961555 2.6651752 1.6544236 -2.4329338 -0.22539656 0.94880795 -1.1207118 -3.0948193 1.6097808 -0.7497504 1.2536527 0.23099591 1.8259932 -0.011181465 -0.912494 1.2445722 0.3653741 0.34470898 0.8425314 -2.4933746 1.2143242 -1.364434 0.5762133 0.55631685 0.38357547 0.10365677 0.008717089 0.53827626 -3.0115783 0.7095892 -1.9550966 -2.9506934 -2.8303654 -0.8292104 0.09263661 1.9372663 1.5834241 1.9611719 0.4948331 0.21783991 -2.241456 0.1283296 -2.3935843 -0.6498118 0.46844828 0.34406653 0.10922608 -1.4274782 -2.3433766 0.019636424 0.50992835 1.4233073 0.6576073
ABMD -2.991066 -3.2643242 -1.5194068 0.21467029 0.8404575 -0.3229246 -2.1460216 1.1828822 -0.9176114 -0.86926186 -0.75886434 2.0305212 -0.7208697 -0.16296525 -0.5828244 0.9962944 1.7221051 -1.1824613 2.517171 -1.9292148 -1.6294606 0.5599124 -1.846927 0.21932456 0.028429953 2.9933112 -1.1433134 1.0715754 0.8867867 -0.7742745 -0.77052605 1.452814 -1.1113074 -1.9628326 1.5488535 1.5143083 0.052574016 0.62238055 -2.2734625 0.789005 0.62838674 1.7206209 -0.45714936 0.21921499 -0.31240183 -2.6144435 -1.4795113 -0.4484477 -2.7274716 -0.8862148 -0.049557593 -1.880743 1.7798288 -1.8526198 -2.3123245 1.2289411 -0.17271888 0.3646793 -2.0137877 2.2657325 -1.839681 1.7892499 0.42806983 0.21008371 1.6760068 -1.1671711 0.872666 2.2843204 -0.40768546 -0.8545055 -0.32137752 0.89774555 -0.17018154 -1.8903825 -0.19499534 2.0277355 1.7395623 2.9887187 -1.5937418 -0.25090876 2.13444 -3.314909 -0.76088727 -0.3715321 1.9764155 1.4869142 1.7064817 -0.17935796 -1.4871613 0.3056044 0.67193437 1.1094143 0.28485933 3.5081577 1.0590757 1.3674505 -1.365241 0.6501502 0.59284276 -0.12497854 -0.5723783 -2.3299053 -0.69463503 -0.68228906 -1.5374938 0.03024394 -1.1033953 -1.7665547 -0.13227673 -0.320111 0.2970997 -0.5501024 0.6611632 -1.9665607 0.49333557 2.777678 -0.5945134 0.64343804 -2.5732057 -0.009198403 -0.84755516 -0.9728581 -1.0022527 -0.26057228 -0.93518484 1.0479184 -2.108041 -1.6502664
AARA -2.401973 -0.48555946 -0.039356027 -1.0421447 -1.8640175 -2.4774594 -0.4142369 0.5332045 1.4260769 2.8530245 1.7375304 -0.24259603 -0.586554 0.8305273 0.6550898 -1.2294312 1.4524624 -0.42452577 0.57699704 0.74577785 -0.15552776 -0.20720924 -2.2831552 1.676096 -0.3565523 3.3264825 0.6891544 0.54418033 0.6420132 0.8876806 0.21158734 2.3815184 -0.969604 -0.63993216 -1.9976988 0.62094235 -2.303675 0.041922852 0.84989053 0.11608303 0.8645079 -0.701102 1.5006372 0.1583444 -1.1636027 -2.9490187 1.7079312 1.8660213 0.6797325 0.4136587 0.3382183 -2.8364968 1.7196994 -0.28810382 0.78370494 2.088292 -0.6451928 -1.3110874 -1.272142 -0.05676396 -0.27094358 -2.4064367 -1.2178385 0.63507277 0.43177727 0.568877 0.35392463 2.4497263 -1.0079416 0.8438815 -0.11166635 -0.72462624 -0.2964478 -0.46371156 -0.1397919 0.8333714 1.6825967 1.9692805 -0.59756166 0.6794855 1.3262268 -1.0881151 2.1376114 -1.4486494 -0.062462784 -0.99607635 -0.9461136 2.5406494 -0.27078432 -0.10523185 -0.05967672 -0.08699779 2.170119 0.32260993 0.02488757 -0.8139191 -1.3758051 3.061425 0.5486964 -0.45286697 -0.36435524 -1.6280216 -1.0436019 0.58767414 -0.59189665 1.1055465 -0.9738111 -1.0199857 -0.75057197 0.3525942 0.32057247 -0.57957745 0.2942897 -2.3061435 0.27090627 1.6186429 -1.3296552 1.2643597 -0.92318404 1.2433243 -0.29137748 -2.798423 1.5936197 -1.7071202 1.1442971 1.3657303 0.36952627 -2.7377648
ABWI 1.2194376 2.6849127 -0.5188082 0.91382605 -0.38537294 0.37447014 -0.625074 1.2670003 1.3946571 3.3403895 -0.2254849 1.1041391 -2.5861182 1.9141238 -0.36623833 -2.3930752 0.5095178 -0.57590795 1.7916572 1.1342379 -0.1486974 -3.7937968 -1.7745016 -1.3575503 -1.2797586 0.9013424 -1.6634806 0.32325104 -0.47201815 -0.8877103 0.54454726 1.0204886 -0.26621875 -0.90385973 0.26156107 1.780108 -0.15797494 0.5489033 -1.1146549 -0.44239828 1.2255769 1.532827 -0.9410579 2.1408172 -1.0142193 -1.8545841 1.8095034 -1.8496464 1.5103669 1.6086715 -1.646016 -1.2554392 2.6534944 -2.401506 0.0231418 2.762491 -0.54476714 -1.0740193 -2.1128159 0.16797896 -1.9129077 1.5142599 -0.4028751 -0.15482415 -0.48919797 -0.01052978 1.0445684 -1.7159122 -1.1461619 -0.9504091 0.17549722 -1.4895761 0.97859776 1.0810997 -0.8412792 2.6278956 1.2279674 1.0695541 0.4457183 -0.72739655 -0.42060456 -1.0667193 -1.7552499 1.4904262 1.9270334 0.29453418 0.45839277 0.9616371 -0.49263808 0.14546429 0.79464054 0.35248804 0.10940606 -0.19523738 -1.3854764 -0.801086 -2.3889258 0.5788455 0.21182778 -0.05610696 -1.4612755 -1.5299714 -0.42682937 1.4850037 1.9562626 0.8364868 -2.036586 -3.5871513 -1.9359417 -0.7697037 -0.8320204 2.034892 -0.9804054 2.2253168 1.3741815 0.9305746 0.39711496 -0.7150312 -0.29536155 1.4535645 -1.9525993 -1.0985953 -0.26876098 0.2123013 0.5612339 -0.6953027 0.094977796 0.25872397
ABPL -2.8200376 -2.5165174 -1.545272 1.6716917 0.26724565 -1.0099751 0.6242241 1.8120259 -1.7270995 0.5072087 0.6704325 0.50374913 -0.7709873 -1.3065013 -1.5607883 -1.6428953 -0.8368385 -0.45581317 0.89626807 1.5221167 2.9337714 -0.6560359 -0.68064 1.4208964 -0.14915587 1.0242006 0.9353707 0.99956787 1.1600968 1.4004732 0.44792798 2.2843757 -3.1028614 0.64230704 -0.20898847 -1.7267827 0.82341117 2.561459 0.20613863 -1.7687972 -1.1458068 2.0049832 2.5673687 1.8082029 0.3230989 -0.28538588 2.7633479 -2.2114105 -2.4573252 -0.60652584 0.43560985 0.099116415 -0.45112503 -2.541067 -0.091418356 0.13723536 -1.4145315 1.3168255 -1.2354016 2.106503 1.5643919 0.74877965 0.8672459 -0.056994688 1.9498994 0.6581137 -0.12817043 -0.15670463 1.3882352 -0.68758804 0.85602194 1.3699135 -0.8522513 -0.9559846 -0.99241567 0.322926 2.8802214 0.83141124 -0.076422505 -0.8584454 1.8871406 -0.07402686 -2.6914334 1.3922235 -2.1220114 -1.359886 -0.4042849 2.0020187 -2.2384164 -1.0800871 1.9914316 -1.741475 2.7659464 0.89717406 2.5128229 1.1719038 -1.2883939 0.32030636 1.8380253 -0.6601987 -1.7268343 0.5084288 1.8324907 0.44160023 2.7749324 -1.3821098 0.41729647 -0.21097176 -4.483626 -2.3087068 1.0162644 0.4203676 1.8845786 -0.51337105 1.3227592 -0.4856876 -1.112874 -3.111464 0.30359986 0.22099786 -0.99849904 0.25852284 -0.9090727 1.4381832 -0.43672004 2.1535187 0.7064876 0.32420793
ACCP -0.63961667 0.32614768 0.9556021 -0.2552788 -0.15879408 0.10683885 -1.6669781 1.771262 -1.419254 -1.525943 -1.4833964 1.9792019 0.99891573 1.1162367 -2.3990557 -2.4103057 2.3105917 -0.54878795 0.18665127 -0.13933542 -0.14013018 -0.85261714 -1.8647263 1.7321446 -0.87862605 2.0494697 0.64225334 -1.9712512 0.09436926 -0.11409614 -2.4948392 1.3192526 0.8860217 0.51071656 0.05471855 0.74342495 -0.4908678 -2.0895944 -1.3920059 -0.19067873 -2.1370637 -0.0024742798 1.0359184 0.8245457 -2.394282 -1.2921405 3.3963811 0.47280198 -1.0925883 -1.7803822 0.55926406 -0.044443265 2.4277627 -0.52387524 0.5003903 0.39556146 -1.7014427 -1.7699169 -1.1169379 2.0459783 0.47234726 0.41327527 1.371118 0.6103148 1.4575217 1.85914 -0.47053522 1.110068 -1.6812562 0.33899856 -0.5682441 0.44749314 -0.7880803 -1.5271604 -0.36988765 -1.0692159 2.1062782 0.3813722 0.6516011 0.034992576 1.7092319 1.3651727 -1.0357993 -0.003201815 -0.024170946 2.6616435 2.1262808 2.8955843 -1.3608704 0.7382821 0.49742806 -2.7831554 2.381388 0.89461595 0.15890245 -1.7333304 -0.8352171 0.58422947 -0.8150608 -2.1960678 -1.2964377 -0.37813088 0.24578016 -0.43875435 0.7620937 1.4159682 -2.9882789 -2.7204988 -1.1561956 -2.3115797 0.48092896 -1.6323692 0.36353207 0.8498905 0.6874194 -1.050699 -0.9065385 -0.17196144 -2.2391047 -0.7333299 -0.97682077 0.74981695 -0.32383943 -1.6883186 -1.159876 3.2484121 -2.6728137 0.6602073
AASL 0.105526894 -1.7729572 -0.19028394 -0.46431494 1.6319691 1.6799664 0.18353017 0.6069198 0.6579945 -0.84487534 0.34260854 -0.6180598 -0.14190707 0.3995247 -0.56236523 -1.5536745 -1.5221877 -1.3066509 -0.54124206 0.13877475 -1.0136278 -0.52834433 -2.264762 0.117285565 -1.5215446 -0.24397644 -0.68428886 0.75908494 -0.15339406 -0.1508437 -0.35518456 4.1069374 -1.4573113 -2.1438832 1.9982452 -0.8453987 2.1819 0.534052 -0.91101474 1.3272623 -1.7740167 0.2702263 1.6171755 -0.4796598 -1.7519208 -2.086203 0.9877875 -0.16315359 -0.9443508 0.2717245 -0.8986293 -3.2224622 0.4840272 -2.6568043 0.2246566 0.41174912 -0.07960573 -0.028710216 -1.5140516 0.21143164 -0.6394314 -0.75711477 -0.8115342 -0.06867443 -2.0486746 -0.071447186 -0.86608684 0.04203145 -0.6452563 1.2999288 -1.8767605 1.4578131 -1.9122876 -1.9963053 1.1666715 -0.118098386 -0.51661855 0.17991161 -1.9315786 -0.5316345 0.29053172 -3.6570323 -0.023713263 2.462938 -1.9823958 0.4283918 -0.26648998 0.75500625 -0.8891357 -0.529305 1.6290804 -0.9079098 -0.98541737 -0.7395168 0.31676042 1.7436789 -1.2770609 0.47055304 0.08419623 -0.8962458 -4.4911313 0.45446822 -1.7081482 -0.56869066 -0.40975437 -1.466225 -0.33471036 -2.8737047 -3.0843291 0.20179284 -1.2693956 -1.4670881 0.82195723 -1.4191126 -1.7124201 -0.11022062 -1.1936632 -1.6467943 0.46283978 -1.7565457 -3.896396 -2.276402 -0.35029852 -1.939918 1.3850406 0.80316156 0.034886785 -1.6566478
AAEF -0.6474798 0.047147647 -0.38700283 -2.9957879 0.8725652 0.42779565 -0.0667448 -0.6104236 0.22027682 -0.107529595 1.7989415 -0.9353465 -2.0155392 -0.2746431 0.4644638 -2.1861465 -0.43369937 0.22873266 0.75759363 1.5935242 -0.10948363 -0.8495186 2.7533453 -0.7543061 -2.043334 -1.4634316 0.3613599 -3.075341 1.5758685 1.2061142 -0.44873318 -0.628698 -2.5573542 0.39698932 -0.114251144 -0.025398804 1.2105148 0.8110557 -0.4399686 -1.4658847 -0.57052076 -0.38680622 0.29503784 -1.4417095 -0.317947 -0.12844677 0.46410513 -2.343034 -0.89427245 -0.5102962 0.57117534 -1.9444085 -0.84188336 -2.176745 0.00025254188 0.5121944 -1.2444633 -0.18359357 1.8254538 -1.5991503 -1.4667546 -2.6032133 -0.4447198 0.91039836 1.5929697 1.9388205 -1.3316003 1.6628834 0.9595162 -0.58472675 0.7404827 -1.163433 -0.52376175 -0.35296863 1.2618668 0.6730645 -1.2656848 1.5139651 -1.6689581 -2.130541 -0.030138036 -1.381058 -3.0379906 2.1272051 0.81551623 0.8667626 -3.06511 2.8991466 -0.066761225 -2.4502606 1.5867308 -1.6156583 -0.6887121 -0.62109077 -2.1449032 -1.8983314 -2.6026998 -1.3178849 -1.1838596 -1.0393723 -0.26327026 0.08774721 0.89716387 0.47558355 -0.34174255 0.49683806 -3.359543 -0.13929166 -1.2724371 -1.3904821 -0.70783067 -1.3541772 2.340759 -0.13160713 1.8718482 0.89296895 -1.1160789 -0.19879408 -1.0420436 -0.7320138 -2.1778715 0.2853812 -1.2959031 -0.46396226 -0.13215667 0.006391239 1.6111926 2.1716015
AAGE -0.69836813 -0.62151545 -2.4162009 -1.574239 -1.0416027 2.4322698 -2.0834663 0.029652085 2.818512 -1.1661825 0.31947452 1.7356381 -1.6642365 0.18592419 1.7859235 -1.3394285 -0.010860631 -1.4605983 0.7992501 -1.8272117 2.064357 -0.59991145 -0.6543435 -2.4410331 1.3264251 2.5086112 0.9468405 -2.5013158 -1.9171004 1.5896622 -1.534856 1.9753749 -1.7168416 1.6552429 0.28032833 0.20969953 1.5825304 -0.70790285 -2.4840071 0.6192977 -2.5172145 1.6161286 -1.791911 -1.9540652 -0.104405604 -1.3518723 0.64434695 -3.167264 -1.2101694 1.531391 1.5282953 0.2295842 0.5013349 -0.106661715 0.8180945 -0.93288195 0.6008789 -0.83012813 -2.973894 -0.22768477 -0.6012496 -0.25461257 2.8864536 0.20343833 0.92007524 1.8510133 -1.36355 -0.14349546 -1.207139 -1.1927757 1.8019054 -0.06772023 0.26696894 -0.23400922 -0.57697326 -0.32752213 -2.1582637 2.427876 2.4301205 0.91795784 0.1632194 1.7901795 0.58027124 -1.1781833 -0.052914742 1.474553 -1.5946532 0.5902143 -0.6975317 2.36141 1.4945581 2.148148 -1.4317303 0.62122166 -0.62160754 0.8137639 2.0741599 4.031778 0.41057742 3.4564579 -1.620173 -1.4404219 0.37323684 2.0865762 -2.9957168 -0.23335907 -0.119596824 4.0318737 1.352467 -1.3008021 -0.60517865 -0.88987297 -1.1482507 -0.6593418 0.425516 -2.9209757 1.4017125 -1.932008 2.0622141 -1.7966164 -1.5305974 -0.20239821 -1.2954031 -0.35657793 0.77845424 0.87896574 2.8692117 0.7716157
ACBO 0.18376972 -1.841961 0.7438635 2.0987263 1.5744151 -1.1072468 0.0409894 0.15997306 -2.0700812 -0.19194187 -1.1452994 -1.7174922 -2.621995 -0.8501384 -0.17292506 0.9934113 0.4698755 -2.590241 -0.42479694 -0.9621631 1.4679037 -1.7275133 -1.9704669 -1.6549813 -0.8510386 -1.3132858 2.7120771 1.4026726 -1.6683416 0.634083 0.23968385 2.5040696 0.39447722 -3.629711 -0.229144 0.0055262307 0.6251974 2.5905156 -2.4947746 -0.04218117 1.3369603 1.4806935 0.79405016 1.0103992 -1.4453455 -0.3830747 1.2387439 -0.50973886 1.0050081 -0.8069952 1.5621938 -2.3938086 2.7825472 -1.697884 0.17362358 1.2541989 -1.7070717 1.5284821 -2.838516 1.1247334 0.43620878 0.95193577 -2.1381352 1.4251165 2.2496405 -0.55859447 -1.3439875 -1.7289537 -0.78695595 0.014466154 0.59696645 -0.9804062 -0.1817908 -0.9994322 -2.8145359 1.4857062 2.8119688 1.0924727 -1.1407658 -0.53440225 0.7781156 -2.3909144 -0.14400864 0.84451205 1.6301721 -0.59219897 0.005692299 2.7575037 0.49706727 -0.3758447 1.5572783 0.18862383 -0.3456531 0.9693344 -1.3847966 -0.11989231 -2.7203991 1.5592144 -0.036081783 0.038616095 2.2631547 -2.2055757 -0.8063334 0.33635092 3.1140506 -1.4102296 -3.1070583 -0.40841815 -0.42960614 0.12795 -2.1501005 2.12227 0.41140428 -2.9522662 1.003702 -2.50262 -2.4203274 -0.92939335 0.9811169 0.6905238 -1.0988332 -0.99581903 0.6559833 -2.7220795 0.43038592 0.82197505 2.579198 -1.8198293
ABAN 0.45215517 0.41032732 1.3935665 1.5236202 -2.1118462 -2.4608064 -0.94790703 -0.42321014 -0.8384776 2.5918155 -1.6719033 2.1103172 -0.90714264 1.0821307 -1.4707134 -0.3836316 -0.15672398 0.13132036 1.0639592 -0.6136619 0.8139748 -0.9408382 -0.4260421 0.21886969 1.3582399 0.30502456 -1.7978998 -2.4565122 -2.107987 -0.88140506 1.4732273 0.3448225 -1.9083343 -0.6115382 -1.1443691 1.243882 -0.26510754 -2.8470078 -1.9023684 -2.9916062 0.62238026 -0.21018212 1.8179483 1.8253809 -1.8063684 -0.7829816 -0.6960201 -1.211873 0.7871861 0.8233298 -0.068982325 -1.1246022 1.2153041 1.4383082 -2.3987603 1.1463069 -1.413476 2.184375 1.8610094 1.1642169 -2.1640162 0.13259573 1.1548591 -1.7239337 1.8729225 2.2787297 -0.21191812 1.7685664 0.83908045 -2.159466 -0.19557631 0.93701786 0.65450144 -3.0801868 0.882881 0.17834783 0.98268616 1.2713493 1.0661176 1.3845203 -0.8274121 -0.7975926 -0.32946086 1.0250443 1.9113884 2.630823 -0.34218228 2.9533064 -0.6532833 -1.5708306 -0.5415781 -2.142078 0.4255091 -1.1575563 -1.3889099 -2.466741 -0.37739038 -0.34946206 -0.36598673 1.5652646 0.6780571 -0.1287308 -0.5011806 0.71967506 1.1843907 1.0148294 -2.3911436 -1.7132859 0.5977344 -0.09893301 -0.20742565 -3.122154 1.1280535 -1.7831619 0.657778 0.69517344 0.3253652 -2.0827131 -1.591101 1.2397702 -0.24561621 -1.6511307 0.51159793 0.93748325 0.8445385 2.5706272 -0.6981669 -2.4697857
ABAA -2.0418904 0.010340772 -0.61188096 0.8998617 -1.1466249 -0.6208246 -2.6230175 -0.94291043 -0.41196245 -1.1785666 -0.16543032 -1.5554496 1.2389032 1.4478441 -0.099032216 0.6667316 0.15335043 1.1380882 0.9299002 -0.32048056 -0.9935042 -1.1182066 -1.3879259 0.056944214 1.3780432 -0.086295545 -1.6793708 -2.4125257 0.814411 -1.1765836 0.1766557 2.4293108 -0.45882156 -3.0686083 1.2102331 1.2926705 -1.1119139 -1.124828 0.47433785 1.4541532 -0.29331133 0.85770094 3.1573875 0.40267643 -0.17847168 -1.505816 1.0105743 -0.32271913 0.27868354 -0.29562038 -1.223414 -0.5649806 -1.0746338 1.2206101 0.388877 1.2085453 -1.4490415 -0.015326694 -0.5580099 -0.9970086 -3.3883512 2.2735193 1.0343292 0.46449873 -0.9063162 -1.4320637 -2.841656 1.4313662 0.42363703 1.9148847 -0.43248302 0.79558414 0.6366324 0.52313465 -0.46196932 -3.1107438 0.3668131 -1.0576462 1.1186042 0.46112227 1.2072792 0.36185056 -1.9607586 2.617702 0.0707553 0.64320725 -0.12690963 1.2068202 -0.49190688 -0.48101014 2.9994078 2.3318589 2.8083918 -0.87282914 -1.8520443 -3.1538825 -2.3527954 0.31963772 -0.049296893 -0.13220501 -0.28665704 -1.1128769 1.0074893 -0.26562387 -0.85949636 -0.37250277 -2.3664212 0.30279633 -2.874516 -0.5613282 2.7088914 2.1749835 1.6812271 -1.3201213 1.9804683 1.6194468 0.31936026 -1.670717 1.1243559 -0.61010057 0.31555873 -0.15216166 0.28055066 -1.2584811 -2.4373739 0.43246284 1.118303 0.6329566
AAEM 1.8261006 1.9773681 -2.2118154 -0.5298804 1.2152159 -0.97462267 1.3055137 -0.86561847 -0.49997917 0.18500109 0.63031536 0.39420417 0.10992433 0.6542754 -1.911882 -0.4673569 1.3703369 2.3369546 0.16104485 -0.041972514 0.31579706 -0.57074827 0.2505053 -0.6617533 -1.312914 0.9814318 -2.3943899 1.3549525 -0.4220019 -1.5850161 0.5070396 1.0134231 -1.2402139 -2.1106129 -1.2409865 0.7245372 0.33430585 1.7606162 -1.9419016 0.9539764 -0.0894588 1.3696581 2.6476784 1.8548763 1.6287575 -1.6724365 1.4814589 2.7511942 1.5308037 -2.3997548 1.8009069 -1.9365008 -0.20628998 -0.39557466 -2.9352412 -0.41523904 0.37401882 1.2828243 -2.437924 2.0990894 -0.5129517 1.2412432 1.1434176 0.034044743 -1.6884073 2.8744388 -1.1712564 -0.9360731 -0.7406497 -0.80310905 -2.2386298 1.4608369 2.2015593 -0.14933708 0.06781212 0.568005 0.11607151 0.3900136 0.2566814 -0.2371458 0.99320644 0.23214734 -0.1786484 3.0443578 -2.9742622 -2.39043 0.9426977 0.06982215 0.81651103 -0.25464982 1.2053858 -1.6228231 0.28559017 0.8681557 -0.54368657 1.6748296 0.8137951 -1.2137345 -1.2704992 -0.47464868 -2.1799607 -2.4488263 0.14214076 -2.0809577 0.31272393 -0.91024756 1.6326926 -0.9114223 -1.2448761 1.2231 0.9465409 1.6895967 0.13056631 1.6141621 0.26995382 -1.0958407 1.5497874 -1.584441 0.97943664 0.18177414 -2.440901 1.3011696 1.1155202 -0.5026494 -1.134848 2.1940944 0.7689466 -1.789557
ABXR 0.27355516 -2.519101 0.6575747 -1.1730487 -0.796713 -1.0931417 0.020531122 0.4491434 1.207935 -1.898245 -2.293493 1.8401171 -0.32639667 0.7319818 -3.0676026 -2.5807471 -0.41249603 1.2191238 0.9239888 0.005658449 -0.85630924 0.75829345 0.627424 -0.7607208 -3.123285 1.019882 -1.7892355 -1.6184338 0.97536826 -0.3493611 -1.9746443 1.5448573 -0.0669555 -0.8182191 1.5786147 2.256576 -1.7673658 1.711436 -1.3930519 0.48635662 -0.086678796 -0.5305315 0.76389545 -1.1668626 -1.2758647 0.28044945 -0.54201525 -0.02488917 0.61405665 1.3564802 1.2317215 0.6934143 1.2836664 -1.2901285 -1.1775051 0.6872881 -0.08882081 0.9456151 -0.97324693 -0.88765717 1.1271863 -1.5980293 -0.71442294 1.8135504 1.8915025 0.7991556 0.15751472 0.438372 1.0956061 0.36016053 0.37485695 -0.48100543 -1.5517486 -0.6619483 1.2591211 -0.43533763 -0.21830064 0.33518872 -1.2259393 2.5606055 -0.56346893 -1.7937483 1.7308515 1.374724 0.5081438 1.4053612 0.3368282 2.7992167 1.8734703 1.664466 1.5343844 -1.3116866 0.28268397 1.764049 1.4985768 -0.81106156 -0.27878654 -1.8113022 0.14915164 -1.5706224 0.45879397 -2.8174207 -1.2871625 1.5088799 2.1407568 1.8295393 -3.2964067 -1.2057178 -3.4635024 1.6382842 0.7898183 1.1273609 2.2476242 1.164514 0.026460957 1.7087051 -0.056776818 -1.1674646 -1.7361437 -0.34503907 -0.58708614 -1.592129 -1.5007383 -2.4232576 -0.3323495 2.2120867 -0.5378277 -1.1581328
AAZX -0.42304406 0.41979787 -3.1091828 -1.8203715 1.6082771 -3.4593656 -0.22633214 1.6788594 -0.9426857 -1.5756475 -0.7774858 -1.1136156 1.4087594 -1.141343 -0.27886853 -0.8629516 0.6161461 -2.7318377 1.632022 -1.1464331 0.8049591 -1.4857196 1.8581198 -1.0569092 0.52363575 1.9094915 0.7647611 0.38175055 1.7916431 1.7270925 -0.9953571 3.1709085 -2.1984468 -1.2936937 -1.3081983 -2.26164 -1.3318003 -1.1792625 -0.2946767 0.1927482 0.9348838 -1.3612177 0.9146944 1.2556382 -0.077229574 -0.13900195 1.064227 -1.1328164 0.9996407 -1.3419265 2.0957103 0.68660825 -1.289053 -0.6160966 0.18788943 1.3757138 0.6743628 -1.1934377 -0.7954269 1.1791749 1.1480995 0.4729161 0.5620416 -1.1183424 1.7132591 0.7245179 -1.4547405 1.116392 0.53331834 0.31977805 0.6676742 0.8239504 -0.0713406 -1.1553432 -0.08616475 3.1374848 1.6619284 1.9093925 -1.9547826 -0.13570376 2.4023557 -2.2725766 1.8417952 -0.1841115 0.37625423 0.15917608 0.037744407 0.0080957785 -2.8391287 -1.3845705 0.30934474 1.0667158 0.40864956 2.7645986 -2.4596682 -1.4586633 -1.629994 3.1213953 -1.4293684 -0.30829594 0.41104984 -2.2656715 0.47557902 -0.83395976 0.4675704 0.29159924 1.0199821 0.04747098 -0.3637602 -2.2323158 -0.9919046 1.15583 1.2368503 -1.5626059 -0.879525 -0.0132401185 -0.32445532 0.23917459 -2.1724892 -1.24577 -0.6950385 -1.4316024 -1.1140869 -0.33542043 1.6318696 1.9796526 -1.2496952 -0.38602868
AABZ 1.517101 0.41145968 1.2298644 -1.4879516 -1.1908311 -0.9335966 0.62420917 -0.8305325 -1.0068282 -1.2123392 -0.75965405 1.9732344 1.01422 2.3407602 -0.9633603 0.50355494 0.08744633 -0.909829 2.0315948 -0.26667067 -2.3166611 -2.5653005 1.7023677 0.14816757 -0.7306203 1.7809572 -0.9766339 -0.89013284 -0.84931636 -0.76193017 -0.7705921 0.9503552 -1.1665351 -2.2318864 1.8781633 3.32187 0.2618162 -0.30218512 -0.48030326 -0.89944196 -1.5969595 0.7604427 0.737838 0.15403391 0.096537784 -0.78015083 -0.99869895 -2.3302045 -1.7331127 2.7772768 -0.7843493 -2.3602107 0.96051234 -0.7400333 -0.7251929 -0.3793932 -2.68518 -0.8779823 -2.0213947 1.9327493 -1.1642268 1.1172316 0.49074084 -1.9198978 0.61627024 -1.2410023 0.48799467 0.24099228 -0.3095067 -1.6664398 0.68100697 0.9494274 -1.6779312 -0.20263228 -1.7708939 2.8221273 0.4258023 -0.090879165 -1.1756793 -1.410211 -1.1390127 0.26757163 -1.704934 1.5209984 2.1688242 2.7098258 0.7275114 0.75957465 0.5075151 1.6397359 0.33153582 -1.928785 0.90643287 0.48525774 -0.54561985 -0.21548249 -0.643172 0.65726286 -2.8326678 -1.5306491 0.7006486 -0.8056412 -1.7001382 -2.589222 0.28604034 0.005355344 -0.3983417 -1.883238 -0.25659093 -1.0907537 1.5928868 -0.9624562 -1.1746714 1.1622427 1.4288284 -0.5150709 -2.0054994 -1.0387661 -2.3863 -0.069435604 -2.4116178 -1.9588839 -1.5077968 -1.822585 1.4983208 0.40581474 0.8664163 0.04016955
AABQ 1.2465285 0.9512812 -2.801366 -0.7723697 -0.29932025 -2.403434 1.3393365 -1.4756211 -1.0665122 -0.89697415 -0.084873244 -2.2607148 -0.5953307 -0.02158045 0.0642891 -2.834655 0.49020237 -0.8491488 0.9508049 1.3979775 -0.7078785 -1.9616332 0.33939704 -2.0103116 -2.2901003 1.1446865 1.5695717 -2.5266647 1.4086765 -0.47131473 1.1236521 4.1042705 -0.45031804 -2.4924784 -1.1142254 -0.16787957 -1.0029271 -1.6051972 0.9595685 -1.615615 -0.31339493 -0.6573546 1.1303254 1.6338844 -1.8241513 -2.7456503 0.10262707 1.1664574 -1.7148296 0.4812416 -0.8175221 -0.14044487 2.425442 -0.8978914 1.0329136 2.5107334 -0.24224998 -0.97282 -0.0084355725 -1.2142811 -1.4048691 -2.1299853 -0.34937337 1.9783713 -0.39898095 0.44889486 -0.6695515 -0.4128663 -0.43346074 -0.39933637 -1.6644698 -0.83502525 -0.8536741 -2.189898 0.80371785 3.4260798 -0.7321568 -2.1665757 -0.414522 1.1409507 1.460943 -0.16640593 -1.7861272 -1.2481652 -0.7618229 2.07459 -1.6818784 0.4034549 2.0243118 -0.29175144 1.5551114 -1.3892784 0.43341208 1.4953936 -2.1581254 -1.4300038 -1.139324 0.029577957 -0.9778305 -0.21132292 0.9852236 -1.5629213 -2.6878793 0.2767094 0.5551641 1.7584932 0.7581046 -2.9731815 -1.0911634 -0.5788623 0.5407722 -0.31169993 0.54448044 -1.3408129 0.9854101 1.9774264 -1.705793 -1.9199696 0.71612793 -1.0455328 -2.858731 -0.33425757 0.34770754 0.8401755 0.4775865 1.9833143 0.041755013 -2.4854307
ACCW 0.4800621 1.0460151 0.23323692 -1.7349212 1.0825026 -1.1008416 -1.4481391 0.7346204 -0.3211039 0.80413276 -2.3878965 1.6551489 -0.80644065 0.3567917 -0.7824763 -0.79363966 1.4607681 -1.3970864 0.3559255 -1.0384736 -1.3278652 -2.2783413 -1.282499 -1.1854199 -1.3720365 -0.9854973 1.2338607 -1.2350204 -0.81789446 -1.1634735 -0.6248061 -0.9840883 -2.3565834 -0.73136073 -1.5181252 0.39481327 0.7220059 1.0419683 0.7986984 -3.1243587 -0.27355215 1.2162964 2.2390842 -0.46557572 0.09597816 -1.2478584 -1.2124512 -0.44375044 -1.3527476 -1.8085715 2.667255 -0.09767796 -1.0746558 1.5425225 1.615158 1.0766424 1.4036045 -1.6682197 -2.4531608 -0.021438748 0.24635921 2.724648 0.20458414 -0.9642161 0.84557444 3.5118504 -0.88488317 0.4692764 1.6179917 -0.27198368 0.99187005 2.3238935 0.80272764 -1.4675142 -3.0576217 2.064879 0.9220901 1.409989 0.62477404 -1.7946874 -0.6256037 1.091683 -1.5893934 -0.58456725 2.032077 -0.17036837 -2.2537532 3.0637257 0.56703204 -0.7508136 -1.3278927 1.5854454 0.052126326 1.8973244 -1.1305563 -0.8379346 -2.8844397 -0.045823153 -0.37539604 -2.2259898 0.22901773 -1.7145109 -1.1536356 1.0288702 1.8372916 -0.22654122 -2.3357365 -0.20247503 -0.9766279 -0.12103166 2.3545084 -1.9656554 0.8646079 -2.4045475 -0.6398105 0.22923227 -0.9417461 1.0211214 -0.80783385 2.3275504 -1.7145159 -1.3024613 -2.1741912 -1.9119743 -0.12557419 2.6429105 0.8004358 -0.34726328
AATG -0.8825192 -1.6105988 -0.13575165 0.76094055 0.5067607 2.0671928 -0.0408339 -0.5881047 2.0987687 0.70847714 -1.8164374 1.8157429 -0.67062205 0.81962836 -0.9114047 -2.8770604 0.053173732 2.9972441 1.0061533 1.7289245 0.16545236 -1.0506833 0.45307022 0.36024904 -1.8578671 -0.3653983 1.4884876 -1.8806043 1.3783072 -0.43873113 -1.313651 0.22073884 -1.57615 0.99949515 1.1930429 2.3896635 1.9193889 1.9167274 -1.1475704 -1.541377 -1.5318952 -0.14011301 -0.925472 1.1575673 -2.3003151 -1.8157282 1.7561399 -1.846588 -1.6988629 -0.17058852 -1.2294716 -1.807041 1.4222267 -2.6483338 0.61524487 1.6771675 -0.99747217 -2.1527965 -1.2155715 1.6823332 1.9586215 0.33815157 1.9158369 -2.1897397 -0.8102966 -0.39930984 -0.22063518 -1.8871169 -2.1364136 -0.8217695 -1.4702358 2.6263976 0.08756559 1.2590219 0.50073236 1.948665 1.0030092 0.08392973 -0.55994564 -0.4473405 -2.58747 -2.6452 0.44283494 2.1895065 -1.2052354 0.9384813 -1.7546183 2.8013895 -0.0056860256 -0.14224418 0.50207573 0.7691293 1.8466522 0.7509402 -2.0984075 0.8293212 -0.13314499 1.5165846 -1.6173674 -3.1155593 -2.435249 -3.272418 -1.0091652 -1.5388353 -0.7762555 -0.45990926 -0.498553 -1.1816168 -1.2482208 -1.9967972 -0.99607366 1.1213875 1.7793874 -1.665216 -2.1278923 0.542362 -2.3786128 -2.1269844 -1.3850535 -0.99944544 -1.6737826 -1.187299 -0.78973466 1.9325672 -0.9075993 1.0391023 -0.19546324 -0.84866184
ABSO -0.6092822 -1.9503151 -1.1497707 -1.8383137 0.16864981 -1.4028566 -0.8907116 1.507823 1.7742379 0.3195221 1.1389315 -0.5409512 -1.9368103 -0.6448406 1.1580402 -0.91293263 1.1662245 0.45529044 0.17159586 -0.7793922 1.0023738 2.078275 -0.33962107 -1.237147 -2.374796 0.5907375 2.2378936 -0.927009 -0.6944951 -1.9888752 -0.17754304 2.800948 -1.403423 -3.4399753 0.49913153 0.7868657 1.8169885 -1.8247688 -0.5908229 -2.3043482 -0.7029494 0.27884716 1.5002033 -0.78207386 0.28934568 -1.0613875 0.44126147 -0.84653455 -1.665435 2.3283362 -1.5559436 -3.7688167 -0.33642745 -2.3744335 -2.4470847 1.6760764 1.2807728 0.18798392 0.015570656 2.0673425 -0.6269617 0.5515457 1.121659 0.64207757 -0.47282922 3.456889 0.22881238 0.88430864 -0.32522938 0.114801586 -2.3671496 0.46008983 -0.69727683 -3.6200852 0.42087775 2.551095 -0.86998 1.9638746 -2.5824137 1.0224919 -1.0426546 0.9012853 1.2173233 0.09184025 1.2934804 4.2654805 -0.16683769 0.03351589 -1.8268723 -2.5847254 -0.27597073 1.8755221 1.1155823 -2.2298033 0.5140446 0.8290205 -0.56645644 0.7669226 0.7317191 -1.2162163 -1.1597263 -1.319874 0.8739479 1.5178183 -1.4456668 -1.3866699 -2.212267 -2.1511667 -0.82066983 -0.63334316 -1.3998152 0.93440795 0.5494174 -2.638318 -1.2426376 0.69868505 -0.8355432 1.4261725 -1.5142823 -1.0194113 -0.40164277 -1.8373473 -0.8329409 -2.219955 1.0749015 0.14191782 -0.89500207 -2.474804
