1854 64
AAXD -0.042004474 -1.6531594 -1.8435206 -1.8100406 -0.7870953 0.6651866 2.2051544 0.026858695 -2.0099354 -0.06748846 -0.2829681 2.0164988 0.94781214 -0.30995014 0.6570335 -0.893474 1.6418241 -0.64637 1.2338519 -0.7758201 -1.1113 3.0664268 1.7624038 0.65989953 2.7831109 -2.5155854 -0.81367064 3.0832496 -0.5067353 -0.27465263 0.6536258 0.6022412 1.054412 2.957559 -1.4643332 3.9601622 -1.9436278 -2.6237288 -1.0334437 1.2051159 -5.036808 1.6404996 1.229887 -0.8879484 1.9077257 0.07289059 -0.3692991 -1.2933259 -1.0726542 -0.60539174 0.87736154 0.6320261 -2.815421 -2.1529288 2.4631526 1.8236662 -5.1756644 -0.64400643 0.22933596 1.1871475 3.35321 -0.5758733 -3.8435166 -4.6689487
AAFY -0.39445633 1.5678962 -3.8078701 -0.55987704 1.0311774 0.5454929 -0.3520432 -0.44311374 -2.8817515 2.6924672 -2.7250357 -0.40179926 -0.8696397 4.845178 -2.5086174 1.2284374 -2.339589 0.23174633 -0.8023189 -1.0662931 0.5645957 -1.1652282 -1.7110214 1.0837234 0.2952302 -1.3085299 2.2193074 -0.9100473 -0.01226269 -2.4139764 -2.2204578 0.94374704 3.1181495 1.964538 1.836036 2.4560165 -2.7750452 -1.073803 4.6772666 1.6970482 -2.8348472 0.73993033 -2.399297 -1.5621029 2.8965807 2.4629781 3.537023 4.7935414 -0.53768903 -1.1550989 0.6084415 1.3230163 -6.0674133 1.1446571 0.47959328 -0.45149186 -0.02387245 1.3052068 0.2221665 2.709693 1.5188489 1.3541418 0.24598338 1.229937
AAIJ 2.3517697 0.24063951 1.000149 -2.7615077 1.937118 0.320603 -1.0749753 -0.76508117 -1.5599338 1.3631248 -1.3361882 1.9217638 -2.7032259 2.8985012 -0.61510193 0.8681985 2.1915426 -1.288188 0.10199822 -1.4492904 -1.7073585 -1.0480918 0.019747175 2.9865878 0.08466245 -0.3157205 2.640221 1.8074547 0.39462778 -3.3600743 0.10978347 2.361854 1.0520797 0.9513824 -0.2696139 -0.23286982 0.37148777 -2.7770371 0.8738811 -0.43975407 -0.36597225 2.3165922 -1.5661675 0.7434458 -3.6193619 2.5432081 1.2550449 1.0246192 -4.1473536 0.15091269 0.38086617 2.1500115 -2.8400838 0.009113879 -2.758423 -4.3658566 -1.4545532 2.980755 -1.3487009 -1.1654979 0.6077647 0.33069837 0.023022117 -4.049129
ABFK 1.9727328 -2.5949848 1.2354572 1.9014559 -1.2495773 0.34040773 4.8174605 1.4515324 -0.34390938 0.20936115 2.599331 1.1216593 -0.62480605 2.85115 -0.8330617 1.1170346 1.0900203 -1.4624321 3.8790472 1.9703674 -1.8717195 -0.30177307 1.3178086 3.3118036 1.1931704 -1.3580407 1.0608636 4.9371676 1.2197108 1.6887437 4.9092937 2.4149244 -3.3694787 2.9582307 -0.14287154 2.6683207 1.3874052 -4.832962 0.093352325 2.8848476 -1.5859698 2.9475176 -2.4823701 0.8194754 0.10099496 2.2109003 2.753219 -2.8682513 -2.3434787 1.797639 -1.107659 -1.1747582 -3.8867033 0.46233076 1.6094278 1.6383301 0.3051835 2.9291222 0.2606 2.2084002 1.5266492 -0.4636282 -2.2158613 1.314887
AARN 1.6731896 -2.3426504 -0.70715845 2.0187788 -3.6562939 1.6532955 4.590118 0.82799643 -0.773428 0.6544592 1.1269282 -0.7468127 0.05732361 -0.2529317 -2.833211 0.81478935 3.4003358 -3.4062402 1.6538551 -0.9858981 2.0928628 -1.882968 0.58034074 -0.456768 -1.2154944 -1.4308691 3.221528 0.006059342 1.0493336 -2.7146208 2.9588344 1.0552638 -1.2087622 1.224057 -1.9407653 2.5136333 2.4854612 -1.4126798 -0.5958432 1.4899007 -5.12065 1.6111014 2.7006004 3.0625021 -1.2015018 4.1259766 3.0567977 -1.2106122 0.38073036 -1.0828586 -2.3478615 -0.49762756 0.92913306 1.0554819 -0.8955199 -3.4112792 -5.1849947 0.3534934 3.7331276 0.7721191 2.5602965 -0.051833287 -0.2609151 -0.2654252
AAAM -0.07694577 -0.66271704 -1.6682996 1.0225276 -3.586395 -0.34866387 -2.2897818 1.6040103 0.14068057 0.3990214 -4.2391706 2.659025 -2.3309474 -1.1885667 -4.6909504 -1.1102667 2.9770608 -1.3523952 0.38365957 -0.4269602 2.4404392 -0.299897 1.8257234 0.73894286 0.63933164 -2.6431873 -3.1533756 1.1954663 0.06769071 3.104804 2.0608828 -0.5091546 1.0151305 1.621843 -1.2120105 1.4175221 -0.96218127 -1.2847096 -2.4789345 0.68743354 -3.0853462 -1.0306952 2.0887842 -2.637603 -0.28703833 3.9400513 -2.782957 -2.1861916 1.0434763 1.7957796 -3.9424744 -1.044411 -2.133197 -2.7250519 1.3047485 -2.066009 1.783926 -1.6168531 -4.003055 3.064632 1.1211146 0.6245937 -1.3017309 1.1969126
AAQG -0.6799682 2.298078 -2.778423 1.1107464 -0.21968614 2.9131956 1.1506897 2.2069573 0.39985937 -0.5374874 0.7033822 -2.3952177 -4.304343 3.1783366 -3.7043211 -0.36035234 1.1336038 -2.1300106 0.59901774 3.375473 0.22868705 -1.3181491 0.898246 -0.27184892 5.256689 -1.892017 -0.54662764 1.0459167 1.117878 -1.7113729 0.8211534 0.23949584 -1.0108997 7.031458 -2.8119998 2.7414765 1.8510696 -0.33425516 1.6605527 -1.0260987 -2.8315103 0.7733855 0.6152268 -1.0427595 -0.20305176 3.8678331 1.8955927 -0.9492753 -2.0130038 -2.7848034 0.44815466 0.57268655 -0.14956024 -0.05090258 3.2584684 1.8176048 -3.420949 2.4295256 -0.2064431 -1.419115 0.5643419 -2.2771833 0.53891265 0.52857596
AADL 1.3290503 0.981812 -1.3807154 -0.15968691 -3.2430508 -0.9402168 0.6958082 -2.2718308 -3.0494428 -0.08536511 0.97803736 -0.5160982 1.5780599 -1.7415693 2.2798822 -0.18298021 3.787725 -3.7880642 2.1823728 4.048804 -2.3677971 -2.6801708 -3.5735636 4.151606 -2.3954263 -3.7609186 3.18799 2.0250013 -1.4280118 -0.91044295 -1.2085893 0.32021433 -0.06984329 2.2150671 -0.7915196 3.1042519 -0.32904196 -0.42307425 -0.26951966 -2.5093272 -1.8531016 -1.4568623 3.6285262 2.6285992 -1.2086493 1.4070096 -0.15077445 2.1711338 -1.7175736 -4.683279 -1.4141481 2.0526452 0.91697073 -3.9238899 1.45193 1.5093588 -2.3503582 4.345975 -2.6035285 -1.0940319 1.7239276 -2.006567 -1.5626734 -1.0636692
AASX 2.2504559 0.52969116 -0.5538196 1.5365605 -1.5255455 -0.14178827 2.4405215 1.119512 -0.79851586 0.9515012 1.3918606 0.37393796 -0.8618987 1.4702762 -1.7741716 1.0035468 0.7647342 -0.01960351 -0.20837608 0.41818863 0.9496368 2.8451686 -1.2472885 1.4746894 1.3896055 -6.0976353 -2.7707148 1.3397508 1.178139 0.783244 -0.7461522 3.9246984 -5.9825296 0.70075995 0.45206738 0.88591605 -1.2187734 -0.06393363 -2.1445625 1.3947704 -2.5467944 -0.030919626 2.6673863 -1.9220994 -1.4205933 -0.28797293 2.3069782 1.366443 -1.3059057 -0.9549753 -0.45587832 -3.4996638 -1.8716553 -0.8544477 2.7389884 -1.5068984 0.8148639 5.094106 -0.6418729 0.50812393 0.82071435 -2.4326022 1.703832 0.6660784
AABR 4.083406 -1.3703129 -2.664521 -0.9271535 -2.3569322 2.3803873 3.8514698 3.4614801 3.7223544 1.7107552 1.9364173 1.6238924 1.6763738 -1.2288036 -0.5506753 -0.27476636 2.9812627 -1.6267145 3.0746236 2.1525848 0.43631533 2.6515765 -0.97888494 -2.2063453 0.19699082 -4.7958713 -0.026325872 3.0376718 -2.947793 0.32352725 0.8622826 -1.9429914 -4.2940764 -1.7099415 -2.2361085 0.49705452 -0.45803344 1.4481331 1.0851291 1.4052857 -1.2863952 2.4347367 1.4646974 0.88435626 -2.2699869 -0.550783 1.7485765 0.8247558 1.2856863 -1.8047029 -2.9296978 2.5159554 1.1309474 1.2587808 -1.8256298 -0.25723943 -1.9599886 3.6494043 1.4325764 -2.5699277 -2.298022 -2.013698 0.03601904 0.61404085
ABEP -0.31602973 -0.27869344 -1.4475098 -3.3721783 2.445541 1.686819 2.5747976 3.1468093 -1.7559612 2.0524728 -1.003181 3.167662 -3.2515473 0.6426506 -1.4603248 0.9149007 2.9926581 -1.1947469 3.5989053 -0.866427 3.666082 -0.015496346 0.067827635 -0.62148106 0.028352745 -3.5088975 -0.9588647 5.2303963 -0.7434963 -1.294385 3.4017353 -1.1041723 -1.719054 -2.2206268 1.6688076 -0.3240636 -4.269425 -0.5310182 1.2915666 -0.27610797 -3.88728 -0.1797794 0.709463 2.4062574 2.4667687 1.8772868 2.7295263 1.6249075 -0.7356812 -2.1982975 -3.079064 -1.551997 -0.047310457 1.5642153 -0.42306384 1.1209906 0.94022185 2.569463 -2.5617454 -0.37972844 2.0642338 -2.9250894 0.7284699 0.07039991
AAQH 0.13555315 -0.4727422 -1.1058862 -1.0482763 -2.9821243 2.38746 1.99521 -1.5337952 1.6006705 -1.5024458 1.5016478 0.20531383 1.9890546 0.6430049 -2.4838994 1.2561196 1.9773403 0.8419413 2.957704 -0.22726265 1.0206716 -0.7878851 -3.9414043 -0.99276316 -3.024327 -3.1366673 1.779675 3.764745 1.3646322 -3.1721735 0.053275745 3.187621 -1.2996669 1.0058782 2.9109197 2.5021625 2.95746 -0.5593522 1.1037197 1.131858 -1.9927596 4.206607 -0.7261614 4.4596243 0.33566192 -0.5007556 -1.680984 -0.56576234 0.6069728 -1.2372906 1.0726534 -0.41397223 -0.95871073 -1.1998969 -1.4732679 1.4437109 -0.24921359 3.878715 -1.9378395 -2.2458663 -0.39426336 -3.5396616 -2.5153434 -1.8253326
AAAY -1.5095311 2.2381015 -1.276752 -1.4540429 -3.00918 0.33853215 0.51475334 3.3084283 -1.3641666 3.4604242 2.7224226 -1.7331891 -0.30706227 1.6602777 -3.30964 1.9826639 1.9293802 0.613651 1.298149 0.38248658 1.1167649 -1.405878 2.6916587 -0.23537305 0.04621363 -3.1296046 4.2819953 2.7311666 -0.81299514 -0.8815164 -2.8851774 3.6979728 -5.099772 -0.43901044 2.1575954 2.6074436 -1.8734452 -0.4552219 -0.34556708 -1.295252 -0.61372846 3.6287363 1.8573786 -1.8208464 1.3784258 -0.71530485 0.7606176 -0.26075932 -0.98139226 -3.591283 -4.4779224 -1.4569257 -0.9940142 0.04261528 -4.047239 0.9783263 -2.2935393 0.7207323 -0.34169626 1.4020218 0.12183289 -0.26436454 -1.2869035 -1.6128471
ABWF -4.7057047 -2.0685868 1.4501133 0.31754953 -4.169506 2.7854548 2.4331353 -1.1641414 -2.461793 1.2068565 -1.3056152 4.7869983 2.0916092 1.8811166 -0.21778472 0.2632535 1.5369774 -1.1911663 0.59916604 1.0273997 0.30339476 1.8490387 -0.1037403 -1.1777313 4.333448 -2.2430348 0.28239626 0.8815372 0.5406679 -2.5328817 -1.7321537 2.4941144 -2.271993 0.2592051 -1.3767544 2.3587458 -2.274502 3.1394348 3.1626527 -1.760454 -3.3829358 -1.5120358 2.1668134 -2.3200412 -1.4646422 5.2336884 -0.8787245 2.4231503 -2.4393563 -1.6137351 0.6939307 2.5678868 -0.08331391 2.9583936 -1.4314178 1.8265928 -0.5430186 2.8730438 -1.323638 0.8667087 0.6656211 -1.7042958 -1.2527597 -1.5910069
ABWR -0.6140523 0.5848581 -2.666811 -2.1533885 -2.1452825 -0.59692866 4.4330883 0.16156271 -1.5534505 2.6793678 -0.06748403 -0.9160473 2.6172595 -0.38976023 -0.94331867 0.032269523 1.7050099 1.9668559 0.4657111 2.879589 -1.5752947 -1.9311881 -2.580747 0.26026985 0.3925384 -3.87941 -0.8987428 0.6010654 -0.22125953 -1.0622151 -0.12231651 2.5086563 -0.7004717 0.2390029 1.4386771 2.3995993 -1.5268419 -1.1050051 -0.8781516 3.4164774 -5.2676396 0.8554883 4.967022 1.0276654 -1.829279 0.89635766 3.6699965 -2.851648 0.42231312 -4.1579423 2.2056856 -0.23997022 -0.39617524 -0.9094401 2.0069237 0.51097 -3.2508562 0.6595127 1.0400641 0.26999924 0.40073475 -0.03643302 0.45226464 0.9877514
ABME 0.39811596 -2.3652246 -1.9364868 1.2812846 2.509685 -0.3071076 0.090807326 0.16616566 2.9295704 -0.30300942 1.9703306 -0.934381 -1.9955411 -0.6860711 0.18961903 -0.76585853 2.3956382 -4.4562755 -1.6988125 2.548178 3.5995417 3.6822114 -1.8554045 -0.72735304 1.1712985 -3.278319 1.4571687 1.9733342 2.3553743 -4.182109 0.7969843 1.4753932 0.3172869 -1.9060143 -0.7180802 2.341354 -0.41498336 3.0146039 0.1439666 -1.4381535 -1.7070346 2.3208683 2.860673 -1.7894579 1.1109556 3.5566373 2.461887 1.8491826 1.0706898 1.1855888 0.06431534 -1.5544021 -0.5115831 -0.7967248 -2.9049726 -2.182485 -1.5871474 1.2189492 -1.5272367 1.8643193 0.9722387 1.0904925 -0.60092115 0.8940069
ABRZ -1.9717805 0.15196018 -3.5600646 -0.48493785 -2.076883 -3.091933 2.4178927 1.3124412 -0.124161266 0.7129186 -0.4434918 -1.7687528 1.5545353 -0.35171157 -0.39819658 3.3280175 0.39612782 -1.1544414 -0.15210554 1.4323401 1.7838634 3.4078412 2.8325179 1.0974935 -0.054403182 -3.721156 -0.11114336 1.2627234 0.060774095 1.9399629 -1.6581562 0.19764048 0.5052126 3.1688395 -1.1537598 2.909035 -0.18304563 -0.08726124 -1.6191192 -0.42050013 -5.5179443 2.8600698 -0.22313431 2.1692886 -2.4553413 1.9386207 1.3744688 -0.8478114 -2.618015 0.520058 -0.67254627 1.9040929 -2.2144845 1.1196549 1.3679307 -1.6639631 -3.9986897 5.221429 -3.5179417 -0.7635688 -0.106657036 2.349091 2.120173 1.0661265
ABOE 3.429043 1.8456248 -2.8319466 0.28607997 -1.9332613 1.0081028 2.0988612 -1.3825502 -0.31113374 0.46570605 1.4915096 -2.2675016 -2.3952005 0.6195568 -0.59580016 -1.2847184 3.201601 -2.7003329 0.60439426 1.6362143 1.2587078 1.8374974 2.6916974 2.4095001 -2.078777 -6.275527 -0.08347857 0.14772774 -0.55545354 0.1870544 1.4984293 2.3048184 -3.0980499 0.66427946 0.5852439 -0.86619276 -1.49852 -0.6717295 2.435905 -0.4915774 -2.7514305 1.3843064 3.8894534 3.0547068 0.5729272 2.741776 1.3607769 -1.7911829 0.12501134 0.04655684 -1.5527816 -0.8169586 4.0755215 -1.3164135 -0.26973042 -0.3092459 -3.5256732 2.1957204 -3.9778643 -0.9435311 0.45018667 -3.1321383 0.056579262 2.737482
ACAA -1.5121899 -1.6085641 0.35903746 0.8175926 -1.3413764 1.5894794 2.1786833 -1.668414 -2.2835627 -0.6573711 -0.3588433 1.2787626 2.7949088 -3.2975879 0.047029853 0.13543072 0.8398701 -3.074156 1.2523826 -0.60825974 1.0715282 -0.24270251 2.0263972 -0.75255644 0.15550645 -1.5954434 1.2826946 3.6911476 2.3869617 -2.6072958 0.3946551 2.191285 -4.4297485 4.3766003 -3.263097 2.4793155 -2.5040662 0.89744246 0.4456983 -0.46345463 -2.8938336 -1.0285546 2.3030622 0.5462806 -0.9608223 -0.6847878 2.6357331 -0.4996107 -1.3747076 -2.6975205 2.24467 -2.6116753 2.1648965 -1.4680194 2.952373 -0.92275196 -2.4908319 6.211208 1.3004992 1.3334817 -1.781691 2.4771678 -3.3880553 1.3924125
ABYE -2.2106626 0.4900229 0.08445611 0.577566 2.0141273 0.66603386 3.167013 2.941012 -2.891822 -1.9876175 -2.7216856 -4.6756353 2.7792008 -1.3333982 2.8254383 -0.7333409 2.085915 1.1942471 3.0568883 2.365864 1.5900711 0.17053398 -2.2573166 -3.677937 -0.2973613 -2.896859 -0.3004973 1.6351618 0.49961346 -0.75353974 0.85144913 -1.7607973 -1.6344028 0.5009982 2.8579466 5.2105308 -2.136937 0.6728826 -0.016086625 -2.813133 -2.5213249 -1.920244 2.833615 -2.81365 -0.16899708 1.5907041 -0.93903136 2.0167534 1.5408448 -3.2368548 -0.0036986293 0.46752775 -2.4286528 -0.13061684 1.7645386 0.029748091 -2.0247526 3.3350852 -4.113528 -0.6557505 1.2078742 -3.8444486 -1.4616036 1.9120474
ABMB 3.628563 -1.6937518 0.37611288 -0.92304814 -1.8620578 -1.8386163 1.8006191 2.2804036 -0.8882586 0.70008755 0.9664294 -3.293082 0.11346289 -0.65458953 0.04286111 -1.7574192 1.1399279 -3.3821073 -0.6130378 0.16783628 -0.06958981 0.06589412 0.7768786 2.6757267 0.5669319 -4.6950784 3.6582906 4.0899625 0.0779039 0.23555283 -0.8494256 1.819982 -0.8030515 -1.3920884 2.2144852 0.20829765 -2.2197995 -0.5458253 -2.4521966 2.2220619 -4.725584 3.039804 1.9419143 0.03273198 -0.17124234 3.3440602 -1.9244176 2.7017405 -3.3193655 -0.94500154 4.918611 0.623315 -1.7142552 -2.4630215 1.349148 1.620726 -1.9027028 0.805934 -3.0369508 0.26103047 0.7354584 -1.0073948 1.2077476 0.6930081
ABJU 1.2475855 0.39651448 -3.327621 -0.08273289 -4.0076365 1.6524485 -0.96726555 -3.075347 -0.05288508 0.73933727 1.0850847 -0.4677747 0.20759685 2.9604874 -0.027859282 -3.0990403 0.09490928 -2.8381693 1.9455471 0.6279475 0.7920112 0.027034838 0.652963 -0.9396145 0.48100924 -1.3749155 5.963316 2.9428246 2.434891 -2.1387773 1.0283706 3.5545964 -3.7928886 -0.5047791 -4.9743752 1.4256566 1.2781878 -0.42237526 1.9621247 0.66080284 -3.2945795 1.9001384 3.7455556 -0.7946314 1.5809858 4.413376 -1.6287715 -0.70133346 3.0332885 -3.176963 -1.1557623 0.70855397 -2.6972637 -1.9423391 1.6599623 1.8216175 -2.744197 3.5762649 0.92075014 -0.45536482 -1.9897863 0.7907099 1.3608465 2.0052083
AAAF 1.3060743 -3.2140021 1.2905117 -2.0150092 1.526238 3.0016658 3.6174378 0.47053245 -0.2320423 2.2281303 -1.1633819 0.33809972 -0.64725083 1.708357 0.99912703 4.0497513 -2.300647 2.2232025 2.2321937 0.18983659 1.4537569 1.3679969 2.2051547 -0.21551725 -0.23040408 -4.2066703 1.3752553 5.6250644 -0.17693867 0.74269414 0.21260598 -2.5915246 0.20574355 0.21872061 -0.7078087 1.7843211 1.6919069 -1.7488685 0.43536097 -0.050892517 -3.8570554 4.405512 3.243344 -1.4459672 -1.3195027 2.0749516 5.075737 -0.1871409 -0.22544539 -3.0816953 -1.3735896 -0.065336026 -2.8514817 -1.3801004 0.4444114 -1.0077367 -0.45859674 2.1385422 -0.054559074 -3.4476476 3.0539968 1.2510478 -2.08945 0.0013599733
AARH 4.4519343 1.3935356 -2.8113885 -2.3686938 -0.8514153 0.979658 -0.8343896 -0.6711899 -2.2404962 1.5110292 2.6988616 0.159013 2.0667188 1.292131 -1.242255 2.8250043 -0.32972914 0.132534 1.7935821 0.6748021 -1.5697908 -0.6720567 0.38724992 -1.921605 3.146462 -3.142705 -1.51223 1.773078 -1.49215 2.0273502 -0.92305136 0.0073688147 0.26245648 0.07909803 0.10590821 3.7215044 -0.5454278 -5.0963984 -1.9237303 -2.8525217 -4.021469 1.2194682 -0.3360902 0.5521362 0.24055222 5.0690465 4.5635343 1.4482547 -2.8470995 -3.2972076 0.6386427 3.0606432 0.9425005 -3.27316 -2.921915 -1.4595228 0.70230484 0.20065928 -1.0117064 0.5287718 1.2053256 -1.3835481 -1.1187841 4.0839243
ACGT 1.8131468 3.28329 -0.5246284 -1.3712243 2.6908755 0.1382109 3.5027707 -1.0905904 -0.8359557 1.3161037 -1.2266468 1.9558488 0.65078473 -4.5904093 0.5126049 1.8543973 -1.7959703 0.370125 0.47966868 2.7724032 1.2677655 0.8268836 -0.3947041 -1.1286985 -0.35840482 -4.6940446 -0.75319165 3.5933652 -1.6662297 1.6329638 4.1623755 0.6605503 -4.036806 -0.88307244 0.54083383 3.914569 -5.7009945 -3.2852948 -2.9547453 0.6181061 -2.888034 2.4813702 1.1854371 -2.0919766 -0.20140563 3.6369677 -0.8802004 0.46713215 0.46521243 -0.14211445 -3.3815455 3.6418865 -0.6313344 -1.5369761 1.065181 -0.4357205 -0.13528919 -0.71439517 -1.5162549 -2.637144 1.1820997 0.7696188 -0.18453664 -1.5642587
ABVW 0.9424457 -0.515999 -3.6670501 1.1809515 -4.85964 1.6884998 2.7144222 -1.0593288 2.507313 2.8255353 3.6227732 -1.6186229 -0.42424893 -0.5709192 2.3466969 -1.8882974 0.59850854 0.43911403 -0.08847459 0.8019523 2.0818295 -1.1721845 -2.0848002 -1.3593438 3.2923868 -3.109565 3.599113 0.9678201 0.21802571 -1.189932 2.7228794 0.0127471 0.07420902 0.74579835 -0.8588874 2.237584 -3.2431507 -1.7662011 -2.6190984 0.46072295 -3.5498106 -0.53554505 2.3539612 2.3358653 0.29358608 2.441186 2.030229 0.39302784 -0.3232119 -3.5862498 -1.910877 -0.056198835 0.0868435 -0.18157907 -0.4616612 0.43601647 1.0919125 2.6831782 -2.1749542 -0.051915076 0.64909345 -0.4680039 -2.4032466 -2.4233835
ABNF 0.0056177303 1.699852 -2.0922277 1.8776844 -0.6176834 1.7819022 2.7010841 2.1193109 -0.80081666 4.9575024 1.0626488 -0.29141662 1.6941105 -2.3176649 1.0512156 1.8394756 -0.12365561 -2.5338595 -1.024833 2.5346525 0.29157484 -1.9007769 -0.52811927 -1.1564193 2.0183558 -4.8225574 -2.0010288 0.71783715 -1.8864384 0.15463395 1.3148993 0.24119502 -1.7920796 -0.34655702 -1.3115417 5.966995 2.3972313 -0.14342673 2.7014306 -1.2569127 -4.276951 0.09200943 -1.6136242 3.3812704 1.1511497 1.0324248 1.1140662 -3.1608462 -1.4452994 -1.3207371 -1.2305244 -0.86661667 -1.0617259 -2.3824394 -1.1715261 -0.014287656 -2.6971853 0.81165075 -0.26294267 -1.4588561 -1.6997447 -2.251333 -1.9153211 -0.26677078
ABQO 3.2844129 -0.7626496 0.6863434 -2.315202 -1.1651162 -1.404674 -0.7768366 0.1053882 0.85483474 2.868777 0.44673318 2.0252416 -1.2644066 -0.5247297 -1.8060842 0.7465006 1.2882069 -3.887768 -0.97417724 2.9712164 0.87717247 -1.3932642 2.3597493 3.2343595 -0.26631898 -3.5364695 2.5039256 0.22621623 0.3931704 1.534124 0.39119077 -1.9499477 -3.7964592 0.900789 -1.7369711 4.4139824 -1.8694237 0.59075296 -2.3333554 -1.550934 -7.4940248 -1.3188019 3.2952902 0.16889313 -1.9117575 -1.1436845 0.002085054 1.4744964 0.3517879 -1.7833842 -1.6589128 0.18738648 1.2776117 0.048771285 -1.4828475 0.6267911 -4.175544 -0.092017435 1.1052684 -1.0409554 -2.0390072 -0.31064385 -1.114658 -1.2588878
AAZW 2.2868116 -3.5467603 2.5154192 -1.1465911 -0.71799886 2.2935584 -1.7867819 2.9136422 -1.3248302 -1.4316694 0.03669732 -2.0442095 -2.6732376 1.2579002 -1.561573 2.0166152 1.0750998 -0.5658343 3.4960895 0.36976752 0.787721 -1.761807 0.9077763 -2.546605 1.8681436 -1.5199238 -0.92779225 -2.4591503 -1.3209264 0.19325507 -1.3458319 1.618559 -3.582526 -3.6571515 -2.5300155 -0.08033386 0.7079047 -0.43705204 -2.1328604 -1.4058936 -4.3919897 4.1659517 -2.5254614 -0.10531675 1.6268604 3.5585856 -0.6423725 2.979649 -1.8445023 -2.302792 -2.745413 -0.123101056 -0.50045985 3.2913988 -0.7203635 -2.502957 -0.11800509 3.3450108 -3.100973 2.1775763 -0.2838826 -1.1941204 0.43843755 -2.468336
ABAI 0.053323243 -4.5554314 -0.11988687 -1.6493198 -0.4951294 2.9006758 -3.5721526 1.4176297 -1.5727304 -3.4466276 -0.99946177 -1.7594094 -0.8747843 -0.37140986 -0.04164516 -0.25598335 1.8292351 -2.86379 4.0640807 1.7655244 2.0330377 -2.1489592 1.2308468 -0.2722699 -1.2681508 -1.0870128 -0.7967446 -2.2168581 0.8719395 0.21046364 -1.5431068 -0.5065003 -1.7374823 -0.28090847 -1.4745145 -0.014112787 -0.43419743 -0.45761693 -0.83242846 2.8515375 -4.6458645 3.62545 -0.76504946 -0.39737117 -0.005559584 2.7924497 -3.2410448 2.6139553 0.3590532 -4.1022906 -1.9207371 0.33269197 -1.5163176 -0.92589813 -0.20537193 -0.8141694 1.2004583 2.8629587 -1.440009 0.5809637 2.2554886 -1.8807446 -1.2482227 -1.1395478
ABBT 2.6210794 -1.0928587 1.2036657 1.232076 -2.5872123 2.8053012 -0.637885 -0.33503678 0.8579561 0.10922514 -3.2162511 3.1560764 0.6877566 -2.9448404 -2.0394158 2.179529 6.385701 -0.7839634 0.33693784 0.22875896 1.5498514 0.67429787 1.6985161 0.8800082 1.3029122 -0.23407681 -2.5624456 -1.7198476 -1.7712283 0.53368396 2.550541 2.9612145 0.3197819 1.417863 0.99881345 2.9564488 -0.9946789 -2.8116832 -1.9035772 1.6460533 -0.77405 -1.7922845 0.39854497 -1.2307156 1.4216621 4.123526 -2.7105825 1.8141626 -1.321638 0.88480717 -3.3297954 -1.1554681 -2.185529 -3.622062 2.2287714 -0.7096464 -0.17813262 -1.4866002 -1.1279652 0.37262696 -1.0959532 3.7673795 -2.7818248 2.2303324
AAGY 0.591223 1.1601455 -2.9589517 -0.2984863 -3.2919836 -0.08507085 -0.7290291 -1.4250727 1.9541527 -0.6436617 0.9116819 0.49197578 -0.7334712 -3.829674 -1.3229297 0.49112892 0.7993236 -3.2008867 1.6231247 2.3213491 -1.2038273 0.6226881 -2.7349195 -0.121604085 -1.044472 -1.9881864 -0.024162771 -1.5323479 -2.133059 -2.1348639 -0.95591885 -2.6708057 -1.8711022 3.296022 1.392008 3.2314374 -5.0011764 0.42061874 0.6510593 1.0581075 -2.2404923 1.000043 -2.2682264 -1.6949856 -0.01921262 -0.9348104 -1.601898 1.4284015 -0.7604818 -0.26007536 2.020297 -1.2400523 -2.6184661 0.8945275 4.1286554 -1.7861171 -1.7513996 1.2861384 -1.7333307 -0.2396945 -0.09837651 -2.7215617 1.3742181 1.6373644
AACA 0.55150855 1.6946216 2.6356943 -0.0961021 1.4490192 1.9789178 4.021402 -1.1335479 -0.74149364 1.2623674 -2.7196553 1.2666525 1.6567274 -3.3837304 -2.904296 2.6158082 2.5316494 -0.25695142 -0.9891524 -2.2082582 2.3805985 0.8313087 -0.8343561 2.6002371 -2.8134394 -5.2694945 -0.7547655 -0.6386503 -2.1224597 -3.6299548 1.7557787 2.2707734 -2.2750697 -1.2530699 -0.9617916 2.2392714 -2.9459362 1.7319126 -0.5877392 3.0701938 -2.289846 1.571926 -0.027413163 0.13272676 -2.004464 1.4915127 0.7384228 2.6071875 1.4760174 -3.9511895 2.843373 1.269856 1.8428948 -0.028425334 1.9359115 -1.7728381 -1.1658415 2.7561572 -4.0712624 1.265872 -0.99406755 -4.1581025 1.1589494 -0.1906889
AABO 4.3203692 0.85737544 -2.6963878 0.7832725 -1.6828446 0.12579916 3.431225 1.4792103 1.1000746 -0.6097654 -1.0519841 2.801354 -1.9368498 0.031410456 -1.1063231 -3.1747491 1.2456081 2.011707 -2.0135221 -0.7009042 1.1143447 1.8204591 2.2940676 -1.0661606 2.7743084 -1.4815526 -0.79671067 4.198135 0.76341385 -1.9057591 3.8772328 -0.7902733 0.6601178 0.030316785 1.0218912 4.660612 -2.0424416 -1.668829 0.21279378 2.095578 -3.642596 -0.4408441 1.5306578 -2.1095998 -0.9842566 1.7993294 1.0901546 0.1037585 -3.7562363 -3.3382745 1.3082736 -2.6331284 -0.23386762 -2.0971859 0.21394563 -0.65409636 1.2770201 3.2759957 2.7219896 2.103858 -2.5870545 -4.637252 0.08583768 0.89781815
ABPB 0.042847417 -0.21503755 -4.286559 -2.56449 -0.7216347 1.3791622 0.35571542 -0.19881634 -2.122913 -1.3317692 1.2134445 1.0103989 3.1994278 -2.0270922 -3.925666 -0.059922405 1.0290078 -1.0016769 3.7030907 1.2997537 1.6101522 -0.98805094 2.3705907 0.26297837 3.867865 -2.0463283 0.24168786 4.337277 1.3610655 0.00049760164 2.6006694 -1.3850254 -0.9464037 1.0991557 -1.5132833 2.911397 -3.8317819 -0.024180885 1.8604743 -1.5019449 -2.3342733 3.8746898 -0.07445538 1.2202048 -2.7919722 1.133069 1.3665254 -4.236004 -1.5098522 1.4633963 -1.9669757 -0.8251726 1.9595026 1.8696461 1.8329406 0.2709263 0.6179519 3.2082005 2.1882365 -3.1473591 3.4723635 -1.6496673 -1.7493305 -1.1902596
ABPY 4.2742405 -2.4985936 -1.7078928 -0.660429 -0.9849595 -0.87133765 0.8370794 -1.2534373 -2.272954 3.4404874 -0.94305694 -3.2103293 1.3548987 -1.1507311 -1.4222602 -2.0106487 -0.096493304 -0.8418364 -1.465802 -0.39896002 0.97685325 0.4279311 2.01873 -2.7059379 2.16946 -5.2299466 -0.8897715 3.2909 -2.37444 -0.44143984 -2.107898 -0.72422147 -4.8989425 3.4428837 -1.3945022 1.514823 1.9656465 -3.1559706 2.3293965 -0.06837263 -4.184999 2.967697 -0.9514126 2.0171576 -0.1327667 -1.6510477 -0.63351476 -0.54354084 0.9585517 -0.98827577 -1.6551266 -0.49433145 -1.0412251 0.25094247 2.3971906 0.9410191 1.304815 2.2029312 -4.156915 1.6377186 2.2398233 -0.8574091 0.702581 0.97994
ABKJ 2.351281 -0.86439073 -0.04287114 -0.52038336 -3.8480377 -1.716335 0.12265488 -2.5561593 -0.6445255 0.7067462 -2.1230013 3.0173266 0.8820812 -2.646102 1.3019775 -3.163851 1.5801643 -1.1583817 3.468042 2.22808 1.9847522 -3.096017 1.3360537 -0.91702396 0.72768706 -3.931227 2.7289658 1.7242895 -2.6149032 -2.6838124 1.1768571 1.0612162 0.8025593 -1.615651 0.11506447 4.830477 0.6706722 -0.90782917 -1.3088106 -1.9667754 -3.0512965 0.9340565 -2.603743 0.52886826 -0.7548951 2.6728272 0.806937 -1.216022 -2.1702793 -0.99120665 -2.7517319 -2.0482104 -0.6312007 1.8343773 -1.5771624 0.83872974 0.7485721 3.6262813 -0.7221628 4.0858035 -1.9057136 0.7244265 -3.2365792 1.5622844
ABNH 1.0854063 2.446526 0.64462775 -0.6144512 -3.8452678 2.8329988 0.40087488 -0.6802637 1.3211931 0.008163895 1.4813153 -2.1857247 -1.3974 0.07834535 -2.8808892 -2.2583022 3.351227 0.10702235 3.7198296 3.274736 -0.34812537 -1.8733706 0.6403004 -2.4488573 2.2703562 -4.014333 1.2588917 4.0975595 2.2756891 1.1714578 1.1955608 -0.19931714 1.8878081 0.80662775 1.7551227 3.5148892 -0.4228424 -2.65879 0.7768345 1.5162446 -1.5729473 3.6743248 -0.09522628 -0.40454936 -2.5862381 0.45129076 1.309812 0.11816897 0.3030842 -4.0144486 -1.9340694 1.7950068 0.2280529 0.14735898 -1.0758871 -2.1694589 -2.8386683 -1.0622973 -1.3308975 -0.79305863 3.412638 1.0381682 2.036051 0.076924235
AASB 1.4870342 2.487513 0.17064878 3.7041018 1.0284119 -1.8348876 4.972597 1.6971991 -2.5935392 1.454764 -0.14225094 -0.019610604 -3.3761866 1.2841454 -1.9277523 -4.775105 -1.1325998 -0.20187962 -1.3756717 1.6604 0.89758986 -0.7489779 1.1137909 -2.3062422 -1.0829921 -6.0895505 -1.1198841 1.4748591 0.19144014 -0.9572402 -0.21468773 2.0472636 2.8150651 0.082577296 0.40460357 3.749038 -2.8936133 -1.6845746 1.4119188 -2.4193394 -3.0099227 2.897219 2.430662 -1.7554886 -0.9368174 1.24289 -0.48486608 -1.3524013 -0.7029476 0.587817 0.2255762 0.54453516 -0.8418689 -0.1872881 0.91860056 0.1242718 -1.7374381 3.6598058 -0.6528074 -0.79145527 1.5176036 2.6250122 0.8808955 0.97281307
ACGK -0.6481061 -3.592065 -1.9744636 -2.8760364 -2.2030518 2.8773246 2.6747148 -0.2339528 -2.7857811 1.8451283 0.4952667 -2.1094623 1.1972572 3.7381442 3.172678 0.7336288 3.70893 -2.8727474 3.4191937 1.5241486 -0.3054074 0.37835374 2.226259 -0.1629229 -3.3401663 -8.168407 2.8005953 0.69037825 -1.3966651 -1.2271619 2.883647 1.9367108 -2.0083003 -0.9227032 2.3934305 0.7897538 1.0773005 1.8370159 2.8947952 1.2320406 -1.1683508 1.3085855 2.8937225 -0.7299802 0.68762404 2.2802505 1.9204011 3.9674926 1.8997294 -3.7187433 2.0101638 0.58326423 -0.19905597 -1.7778279 -0.56684244 1.9850627 0.52082944 -0.4055548 1.99629 0.73583686 -1.967686 1.5010835 -1.3434293 -2.3672757
ABEH -4.2044415 2.2303393 -1.2614415 -0.68918973 0.4739439 2.3730273 0.66815907 -2.3551462 1.6668471 0.06993173 -2.8911383 -1.8046266 1.1790416 1.4250495 -0.56295455 0.45097992 3.7172587 3.6861424 -0.26253396 1.6472771 -0.48514163 -0.31779423 0.055782646 0.99331 2.1950145 4.1120424 0.2669526 1.6830345 -4.012731 -5.5091887 0.17632033 -3.1033342 -2.6078494 -3.2303376 0.78946286 4.295224 1.8807371 -1.6905338 0.9857274 0.8291143 1.6108099 1.8283573 3.882304 -0.23035555 0.22490987 2.3504817 0.88138205 -0.14936285 -1.0668154 0.91373485 -1.0405177 1.4228206 2.24244 -2.297962 -0.28523013 -2.1140049 1.0911281 3.7163146 -3.3703318 2.6057086 0.8502815 0.7600157 0.78611267 -1.5374386
AAAI 4.6216607 2.9045236 2.117622 -2.631489 0.45331183 2.0528383 0.5365921 3.178514 0.04094368 1.9521263 -0.578827 -1.113702 -2.6390257 1.8076297 -0.19544502 0.33335054 0.93606156 -0.5660436 0.84772235 0.6912822 2.137411 -2.2501838 1.8195415 -1.8858844 -1.1447784 -4.3582616 -2.2448795 2.710383 -0.3857653 -1.3083562 -1.7446724 1.7912204 0.11821447 -0.7871174 -0.40872997 6.0007653 0.73248476 0.92280626 -2.889666 1.7924664 -4.8293195 1.8909161 -1.7016351 -2.6230495 1.2669443 0.54745 2.1492236 -3.5207722 -0.16800414 -1.2020688 1.5491194 -1.0166614 -2.00742 -2.7745 -0.85202336 -0.57583827 -1.6625845 0.55805755 -0.48250002 3.1049154 -1.6890153 -1.0911479 1.5308139 -0.68725467
AABA 2.7331219 1.5101134 -4.989882 1.5082116 -3.632601 1.0951641 3.451455 -1.0850149 -0.80820924 -0.30617028 1.6029383 1.9263296 2.2835805 -1.5022084 2.9253278 -1.0734888 5.0843678 -0.07906293 4.491524 -0.6933055 0.97014326 1.8367445 1.9914316 -1.1297121 -1.9627155 -3.6476023 0.17147319 1.7254014 0.040032107 1.4254639 2.050247 2.2894368 -0.45954692 0.7531873 -1.7604265 3.2436485 -3.9188406 2.3373203 1.4293461 0.18708897 -4.5129743 2.2940328 0.9510466 -0.9274561 -2.3638701 0.9451251 -0.58607304 0.23143385 -2.6124969 -1.3463767 1.5136769 3.4228344 0.6324452 0.5853145 1.642903 -1.1308292 2.0506623 -0.2192858 -2.916114 -0.008415876 1.8614562 2.1294081 2.0393157 -1.7637682
ABCT -3.4483607 -0.16012555 1.264521 -0.93863076 -2.0722983 -2.4551718 1.5416877 -4.33401 2.5455556 -1.0188295 1.3955117 3.2710855 -0.4282869 0.37951714 1.4569435 1.1381675 3.4542797 -1.0965513 3.1550827 0.52846444 2.8246336 -2.7688627 0.31680915 1.5128238 2.310664 -0.5790715 -0.47854367 3.8673468 1.192395 -1.1932337 -2.0408168 1.2906455 -0.5478793 -1.8079484 -0.52862865 2.8571465 1.8653076 1.9008875 -2.4934614 -1.1685559 -3.25232 -3.5672338 3.5156913 -2.8943608 -0.5041444 4.434378 1.7788473 -1.7978842 -0.19267565 -0.58323616 2.2019074 0.63835967 -1.8420014 -2.2639818 2.2775564 -1.3127543 -2.2784796 -0.26907724 -3.5421891 -1.8258508 2.0525308 3.689864 -2.6096601 -0.5991455
AARF 3.0259326 0.022228971 -0.84233475 -0.7404701 -1.5305339 -1.2255019 2.1442983 0.8552888 -1.7292049 -0.10341157 1.3207402 1.9745587 1.6406653 2.825139 -3.613369 -1.5662237 -0.245103 -3.9755404 2.3825903 1.561438 -0.7129588 -1.5825193 1.7419525 3.7412567 -2.6201165 -2.6679416 0.87183386 2.0991597 -1.5043902 -2.4842288 -2.7981637 1.9457145 0.6157678 0.44648984 0.10325971 4.5184264 1.2318532 -0.4755996 4.456654 0.27070245 -2.4970565 0.9998861 1.5560135 -1.7388527 1.6331391 0.36022878 -0.977824 -3.0049183 -1.0262468 -2.132231 0.42118526 -3.5216749 -0.44081855 -1.186929 -1.514772 -0.168238 -4.004694 2.0537035 -1.4329551 -0.21038133 2.3445132 -0.9157307 -2.1428595 0.8809731
ABZF -3.4497502 -0.6781296 1.259384 1.1463329 1.8914595 2.1429577 3.5056453 -0.95083135 -1.3886522 0.31699958 -1.3859557 0.9162747 -0.9936791 0.056300275 -1.7736701 1.3277591 0.5773072 0.77102023 0.43904427 -1.2337031 1.2291021 -0.90110844 0.8204126 -3.9545383 4.148935 -2.033599 -4.0654774 1.9399558 -0.6354865 2.1771905 -0.2737676 1.5087541 -1.1988591 1.5472944 0.074870564 3.7703412 -1.4556729 -2.1190555 -1.0831683 1.7755263 -5.1050873 2.1960604 0.0884914 -1.3785964 0.63379663 3.8034718 3.230653 -1.8059344 -0.7161257 0.30285874 -1.7648958 -1.8197768 0.63441604 -0.9244508 1.0553164 1.2170042 -1.0051798 1.0665697 2.298638 -1.7129153 0.09440013 -0.58572215 0.05271497 4.250743
ABZT 2.3549833 0.46507725 0.62582964 -2.7947512 2.474487 1.3795866 2.8865821 2.4976535 2.9445198 3.947589 1.2776895 0.5421938 -3.3520954 1.9975396 -3.8755343 1.3893849 2.198024 3.1179266 1.2837287 -1.1510184 2.6450968 -0.71792907 2.8984969 -0.4426358 4.214954 -3.169985 0.53885263 0.64845264 -0.9229416 -1.3674253 -0.47113642 -0.10790345 -3.379576 -0.14478911 -0.91949487 3.769713 -1.5770687 -1.6495063 -0.055680245 0.33589032 -3.4862401 3.8506827 -2.1140287 -0.58233213 -3.1471632 1.6835955 5.9817834 -0.95483685 -0.7659739 0.57679564 0.74750346 -1.8878523 -1.8594362 3.038013 0.012506092 -0.13831876 1.6027766 3.9601192 -0.87030727 1.1423093 0.51499885 -4.2795897 -3.2195342 -0.43974647
ABVX 4.039365 -2.2521634 -0.42244235 1.1540501 0.57350343 -0.7663725 2.157965 -0.1788626 -2.4796898 -1.7782633 0.44569424 2.3081567 -2.1252685 4.3814387 -0.9146716 2.700067 2.797724 -1.4241086 0.8720439 3.7819283 1.0339363 0.07841487 2.6043859 -0.34293723 2.1011975 -4.0571404 -0.13948928 -0.25838172 0.06744179 -1.2805152 1.2557945 1.9839885 -0.987772 -0.45953646 -1.848054 3.9106233 -0.24561222 -0.8621784 -1.2928497 -0.33737698 -0.7576871 0.624686 2.1822288 -2.435003 -0.6511993 1.1162459 -1.8104178 0.33138317 -2.1040242 -2.1648476 -2.7681446 0.91572833 0.31791037 2.2805164 0.7488088 2.2477343 -2.7163336 0.1629065 0.05598972 0.58362997 -0.17630254 -5.0636783 -3.0838447 2.950093
ABDH -1.5246675 -1.0964583 0.41995096 -4.3760233 -0.28049386 -0.7417436 -0.8517737 1.0820916 -1.3413504 0.2283568 -0.5065068 -0.16107544 -0.33578897 2.1705399 -1.0583179 -0.6416486 -0.75612813 -2.9328735 0.6090756 1.0381913 1.6615207 0.6953005 -1.9177783 1.0693539 -0.5913393 -2.1732981 -1.4368367 4.7991314 -0.67757845 -2.1265974 2.046112 0.32278425 -3.2656627 5.024878 -0.67921066 2.0215237 -1.5630243 0.08450804 -0.7779069 -0.17854512 -3.8361568 -1.6851684 3.6133733 1.0114406 -3.8840961 0.88274515 1.8670561 1.897853 3.7109709 -1.4279683 1.2017964 2.9659941 -1.4236125 -1.3397708 0.09185279 2.0298314 -0.9462404 4.235146 -2.3854365 1.2421975 -0.49722818 2.301549 0.9785828 -2.0391057
AATO -1.5439049 -1.6364845 -2.3269415 0.62346333 3.1628153 3.7941122 0.26769677 -2.106084 -0.13052388 1.2111387 -1.8285171 -0.52693045 -0.22536469 1.3131101 1.8815746 0.16949403 0.32479554 -0.7407003 2.8661363 2.2927425 -2.3514419 0.22837102 0.57984215 -0.4090086 0.6118461 -4.6095757 3.06198 -0.1267607 -0.9996951 2.6427426 1.020198 0.84812224 -4.668084 4.0654106 -0.80472696 5.382029 -1.3402584 -0.64166135 1.7367635 -4.2785516 -3.2646532 1.5216879 3.3104212 0.92897683 2.094978 0.95147556 -0.72479105 -1.7503945 -2.8588014 -0.5938818 -0.115709715 1.3989612 0.0686692 -0.28358367 2.2065048 -0.13077827 0.86398196 1.0000232 -2.9034195 1.3062502 -2.6338744 2.157147 -1.9134353 -1.1043515
ABOO 2.8471215 -3.5390258 -2.7310324 -3.5922682 -1.9227579 -0.20967501 2.0571342 2.290724 -1.2679691 2.371995 0.956982 -0.2656221 1.2951034 4.1034646 0.76145095 -4.1004014 0.756587 -1.1559408 -0.2368343 1.3940893 -1.9464545 0.84150493 -0.4619454 -1.6747092 -1.8001715 -3.5223005 0.97133934 -1.4689989 -0.76592624 -3.1359375 3.2510695 2.842027 -1.3678463 -0.3140926 -2.281421 1.8622206 -4.1237416 -1.2831742 -0.30865887 -0.62103933 -3.9456034 3.9792912 -0.14564542 -1.4267541 -1.4159245 -2.1626275 -1.057852 -1.0080935 -2.0812712 -3.817464 -0.8232125 1.5320036 -1.0054761 0.42083442 -0.96390337 -2.7668538 0.79879254 1.653822 0.48552182 2.3480394 -1.7159383 -0.7625538 0.6457119 0.50021976
ABMD 1.6344521 -2.351236 -0.46683973 -2.1310232 -4.5267444 -1.3566798 2.7893057 -0.2799652 -0.9945409 3.0640297 -3.061488 0.092170596 -2.6768677 3.0189238 0.52375317 -3.057258 0.8142323 -1.4043069 2.3323781 -1.6390876 3.8900552 1.1598309 -1.7029223 -0.3411141 2.9110734 -3.1457534 1.3416368 2.4829497 2.353791 0.23177134 0.56028485 -2.7468796 -1.9866344 -2.3870263 -1.3486794 0.6019201 -2.1460898 -4.293536 -2.5882685 -2.1363845 -3.206082 2.1854563 0.9018967 -1.8755031 0.678932 -0.8495933 -0.78647256 -0.43700334 -0.017931202 -0.9587001 -0.108058825 -0.39937997 1.067842 -0.017718976 3.9630573 0.05694177 -3.2731047 1.946744 -0.47755322 -2.0037718 1.489116 -1.5694813 -1.5697728 -0.1826033
ACCP -1.3787717 -0.25001085 1.5062698 1.2281754 0.36715406 1.7892739 -0.31339103 -1.6862873 -3.1554325 -1.0291238 -0.20653138 0.8010692 -1.3928928 -0.24320623 -0.40701613 1.8336477 2.5873008 -3.8794951 1.4016702 -1.6745077 3.3599648 -0.9863555 -2.0251656 -2.5938332 -1.9427531 -4.2627673 2.5793974 2.3454745 -0.07880006 0.10285391 0.94188535 3.210445 -2.870141 -1.1306274 0.0823352 3.7459712 -3.1299732 -0.20009881 0.08876058 1.7705003 -4.3439345 1.7500193 2.7447197 1.1761314 1.2743367 0.73078567 4.25093 2.3054569 -2.995219 0.8201477 -1.3791876 3.8241026 2.9742386 0.20441027 0.4429347 0.049639083 -1.2047193 -0.1849718 -1.633677 1.8193339 0.11532591 2.5310476 1.2201433 3.1254988
AASL -1.0048352 -0.31439352 2.1403105 -1.8461688 -4.3152313 -0.9666849 1.4554856 2.033246 -3.1673186 2.5162318 0.32866594 0.36779162 0.453866 1.7501675 0.5947099 -2.9729779 2.3065786 -0.92108107 0.18269318 3.5344694 0.5286294 1.7263569 -1.4784273 2.6121602 1.7201141 -4.5440683 -3.0208318 0.24334922 0.95575845 0.862436 -0.089591935 0.7947866 -1.1145842 0.036710646 0.008592124 2.1608808 -1.0581675 -4.2582893 0.58284664 0.099738434 -2.8897078 -1.1274794 -1.9351568 -0.8383123 1.9868035 0.69663996 2.5466251 -1.1470699 -0.5364615 0.8453766 -2.3994122 2.7290561 0.9941643 0.92606276 -1.3170301 -2.3715212 -1.5425845 3.4671707 0.8044495 2.8180857 -2.065156 -0.87066835 0.1435838 0.4823882
AARA 1.7547783 -1.2984769 -2.58719 -2.3507905 -2.2592452 -0.19403982 -1.0728172 1.3899511 1.7877448 1.8446006 -0.4705701 1.8621411 1.4492707 3.0211265 1.0237932 3.1215687 -0.9081884 -1.4695032 1.9741944 1.6546926 0.89849645 1.0380566 0.3361593 2.8512309 1.2481385 -3.5353239 1.0976025 3.6729689 0.008655159 0.43640557 0.24629438 3.482987 -2.9959676 -1.198667 2.608443 2.9971223 -1.7208633 -3.1946025 -1.4769022 -0.89290017 -4.0980225 -1.3171124 0.5524944 1.4800607 3.4722538 -1.0926719 2.1587934 -0.13257648 2.013592 -3.9068308 -0.17952855 1.4421235 -3.1415963 -0.15896921 2.4892766 2.096483 0.27506167 2.3053758 -0.008345654 -2.4286947 -0.75147504 0.5399585 0.7495476 1.5059884
ABPL -1.8813719 -0.6696149 1.6235104 -0.90746236 -2.7099397 2.2550328 3.0334244 -2.5139596 4.203178 1.6368504 -1.9512848 -3.9833338 0.87184376 -1.0228655 -6.0399494 2.1329398 -0.710166 -1.3550735 -2.7962122 2.4155571 1.0189381 1.124524 1.4628674 -0.2425109 -3.1328921 -0.53694403 -0.61502737 0.99309707 0.096700884 -0.0364495 -2.2578607 0.8632199 -2.6231768 1.7016764 0.3304074 3.1766949 0.15675902 1.3064896 0.56848174 -3.7411416 -2.6299913 -0.013397699 3.2438438 -1.8453362 -1.0299013 4.0891795 1.6238227 -0.9124649 0.05766318 -4.2317247 -2.6052706 -2.7565112 -0.9023808 0.6095091 0.22428605 -0.007133042 -3.6976259 2.3298175 -1.9750056 -1.4628922 3.0936463 -2.5973132 0.20054865 0.4296919
ABWI 1.8148117 1.825018 -1.2013686 -0.9423076 -0.46637303 -0.46606156 2.719938 -0.85834926 -0.3003036 3.8007402 -0.008913335 0.93236876 -0.04977988 3.0492663 -1.9154364 -0.27497077 0.64399177 -6.0356536 2.4804208 1.270356 -3.722029 1.6435965 -3.387679 0.91270745 -2.6669688 -3.455818 0.6451916 1.2876444 4.1646547 2.1516485 -0.214209 0.015875407 -2.044022 1.7790197 -0.12945314 1.2969606 -0.2002165 0.2902694 -0.6863825 -2.8282738 -4.1762733 2.288116 -0.6965664 -0.19264749 1.3212571 0.04674173 -0.32739535 -1.0470834 2.0737753 -1.5698042 -0.012569826 2.3035176 -2.4830863 -1.6587529 1.0051923 -2.546691 -3.981006 2.5799716 -3.358402 -3.4308043 -2.871178 -0.71131814 -1.8307947 1.691015
ACBO 1.3556606 -1.3776524 0.40924004 -4.3693795 -1.6743985 2.8048654 4.2211823 -0.355331 -2.5406375 1.7205206 -1.0462584 0.64018714 2.2048647 -0.74898547 -4.519326 -0.3207496 -0.586064 -0.020548714 -0.4119282 -1.7165438 1.5406042 4.2929287 -0.41054335 1.2514144 -0.24603082 -3.6190767 2.247515 1.2462012 1.9348974 -1.4368548 -0.17525947 2.7519484 -3.8661392 1.2532837 0.5789492 2.3037999 -0.14206487 -0.7901861 -0.7863206 0.11758247 -4.377567 0.29588047 -1.1260481 0.15105574 3.6212687 0.58023316 -1.612401 0.9624818 -2.2700324 -0.86903924 -1.9066482 1.7134875 3.321101 0.7391664 -0.89302236 1.4817517 -3.1061027 3.8025932 -0.02033138 -0.21828583 2.773302 2.7604086 0.8568723 -0.3965676
AAEF 1.855678 1.2943357 -3.008588 -3.8613186 -2.3904853 1.3991466 -0.49578893 0.7783278 -0.3181233 1.6227299 0.5442671 -0.85586345 -1.7826493 0.5482143 -0.39561814 -0.49662614 3.8011923 -4.7102995 2.1483135 2.2036667 -0.7667933 1.6988447 -0.741256 2.4403267 -1.6556505 -1.6571183 -0.056321207 0.4617256 1.9982531 -0.3990145 3.335084 4.5371976 -1.7069081 1.2539577 0.77769434 3.4924097 0.2967394 2.1453662 1.2419254 -1.5035167 -2.6722143 0.54037446 2.2987938 0.22055858 3.2899077 1.1651074 -3.7458675 1.3633019 0.43747762 -2.773069 -3.4016078 2.47563 0.43905434 2.1048946 -0.82516587 -1.739433 0.08582546 -0.14062692 -2.5511427 3.4690697 1.0810285 0.060554948 1.1539382 -0.7653899
ABAN 0.14577496 2.835824 -3.9433644 0.68208325 0.8221399 -3.0711808 1.487984 1.6727209 1.4547509 1.7424011 1.0772954 0.79975575 -0.08590619 -1.9199135 -3.0819473 -3.3521905 0.49775478 -2.5094817 1.1364347 3.087701 -1.5603745 0.9726735 -0.47297806 3.0240932 1.9161422 -4.924523 3.9350324 -1.5072194 0.7089362 -2.1845922 0.16195953 0.10249623 -0.5681958 2.678226 -1.4691113 2.225296 -1.0862095 -0.6592469 2.9119914 -2.8926005 -2.6042252 0.8087591 0.12338227 3.1156287 -3.023773 0.13862453 -0.95284474 -0.40526828 -0.6555857 -1.133241 -4.351803 1.778552 -3.9579113 -0.8321993 -0.195624 -0.47702813 -2.0731132 -1.212229 -3.0019472 3.1213443 2.0870972 0.20873027 0.41893202 -3.108197
AAGE 1.7305572 1.2307087 -0.5953465 -2.8090112 3.723668 0.91088724 -1.7315731 -1.5397898 -1.3357388 3.1537228 -3.518001 1.8659508 -2.6846554 7.0732427 0.57681227 0.5223458 1.615859 1.5413113 -1.1081138 -0.97569174 -1.3766699 -1.8727689 -2.513374 2.5392802 0.59098864 0.18994857 1.8066366 1.2848841 0.12931302 -3.5936594 0.20859241 2.3922858 4.335758 0.56123537 0.8142986 -1.0458199 -0.7226582 -3.9183352 1.8890259 -0.053098273 0.7080248 1.9411997 -2.4551337 0.57759374 -1.5871005 3.4870832 1.0325764 3.4465237 -2.8064911 -0.6526869 0.11035441 2.45978 -4.8409576 0.8078212 -4.2722893 -2.139083 -0.93243754 3.1672816 -1.0077527 1.3346864 0.48510817 1.7844748 1.1959188 -2.3793309
ACIF 0.68061376 -1.3506968 -1.4915751 -0.18514095 2.1901639 -0.2854289 -0.1483898 0.0134812705 2.149478 2.5499492 2.011172 -1.1202892 -4.2527027 0.21512577 0.1462736 -1.092706 2.4371872 -0.6598257 0.1985973 0.5440489 2.391643 5.0316024 -0.37097135 0.10894358 2.673556 -3.6471539 1.5525928 3.3529139 1.6057149 -3.4887311 -0.18544705 2.469883 0.6616625 -1.2869586 0.7341969 -0.10037846 -1.4897255 1.686389 -2.7622497 -0.32217053 -0.131283 2.4475846 1.9191004 -1.0141722 0.8634516 1.8360064 3.8920999 0.82352227 2.8342614 2.582982 -0.8439289 -0.415544 -0.25008604 -1.2362263 -2.7340217 -1.7972176 -3.3159742 0.85744864 0.08735418 3.3967915 2.0011168 2.840768 -1.8045583 0.19822066
AABC 0.41886067 1.5999222 -0.8598308 -1.0836828 -0.14048146 -1.2782114 -1.4766349 3.7078085 0.050133444 -2.6641724 1.4271353 1.9882017 -1.52728 1.0700498 0.9514787 -1.6034188 1.5625602 -2.2572372 -1.4358823 0.689708 2.5910358 -4.2711926 -0.8685197 -0.6537301 -1.7435979 -3.818518 -0.83079106 0.6876133 1.5256095 -2.7159514 0.2500047 -1.424515 -4.3098583 -1.2527077 0.97154814 3.4040422 1.7588688 -3.7938275 1.2589154 0.48192996 0.76918894 -0.45038077 -1.4297447 1.5275027 -0.5203065 2.06092 -0.92006326 -1.3176038 1.7758994 -2.932803 -2.321935 1.1664013 -0.84901154 -1.2970263 1.7244345 -0.7083122 -1.946327 0.8259028 0.12861152 -2.4471028 0.6177851 1.5465212 1.8636595 2.2904406
ABAA -3.2357643 -3.9187846 -1.5121632 0.29192832 -2.1033037 -2.1578298 1.6452913 -3.9085395 2.4318056 -1.9891094 -0.17248201 2.2163842 -1.2299404 -0.72610813 -0.45584643 -2.6218042 2.2092638 -0.38077423 -1.215326 0.97865975 -0.69513565 -1.1772707 1.2283758 -0.022517104 1.3072653 -2.2623062 0.3328883 1.1605422 -4.157212 -0.3868298 3.9533072 2.357857 -1.8007653 -2.6106114 3.2679858 1.9077953 -0.91778636 -0.01967285 2.128428 1.5485044 0.3276568 0.63200504 4.2961707 1.8022393 -0.2073887 0.24557021 -0.42668083 1.5238719 0.30352372 -3.6317742 -1.8565519 2.0252345 -2.5348945 -1.999969 2.4601154 0.14983241 -1.896175 2.6020694 -0.17645635 1.5595177 2.5957391 0.19898136 3.1325738 0.88750297
AAAQ -0.6227293 2.3600955 2.7478132 -0.0041042203 -1.0307735 0.54008067 1.15792 3.3395646 -2.1602786 -0.31726074 1.3564346 0.61113113 -0.5731572 -4.258616 -0.40379566 0.61065173 -2.8271706 -2.6005964 0.19928785 0.44867387 -3.1979885 2.1758564 0.47091484 -1.2116836 1.5721694 -4.047689 1.0384707 -1.5346783 -2.406755 -1.5696958 -0.26112235 -0.58263487 -0.3049896 -0.55890256 -2.630203 0.27709055 -0.7904901 -0.52835083 3.4338915 1.9781467 -1.3316201 5.658817 0.61751366 -0.5585893 -0.4520218 3.7079937 1.1332905 0.78609544 2.493471 2.0174828 2.2370336 0.9421755 -2.7690194 -1.3498565 3.6529632 -0.67161363 -0.6186154 1.4702661 4.87233 1.5657804 0.41861457 -2.7727296 -2.2771268 -0.4573495
ABNO 4.1240354 1.0642852 0.66645104 -1.7944707 -2.986689 1.9644217 3.6687548 1.0076356 0.71094906 -0.5806394 -0.6721387 1.1157924 1.4582096 2.5196993 0.38815367 -2.707087 2.3425872 0.67492867 -0.049654838 3.196271 2.5401902 -0.9077824 -0.64840126 2.0678742 -2.0616412 -6.7563515 -0.59825927 0.75042886 0.09449986 -0.18615164 -0.7248082 -1.1763194 0.5629811 2.452559 -3.4362502 0.3521399 1.1086673 0.2010484 -2.0652027 -1.647844 -2.3147285 0.40828505 -2.351054 -0.9862286 -1.8879743 -1.5254226 0.6210049 -1.7135028 -1.2835076 -2.5197484 -0.6986471 -1.5070719 -0.7326326 -1.9760625 3.3976626 -2.8584836 0.51076794 3.0665 -4.0796323 -0.30733016 0.17264855 -2.6859772 -1.0620222 -2.7111106
ABNJ 1.2378037 1.9531369 0.26017138 -1.6945741 0.26687872 0.699704 1.2541695 3.291719 -0.24392077 2.33394 2.795509 -1.1148238 0.96801895 -0.8458098 -0.83957416 -1.1379145 -1.5696539 -0.308493 0.7632989 3.5375087 -1.3873255 2.8605366 -1.0518013 0.70390004 -1.2712455 -3.8876002 -2.625464 2.519593 0.6472997 -3.4223726 2.4585333 1.5354987 0.12874201 1.4850619 3.4349153 5.2135773 0.33060965 -3.2851317 -0.56377786 -0.498693 -0.3707452 1.3205464 1.5978884 -3.412395 -1.2804333 -0.17395104 2.7394345 1.4397597 -2.6913397 -3.0545895 -2.0838273 -2.7464566 -3.7593935 -0.6226749 -0.5600781 1.2285053 -2.252852 2.0210955 1.863025 -2.9772837 1.1043552 -1.1325029 0.7190091 -3.131944
AADZ -2.892349 3.4037724 -4.2661877 0.613946 -4.362326 2.3030486 -1.9364105 0.18393052 -3.631713 0.90638614 1.2090577 1.1506339 0.71234924 1.3046979 -0.37600482 0.96364063 -1.6924651 -3.17732 3.5831213 0.17797709 3.3759174 1.6080958 -0.6951019 0.7837684 -0.29795283 -1.7878517 2.436079 4.6443663 1.8373339 -2.860544 2.8674302 1.1547309 -1.160269 -0.25659037 2.114533 1.5811205 -1.5846344 0.44834027 -3.3099117 -1.2285339 -1.4908577 -2.6317072 -0.99469614 -0.06611249 -1.4550359 0.7825562 -1.0763673 1.7935189 -3.2728605 -3.2481296 -1.5148735 3.2328036 0.36186156 0.050474968 0.4596278 0.9351055 -4.009001 3.8295865 -0.23382503 0.9863589 -1.4129704 -1.8978848 -0.7334607 -0.45273325
AAZX -1.7102501 -0.012499778 1.6830744 2.424911 -1.6366628 0.22580625 2.2144291 1.1318682 2.1184916 -0.4912969 -1.399802 4.46175 -1.6690811 -0.49831253 -2.8314645 -1.6305996 -0.1462342 0.5770203 -0.18149112 2.12172 -1.2476497 -1.2488838 0.711407 3.0467455 1.6899626 -1.1067255 1.7368505 4.082997 -0.97090775 0.77702093 -1.7144266 1.8221757 0.44367006 2.2263842 1.9322196 2.5199218 -0.8439621 -3.0955875 -2.5624187 -0.82700765 -3.3201368 -0.011260643 0.10381781 3.2825382 -1.5749463 2.290231 -0.129502 2.3297722 1.410214 -2.876411 -0.8955498 3.0158658 2.6760347 -0.41244364 2.380787 -1.6877371 -3.044528 4.4072733 -1.0308298 -1.0188278 -1.4904057 1.6424618 -2.811712 1.1414305
ABVU 0.12643059 -0.70579803 -2.8674922 -3.8660054 -1.1900254 -2.5932612 0.8094314 1.4312563 1.0525674 -0.54168135 -0.32828712 3.389538 -1.3661859 -1.4639305 2.8500302 -2.2196271 0.7363789 -4.784886 2.7130725 2.344333 0.09217385 3.1106594 0.17166887 2.7182717 -0.5134559 -1.0961831 -1.5370697 2.403885 -0.53614813 1.1561582 0.73180336 2.764609 -3.2718332 -0.91576374 1.9315947 3.6651025 -0.5765175 -3.0350602 -4.093295 -0.03623963 -0.61424905 0.25408906 -1.7197214 -0.34573364 -1.7012707 0.4503736 -0.7522385 -0.9202049 -0.019760009 -0.476609 -1.1651343 -0.94072104 -0.45017466 -4.9248495 2.3684473 -2.793591 -1.9642175 5.5309687 -0.71202457 1.3401227 0.4632144 -1.6743916 -2.4797115 -2.0326393
AABZ 2.1039648 -2.0360587 -1.9227308 -2.1352832 -1.0773941 1.3913696 1.8452314 4.713999 1.4816104 1.8129927 -1.4964566 0.25419912 -2.0300443 -1.2061934 0.5888262 1.3796612 1.3743287 -4.345561 1.4207363 3.1855466 1.1775556 -1.2425586 -1.6754175 2.9314241 -4.822159 -2.1897216 1.2240648 1.0962648 0.044045314 -1.6428806 0.5159175 -1.2296137 -1.3499329 1.4933879 -1.0460514 3.9915562 -0.35765606 -2.9196458 -2.142894 1.2852685 -1.2454748 3.865601 3.4260366 -1.3806634 -1.7875497 -1.8270035 1.0181354 -0.92787546 0.12090354 -1.0967575 0.42346224 -0.04331743 2.6213055 -1.293108 1.3163856 2.3862092 -0.32000083 1.6750851 -2.1313546 2.792385 3.1551783 -0.26784733 2.4180179 1.1388156
AATG -0.27710652 -0.057597764 -0.07653002 0.8691866 0.6603483 2.0769565 0.9654779 -2.1670718 2.5753272 -2.2739456 2.368952 -1.4891143 0.019326663 0.5662409 0.7642114 -0.7014389 0.5834331 -5.1946735 0.036144245 1.2998134 -0.8681237 1.2184825 -0.24796465 0.493221 -3.949198 -2.9248729 0.3158877 1.4654417 -0.17928787 -1.0123932 2.2053483 1.776577 1.0706611 4.124209 1.7520933 2.0807676 1.2914912 -1.2812648 -3.3970191 2.0843034 -4.3863907 2.2712886 -0.004624533 -2.7857442 -1.5538541 1.6261414 0.15215634 -2.0349786 -1.8656778 -4.9207706 -1.0080602 0.89193124 -2.0420759 2.0112088 -0.13150375 1.0973525 -3.786385 3.0633283 1.1974924 1.5123748 -0.43017808 -0.8747926 -0.17831089 3.8875341
ACCW -0.44394526 -2.3749025 -2.0833833 -3.1521826 -2.5039048 1.1825112 0.4714785 0.4835194 1.6245409 -1.7746029 1.6800114 2.5722005 2.4737072 0.887114 -4.424511 -0.12247853 1.1211722 -2.1450543 -2.1528625 0.42329377 3.3296146 1.8319157 2.2652023 0.95236975 0.24710792 -2.7511053 -0.0317371 3.2513554 -2.0039172 -3.8189082 1.6857038 1.9120448 -2.6133533 -1.1943246 -2.5883818 1.7599231 -0.65785706 -2.1041784 1.9825 -0.118311904 -1.4165732 2.025106 -2.7674732 -3.2810752 -0.78277594 1.1046786 -1.4650043 3.7166426 0.9527753 -1.5494025 -2.5102024 -0.27628002 -1.0858812 1.414312 3.2378416 -3.1176724 -0.2994005 0.91751486 -1.2367569 0.041897807 0.543549 -3.0457156 -1.2184983 1.7007269
ABSO 1.5176753 -0.6506618 -2.2532413 3.4965217 -4.538976 -2.7199957 1.9662824 -1.7426938 -0.98217565 2.0544722 -0.8460091 0.51543075 -1.4224101 0.04280712 -0.23011252 1.3443699 2.7570775 -3.1738913 -1.0169854 0.31787705 2.9125779 0.6585772 1.5443175 0.8578883 -3.7308009 -3.5959039 -1.7179414 2.691217 0.15572184 -0.44302648 -0.87848365 2.6449914 -0.8071729 1.804208 1.7547488 3.3237796 -0.21792279 -0.5061516 -1.741421 0.5034861 -5.071384 -0.5591926 0.7577847 2.8514569 1.7213703 -0.3765659 1.8038425 1.6207923 0.03820375 -3.5763383 -0.28725487 -1.2972504 -2.6887472 -2.2301707 -3.3215392 2.614578 1.257935 2.6536338 2.6235487 1.8580543 3.5552914 0.030308068 -1.5377971 -1.1530098
AADF 0.9568475 0.97019106 -0.8522131 -2.6412911 0.0033206418 2.4261403 0.82078385 -0.52549964 2.0743706 -0.47202262 -1.2881342 3.5141935 0.5693359 -0.57604533 -1.0409405 -1.085604 -0.12703162 -3.1040337 -2.1677127 -1.940789 1.3056518 -0.7043042 1.4327236 1.2510246 0.39470035 -2.432791 1.5279075 3.1259158 0.03338718 5.1108313 -2.2462907 3.3023415 -0.7114161 4.416128 0.22397643 5.33229 2.1431348 -3.916691 1.6864642 2.6194475 -4.585987 0.29847768 1.367366 0.53447396 -1.3306392 -2.8884945 -0.05095745 -2.9081175 -1.9030442 0.33217373 1.5393319 0.03211714 -2.4188726 0.27278477 2.3505316 -0.67070276 2.2880085 4.4455085 1.1412655 -1.298593 0.6363334 -1.4545617 -2.330169 -0.65617234
AASN -0.03393882 -2.4535031 0.5868785 0.19398585 -0.19539915 1.3744253 2.7112317 1.7280362 -4.110768 -2.663185 -0.039232034 0.60497403 0.004835752 1.0487835 0.7041052 -1.1028392 2.2495754 -0.23689453 -0.45888394 1.4268544 -0.5035061 -1.8263454 -1.84319 0.30371127 1.8271765 -3.1667714 0.4731735 1.2980895 -3.2813964 0.50146693 -1.107883 -1.1150011 -0.9719527 0.56786877 -1.2405424 3.9498687 -0.5371698 -0.043106116 1.4964373 2.5828488 -6.0428953 1.0461155 1.3177663 -0.823264 -1.8785908 -1.4374866 2.9381511 -0.2172566 1.9019803 -0.54150814 -5.0544515 2.8435721 -5.0781546 -1.6112013 0.46503264 -0.25523296 -1.8916199 -0.8760713 -2.189558 0.5833368 -1.1088371 2.7245302 -1.5464376 1.1598219
ABXR -2.0965843 2.6043808 -0.9689647 -2.7875655 -0.089207314 1.8309474 1.776798 -0.30759725 -1.5616659 1.4180926 0.06308767 1.2816657 -0.25063008 0.7165294 0.104721025 1.3962011 2.3921123 -0.44064343 4.8691597 -2.1069431 1.131617 1.0740511 4.072419 -1.635229 -0.41933113 -2.1133764 -0.22992785 -0.8546065 0.7939407 2.1515486 1.4958807 2.101374 -3.024839 1.8593043 -3.7952278 0.69638175 -0.11923129 -0.29013357 1.3166958 -0.17094876 -2.1479092 -1.1488825 3.5415273 -0.6280721 -1.074721 0.004077469 0.9992754 -1.2057476 -4.0142937 -1.6838137 -1.07409 -0.25940406 -4.266561 -4.04726 1.1653574 0.9720052 -2.5521605 3.8249285 -1.8566074 -0.462187 -2.5419424 -3.4199526 2.1954448 -1.8918545
AABQ 1.9959052 0.8023253 1.8887835 -3.4474564 1.6836325 0.6699173 2.0311751 -2.000416 -0.04529258 -0.5043289 0.030465778 2.0918055 2.0048902 -0.2552407 -1.4345225 0.38973063 3.6746178 -1.4961606 1.3615323 1.3289942 2.7061052 -2.008446 1.9600706 3.526043 0.72793365 -6.388324 -0.04161023 0.7675343 0.44980273 -0.26602897 1.9451246 -1.8800484 -0.40216005 -1.5558511 -1.1437234 3.050857 0.82934994 2.3962848 2.2549987 2.9075863 -1.270395 3.5480618 1.7682575 0.54114544 3.0366936 0.24204166 -0.94527256 0.18693674 0.07151107 -0.022244565 -3.4775898 -0.5888894 -0.65545684 -2.765646 -0.07726033 2.8067462 2.5133297 5.000296 -1.2931232 0.37986612 -0.30841398 -1.097899 -0.34302846 3.4388096
ABIN 3.3072932 1.272812 -2.1164746 -1.0465071 0.04443161 -2.0214753 -0.12102103 2.260065 -2.9657876 3.732151 1.1842948 1.1839387 -1.0538088 1.0468448 -1.1084579 -0.9571885 -0.61681926 -3.0154402 -0.16492249 -2.0734396 -0.1796126 -2.8397725 1.1457652 -3.531314 -1.0087719 -3.4947922 5.9904456 4.2130957 0.50763834 -8.267406e-05 2.0741992 1.4525509 1.0045012 -0.39346254 -1.9828709 4.424689 -1.3316163 -2.6404948 0.9124972 1.6037585 -3.0319352 -1.0796388 0.12403654 -1.2945548 1.3340042 -0.5534947 -4.2727475 0.6387395 -0.40454346 -0.96564573 -3.7589386 2.4549499 -0.33580065 0.8197346 1.4097162 0.32820752 -2.0854242 0.27374288 -0.92951673 1.9970467 1.123761 -2.31081 -2.7059326 -2.8640878
AAJC -2.8126547 0.6575864 -2.6506798 -0.39688462 -4.1028986 1.3154052 0.6183438 0.5605467 -0.2570041 -1.3400894 0.3611077 -0.34673563 1.7172978 0.6122937 3.441051 -2.8780546 0.20520994 -3.4833586 0.06987215 4.2698507 3.0716913 -0.05921492 -1.0985397 2.8243985 0.87207276 -5.9664803 -0.55437505 0.28818437 -0.42326754 -0.25474194 -2.1162279 1.4329853 0.2585975 0.80949676 1.4062042 4.641994 2.174575 0.82975894 0.34433034 -0.6021155 -2.9265354 1.3149849 2.2184684 -0.96436393 1.2298876 0.5782069 -2.3883066 -0.34500656 -0.66400933 -1.9648588 -2.7787826 -0.90394545 -0.9689521 1.64046 4.257067 1.8324271 1.338639 3.9423797 -2.3801994 2.360823 -0.32547417 0.9673965 -0.3641681 -1.3888947
AAHA -0.58099097 -2.314101 1.6334398 -0.58875316 1.2297364 -0.68680555 2.0108871 2.3183327 -1.6130037 2.6479378 1.8864377 -0.24639486 0.6616059 1.8001713 -1.5489573 2.5352736 2.169075 1.9029628 -0.17813188 -0.4892058 2.2426949 -1.3882245 -1.113998 2.3151667 1.7794648 -1.5489036 0.6271764 0.49912673 -0.64769334 -1.7388585 2.214248 -0.059951924 -0.27482384 1.6900047 -3.6709607 1.930172 -0.8427603 -1.1924067 1.2910311 -2.2667246 -3.4962432 2.3144164 -1.1647496 -2.9889145 1.6147927 4.7670884 -0.22366856 -3.6647453 0.65784085 -1.7923366 -0.4864548 -2.5677354 1.8483969 0.18216653 2.7234206 -2.9555519 -4.225985 2.6406996 -2.0086973 1.313496 1.8243872 -2.773462 -3.6451497 1.4529264
AAEM -4.030421 0.6607761 2.5714653 -0.7942786 -1.0661607 0.77622676 0.3451031 2.9701352 -1.7570021 -0.02784798 2.7161868 1.4990429 -0.61336213 -3.2579706 -0.11937747 1.6294676 -1.8691307 -0.5243278 -0.396799 -0.1380106 -0.67344403 2.9052722 0.6408216 -0.5022037 1.064254 -4.525474 1.9217656 0.010374689 -0.8406648 -0.11855337 -2.0723941 1.5792855 -0.2355675 -1.5441504 -1.1107609 0.20655984 1.4825336 -1.5612737 3.9834144 1.638096 -0.7186096 1.9831771 1.8509649 -0.7506086 -2.1587808 4.4265084 0.24480937 -0.14576049 1.7427955 1.9317062 1.4984869 1.2685107 -0.08021966 -4.646331 3.3339303 -0.93097204 -0.96863693 2.0718734 2.4184494 3.5487735 1.4568458 -1.7707866 -0.015844036 -1.7372336
AADM -2.1965098 1.6616143 2.3219366 -2.8022542 -0.8131572 1.601088 1.5219214 0.77234423 0.19474672 0.42597058 3.8402984 2.405955 -2.2206979 -2.5477087 0.052655824 -0.34303316 -1.1383649 -1.0314013 1.4030627 1.8583506 -0.6881079 2.5518513 -0.3598578 -1.3750792 0.8648083 -6.091893 2.5724542 0.8328875 -0.28840253 0.53538775 0.042139318 1.0683957 0.28339985 -1.6561509 -1.3535919 -0.935752 2.2878268 -1.4083506 2.427265 -0.2542408 -2.1154552 2.0689125 1.1683961 -0.7094017 -1.2071512 3.106358 0.6502469 -2.3657863 0.47359836 1.084292 0.48842257 0.6947 0.16103733 -4.1413484 2.1299326 0.31637615 -0.81836706 0.1947705 1.4496096 1.387956 1.1242144 -2.7260423 -0.77936924 -2.3605132
AABM -0.558567 -0.52562267 -2.8364244 0.30118087 -0.3754486 1.8307067 -1.0599796 1.9582356 -0.23669262 -1.9261461 1.6574885 3.4162648 -2.3223224 0.5214925 1.0080415 -0.35859817 2.2034006 0.33583528 -0.7006534 0.47621074 0.14398485 -3.2611632 -0.90094113 1.8454266 -3.039546 -5.058491 -0.8687399 -0.38866106 1.8301514 -2.9851408 -1.3339254 -0.80909026 -3.5840106 -0.3866188 -1.1843235 2.8402662 1.0389365 -2.5920372 0.85416466 -0.9052162 0.75665385 -2.0743842 0.070985086 -0.38513803 -0.72224146 2.6909409 -0.615524 -1.5683345 0.46077213 -1.2999673 -0.07630952 3.0624764 -0.83759326 -0.26130775 2.1966953 -0.37728325 -2.4725673 1.2822891 3.1838665 0.29773867 0.5064119 0.9057723 0.34513152 -0.64353925
AABK 1.0831127 0.0113355005 -4.067219 -0.13334882 0.027628066 -0.9097709 -0.43057388 3.9475653 -0.4296349 -1.472612 -0.22173628 2.381368 0.1476921 0.27251464 1.2282531 -2.1174123 1.4809359 0.38413543 -2.1152346 -1.6843714 1.712938 -3.362637 -2.0347471 0.59001815 -2.4188697 -5.1808147 -0.78511685 1.92198 3.168376 -1.7217714 -0.40897605 -0.35277674 -4.0550084 -0.04703386 0.103830665 0.897487 1.667957 -3.5423646 2.116957 -0.9927001 0.45045266 -2.1721077 -0.21016526 1.3137609 -1.7397969 2.4794886 -1.3792195 -1.0128336 0.27058813 -0.84853935 -1.1412992 1.8927168 -1.9848362 0.2623467 1.9140075 -1.3810055 -2.5550714 1.2920369 2.1105962 -1.6304721 0.500054 -0.79389113 1.6865752 0.5006505
AAHF 0.9434111 -0.61872286 0.95630693 0.4469627 -3.3596087 1.7964801 -0.96490586 2.8669713 0.7553421 0.92134225 -2.7476315 3.503811 -1.1468548 -2.3912058 -3.7462032 0.42451742 3.0863116 -0.30551326 -0.7653954 -0.8914915 0.8910262 0.63790166 2.0716684 0.36109444 0.97199404 -2.1957953 -3.3748343 -1.351411 -0.7845892 2.2582142 2.8056002 -0.40226182 1.6724421 1.8832949 0.5322453 -0.21115509 -0.9033362 -2.7949693 -2.444313 2.4807444 -1.2698543 -0.654643 1.7666374 -2.1811132 0.85711753 3.8642151 -3.1948473 -0.26064157 0.45477313 2.703819 -5.1340613 -1.3089169 -2.6221547 -0.50315654 0.58865714 -1.5829225 0.79009736 -1.0189904 -3.7550423 2.4331837 -0.2964489 1.0746642 -1.7099769 0.7225694
ABBC 2.0532186 3.0027 -0.40972063 -0.7301758 1.8796124 1.9864812 3.286049 2.8309588 -0.6644219 -2.9584792 0.9348397 2.7746725 -2.8972754 -0.025961958 0.8065212 -0.9145416 1.9710226 -2.7008166 -1.4467869 -0.42925915 2.6869268 -0.8298624 -2.7930634 -0.1449751 -0.35132146 -1.0306686 -0.012093189 2.2183518 1.2475069 -1.3357857 1.2703583 0.5600263 -5.16166 -0.4236399 -1.0618213 3.205348 3.108557 -0.4908448 0.077639654 1.0460751 -0.20234248 0.8816722 -2.662367 2.573729 -1.0914594 0.595262 2.5505066 -0.5467462 2.1961575 -3.4046178 -1.3707052 0.73335934 -2.3489504 -1.2490958 4.0783625 -0.8900603 -0.094132215 0.58227795 1.7634871 -2.6732466 0.13034675 -1.8870717 0.9591367 0.7851695
ABZG -2.1747348 -0.98353803 -1.9086623 -0.939729 2.5279427 1.4390625 1.0605209 0.6661493 -1.549431 -1.3802502 -0.06722253 1.0363721 -1.2437465 2.9356012 -2.2831748 0.20661092 1.9173782 -1.163691 1.6174082 -1.9412955 2.160285 -0.6563331 0.9242911 -2.9399092 1.8246541 -3.9203527 -2.629011 3.8343031 0.32692632 3.798812 0.46627498 -1.3317866 -1.1461514 0.97906166 2.1771019 1.3430345 1.7299595 -1.1061059 -2.221652 1.8843298 -3.0083802 3.936898 -0.47568247 -1.1199079 0.77520996 4.122068 -1.3436941 -0.7557515 -1.3075489 1.7210685 2.502404 0.40108764 -0.9987102 1.0705191 0.8090684 -0.010420916 -2.5213633 1.2563255 -0.3820104 -0.5779219 1.3714062 -0.31810164 -0.08089761 3.5858517
ACIN -0.49998772 -1.4457579 -1.1006463 -2.1686158 -0.09594258 0.41461536 -0.7012401 0.24145441 0.63521385 -0.7356652 2.6227448 -2.4933856 -0.8274773 3.1825159 -0.9436192 -0.36055169 -1.3266163 -3.168527 1.1505306 0.7697017 -1.1764082 3.9593277 0.62680703 -1.506216 2.9080234 -1.926793 1.4980159 3.93993 -1.8778499 -0.85899127 1.3761088 0.89663327 -0.92393255 -0.4574963 -0.055665057 1.0324941 0.9454602 1.5199738 -3.8468525 1.5185668 -3.9746592 2.5272045 0.2826175 -1.0091083 1.6396346 -2.4977305 -0.8500116 2.0121872 1.143049 1.3591832 0.2817937 -4.1462994 0.79380506 1.86994 -0.08833614 -1.5850387 -0.5578529 5.0592484 -1.9669302 -0.6582885 1.3894868 1.8870145 -4.215849 -2.4033046
AATA 2.4760911 -0.16522004 -1.2422813 -4.091834 2.6288276 1.2225631 -0.5861694 2.903783 -1.5958222 0.11977179 3.0581226 0.6648511 -1.5698836 0.3141867 0.8322301 2.2640336 2.711862 -3.6488836 0.06654976 -1.2912314 1.966336 0.7265088 0.68283486 -0.70530975 1.6573912 -4.9300537 1.8592658 1.8420521 -1.9403801 0.27848536 0.69877887 -3.4202452 1.7314484 0.5442181 -0.97958595 5.0366154 -0.4306917 1.7436892 0.757736 0.6845057 -4.2232766 1.9684035 1.3648006 0.90298116 -0.75974077 0.029449604 1.1308278 2.426033 -1.2872152 -1.5964484 0.77565366 3.3950467 -0.04959471 -2.693578 0.740079 -2.8676462 1.5428135 1.9441947 -1.4102819 4.013146 0.33206162 2.2711556 -0.49235156 -3.0728843
ABLK -0.38736358 -4.1266613 1.0117131 -1.4944363 -1.9515387 -2.9775035 2.4260042 0.053989924 -1.0939122 0.060555395 -0.8713103 1.8383069 -1.7028036 0.29376385 -2.0921702 -0.28282905 -0.804196 -2.4051673 1.5232743 1.5792607 -1.1095375 2.0269587 2.1652477 -2.6765683 -1.6224608 -1.9682224 3.7057967 2.0011473 -1.5931869 -0.3555513 -0.1105323 1.2179114 0.41466346 2.8042247 -1.000617 4.1570873 -1.4906539 -2.3286502 -3.0708084 -1.7052213 -2.5706306 2.1548247 -0.24853165 -1.3492292 0.52854097 2.6775584 4.2439637 1.2884271 -0.9252592 -1.5574956 -2.1506083 -0.1674127 0.913017 -1.1639491 0.20419496 -0.29879916 1.8724582 0.30378866 1.2831231 1.2664838 0.77935636 -3.940115 3.0845127 -1.8236852
AASC 1.1386138 2.3605132 -1.8445607 1.6075279 -2.8154678 -3.6882513 -1.0107954 0.24473837 -2.139905 -1.0189254 0.9260338 1.3874751 1.8299787 1.0476526 0.753011 -0.5806671 2.8503706 -2.020974 -0.2888128 1.5317016 2.4306402 -0.4307757 -1.6125941 1.5486346 2.616977 -2.7597597 -0.45322505 0.8635724 -1.3547817 -0.48153213 2.045095 0.78365475 -0.9480307 2.753108 0.2074252 3.0496676 3.3223593 -0.30284652 -0.29500932 -1.0445303 -5.665177 3.6988828 -2.6241944 -1.9742504 0.52003103 3.1231747 -0.8513192 1.0982144 0.11398051 -1.1165868 -2.1153324 1.9393914 1.3581599 -1.2841412 -1.4833279 0.20160843 -0.68378764 -0.20497252 -1.4101447 -0.29016948 3.9663496 -4.6599474 -1.2731967 -3.2850528
ABAU -1.9238876 -1.2082973 1.6142398 2.1214101 -0.6014051 2.6361723 1.6192396 -1.0021713 -3.7864547 -2.7788389 1.5212874 -0.7608399 -1.7340356 1.0373282 -0.20796409 0.9600442 1.5905262 -2.4182975 -0.61072475 -0.15540414 2.4298685 -0.017128082 -1.5419153 2.5016425 0.6033091 -3.0573843 0.18757999 4.2721615 -2.0230446 -0.93364316 1.676427 1.4504831 -3.9554288 4.101249 -0.01233252 1.5378048 0.4347588 -3.899584 2.7437406 -2.2877502 -4.0125737 -2.1057072 0.6779472 -1.3269279 2.921626 -0.2172826 -2.0695758 0.38145894 0.5894813 -0.96340704 -2.929277 -3.2026112 -1.6812494 0.6507436 -0.25354552 1.8719105 -1.5109276 4.228007 -1.0077906 -1.8375638 -1.7924507 -1.9667283 -0.1254505 1.120257
AAFL -0.70886475 1.4429281 -0.5354736 -3.3027856 -2.7369764 1.3884494 1.5490861 1.8833447 0.72619504 1.1563269 0.844254 -1.4234722 0.17168978 -0.43744734 -1.6949276 -1.3210453 -0.94337213 2.5867832 0.22146505 -1.0451422 0.6637596 -0.15037674 0.30675974 2.4718506 -2.025408 -3.8613832 -0.84710836 2.911611 -2.7990313 -1.8293462 -0.80217844 4.6242137 -0.26390675 1.568515 -3.25131 1.647213 -1.2150317 2.198025 0.22138761 0.729647 -3.096147 0.86493146 -2.907077 2.0787075 2.0486872 3.4376962 -0.097433634 0.13061242 -2.189316 -3.726844 -3.846787 -3.052794 -2.2203405 3.0229487 1.2485967 0.2331537 0.43557417 3.0755312 0.53601235 2.6102471 -0.16515769 -2.8750887 0.58152896 0.6893145
ABQF 1.162964 -1.0550352 -1.5986675 1.6610546 2.3921201 3.305496 2.4864814 0.8828693 -0.40160814 1.8277653 -0.5600655 0.70566094 -1.0040619 -2.4795406 -0.65385973 -0.9338883 3.5410385 -0.1668134 -3.3608398 -1.8691764 -0.5199467 0.6561459 0.11671113 1.7861056 2.1536014 -5.5717907 2.1335146 1.4838662 -2.0103843 -0.9778546 -3.3510208 -2.3691738 0.16464877 0.3278488 -1.9822531 2.05802 -0.08819733 2.1928663 -2.480983 -0.39526206 -6.1807756 1.3638854 3.8489933 3.3575575 -0.07447843 2.270052 3.3929293 -0.33072963 -2.7083468 -0.9297151 0.09632357 -0.036992434 -0.749217 2.9886315 1.3607409 -0.38097408 0.30973086 2.720702 1.8156548 -1.2351483 -0.34470308 -2.0767183 0.7300745 1.2561954
ABOU -0.9076276 1.937368 0.69870406 1.9864246 -1.1251514 2.6530566 3.4972897 -2.0059905 -0.6784383 -1.6915759 0.5447339 0.0043218206 -1.4494218 2.9067342 -0.41543394 4.561259 3.9994473 1.9253936 -1.0771801 0.55059963 1.2929337 -1.0150747 2.9387228 -0.56795645 -2.8901436 -3.903755 3.0057025 0.124210276 1.9721415 -2.945992 -2.6758904 0.5653474 0.038926437 0.31531158 -1.2726481 1.930355 -2.6364205 -2.41175 -1.0850753 1.6147325 -4.4936476 1.3168128 1.3944906 -2.2466786 -2.2870965 2.312763 2.3654053 -0.04803284 -0.5437763 0.38656327 0.20175174 -1.862195 -0.24813752 -0.14103472 2.6874201 -1.3441592 -0.67264414 -0.71456796 -0.4895101 0.40354303 1.2290661 -3.2171926 -2.714525 -3.4248877
ABTO -3.6046114 1.1434575 -1.0415574 -1.1288701 0.9647159 -0.40022582 0.31831545 -0.83645964 0.38222635 -0.46526814 0.8248014 2.3004363 0.93664145 -1.8204225 0.4339985 1.3321799 1.3411989 -3.3254037 2.175629 -1.3604734 1.2596717 4.930098 0.38641343 -4.863084 0.0728142 -2.5143447 -0.19800743 2.069807 -2.7739856 -1.5057144 1.10334 2.8079815 -1.5951746 1.8455162 -0.31669763 4.796584 -0.96847534 -2.6189256 0.16953002 -3.1758637 -2.3243587 -1.0754663 0.121261865 0.90887654 0.9819277 1.5995425 -1.3021094 5.1099253 -0.88641816 -1.7237779 -3.4312842 2.4942548 0.6248544 -1.8084815 0.044926677 -2.7692442 -0.013079441 4.1305723 0.11852674 -0.67341113 3.0726435 -1.1381171 0.2659557 1.1490839
AAUE 0.3516849 0.7428757 -2.5320778 -0.35913408 -2.332935 -0.5019099 3.9984303 0.63265574 1.0339669 2.5172334 2.0752854 0.8750519 -2.6667683 2.8721943 -2.9684472 -2.4490154 2.853953 -3.5072112 2.3340054 -0.73954004 1.9491496 -0.0937169 1.1327691 -0.5951198 -1.462532 1.2045974 2.0297067 0.18494323 -1.5275252 1.2819697 -0.46125492 2.208976 -2.372185 -1.4236002 0.9291643 0.70714676 -2.7778215 0.6321072 -1.9420083 2.4364107 -1.831817 0.36930782 0.43022713 -4.1558123 -2.0851939 1.1538677 2.3059187 -1.9187429 -1.4311663 -3.638643 -1.9210051 -1.2748715 1.861016 1.3834296 2.344697 -3.2798648 0.08331363 3.9202738 -3.161948 -1.8063663 -0.28836468 -0.9938122 -0.7088737 -0.09966114
AAIX 1.872264 -2.5244086 0.26043913 -0.358853 1.0808942 0.44782087 3.9104495 1.8835896 -0.6414974 0.32572365 0.27046466 -0.17731711 1.0317694 0.31109315 -0.4908354 3.224883 2.7664273 -2.685058 0.22016132 4.1923904 -2.096536 -2.4950452 0.904137 -2.4101722 -0.7954213 -2.3587976 1.0519595 1.4704727 0.5239651 0.37816384 2.90915 0.76386726 -1.7201179 -0.14879714 1.2752242 1.0266653 -1.9869688 -1.9428498 -0.6640215 -1.1935774 -2.749463 4.0114584 0.9754299 2.7218182 1.9123766 3.247644 -1.5931355 -0.7353467 -0.15239832 -2.4202259 -3.158701 -1.9539111 -0.63768095 -0.41893768 2.787307 2.324242 -2.858661 3.7172577 -0.5602824 -2.54048 -2.9265885 -0.82631063 1.8990878 -1.5140774
ABLI -0.03937532 -2.1461692 -0.79100394 -1.4629855 3.9564943 1.7561514 2.8960853 -1.7235807 -1.96746 2.0399005 2.088464 -2.8169684 -1.7193253 1.1574476 0.18260942 1.0661361 3.9200222 -0.21339445 -0.6099998 -0.33895767 -0.08975582 3.1982818 2.7767065 0.3113392 0.75357825 -2.5863006 -0.9954846 -0.30297992 -2.6260297 -1.0366408 1.0881568 -0.08970336 0.80975527 2.2357252 -0.141054 5.2098846 -1.3792905 -1.7297765 -1.2512106 -1.2808497 -3.8503366 -1.4749659 -4.2937965 1.0418234 -0.10030435 0.6285247 3.3068542 -2.5948975 -2.1814928 -4.7630396 -2.1685975 -1.5099803 -3.642159 -0.16284327 1.5976409 2.9530156 2.2265043 3.601782 -1.3782554 -1.5442113 0.09038082 -0.21120538 -2.2139575 -3.126412
AARD 1.6219401 1.131114 -2.1314256 0.8337272 -1.5458027 0.11416082 1.3177414 -0.1071335 1.5289874 -0.099854834 1.954728 2.6752584 -1.9079218 2.0168033 -0.71655035 0.9038352 1.4664234 -0.357967 0.63649017 -0.33731884 0.6573253 0.026610365 0.09250516 -0.31816116 2.0396547 -3.551549 0.8962158 4.1845837 -2.3791232 -1.0858032 1.53556 -0.6402516 -0.6852828 3.3128784 -0.7616008 2.4876704 -0.13987206 0.7705991 2.8320076 -1.3829321 -2.10695 -0.371307 -3.4962673 1.6555282 -1.9665968 0.7205785 0.51348716 1.9356159 -2.3707983 -1.2281287 0.109872505 -2.4755251 2.0746498 -1.7848299 0.007942579 1.2464552 -2.326603 4.0322905 -6.3793874 2.9548538 -1.8360467 0.04008088 -1.7508911 -1.915882
ACGZ -0.71371365 -2.4310277 -0.44810864 -1.4534171 -1.7319914 3.8042035 1.9495786 1.3082246 1.6438355 2.0362356 -1.6717684 1.9142262 1.3136548 -0.5154599 -1.2282392 -0.4256424 1.8868706 -1.3663968 1.2839459 0.7999086 0.3984083 -0.8010538 -0.39093852 -1.7710575 0.3335332 -0.5135971 3.2423782 3.9503398 -0.72720635 -0.27073976 0.9137406 0.35496294 0.33805817 1.4017688 -2.8770661 3.8766737 -0.60348874 -0.8850328 -0.47643512 -1.1038933 -3.0876296 -0.64219195 1.3308465 -1.5348711 1.6873624 1.836787 4.092921 -2.3155808 -0.2790438 -0.41240582 -1.843061 1.9122914 -0.8440525 2.2416482 1.3863577 1.5590123 -0.8448345 0.80942863 -0.6697054 -1.7936548 -0.8131627 -2.7937562 -3.6547651 0.9651583
AAJG -1.4029855 -3.6009688 -0.8054094 -1.619675 -0.7780813 -1.7637391 0.9517092 -0.17267978 1.1852242 -0.57701826 -0.69130105 0.662312 1.0623364 0.18120718 -2.6866431 0.2155898 1.0685668 0.57999784 0.41866124 3.5328257 -0.681814 1.4877722 -1.6773751 2.4413393 -0.15027672 -3.5506568 -1.0542072 0.48644835 0.9351811 0.33789194 0.54118323 4.1963134 0.84749055 2.4304733 0.060972996 5.8999634 0.3933153 0.42510733 -2.8616097 -0.4333289 -5.66956 -1.1397778 -0.38806716 -0.5132789 -2.151425 -1.1619803 -0.27516076 0.8447398 -3.6670332 -3.5855129 1.6761916 -2.448408 -0.54704124 -0.18151563 0.07208075 -2.4253461 1.7822177 1.7760752 -1.0919236 -0.12917691 0.7531348 1.2250608 -0.3457479 1.4812069
AAUU -1.1554016 0.99100095 0.94694096 -3.4797494 -1.8593482 4.203466 1.4694977 -1.9242104 -0.8094437 0.78786373 2.0624197 -0.34368882 -0.9979146 -1.0326002 -2.5515068 0.1282633 3.9581218 0.018972922 4.099635 0.5346851 1.6747488 -2.3434582 2.1725554 -3.2466967 -0.0022868817 -1.3067392 -0.0021062593 2.0100396 -0.846302 -2.9012861 2.1906338 2.1390755 -2.9180617 -1.7321081 -2.135811 4.5888276 0.5323562 0.47796652 0.06524532 2.618935 -1.5416017 0.13023971 0.8953543 -1.8662552 -0.892602 2.4592798 1.2373092 1.9539248 -0.9618608 -2.5884166 0.42061377 0.52731425 -1.4361295 3.7191365 0.27786735 -1.8439928 -0.9799102 0.19412363 2.9795997 3.3354256 -0.95874053 -1.9276314 -2.692791 1.3606341
AAHT -0.78490186 3.2200322 -1.3836727 0.78216136 -1.3643061 0.56391746 -0.5792488 1.4195424 -1.613121 0.49761742 -2.046993 -1.005819 -0.62883663 -1.6086245 -0.64470273 1.7085614 -2.8804412 -3.4622228 -0.17348768 -1.4766942 -3.5519505 -0.30973554 -0.7786029 2.0070148 0.43880767 0.46816933 -1.4111919 -1.4485692 -2.377238 -3.6158698 -2.2890205 -1.5754119 0.6511887 -0.2599363 -0.0550701 1.6098619 -3.6015131 -1.1787018 3.673915 2.3745894 -0.972097 3.5990183 -2.2526474 -0.4081744 2.514839 3.5946238 0.5661128 3.3153615 1.8488464 0.51026124 2.5809224 1.7318681 -5.9431996 0.9233542 4.0681167 -0.30450255 -0.87961376 3.1713932 3.6988497 0.11162877 2.2829018 -1.8522937 -0.94198596 2.174619
AAQR -0.22478405 0.35751086 -2.0460615 0.34513682 -1.4164557 0.978046 0.35466063 -1.3988131 -0.81279355 -1.8733822 -2.791938 0.11142489 0.42925403 1.4471713 -1.425047 0.1944993 3.512297 -3.6953251 -1.4951718 1.3279375 1.0468497 -1.3474853 0.53605026 1.4216726 1.0255109 -1.520909 -0.3393798 1.4217592 -0.7554789 -2.176005 1.462162 2.8990786 -1.6085684 3.6104958 1.2735751 1.1346387 -2.902957 -0.57220554 -1.734004 1.2857985 -4.3365655 1.7070771 2.1542916 -0.17338982 -0.7771305 -1.5315242 1.3794994 -0.16472438 1.1424395 0.17831478 -0.78601635 1.8392254 0.37168938 0.10468361 -0.9668989 -1.9368738 -2.0315695 3.7963603 0.8730131 -2.363479 1.9827429 -2.621409 0.6087961 1.7997357
ABHG -1.0710212 4.0755267 -1.1507387 -0.22564289 0.5131737 3.990264 1.311923 -0.94667095 0.057042547 0.85666585 -1.3008475 -1.2055706 2.059168 1.0630971 -0.21714884 1.0292429 1.3625109 0.6496559 0.3187093 -0.047402956 -1.4698178 -0.18034692 -0.9996197 0.92116195 -2.5426698 2.9851067 -0.031280495 3.0294216 -1.3611084 -3.232382 -0.9055886 -1.8035766 -1.6212332 -1.4352146 -1.3649517 5.8413787 2.6824932 -1.6311255 2.7188125 0.010692139 0.95664907 1.3813648 2.4030511 -0.8024765 0.15912087 2.7306569 0.74270135 2.178499 -1.033776 0.074697256 -1.0684874 -0.16794196 1.697132 -1.1142546 0.21076743 -2.4027693 1.293273 4.2405105 -2.3240333 2.016503 -1.6273224 1.1194131 -0.5593983 -1.1401483
ACIH -1.6772494 -2.8460796 -2.707071 -1.7056562 0.4433021 0.6527674 -0.84870243 -1.177399 2.3645377 -0.52824885 1.5088835 -1.8756287 -1.6915479 2.6272755 -1.0650862 -0.3664686 0.7552535 -0.93635964 -0.2099016 1.416179 0.21028264 2.3866186 -0.28157842 -0.6816572 2.9662738 -3.4839058 2.3916428 3.4268255 -0.1994324 -3.8508606 0.34396523 0.35963133 -0.15172452 0.5475375 0.44793922 -0.60678726 1.1145363 2.2682104 -2.0981688 0.37620753 -3.450852 0.71570045 1.892709 0.012975731 1.0560925 -1.3031988 -1.5070337 2.2025561 1.6939852 0.19912188 -1.0566349 -3.779633 -1.2330685 2.35073 -1.6462837 -0.16533707 -2.0874276 0.9386946 -1.1545768 -0.21324901 2.9879346 3.0736015 -3.6812592 -0.56354654
AAHV 1.0216048 1.7819983 -1.2467134 1.3199198 -1.2001221 -0.64418113 0.13582912 1.3558911 -0.18037245 0.47751302 -1.9174727 -2.6269972 -0.6458528 -2.9650028 0.36542863 1.4166567 0.7992725 -2.8418372 -1.0905987 -2.341997 -1.0133389 -3.4592407 0.4355004 2.697646 0.66557366 1.1124823 -3.4573486 2.1492367 -0.80081594 -3.5189376 0.8084785 -1.5575168 -0.29108283 -0.86523056 -2.1202967 3.2925472 -2.6767461 -1.4824152 0.82899046 1.9626935 -1.3069795 3.935156 -0.58046645 0.43293828 1.940963 2.8987763 -0.6016409 3.8923986 1.6699501 -0.053979684 1.2513417 0.70180845 -3.8921602 2.7671216 2.4174101 1.0011107 0.05880611 4.0814896 3.12121 -1.1539844 1.9844981 -1.9432608 -2.3756824 0.7803234
AAJN 2.647772 -1.819881 -0.28709757 1.4572799 -2.5375798 3.5272775 1.8850553 -0.85176116 -2.5595715 1.5670406 -2.8444817 2.7089038 0.8730666 0.39029217 -2.5586421 -3.520694 1.8466593 1.378692 -0.24421012 3.5095017 -3.692391 -2.0521 1.119033 -0.64962757 1.0769182 -3.2765784 1.4711939 1.3468962 3.3156493 0.7784127 3.5084567 3.0354216 -2.170754 1.1108806 -1.3527211 2.3918936 1.0795088 -0.9876169 -0.100079775 -3.3092377 -4.9234033 0.2909563 -0.5262063 1.5495607 0.021261685 -0.75713277 0.1785566 0.30429226 -0.2845963 0.06810988 -0.34667766 -1.530418 0.022362206 1.5055395 -1.5947139 0.37475175 -2.5308182 1.6829185 -0.84695446 1.3375987 0.6766009 -2.8804243 -1.5568602 -2.5610607
ABNT -2.3023088 -1.3021412 -2.789478 -0.80894333 0.9378385 1.792412 2.6456583 2.4280758 -2.3507664 1.5792928 1.3719367 1.6259278 2.2003574 0.3330563 -1.1028949 -0.72031254 1.353177 -2.3773782 -0.3178182 2.4638774 1.9197958 1.2614412 0.2510779 0.22307552 1.9189621 -2.7565875 -2.3731015 4.361094 0.11754293 0.89439285 -2.1946628 0.5358772 -1.118665 -1.2716357 2.036176 3.3266478 -0.33235213 -3.9434152 1.366102 -0.4663835 -1.3868065 0.6901286 -1.238971 -2.1018074 0.20131986 -0.9635439 -1.2113894 0.11822893 -0.56373453 -3.9601068 2.1052375 0.9547254 0.5096586 -1.6858329 2.017643 -3.479776 0.55971545 2.7365344 -4.927779 -1.9514413 2.2025776 1.4993521 -3.424404 1.3350569
ABBJ 1.5648074 -0.9048853 -2.0350225 -0.17726627 0.14584753 4.527677 0.9144701 3.5800457 -0.04597197 1.5542359 0.75120366 -1.5628864 0.6679241 1.3878022 -1.9262534 1.9911069 0.3380273 -0.37597927 0.039171766 -1.6438409 1.5869948 0.8326291 0.965081 -1.2025235 -1.8257569 -2.2255313 2.909686 1.6811781 -2.7192788 0.4391957 2.93501 -0.6591338 -1.6413207 1.5892079 0.34487095 6.0679255 -1.3594583 0.45741662 -3.8907063 1.7875639 -4.4148955 2.9383914 -2.2619495 2.6618974 1.4150248 -1.728833 2.526631 1.1291134 -0.11234872 -2.9381053 -1.8379002 1.138378 1.8547409 -0.6136223 0.6354291 1.2879994 -1.8129221 2.6128285 3.230366 0.748627 0.8484812 -2.0171738 -0.9924766 -1.6287867
AAYS -1.1511152 -1.0989809 0.54192823 -2.3160317 0.35488304 1.1625069 2.3947413 0.72447836 1.4334637 0.48413193 3.3405395 3.2167459 3.4688246 0.5395184 -1.7193053 -1.4924917 0.11735532 -1.6612009 2.3341227 1.3550535 2.0512288 -0.5607244 -2.0710194 1.8308786 -2.6458447 -2.7736547 2.077619 -0.73808783 -2.6867003 -3.168279 2.2976654 0.24009643 -2.9427788 -3.898745 -2.1731136 4.040901 -1.9790876 0.15647537 -2.7248836 -0.49122757 -2.9366977 1.8425193 -1.9288566 -2.3619924 -0.9923903 0.6221881 2.6639903 0.17417638 -0.44648182 -2.0346467 3.235082 -1.8804364 -1.1235893 -1.3504658 0.77062243 -0.2608639 -4.055642 3.0659418 2.220332 -3.9372008 -1.206539 -4.363531 -1.5778326 -1.2398424
ABCB 1.7020233 0.7225809 3.2164366 0.9521405 -2.1371849 2.0947933 1.6316564 0.622362 2.7527654 1.4436738 -1.4437917 2.6476529 -0.97920847 -0.8416301 0.7376953 1.5561439 4.50131 -1.1036688 0.9470192 -0.06811175 1.3327678 2.765 2.7388122 0.4619378 -0.38387805 -0.63453525 -2.785983 -0.63582134 -2.3537724 0.120415576 -0.9145096 -1.4371845 -0.16024065 2.3076253 1.7059729 2.6600363 -4.0376377 -4.760877 2.1929722 0.18061359 0.504289 -0.7913959 1.3290075 -2.1509361 -2.2801335 2.3242369 -0.20385315 0.859064 -2.9047117 0.97187406 -3.213136 -0.82441664 -1.4969808 -1.2329366 2.9960363 0.07469169 -1.037632 0.8965025 -0.30514547 -1.0460964 -0.15737326 2.008985 -3.7807033 3.1404138
AADD 0.6612603 0.9096289 -1.3235842 -0.35739112 -2.3559139 0.19968407 2.4601116 0.077112384 2.7108376 -1.268369 -0.0806215 0.095774785 -1.041819 -0.92940843 -0.10849814 -1.5711946 2.4348476 -2.0216079 1.0652175 0.4084401 1.2315557 2.114313 1.3360771 0.46791092 -3.5717828 -1.514082 2.1268477 1.5214819 0.052273057 -2.7771003 2.8960047 1.7307225 -1.5103071 2.4415288 -0.44909108 3.390825 0.6451569 -2.1589959 -1.2277763 -0.20834483 -1.5182406 -0.72897476 0.64726156 0.13276735 1.0217779 -0.6674875 -1.0230246 0.2220909 -0.3934387 -3.4751194 -2.052809 0.54965335 -1.1604192 1.4350855 2.4025803 1.2191337 -2.0921266 5.006819 -0.76376903 0.7844614 -0.45043707 0.98719424 -0.61364496 -6.74457
ABKS -0.2261942 -0.47326958 -1.1950179 0.0068520545 -1.660576 2.3941476 1.8816888 0.46369213 0.95338506 1.2748638 2.8194056 1.4098918 -0.43499067 1.8716136 -0.24187961 -2.8287444 0.7910434 -3.8877187 -0.37179193 2.07858 0.27229813 -0.718544 -0.65781707 -1.2028158 1.3862321 -1.633013 -1.0545644 2.9542806 -1.7650377 -0.32332292 0.2659135 -1.8646817 1.5040349 2.5142808 -1.364897 5.0614357 1.3500737 -2.7567067 0.29849088 -3.8616047 -2.402882 1.4429358 1.0073065 1.4633723 -1.1521496 0.7299807 2.8671858 0.3768586 -2.6212401 1.8468578 -0.01851514 -3.8970509 -0.42066148 -2.1400158 -0.17042054 -0.9098457 -0.3220758 4.301767 1.6003484 2.291313 4.06637 0.1501137 -0.38840505 -1.7281775
AACX 0.28430998 0.3219308 -1.642694 0.7926806 -3.0750108 -0.33999953 2.178807 0.10648917 0.6433987 -1.6930565 0.686379 -1.6568233 2.2978387 -0.65068555 0.11607861 -1.11435 -2.097063 -1.956213 1.4272346 2.741595 -0.5945502 -1.7932247 -0.81864136 1.607617 -2.4250205 -4.980476 0.5392717 2.1796148 -0.49852252 1.5777204 1.9569232 0.5496199 0.62282735 -0.9372595 -2.1280003 2.879624 -0.78046125 -3.6940057 0.41959494 -1.1204327 -4.691299 1.1921011 1.079292 -1.5494404 0.9248236 0.274485 0.04997349 3.1965644 2.004779 -1.8711983 -3.7976503 -0.894506 -0.6225909 1.2558054 -0.71361893 -2.6942575 -1.4065226 1.1438171 -0.09567101 -1.0156708 -0.62473905 -2.067262 0.81438506 -1.7396959
ACGX -0.72285867 -1.8873019 -2.519459 -1.4177567 1.5884295 -0.011879484 -0.17096443 0.6584443 3.1528609 -0.22167127 1.9408009 -0.17792834 -3.2565565 2.4211254 -2.878088 -1.5036255 3.1210942 -0.29369566 -0.8584894 -0.8828377 0.8837335 4.0500298 -0.24591136 -1.1543051 2.583181 -3.496563 2.9313767 3.283278 0.4492391 -3.8553925 0.09342213 0.48811084 -0.8497978 -0.38476378 1.2661082 -1.4872258 -0.16795155 1.8351921 -2.1073792 1.6882693 -2.9488938 0.21985435 1.9512656 -0.51259756 0.010918311 -0.5506224 -0.29122514 2.5158257 0.5107024 1.8067415 -0.8272168 -2.4166965 -1.3463749 0.6975328 -1.3612174 -1.2684413 -3.6945283 0.80320287 0.7224682 1.9948034 2.735168 1.9535373 -2.6447039 -0.39766055
ABCW -6.0097404 0.3961037 0.21041448 -0.79535335 -0.58613735 1.1890312 2.5544567 -2.967658 2.7584414 0.46465662 -3.223184 -1.2013903 -0.38752988 2.0621061 1.5430259 0.57607186 3.5348961 3.4846685 -1.504917 0.5641931 -1.0671177 -4.0508204 2.0970156 0.6983098 2.746752 2.2969568 0.8646604 2.327853 -3.2239747 -5.3210406 0.40251675 -1.3641757 -1.5557107 -4.185267 1.3249294 5.283758 1.0555227 0.6946691 -0.15975988 1.8316405 2.6356685 -0.6080625 2.486224 0.33335114 -1.0351626 1.214951 0.011978015 -0.9156491 -0.92137825 0.06508182 0.40324473 1.0674795 3.0533874 -2.0983338 0.93065935 -1.7051947 0.8935178 3.1518023 -3.543997 2.3330815 1.8111559 2.284494 1.2588515 0.38013643
ABLA -0.25102222 -1.0999534 -2.0376396 -0.37030336 -4.279567 0.5954054 2.2239397 -1.2207261 -1.0699036 -0.332255 -1.6732346 0.6298504 2.9267945 -0.45597953 -3.7519279 0.08949838 1.4087712 -3.672351 1.4371251 2.0089471 1.2165549 2.455004 -1.8847536 1.424228 0.0925842 -6.785865 0.06524244 2.2536488 -1.396305 -2.5646913 1.6684041 -1.2890854 0.55737364 0.37811723 -2.2655277 2.1382651 1.8381064 -0.13230099 0.57571197 0.9197592 -2.7432451 -1.3965802 3.8053832 1.1514289 1.9641157 0.3709678 -1.4279153 -0.66772366 -1.3343792 -1.8837141 -0.069773786 3.135305 0.7966527 -0.38940126 0.7249053 -0.953119 -1.0749995 1.0302444 -0.65777534 2.9118927 -1.7200391 -0.55499274 0.51673657 0.5847683
ACLK -0.26284 -0.30874696 -1.6641849 -4.6052217 -2.5145693 -0.54911184 0.9794325 -0.35031953 3.340728 -2.610978 0.13738811 0.22247703 1.5026329 -1.6087313 -1.6228814 -1.631892 2.8360722 0.86043453 1.9474707 -1.0008681 -0.6540803 0.76961535 1.4795876 -0.37321085 -0.6284608 -4.3105183 -1.9879035 4.385693 0.3237484 -0.7972574 -0.9496277 -1.1390737 -0.4856082 -0.79865205 0.6685382 4.347087 -0.68997866 1.3130358 0.10894308 -1.4698414 -1.8825026 1.7616155 -3.0559464 -1.4348022 -2.8432553 1.9515017 1.9370775 -1.595698 0.29029998 -1.6705217 -1.6446697 -1.1340333 -3.1772904 -1.9991632 1.2135744 -0.3132766 -3.2538996 2.1974945 -0.663007 -0.3977779 -0.9495185 -0.3530081 -0.7235197 1.5662414
ABRH 0.26718605 1.0425129 -3.3803678 1.8641297 -2.6046484 0.13755338 0.22566935 2.561117 -0.39388967 -2.1624784 0.2973421 -0.21686932 -1.1055473 0.9215503 2.7103767 0.4225133 2.250427 -0.45502594 2.1405714 3.422722 -1.3608665 -0.35902014 -2.2076035 -2.4951406 0.77896154 -3.1862793 3.6944962 2.9319537 -1.1046162 -2.246199 0.03597361 2.9023676 -0.009821201 2.6363919 0.49541804 2.2676356 -1.4945486 0.342333 1.0187867 -0.5963384 -0.6284131 0.021608368 2.2973027 -0.6396176 -2.4542916 1.2191375 -0.55544716 -3.4313502 -2.973309 -1.297367 0.21265528 -1.8975059 -3.7434394 -2.449605 1.4125825 -2.6321797 -0.6198214 1.4056189 -0.025596887 -0.18273778 1.3169228 1.1467052 -0.21274082 -0.37785265
ABGB 3.2128077 -1.3047428 -1.6883144 0.99605125 -0.58750963 1.8599355 -2.388494 4.520048 2.0222878 -0.39934608 -0.778439 -2.2807977 -4.9036884 0.13788992 -1.3798958 2.1409225 1.1824756 -0.85102266 2.8537664 0.32522327 -0.120716415 -1.9092722 -1.2679987 -2.8612397 -0.59312475 -2.4959543 -1.0521628 -1.3132877 -1.3127004 0.90573335 -1.6091001 0.40098077 -2.5213377 -1.9708323 -2.7930808 1.1623259 1.9003763 0.16883105 0.2088673 0.65664583 -2.0723073 1.1713829 -0.4417586 0.55628985 -0.48336488 2.8189003 -1.0032955 1.8504721 -2.7216783 -0.44564426 -2.6695077 1.5951918 -2.468121 2.4030726 2.570794 -1.5888638 0.6278949 2.3883953 -2.5263712 0.16104479 0.14818539 -1.2184303 -1.1093649 -3.212306
ABYC 1.800145 0.41408977 -2.2705817 -1.0677507 0.8696673 3.4212425 1.9119202 -3.8609788 0.15856522 -1.3314998 2.5135806 1.6483201 1.1653541 -0.50503385 -2.4738705 -1.9506174 -0.94104666 -1.224155 0.14066038 0.39464158 0.08059484 0.043257203 0.55346334 -0.36054924 -1.1515491 -5.3841906 1.9814368 5.033649 -1.3614229 -0.9917951 -0.6276816 1.0698898 -3.2259536 0.61808854 0.24713139 3.3361104 0.58021736 -0.91835916 -0.93410265 3.3439481 0.8013582 -1.93941 1.5427738 -1.7275641 -2.0344224 -0.4479078 4.870129 -0.17655306 0.38037392 -2.2447402 0.9234994 -0.31788015 0.6923005 -0.5836735 -1.1675802 -2.0183122 -1.2570469 1.4094156 -0.43210503 -0.42343384 2.1006458 -0.4299046 0.057299756 0.4751496
AAWR -2.2761326 0.9160377 -2.5927007 -1.7214221 -2.2913098 -0.64983904 -1.593454 -1.9219507 -3.4238617 -0.71652764 2.5578954 1.3888733 3.263069 -1.5033935 -1.6383423 -1.2390256 2.551899 -2.8964615 -0.92158175 3.9081953 -0.71560735 -1.116255 0.48821396 -0.51949763 -1.2007569 -3.3833935 0.42438227 1.5014573 1.0361567 1.2183958 2.0944355 3.2677672 -0.18244794 1.6201768 -1.6146433 0.73255295 -3.0820978 -1.7803285 2.4192686 -1.7561247 -3.3787172 2.4571762 1.4515635 -1.3070998 -0.4079926 1.754674 -2.119141 0.9519388 -1.0876299 -0.9117142 1.2118253 0.9867945 -2.817647 -2.6571035 0.8322575 -3.3390815 -3.3864946 1.6352383 -0.0045161936 0.07791838 -0.97717315 0.49822482 -2.0558012 -0.73612845
ABXQ -3.2084527 0.7650039 -3.7150571 -0.9249544 0.20659721 -0.9921312 2.6875129 -0.080685295 -0.49845058 -0.071718924 0.7369651 -1.3453038 0.33445114 -0.081667624 -1.4750836 -0.48133653 3.214874 -0.82524234 0.7094231 0.5606618 1.1651102 -2.4291487 0.9348848 3.0307758 -1.2117058 -3.8753846 0.50560254 1.2350866 1.6668196 2.8295348 0.23176531 1.9034973 -0.14479424 -0.6186283 -1.9498627 3.0702736 0.8307775 -0.9974821 1.4806232 0.63348335 -4.0532117 2.6171849 0.0058288495 -0.046777148 0.23437832 1.6352757 2.7234263 0.67911875 -3.7488132 -1.3718811 -1.8734938 0.82807016 1.5829909 -3.5389237 -0.2539146 -0.05988239 -1.289349 -0.030814249 1.9845711 -2.7794588 2.0352626 -2.4216056 -0.52776474 2.222921
AACO -0.39636937 0.36089727 1.0693774 -3.1477914 -4.9549327 0.3441224 2.7641459 2.2908995 -2.7098157 -0.33325922 -2.5004013 -2.1894104 -0.34145993 -0.31058505 2.251575 -1.2665746 0.10970883 0.22496282 2.9151332 2.3397496 -0.16739334 0.028669247 -0.054071777 -0.4583566 -2.4848516 -3.6095884 -0.8941646 2.2003715 -0.6824392 -0.47331074 -0.3582498 0.32986966 -2.5686572 3.5259717 -1.4866015 3.9702544 -0.11268897 -0.8870055 0.7211697 -2.5916626 -3.4738152 2.122394 2.0879653 -0.85997725 0.6811142 2.2016852 -0.2232869 -1.6241982 1.6209172 -1.9455651 -2.151245 1.0463045 0.13963825 -2.2198522 -0.06476569 -2.2152803 0.46906817 -0.6250714 1.299581 1.0640625 2.7972286 2.4825785 -0.06827296 0.87729234
ACNE 3.3471687 1.6798298 -1.7541627 -0.9684133 -1.149091 0.40906155 0.45690563 -0.31932425 0.3366224 0.96329474 -0.08925907 2.748439 -1.2196914 0.93279195 0.21175599 -2.1202722 2.1940365 -2.4164925 3.770782 -0.590015 -0.3296938 2.9955788 -1.6861302 -0.14148137 -0.6476392 0.59693813 2.1441405 0.7878434 -1.4557567 -1.0806985 0.31910428 2.3370447 -3.7420816 -0.04831156 -2.03453 2.9688737 1.5682575 -2.9997437 -2.1577642 0.39967772 -7.1442575 -0.5494032 -0.45400757 -1.0606697 -0.85701483 1.4905862 1.4209771 -0.122890815 0.045872975 -1.3083339 -2.6088262 3.68562 1.353682 -0.6616062 2.8248277 -0.72670764 -0.41573367 -0.84886855 0.91428894 3.09312 -0.41806006 0.8692503 0.3847681 -1.6152685
ABLE -0.11323481 -0.13249576 0.8852494 -1.1715012 -0.5738693 1.1859224 3.666086 -0.19979295 1.4160371 2.5919127 -0.055752218 1.3859987 -1.8770386 -1.3042006 -1.0045544 4.78035 2.883623 0.27272317 1.2769529 1.6386987 1.8750838 -0.6082172 2.1019135 1.1097519 -0.14165469 -2.5989764 0.5096052 1.079237 -1.5592204 2.259586 -1.2470582 0.6901262 -1.0148809 3.093048 -2.8164337 2.1034095 -0.85098857 -0.6671774 0.38332668 0.9724598 -4.7936683 3.191043 -1.0458297 -0.33374766 2.1547728 0.7645142 0.25006136 -0.063932456 1.3648113 -1.1183746 -1.5343342 0.91557574 0.10886872 1.7550044 -2.0377011 3.3848755 -0.75906456 0.81334966 -3.8300188 0.95734465 3.6515014 1.3931328 -0.7474687 -1.1628734
ABZN -1.7286173 1.644887 0.85375273 -0.70497257 -0.15329932 -2.0849988 2.8087957 2.370137 -1.18498 -1.4384097 1.3548034 4.922469 -0.48568115 0.90962565 -0.44907197 0.9445681 2.738717 -1.9243681 2.915827 1.205502 2.9528666 -2.135642 -0.74088806 -2.216473 0.7582427 -1.1847351 0.26356965 0.356007 -1.0431713 -1.5182085 1.4181284 0.7017186 2.5762937 0.30159244 -0.44406793 4.182648 -2.237654 -2.0997827 -3.3337142 0.33803332 -2.9807444 1.5352906 -1.56539 0.065158576 -3.058746 -0.019621005 3.7820723 0.105982244 -0.7896061 0.7483764 -2.1502883 -0.066626824 -1.5940155 0.06561979 -0.3736406 -2.537049 -2.0553207 5.037969 1.6853037 -1.6402249 0.71977246 -1.1971362 -4.189907 0.7643021
ABWG -1.0017596 1.2608194 -0.6926478 1.0837804 0.33536893 0.7908503 0.08139948 0.9278027 0.15792547 2.4320567 -1.6566863 1.1996219 2.5972247 1.8907099 1.1233879 -2.42002 2.5635765 -3.0964282 -0.568232 2.23621 2.5033927 0.28830904 0.7979099 -2.3124235 -0.38583928 -2.3178637 -0.0028945534 1.9330567 -2.5930805 -1.4041349 -0.42622757 2.2864852 -1.1410547 1.8648993 -2.9091587 0.16822554 0.25362632 0.371517 -0.6189909 1.1423621 -2.1575646 0.96390784 2.7523093 1.3413785 -1.2431209 1.5992398 1.1244396 1.8384193 0.9875267 -4.173976 1.1384021 2.1955066 -0.88537735 -4.3327656 0.8660726 1.5178845 -4.3932214 -0.16858369 -0.8453869 2.4532232 1.6613898 -4.0538273 -0.91501445 0.072255135
AAJA 0.29443038 0.27134565 -0.927692 -1.4186265 -3.0485928 2.5802588 0.80799097 -1.921183 -0.26752636 2.1412845 -2.591621 0.2777223 -0.087202504 -1.2348317 -1.2933499 -0.91707045 1.3159494 -0.32709992 -1.5824084 0.4062544 1.9108047 -1.389779 -1.123692 0.93744004 2.1402767 -5.1267133 1.9588617 2.400592 -0.5508471 0.65510964 1.6007559 2.8591092 -1.2016748 -0.16247566 -1.4790802 1.1355479 -1.6001742 -2.1404448 1.2751069 1.3621222 -4.9230914 3.607447 -1.2551054 1.8918847 1.4834758 -0.46661195 0.15584543 1.6865863 1.4592159 -4.32588 -1.9890534 0.37332946 1.5063883 1.5552632 0.5015793 -1.0938686 0.6914245 1.964952 1.5009958 -1.5925742 -2.8095682 -1.1392409 0.08847057 5.098792
AAFG 0.08551468 1.7655135 1.5405244 0.09494229 0.49624467 3.218645 0.13941322 1.6781278 0.7326034 -1.4376156 -0.10730712 1.0442768 -0.0012505484 -0.1559294 1.9941701 -2.5018704 -0.4435427 -2.6338673 -1.5792263 1.456899 1.636262 -2.362904 1.4674625 0.17299348 2.0831115 -2.2817655 0.22108656 -0.26318976 -0.0693943 0.36232632 1.2299283 2.432657 -4.670733 -0.2153932 3.2000625 4.351778 -1.7017859 0.39399278 -3.1961124 -3.1625714 -1.7156137 2.7215984 0.19098054 0.20390876 0.96552956 2.9142842 3.1755702 -2.833623 -0.4874754 -0.9040305 -0.55530465 -0.5741817 0.11246348 3.827674 0.8362201 -0.834193 -1.2715093 3.7856932 1.0309212 0.21684474 1.5596149 -3.4049973 -3.583199 -1.7584265
ABKU -0.23805521 2.3701465 -0.5051583 -3.6029606 0.9253664 1.3010201 -0.24938488 0.40914136 0.3448493 -0.21600384 -0.8585446 2.757473 -0.14224243 1.2405322 -1.6618845 1.9352883 1.9457315 1.3632491 1.579442 -0.14051887 4.020971 1.3848584 0.82471895 -0.3644007 0.96438867 -4.7466545 1.335287 1.9915318 -0.9447917 0.16015211 -1.5643051 -1.0583321 -4.4554806 0.54675055 -0.4313278 4.3128695 -2.184501 -1.5786481 -2.8157237 -2.9854784 -3.0105808 -1.6000822 -1.6147028 -1.0438682 -3.1038606 -0.81740606 2.4194224 -0.4812368 -0.42736953 -0.4513202 -2.3895435 1.4069765 3.9786217 -0.40788516 1.906644 -1.4593774 -0.8199267 1.8043889 -2.590232 -1.5694702 0.32598785 -2.1297603 0.559383 0.3290091
ABPW 1.1126847 0.7674657 0.5619546 -0.5433669 -1.7654828 -1.0538987 4.102718 -1.812951 0.56911874 0.8448861 2.4237766 0.50205046 -3.829218 2.3079941 -2.1894217 -0.3705414 2.713549 -0.45555702 2.6048422 0.9197192 0.59789854 -1.5000169 0.55244035 2.2659683 0.46946618 -5.5725183 0.7212725 0.44369978 2.5867398 1.1034408 -2.2640414 0.7419994 -0.22272447 -0.47712415 1.8192141 3.307918 1.0955682 -0.2374295 -0.18173242 -2.2645855 -2.118194 1.5496699 -0.3365827 1.3620985 -0.6596452 4.0152326 1.192307 1.476277 0.13805863 -2.862674 -2.463834 -3.0139368 2.057197 2.4047778 -1.9395884 -1.1831311 2.3111835 3.0012572 1.8156846 -0.07986031 -1.5268815 -1.4430097 -0.8442222 -1.7680182
AAUK 2.0774744 0.6342752 0.820376 -1.2795235 -3.432709 1.3934556 2.986992 2.9186192 0.055106796 2.9453878 -0.8364813 -0.5847294 1.3873883 3.9301429 -1.9502083 -0.956985 2.6835015 -1.2858729 2.7647762 0.009274338 2.6025639 -1.5992254 0.10985878 2.093229 0.78681624 -1.0538075 -1.8976856 4.119798 1.346255 -2.1879036 1.0971588 2.9530296 1.5812714 0.34056878 0.93396497 4.323795 0.75438666 -0.7145031 -1.4418458 -1.1302892 -2.3281682 0.7300599 -3.329772 0.18339112 2.2559476 2.1765788 0.8271864 0.23521641 -1.3599472 -2.668535 2.2251918 -0.8095778 1.5713601 3.8999853 -0.626428 0.8976053 -0.8042786 0.12887245 -3.2840657 -1.1252536 1.211254 -1.272254 -2.341591 0.14865218
AADT 0.566104 2.673368 -2.7509487 1.2736368 -3.4374063 0.11610757 -0.2188358 -1.6193337 0.8362751 -1.007462 -0.7454599 0.8090609 -0.36156198 -3.1268806 0.46320477 -0.41490266 -1.4225203 -3.6032045 1.7133802 0.62524813 -3.4180152 0.5358288 -1.3332427 2.126151 -0.6574864 0.5641066 -1.4370102 -0.6268117 -1.8223164 -2.777776 -1.4462048 -2.1100023 -0.4791898 0.76825243 -0.06917775 2.009515 -4.4299436 -0.49740297 0.0091106575 0.59003043 -2.8420458 0.4668872 -0.88677686 -0.7502959 -0.37552783 1.1936612 -0.32866526 1.9113603 -0.3229167 -0.890935 2.3469017 0.096849225 -3.6304884 0.5441278 4.4723625 -2.587968 -1.034356 1.9342736 -0.6870525 -0.5004025 2.0019693 -1.866546 1.1415465 2.6148107
AAHB 1.4030395 -1.0966296 -0.2948062 -2.617365 3.5405753 2.76189 -1.6268215 0.21321474 0.04482665 3.002739 -1.2218223 2.2185714 -2.4212267 4.3606534 3.1366603 -0.888286 1.9238338 0.6339648 -0.03931477 1.4950597 0.7458546 -0.52386224 -2.6084747 0.32617795 1.0917293 -1.5943291 0.59185433 2.4766862 -0.32693383 -1.8679923 1.7924402 -0.21813244 2.037941 1.5125033 -0.6232008 2.5460243 -1.085177 -4.0397987 -0.32371986 0.36323512 -0.25327468 1.4069414 -1.3247392 0.92276126 -2.0787537 3.3869755 -0.53549576 0.23533483 -0.9160578 -1.3824317 -0.39601666 0.8146323 -2.0436296 2.9641552 -3.1794922 0.024159847 -1.6708696 1.9838128 -0.6279777 1.1030161 -0.47362486 0.6424053 1.08027 -0.32954374
AADR -1.036767 -0.09748385 -0.89490634 -1.7149943 -2.6174283 -1.7409267 1.3032911 1.9007293 0.3863997 -1.6726279 -0.65158224 1.2495036 0.12310147 -1.9919487 -3.5157375 -1.0776798 -1.9352434 -2.2809591 -0.32352898 -0.16619413 2.2014022 -2.32649 -0.8886161 1.7710544 0.015060705 -2.331752 3.6560013 2.1635702 1.9298451 -2.3121848 -0.8860438 1.7865311 -2.3350527 0.67140365 0.70953524 2.863696 -0.60561955 0.7769763 -1.9523251 1.6289892 -4.9658585 0.93551815 0.58371496 -3.8384156 -0.6939483 3.154835 -0.8502774 -0.7937962 2.0089352 -3.287462 -0.39050326 0.5994184 0.8631386 2.0223212 2.1629896 0.095860936 -2.4177046 0.18686529 -0.5225541 1.3998653 1.794411 -3.249085 0.39253336 0.7701784
ACLC -2.5856352 -0.7340565 1.2916038 -2.471637 1.1230123 -0.080245525 1.5255098 -1.048897 1.285943 2.9207058 -0.18230467 -2.1536353 -2.8753781 -0.6915343 -3.1559308 1.0009714 3.2735717 -0.82222015 3.0585399 2.3718214 -1.099482 0.83586884 1.8725183 -2.701369 2.3705795 -3.7296686 1.0536025 0.72954845 -0.26140615 0.6086634 0.2007756 0.052509747 -0.33543074 -1.4151244 -3.1887338 3.5974703 -3.043109 2.1872725 0.48818955 -1.797832 -4.5938187 1.5003221 1.4698788 -0.63343406 -1.078054 1.234673 2.8621736 1.6206416 -1.8439046 -1.268133 -0.43845204 2.7608492 1.4052681 -0.49687377 -1.1950303 -2.1214328 -1.8364669 1.2618896 -2.2034853 -0.14028716 -1.0343572 -1.8064456 -0.07427767 0.35241848
AADV -2.7180347 0.3369797 0.6565483 -0.89667934 3.3317537 -1.509541 -0.3927332 2.1478136 -1.0548759 -1.8259699 -2.2804427 0.05179161 -0.8598616 -2.156064 -3.2454207 0.27582693 0.11388695 -2.3439515 0.3335829 0.73675585 -0.12155251 0.3239157 -2.5388217 -1.1823446 1.5747411 -4.4961166 1.3834901 3.0557806 -0.8345829 -0.033662535 -0.22582221 0.31624982 -2.241211 1.335526 -0.32068375 1.4395163 0.6887241 -0.72300017 0.47807166 1.5665115 -2.473722 1.8112133 -1.2873924 -0.7436118 -1.1352824 1.4054952 2.897813 -1.2554783 -2.6982646 -1.7124884 -1.3479135 -2.1460192 1.6712365 -2.4785945 1.2814056 -0.56906605 -3.6000347 4.70565 0.086580545 -1.8753102 1.5809361 -0.2314046 -1.5418922 -1.9377348
ABYF -1.0431492 0.72863156 0.14469405 -3.819376 -0.4224909 3.283327 1.7194769 0.6475584 -0.75763667 -0.6785717 -0.37488478 0.73126614 0.4198894 1.8863853 -0.47092357 -1.7587404 -0.14994791 -1.5973856 1.1383101 1.433674 1.7360643 -3.1470823 0.6558529 1.3252153 -0.054490354 -2.5378096 -1.283646 2.9363048 -0.1292467 -0.44380406 1.756005 0.37906092 -1.7350578 0.9804691 -0.82545793 1.3061073 -1.5545324 -0.7385907 0.77259046 -3.3608665 -3.280752 0.646572 3.4863045 -2.4656868 -1.2455388 -2.5997517 -1.0345038 -0.2018612 -2.281215 -2.899749 -2.1423411 -1.1075357 2.7345066 0.73901284 0.77542657 0.21949273 -2.2512858 1.6433977 -0.4440289 2.2069018 1.3902124 -1.7753706 -1.5885001 -0.11883698
AAHX -0.7390636 1.3668473 -2.3299727 1.5831702 -0.5868206 0.19343118 -0.5091268 1.4628754 -3.0377808 0.67280006 -4.2978168 -0.4218215 -0.26823372 1.9181323 -1.967119 1.034075 -2.5172894 -0.7961411 -1.3916899 -2.2037108 -0.005418551 1.3089825 -1.2374867 0.28816384 0.0010489047 0.094753385 -0.64285135 -0.59696907 -1.119115 -1.1169659 -2.5971532 0.023042107 0.24707083 -0.29215705 1.8620445 2.4100435 -2.6838515 -1.3653473 3.3854067 4.2829757 -1.8468456 1.324919 -2.3148427 -1.0882125 4.0603285 3.4358454 2.0090823 4.2844787 0.55447394 -0.0052440544 2.1804242 1.9749002 -5.5371847 -0.21847251 4.0470624 0.011433843 -0.2929185 1.4458656 3.9426587 1.3220898 0.7994741 -0.41720226 -1.625555 3.360609
AAID 0.9142663 1.4159307 -1.5503725 -0.5965124 -0.949523 2.070625 0.016687369 0.90977836 -1.3065798 -1.6924617 -1.0493548 1.454297 -1.945154 0.16215648 0.2336328 0.12848845 1.2029473 -4.6162615 4.5249352 -0.50234336 -4.622444 0.61341566 1.4704145 0.68945575 2.5422165 0.5350873 -0.29976076 -0.1657251 -2.1441827 -3.4374838 -2.3523607 -0.8055245 -0.14732057 -3.2249095 1.357672 2.9111593 -3.9784384 -0.19709605 0.40117761 -1.3190023 -1.3048788 0.33818322 -0.90365624 -0.55248195 -0.29618505 2.2553687 0.63707685 1.3829038 0.6101363 -1.4090462 0.80518794 -0.2896959 -2.976231 0.41720378 2.9151764 -1.8257514 -2.840775 0.4956941 0.35377866 -0.80567455 0.6343484 -2.7204733 1.838657 2.9105754
AAAB 0.44781062 2.1239076 -0.68229645 0.3463662 1.0958174 -0.38094246 2.0197544 0.96546835 -1.2648798 1.947722 -1.1363653 1.0259655 -0.53089106 5.113394 -3.4040568 3.6106277 0.27075812 1.4941741 -1.2463813 -0.14693269 -0.34299186 -2.5073035 -3.013034 0.5520637 1.022716 -2.1659772 2.0531883 3.0322955 0.97974044 0.43854588 0.35944995 1.3987937 1.6080139 0.15558155 0.013868794 1.0044019 -1.1848863 -0.5916565 1.1393428 -1.5686314 -0.87863237 -0.36338744 1.6820803 1.7646728 0.68286043 1.4636655 2.6095116 3.9574883 -1.2471403 -0.40072158 1.1216923 1.250217 -4.3969398 -2.7665474 -0.9773153 0.9536179 -3.1818242 1.0071297 0.26081744 2.106441 -0.28382143 1.3183477 2.067632 -0.50690204
AAGQ 0.4481591 2.0361433 -1.3403646 -0.50427634 2.2966135 -0.5589121 0.48060417 -0.33877978 -2.1560736 2.512733 -2.81313 0.49002132 -0.847749 6.236801 -2.7306228 2.7018402 -0.80767536 2.0259113 -1.9884542 -1.5233544 -0.71627337 -2.2860749 -2.8194754 2.0055192 0.8606559 -0.16874696 1.8656315 0.74278486 0.8696362 -1.861355 -0.8478795 2.122393 3.3528967 0.41660923 0.5619657 -1.0957181 -1.2570729 -1.3497204 2.6332166 -0.18832803 -0.53143936 0.352324 -0.8959696 0.40848404 1.020329 1.5498307 3.099507 5.0435705 -1.8489724 -0.41701967 0.7460942 1.56141 -5.882807 -0.8589226 -1.2526095 -0.10027285 -1.6545284 2.0926735 0.5123409 1.4372612 0.32145908 1.2920866 1.2381723 -1.0810131
